<?xml version="1.0"?>
<opencv_storage>
<cascade>
  <stageType>BOOST</stageType>
  <featureType>HAAR</featureType>
  <height>48</height>
  <width>48</width>
  <stageParams>
    <boostType>GAB</boostType>
    <minHitRate>9.9900001287460327e-01</minHitRate>
    <maxFalseAlarm>5.0000000000000000e-01</maxFalseAlarm>
    <weightTrimRate>9.4999999999999996e-01</weightTrimRate>
    <maxDepth>1</maxDepth>
    <maxWeakCount>100</maxWeakCount></stageParams>
  <featureParams>
    <maxCatCount>0</maxCatCount>
    <featSize>1</featSize>
    <mode>BASIC</mode></featureParams>
  <stageNum>20</stageNum>
  <stages>
    <!-- stage 0 -->
    <_>
      <maxWeakCount>6</maxWeakCount>
      <stageThreshold>-1.5936809778213501e+00</stageThreshold>
      <weakClassifiers>
        <_>
          <internalNodes>
            0 -1 70 8.1840739585459232e-04</internalNodes>
          <leafValues>
            -9.6626508235931396e-01 6.7594939470291138e-01</leafValues></_>
        <_>
          <internalNodes>
            0 -1 162 -2.8273444622755051e-03</internalNodes>
          <leafValues>
            5.4107683897018433e-01 -8.9437371492385864e-01</leafValues></_>
        <_>
          <internalNodes>
            0 -1 161 -2.2335859830491245e-04</internalNodes>
          <leafValues>
            4.0757212042808533e-01 -9.8436963558197021e-01</leafValues></_>
        <_>
          <internalNodes>
            0 -1 50 6.5883412025868893e-04</internalNodes>
          <leafValues>
            -8.9366728067398071e-01 4.2026445269584656e-01</leafValues></_>
        <_>
          <internalNodes>
            0 -1 71 -1.8818143871612847e-04</internalNodes>
          <leafValues>
            3.9595621824264526e-01 -8.1803107261657715e-01</leafValues></_>
        <_>
          <internalNodes>
            0 -1 217 1.4693709090352058e-04</internalNodes>
          <leafValues>
            3.1358793377876282e-01 -8.9362293481826782e-01</leafValues></_></weakClassifiers></_>
    <!-- stage 1 -->
    <_>
      <maxWeakCount>10</maxWeakCount>
      <stageThreshold>-2.1793487071990967e+00</stageThreshold>
      <weakClassifiers>
        <_>
          <internalNodes>
            0 -1 32 1.0860865004360676e-03</internalNodes>
          <leafValues>
            -9.2553192377090454e-01 6.1111110448837280e-01</leafValues></_>
        <_>
          <internalNodes>
            0 -1 124 5.0891451537609100e-03</internalNodes>
          <leafValues>
            -9.0051871538162231e-01 3.7711527943611145e-01</leafValues></_>
        <_>
          <internalNodes>
            0 -1 220 -6.9244473706930876e-04</internalNodes>
          <leafValues>
            3.3355405926704407e-01 -9.2002320289611816e-01</leafValues></_>
        <_>
          <internalNodes>
            0 -1 4 1.9166506826877594e-02</internalNodes>
          <leafValues>
            -5.2468198537826538e-01 6.5409356355667114e-01</leafValues></_>
        <_>
          <internalNodes>
            0 -1 111 -3.0936795519664884e-04</internalNodes>
          <leafValues>
            -8.7037372589111328e-01 3.1984725594520569e-01</leafValues></_>
        <_>
          <internalNodes>
            0 -1 110 6.2114493630360812e-05</internalNodes>
          <leafValues>
            -8.3656281232833862e-01 2.9255855083465576e-01</leafValues></_>
        <_>
          <internalNodes>
            0 -1 133 9.6166731964331120e-06</internalNodes>
          <leafValues>
            -8.2497709989547729e-01 2.5280818343162537e-01</leafValues></_>
        <_>
          <internalNodes>
            0 -1 121 4.4202590361237526e-03</internalNodes>
          <leafValues>
            2.5901448726654053e-01 -9.3786966800689697e-01</leafValues></_>
        <_>
          <internalNodes>
            0 -1 256 -5.9806667268276215e-03</internalNodes>
          <leafValues>
            6.7876136302947998e-01 -4.3883237242698669e-01</leafValues></_>
        <_>
          <internalNodes>
            0 -1 122 3.6061948776477948e-05</internalNodes>
          <leafValues>
            -9.4137161970138550e-01 2.5749844312667847e-01</leafValues></_></weakClassifiers></_>
    <!-- stage 2 -->
    <_>
      <maxWeakCount>4</maxWeakCount>
      <stageThreshold>-9.2692738771438599e-01</stageThreshold>
      <weakClassifiers>
        <_>
          <internalNodes>
            0 -1 238 -3.2120669493451715e-04</internalNodes>
          <leafValues>
            5.8676350116729736e-01 -9.0581715106964111e-01</leafValues></_>
        <_>
          <internalNodes>
            0 -1 48 5.1532743964344263e-04</internalNodes>
          <leafValues>
            -8.8884633779525757e-01 3.5881635546684265e-01</leafValues></_>
        <_>
          <internalNodes>
            0 -1 205 -2.0034294720971957e-05</internalNodes>
          <leafValues>
            3.8299381732940674e-01 -7.3015135526657104e-01</leafValues></_>
        <_>
          <internalNodes>
            0 -1 54 -1.3254125369712710e-03</internalNodes>
          <leafValues>
            -8.2999759912490845e-01 3.5022476315498352e-01</leafValues></_></weakClassifiers></_>
    <!-- stage 3 -->
    <_>
      <maxWeakCount>9</maxWeakCount>
      <stageThreshold>-1.0500849485397339e+00</stageThreshold>
      <weakClassifiers>
        <_>
          <internalNodes>
            0 -1 39 -4.3741270201280713e-04</internalNodes>
          <leafValues>
            5.6558060646057129e-01 -6.8734490871429443e-01</leafValues></_>
        <_>
          <internalNodes>
            0 -1 38 -1.9562691450119019e-03</internalNodes>
          <leafValues>
            -9.2068165540695190e-01 3.4711417555809021e-01</leafValues></_>
        <_>
          <internalNodes>
            0 -1 243 -1.0564582771621644e-04</internalNodes>
          <leafValues>
            2.5446146726608276e-01 -8.6492466926574707e-01</leafValues></_>
        <_>
          <internalNodes>
            0 -1 192 1.9125963444821537e-04</internalNodes>
          <leafValues>
            2.4571289122104645e-01 -8.3807724714279175e-01</leafValues></_>
        <_>
          <internalNodes>
            0 -1 225 -1.5919760335236788e-04</internalNodes>
          <leafValues>
            -7.5444871187210083e-01 2.5637418031692505e-01</leafValues></_>
        <_>
          <internalNodes>
            0 -1 193 1.1180287227034569e-02</internalNodes>
          <leafValues>
            2.4534498155117035e-01 -8.4737151861190796e-01</leafValues></_>
        <_>
          <internalNodes>
            0 -1 96 1.3659874093718827e-04</internalNodes>
          <leafValues>
            -8.3419549465179443e-01 1.7701181769371033e-01</leafValues></_>
        <_>
          <internalNodes>
            0 -1 245 -2.9312772676348686e-04</internalNodes>
          <leafValues>
            2.8216919302940369e-01 -7.5742989778518677e-01</leafValues></_>
        <_>
          <internalNodes>
            0 -1 154 1.0959941428154707e-03</internalNodes>
          <leafValues>
            -7.9921662807464600e-01 1.8958358466625214e-01</leafValues></_></weakClassifiers></_>
    <!-- stage 4 -->
    <_>
      <maxWeakCount>10</maxWeakCount>
      <stageThreshold>-1.6183818578720093e+00</stageThreshold>
      <weakClassifiers>
        <_>
          <internalNodes>
            0 -1 85 2.5272270431742072e-04</internalNodes>
          <leafValues>
            -9.2334496974945068e-01 5.0647372007369995e-01</leafValues></_>
        <_>
          <internalNodes>
            0 -1 253 -1.8819559365510941e-02</internalNodes>
          <leafValues>
            6.4363563060760498e-01 -4.6365645527839661e-01</leafValues></_>
        <_>
          <internalNodes>
            0 -1 204 5.9617683291435242e-04</internalNodes>
          <leafValues>
            3.1487300992012024e-01 -8.6197942495346069e-01</leafValues></_>
        <_>
          <internalNodes>
            0 -1 130 -3.4600794315338135e-03</internalNodes>
          <leafValues>
            -8.1173461675643921e-01 2.8437307476997375e-01</leafValues></_>
        <_>
          <internalNodes>
            0 -1 135 7.0557478466071188e-05</internalNodes>
          <leafValues>
            -9.1552072763442993e-01 2.4295762181282043e-01</leafValues></_>
        <_>
          <internalNodes>
            0 -1 234 -4.0894607082009315e-05</internalNodes>
          <leafValues>
            1.9728392362594604e-01 -8.4360194206237793e-01</leafValues></_>
        <_>
          <internalNodes>
            0 -1 177 1.9093302544206381e-03</internalNodes>
          <leafValues>
            3.5130691528320312e-01 -7.2261124849319458e-01</leafValues></_>
        <_>
          <internalNodes>
            0 -1 232 2.5821555755101144e-04</internalNodes>
          <leafValues>
            1.5993627905845642e-01 -9.3674641847610474e-01</leafValues></_>
        <_>
          <internalNodes>
            0 -1 89 -1.9467743113636971e-03</internalNodes>
          <leafValues>
            1.8901343643665314e-01 -8.5827839374542236e-01</leafValues></_>
        <_>
          <internalNodes>
            0 -1 123 1.6225063518504612e-05</internalNodes>
          <leafValues>
            -9.3841660022735596e-01 1.6586890816688538e-01</leafValues></_></weakClassifiers></_>
    <!-- stage 5 -->
    <_>
      <maxWeakCount>9</maxWeakCount>
      <stageThreshold>-1.5051349401473999e+00</stageThreshold>
      <weakClassifiers>
        <_>
          <internalNodes>
            0 -1 246 -2.1696340991184115e-04</internalNodes>
          <leafValues>
            4.9076923727989197e-01 -7.9333335161209106e-01</leafValues></_>
        <_>
          <internalNodes>
            0 -1 80 8.9333532378077507e-03</internalNodes>
          <leafValues>
            -6.2546992301940918e-01 4.1986110806465149e-01</leafValues></_>
        <_>
          <internalNodes>
            0 -1 113 3.3371884455846157e-06</internalNodes>
          <leafValues>
            -8.9682310819625854e-01 2.9962670803070068e-01</leafValues></_>
        <_>
          <internalNodes>
            0 -1 51 -1.5433046501129866e-03</internalNodes>
          <leafValues>
            -8.7075072526931763e-01 2.2675086557865143e-01</leafValues></_>
        <_>
          <internalNodes>
            0 -1 43 2.2199940576683730e-04</internalNodes>
          <leafValues>
            2.0298726856708527e-01 -8.7690192461013794e-01</leafValues></_>
        <_>
          <internalNodes>
            0 -1 169 -2.0613810920622200e-04</internalNodes>
          <leafValues>
            1.9983682036399841e-01 -9.6944248676300049e-01</leafValues></_>
        <_>
          <internalNodes>
            0 -1 67 6.4535342971794307e-05</internalNodes>
          <leafValues>
            -8.5481399297714233e-01 2.0755478739738464e-01</leafValues></_>
        <_>
          <internalNodes>
            0 -1 1 4.9867685884237289e-03</internalNodes>
          <leafValues>
            -4.1494774818420410e-01 5.6415146589279175e-01</leafValues></_>
        <_>
          <internalNodes>
            0 -1 255 -5.0489470595493913e-05</internalNodes>
          <leafValues>
            2.9052382707595825e-01 -7.8063672780990601e-01</leafValues></_></weakClassifiers></_>
    <!-- stage 6 -->
    <_>
      <maxWeakCount>10</maxWeakCount>
      <stageThreshold>-1.1623017787933350e+00</stageThreshold>
      <weakClassifiers>
        <_>
          <internalNodes>
            0 -1 66 -2.7104548644274473e-04</internalNodes>
          <leafValues>
            -7.8289473056793213e-01 4.9228394031524658e-01</leafValues></_>
        <_>
          <internalNodes>
            0 -1 146 5.8561228797771037e-05</internalNodes>
          <leafValues>
            -7.4269986152648926e-01 3.2669267058372498e-01</leafValues></_>
        <_>
          <internalNodes>
            0 -1 2 1.7049375921487808e-02</internalNodes>
          <leafValues>
            -4.0774470567703247e-01 6.1966133117675781e-01</leafValues></_>
        <_>
          <internalNodes>
            0 -1 86 -7.9626910155639052e-04</internalNodes>
          <leafValues>
            -8.5036164522171021e-01 2.7297562360763550e-01</leafValues></_>
        <_>
          <internalNodes>
            0 -1 25 6.1873476952314377e-03</internalNodes>
          <leafValues>
            2.3337981104850769e-01 -7.9325830936431885e-01</leafValues></_>
        <_>
          <internalNodes>
            0 -1 114 2.4087302153930068e-04</internalNodes>
          <leafValues>
            -9.8853582143783569e-01 1.4664830267429352e-01</leafValues></_>
        <_>
          <internalNodes>
            0 -1 244 9.8861651495099068e-03</internalNodes>
          <leafValues>
            -3.4088152647018433e-01 6.5393066406250000e-01</leafValues></_>
        <_>
          <internalNodes>
            0 -1 222 -2.8919189935550094e-04</internalNodes>
          <leafValues>
            1.9553880393505096e-01 -8.7768089771270752e-01</leafValues></_>
        <_>
          <internalNodes>
            0 -1 136 6.4916966948658228e-05</internalNodes>
          <leafValues>
            -8.3351051807403564e-01 1.8289931118488312e-01</leafValues></_>
        <_>
          <internalNodes>
            0 -1 183 7.4048456735908985e-04</internalNodes>
          <leafValues>
            2.1282941102981567e-01 -7.8632247447967529e-01</leafValues></_></weakClassifiers></_>
    <!-- stage 7 -->
    <_>
      <maxWeakCount>11</maxWeakCount>
      <stageThreshold>-1.2060949802398682e+00</stageThreshold>
      <weakClassifiers>
        <_>
          <internalNodes>
            0 -1 141 -7.4660463724285364e-04</internalNodes>
          <leafValues>
            4.6506386995315552e-01 -8.1412637233734131e-01</leafValues></_>
        <_>
          <internalNodes>
            0 -1 35 7.0147939026355743e-02</internalNodes>
          <leafValues>
            -3.5110765695571899e-01 6.1053329706192017e-01</leafValues></_>
        <_>
          <internalNodes>
            0 -1 132 3.7647598674084293e-06</internalNodes>
          <leafValues>
            -8.6753064393997192e-01 2.6680821180343628e-01</leafValues></_>
        <_>
          <internalNodes>
            0 -1 76 7.9739140346646309e-04</internalNodes>
          <leafValues>
            2.8424978256225586e-01 -6.3573616743087769e-01</leafValues></_>
        <_>
          <internalNodes>
            0 -1 97 3.3371884455846157e-06</internalNodes>
          <leafValues>
            -8.0338078737258911e-01 2.1107040345668793e-01</leafValues></_>
        <_>
          <internalNodes>
            0 -1 147 3.4076042538799811e-06</internalNodes>
          <leafValues>
            -7.4875640869140625e-01 1.8616005778312683e-01</leafValues></_>
        <_>
          <internalNodes>
            0 -1 65 -2.9734455165453255e-04</internalNodes>
          <leafValues>
            -7.6912862062454224e-01 2.1272526681423187e-01</leafValues></_>
        <_>
          <internalNodes>
            0 -1 242 -8.4215011156629771e-05</internalNodes>
          <leafValues>
            2.1536681056022644e-01 -7.5368607044219971e-01</leafValues></_>
        <_>
          <internalNodes>
            0 -1 36 -6.7422166466712952e-02</internalNodes>
          <leafValues>
            -7.6884597539901733e-01 2.4052740633487701e-01</leafValues></_>
        <_>
          <internalNodes>
            0 -1 229 -5.8719131629914045e-04</internalNodes>
          <leafValues>
            1.6337320208549500e-01 -8.5629063844680786e-01</leafValues></_>
        <_>
          <internalNodes>
            0 -1 34 4.9953907728195190e-04</internalNodes>
          <leafValues>
            -8.3645856380462646e-01 1.7516309022903442e-01</leafValues></_></weakClassifiers></_>
    <!-- stage 8 -->
    <_>
      <maxWeakCount>13</maxWeakCount>
      <stageThreshold>-1.5317225456237793e+00</stageThreshold>
      <weakClassifiers>
        <_>
          <internalNodes>
            0 -1 79 1.9059550249949098e-03</internalNodes>
          <leafValues>
            4.8125478625297546e-01 -7.8156995773315430e-01</leafValues></_>
        <_>
          <internalNodes>
            0 -1 258 -6.4444290474057198e-03</internalNodes>
          <leafValues>
            6.1686962842941284e-01 -3.5323604941368103e-01</leafValues></_>
        <_>
          <internalNodes>
            0 -1 52 2.1222740178927779e-04</internalNodes>
          <leafValues>
            -8.8398134708404541e-01 2.2989991307258606e-01</leafValues></_>
        <_>
          <internalNodes>
            0 -1 144 4.0230219019576907e-04</internalNodes>
          <leafValues>
            -7.8770756721496582e-01 1.8876621127128601e-01</leafValues></_>
        <_>
          <internalNodes>
            0 -1 216 1.4697166625410318e-04</internalNodes>
          <leafValues>
            2.2727571427822113e-01 -7.7068239450454712e-01</leafValues></_>
        <_>
          <internalNodes>
            0 -1 82 -4.6787917381152511e-04</internalNodes>
          <leafValues>
            2.5881913304328918e-01 -6.7006468772888184e-01</leafValues></_>
        <_>
          <internalNodes>
            0 -1 198 -3.7530569443333661e-06</internalNodes>
          <leafValues>
            2.1704706549644470e-01 -8.2253485918045044e-01</leafValues></_>
        <_>
          <internalNodes>
            0 -1 202 3.7876560818403959e-03</internalNodes>
          <leafValues>
            -6.1085009574890137e-01 2.3495773971080780e-01</leafValues></_>
        <_>
          <internalNodes>
            0 -1 187 -2.0039826631546021e-02</internalNodes>
          <leafValues>
            -7.2087460756301880e-01 1.9227010011672974e-01</leafValues></_>
        <_>
          <internalNodes>
            0 -1 251 -2.8370262589305639e-04</internalNodes>
          <leafValues>
            1.6703139245510101e-01 -7.3749381303787231e-01</leafValues></_>
        <_>
          <internalNodes>
            0 -1 125 4.0674508454685565e-06</internalNodes>
          <leafValues>
            -9.6046525239944458e-01 1.5864385664463043e-01</leafValues></_>
        <_>
          <internalNodes>
            0 -1 180 -1.0400684550404549e-04</internalNodes>
          <leafValues>
            2.0400263369083405e-01 -6.3937187194824219e-01</leafValues></_>
        <_>
          <internalNodes>
            0 -1 228 1.4328173710964620e-04</internalNodes>
          <leafValues>
            1.4243590831756592e-01 -9.2336463928222656e-01</leafValues></_></weakClassifiers></_>
    <!-- stage 9 -->
    <_>
      <maxWeakCount>15</maxWeakCount>
      <stageThreshold>-1.4711099863052368e+00</stageThreshold>
      <weakClassifiers>
        <_>
          <internalNodes>
            0 -1 166 7.6387933222576976e-04</internalNodes>
          <leafValues>
            5.8761060237884521e-01 -5.6170213222503662e-01</leafValues></_>
        <_>
          <internalNodes>
            0 -1 100 2.5610800366848707e-04</internalNodes>
          <leafValues>
            -8.6326962709426880e-01 2.3116879165172577e-01</leafValues></_>
        <_>
          <internalNodes>
            0 -1 31 4.2634613811969757e-02</internalNodes>
          <leafValues>
            2.5768485665321350e-01 -6.3979667425155640e-01</leafValues></_>
        <_>
          <internalNodes>
            0 -1 129 4.8173498362302780e-03</internalNodes>
          <leafValues>
            -5.3236919641494751e-01 3.1970155239105225e-01</leafValues></_>
        <_>
          <internalNodes>
            0 -1 57 -1.2749827001243830e-03</internalNodes>
          <leafValues>
            -8.2063657045364380e-01 1.5838918089866638e-01</leafValues></_>
        <_>
          <internalNodes>
            0 -1 117 5.1731634885072708e-03</internalNodes>
          <leafValues>
            1.5787875652313232e-01 -8.0572408437728882e-01</leafValues></_>
        <_>
          <internalNodes>
            0 -1 191 2.5603424292057753e-03</internalNodes>
          <leafValues>
            2.1023310720920563e-01 -6.4144796133041382e-01</leafValues></_>
        <_>
          <internalNodes>
            0 -1 72 -2.6227178750559688e-04</internalNodes>
          <leafValues>
            1.9741672277450562e-01 -7.2123408317565918e-01</leafValues></_>
        <_>
          <internalNodes>
            0 -1 101 4.3536158045753837e-04</internalNodes>
          <leafValues>
            -6.2572067975997925e-01 1.8025609850883484e-01</leafValues></_>
        <_>
          <internalNodes>
            0 -1 226 4.1333343833684921e-03</internalNodes>
          <leafValues>
            -3.1462320685386658e-01 4.2908287048339844e-01</leafValues></_>
        <_>
          <internalNodes>
            0 -1 190 -8.9069653768092394e-04</internalNodes>
          <leafValues>
            -7.0445781946182251e-01 1.7064134776592255e-01</leafValues></_>
        <_>
          <internalNodes>
            0 -1 184 6.7599348767544143e-06</internalNodes>
          <leafValues>
            -3.4504508972167969e-01 4.3291980028152466e-01</leafValues></_>
        <_>
          <internalNodes>
            0 -1 84 -1.3068047701381147e-04</internalNodes>
          <leafValues>
            -6.8628931045532227e-01 2.1612243354320526e-01</leafValues></_>
        <_>
          <internalNodes>
            0 -1 19 -7.8718352597206831e-05</internalNodes>
          <leafValues>
            2.6721316576004028e-01 -4.4823601841926575e-01</leafValues></_>
        <_>
          <internalNodes>
            0 -1 150 -1.3190030585974455e-03</internalNodes>
          <leafValues>
            -8.1360596418380737e-01 1.4155213534832001e-01</leafValues></_></weakClassifiers></_>
    <!-- stage 10 -->
    <_>
      <maxWeakCount>14</maxWeakCount>
      <stageThreshold>-1.2001371383666992e+00</stageThreshold>
      <weakClassifiers>
        <_>
          <internalNodes>
            0 -1 153 1.7639619763940573e-03</internalNodes>
          <leafValues>
            4.6897092461585999e-01 -6.0244649648666382e-01</leafValues></_>
        <_>
          <internalNodes>
            0 -1 5 9.2411693185567856e-03</internalNodes>
          <leafValues>
            -3.3917433023452759e-01 5.1841551065444946e-01</leafValues></_>
        <_>
          <internalNodes>
            0 -1 172 4.1621560230851173e-03</internalNodes>
          <leafValues>
            -5.8068966865539551e-01 2.6942220330238342e-01</leafValues></_>
        <_>
          <internalNodes>
            0 -1 218 1.1731797712855041e-04</internalNodes>
          <leafValues>
            2.0289751887321472e-01 -8.3951568603515625e-01</leafValues></_>
        <_>
          <internalNodes>
            0 -1 42 5.7776184985414147e-04</internalNodes>
          <leafValues>
            -8.9718866348266602e-01 1.1623442173004150e-01</leafValues></_>
        <_>
          <internalNodes>
            0 -1 111 -4.6477369323838502e-05</internalNodes>
          <leafValues>
            -6.6586750745773315e-01 2.0595914125442505e-01</leafValues></_>
        <_>
          <internalNodes>
            0 -1 254 1.3256460428237915e-02</internalNodes>
          <leafValues>
            -3.1317242980003357e-01 5.0259459018707275e-01</leafValues></_>
        <_>
          <internalNodes>
            0 -1 201 1.7466567805968225e-04</internalNodes>
          <leafValues>
            2.2883178293704987e-01 -5.8359336853027344e-01</leafValues></_>
        <_>
          <internalNodes>
            0 -1 95 5.3647981258109212e-04</internalNodes>
          <leafValues>
            -8.5414344072341919e-01 2.0262105762958527e-01</leafValues></_>
        <_>
          <internalNodes>
            0 -1 69 3.1424479675479233e-04</internalNodes>
          <leafValues>
            1.6792589426040649e-01 -7.6977968215942383e-01</leafValues></_>
        <_>
          <internalNodes>
            0 -1 99 9.1768142738146707e-06</internalNodes>
          <leafValues>
            -8.7162238359451294e-01 1.4347873628139496e-01</leafValues></_>
        <_>
          <internalNodes>
            0 -1 63 1.8809991161106154e-05</internalNodes>
          <leafValues>
            1.7099374532699585e-01 -7.2634309530258179e-01</leafValues></_>
        <_>
          <internalNodes>
            0 -1 98 1.5367502346634865e-03</internalNodes>
          <leafValues>
            -7.9202276468276978e-01 1.3221731781959534e-01</leafValues></_>
        <_>
          <internalNodes>
            0 -1 120 1.0985109955072403e-02</internalNodes>
          <leafValues>
            1.5735577046871185e-01 -7.0395427942276001e-01</leafValues></_></weakClassifiers></_>
    <!-- stage 11 -->
    <_>
      <maxWeakCount>16</maxWeakCount>
      <stageThreshold>-1.5140222311019897e+00</stageThreshold>
      <weakClassifiers>
        <_>
          <internalNodes>
            0 -1 59 8.4483536193147302e-04</internalNodes>
          <leafValues>
            4.1384389996528625e-01 -6.6942149400711060e-01</leafValues></_>
        <_>
          <internalNodes>
            0 -1 3 1.5390341170132160e-02</internalNodes>
          <leafValues>
            -3.0423939228057861e-01 5.4690533876419067e-01</leafValues></_>
        <_>
          <internalNodes>
            0 -1 55 -1.4699925668537617e-03</internalNodes>
          <leafValues>
            -8.5095328092575073e-01 2.5653001666069031e-01</leafValues></_>
        <_>
          <internalNodes>
            0 -1 165 4.3466637725941837e-04</internalNodes>
          <leafValues>
            -7.5412678718566895e-01 1.2977132201194763e-01</leafValues></_>
        <_>
          <internalNodes>
            0 -1 203 -1.0632730663928669e-05</internalNodes>
          <leafValues>
            2.4142295122146606e-01 -5.7519847154617310e-01</leafValues></_>
        <_>
          <internalNodes>
            0 -1 139 3.9814542105887085e-05</internalNodes>
          <leafValues>
            -8.7193608283996582e-01 1.2756706774234772e-01</leafValues></_>
        <_>
          <internalNodes>
            0 -1 236 1.7932638525962830e-02</internalNodes>
          <leafValues>
            -3.2492482662200928e-01 4.3021860718727112e-01</leafValues></_>
        <_>
          <internalNodes>
            0 -1 211 7.2479459049645811e-05</internalNodes>
          <leafValues>
            1.3234904408454895e-01 -9.0440660715103149e-01</leafValues></_>
        <_>
          <internalNodes>
            0 -1 170 1.0094407480210066e-03</internalNodes>
          <leafValues>
            -2.8761559724807739e-01 4.8962098360061646e-01</leafValues></_>
        <_>
          <internalNodes>
            0 -1 28 4.7331028326880187e-05</internalNodes>
          <leafValues>
            2.1217577159404755e-01 -6.3944441080093384e-01</leafValues></_>
        <_>
          <internalNodes>
            0 -1 195 1.7954914364963770e-03</internalNodes>
          <leafValues>
            -1.7573824524879456e-01 7.5709140300750732e-01</leafValues></_>
        <_>
          <internalNodes>
            0 -1 61 2.3398112971335649e-03</internalNodes>
          <leafValues>
            1.6044622659683228e-01 -8.3710300922393799e-01</leafValues></_>
        <_>
          <internalNodes>
            0 -1 29 -2.9550656676292419e-02</internalNodes>
          <leafValues>
            -6.4026486873626709e-01 2.0946034789085388e-01</leafValues></_>
        <_>
          <internalNodes>
            0 -1 194 -3.1484501960221678e-05</internalNodes>
          <leafValues>
            1.5291324257850647e-01 -6.7638534307479858e-01</leafValues></_>
        <_>
          <internalNodes>
            0 -1 137 -3.9303151424974203e-04</internalNodes>
          <leafValues>
            5.3610700368881226e-01 -2.5047707557678223e-01</leafValues></_>
        <_>
          <internalNodes>
            0 -1 158 3.9975647814571857e-04</internalNodes>
          <leafValues>
            -2.5954809784889221e-01 5.4308438301086426e-01</leafValues></_></weakClassifiers></_>
    <!-- stage 12 -->
    <_>
      <maxWeakCount>17</maxWeakCount>
      <stageThreshold>-1.1894025802612305e+00</stageThreshold>
      <weakClassifiers>
        <_>
          <internalNodes>
            0 -1 37 -1.1582046281546354e-03</internalNodes>
          <leafValues>
            -6.7547172307968140e-01 4.3370786309242249e-01</leafValues></_>
        <_>
          <internalNodes>
            0 -1 261 -9.6829906105995178e-03</internalNodes>
          <leafValues>
            5.9157401323318481e-01 -2.8974434733390808e-01</leafValues></_>
        <_>
          <internalNodes>
            0 -1 206 1.3922427024226636e-04</internalNodes>
          <leafValues>
            2.0767541229724884e-01 -7.3141521215438843e-01</leafValues></_>
        <_>
          <internalNodes>
            0 -1 33 3.3974341931752861e-04</internalNodes>
          <leafValues>
            1.5956059098243713e-01 -7.4746346473693848e-01</leafValues></_>
        <_>
          <internalNodes>
            0 -1 239 -2.9667364287888631e-05</internalNodes>
          <leafValues>
            1.6980476677417755e-01 -7.8767699003219604e-01</leafValues></_>
        <_>
          <internalNodes>
            0 -1 91 5.8611005079001188e-04</internalNodes>
          <leafValues>
            1.8837520480155945e-01 -6.0126900672912598e-01</leafValues></_>
        <_>
          <internalNodes>
            0 -1 248 -9.1360218357294798e-04</internalNodes>
          <leafValues>
            -6.7882567644119263e-01 1.7611099779605865e-01</leafValues></_>
        <_>
          <internalNodes>
            0 -1 163 5.0328252837061882e-04</internalNodes>
          <leafValues>
            -4.3821978569030762e-01 2.2507624328136444e-01</leafValues></_>
        <_>
          <internalNodes>
            0 -1 156 -1.0176013893214986e-04</internalNodes>
          <leafValues>
            3.7602606415748596e-01 -2.9999342560768127e-01</leafValues></_>
        <_>
          <internalNodes>
            0 -1 26 6.2979925132822245e-05</internalNodes>
          <leafValues>
            -6.0955017805099487e-01 2.1700404584407806e-01</leafValues></_>
        <_>
          <internalNodes>
            0 -1 27 4.7715151595184579e-05</internalNodes>
          <leafValues>
            2.9930195212364197e-01 -5.3650104999542236e-01</leafValues></_>
        <_>
          <internalNodes>
            0 -1 179 4.6092338743619621e-04</internalNodes>
          <leafValues>
            -3.0355903506278992e-01 3.6036467552185059e-01</leafValues></_>
        <_>
          <internalNodes>
            0 -1 116 5.5487630888819695e-03</internalNodes>
          <leafValues>
            1.4944337308406830e-01 -8.7893116474151611e-01</leafValues></_>
        <_>
          <internalNodes>
            0 -1 134 3.5820503399008885e-06</internalNodes>
          <leafValues>
            -8.1155693531036377e-01 1.0359168797731400e-01</leafValues></_>
        <_>
          <internalNodes>
            0 -1 181 -7.1756000397726893e-04</internalNodes>
          <leafValues>
            1.7636501789093018e-01 -5.8786219358444214e-01</leafValues></_>
        <_>
          <internalNodes>
            0 -1 49 -2.1364519372582436e-02</internalNodes>
          <leafValues>
            5.4382413625717163e-01 -2.3127049207687378e-01</leafValues></_>
        <_>
          <internalNodes>
            0 -1 103 2.3054258897900581e-02</internalNodes>
          <leafValues>
            -2.8085213899612427e-01 5.3152930736541748e-01</leafValues></_></weakClassifiers></_>
    <!-- stage 13 -->
    <_>
      <maxWeakCount>17</maxWeakCount>
      <stageThreshold>-1.1048992872238159e+00</stageThreshold>
      <weakClassifiers>
        <_>
          <internalNodes>
            0 -1 109 3.3485507628938649e-06</internalNodes>
          <leafValues>
            -7.4093264341354370e-01 3.8592749834060669e-01</leafValues></_>
        <_>
          <internalNodes>
            0 -1 40 5.1070610061287880e-04</internalNodes>
          <leafValues>
            -6.4926642179489136e-01 2.3557275533676147e-01</leafValues></_>
        <_>
          <internalNodes>
            0 -1 199 1.7917822115123272e-03</internalNodes>
          <leafValues>
            -3.9075550436973572e-01 3.9621779322624207e-01</leafValues></_>
        <_>
          <internalNodes>
            0 -1 188 7.8939576633274555e-04</internalNodes>
          <leafValues>
            2.0643186569213867e-01 -6.4211857318878174e-01</leafValues></_>
        <_>
          <internalNodes>
            0 -1 178 -6.2091071158647537e-03</internalNodes>
          <leafValues>
            -7.4292361736297607e-01 2.0682057738304138e-01</leafValues></_>
        <_>
          <internalNodes>
            0 -1 14 6.8676117807626724e-03</internalNodes>
          <leafValues>
            -2.0093227922916412e-01 7.7586209774017334e-01</leafValues></_>
        <_>
          <internalNodes>
            0 -1 92 8.8016618974506855e-04</internalNodes>
          <leafValues>
            -7.4765813350677490e-01 1.5070439875125885e-01</leafValues></_>
        <_>
          <internalNodes>
            0 -1 105 7.8904302790760994e-03</internalNodes>
          <leafValues>
            1.3837429881095886e-01 -7.2139161825180054e-01</leafValues></_>
        <_>
          <internalNodes>
            0 -1 237 -3.6465428365772823e-06</internalNodes>
          <leafValues>
            1.5896992385387421e-01 -6.4898866415023804e-01</leafValues></_>
        <_>
          <internalNodes>
            0 -1 173 4.7533161705359817e-04</internalNodes>
          <leafValues>
            1.6773705184459686e-01 -7.9896616935729980e-01</leafValues></_>
        <_>
          <internalNodes>
            0 -1 249 -2.6827258989214897e-04</internalNodes>
          <leafValues>
            1.5214014053344727e-01 -6.1361771821975708e-01</leafValues></_>
        <_>
          <internalNodes>
            0 -1 13 -1.3819881714880466e-03</internalNodes>
          <leafValues>
            7.0468229055404663e-01 -1.8922723829746246e-01</leafValues></_>
        <_>
          <internalNodes>
            0 -1 214 -1.8018605187535286e-02</internalNodes>
          <leafValues>
            -5.4070669412612915e-01 2.1816761791706085e-01</leafValues></_>
        <_>
          <internalNodes>
            0 -1 223 -1.1372829321771860e-03</internalNodes>
          <leafValues>
            2.0506253838539124e-01 -6.9735401868820190e-01</leafValues></_>
        <_>
          <internalNodes>
            0 -1 8 4.5898032840341330e-04</internalNodes>
          <leafValues>
            -2.1442963182926178e-01 6.6654759645462036e-01</leafValues></_>
        <_>
          <internalNodes>
            0 -1 209 -8.9336142991669476e-05</internalNodes>
          <leafValues>
            1.7066943645477295e-01 -8.8783758878707886e-01</leafValues></_>
        <_>
          <internalNodes>
            0 -1 140 2.7837109519168735e-04</internalNodes>
          <leafValues>
            -2.8320899605751038e-01 4.2150649428367615e-01</leafValues></_></weakClassifiers></_>
    <!-- stage 14 -->
    <_>
      <maxWeakCount>19</maxWeakCount>
      <stageThreshold>-1.2261078357696533e+00</stageThreshold>
      <weakClassifiers>
        <_>
          <internalNodes>
            0 -1 44 4.5192684046924114e-04</internalNodes>
          <leafValues>
            4.1666665673255920e-01 -6.2500000000000000e-01</leafValues></_>
        <_>
          <internalNodes>
            0 -1 41 1.2451416296244133e-05</internalNodes>
          <leafValues>
            -8.0667895078659058e-01 2.1937638521194458e-01</leafValues></_>
        <_>
          <internalNodes>
            0 -1 247 2.8122002258896828e-03</internalNodes>
          <leafValues>
            -3.5994109511375427e-01 3.9626356959342957e-01</leafValues></_>
        <_>
          <internalNodes>
            0 -1 56 1.9143303507007658e-04</internalNodes>
          <leafValues>
            -5.9705781936645508e-01 1.9649614393711090e-01</leafValues></_>
        <_>
          <internalNodes>
            0 -1 207 -1.1881868704222143e-04</internalNodes>
          <leafValues>
            1.8060995638370514e-01 -7.0989489555358887e-01</leafValues></_>
        <_>
          <internalNodes>
            0 -1 231 -2.1339597878977656e-04</internalNodes>
          <leafValues>
            -6.8205875158309937e-01 1.5116973221302032e-01</leafValues></_>
        <_>
          <internalNodes>
            0 -1 119 3.2783318602014333e-06</internalNodes>
          <leafValues>
            -4.8547312617301941e-01 2.6685467362403870e-01</leafValues></_>
        <_>
          <internalNodes>
            0 -1 30 -9.3955139163881540e-05</internalNodes>
          <leafValues>
            3.2128742337226868e-01 -3.5555002093315125e-01</leafValues></_>
        <_>
          <internalNodes>
            0 -1 88 -2.3467326536774635e-03</internalNodes>
          <leafValues>
            -6.7444849014282227e-01 1.2690684199333191e-01</leafValues></_>
        <_>
          <internalNodes>
            0 -1 257 -3.6340946098789573e-04</internalNodes>
          <leafValues>
            4.1590633988380432e-01 -2.6501053571701050e-01</leafValues></_>
        <_>
          <internalNodes>
            0 -1 7 1.2053789105266333e-03</internalNodes>
          <leafValues>
            -1.9288875162601471e-01 5.0361686944961548e-01</leafValues></_>
        <_>
          <internalNodes>
            0 -1 260 -3.7344675511121750e-03</internalNodes>
          <leafValues>
            7.0888537168502808e-01 -1.4086031913757324e-01</leafValues></_>
        <_>
          <internalNodes>
            0 -1 128 -1.3878557365387678e-03</internalNodes>
          <leafValues>
            1.5440976619720459e-01 -7.6656222343444824e-01</leafValues></_>
        <_>
          <internalNodes>
            0 -1 108 -5.9707497712224722e-04</internalNodes>
          <leafValues>
            -8.0782365798950195e-01 1.0474263876676559e-01</leafValues></_>
        <_>
          <internalNodes>
            0 -1 219 -1.7364409359288402e-05</internalNodes>
          <leafValues>
            2.0625662803649902e-01 -5.1248139142990112e-01</leafValues></_>
        <_>
          <internalNodes>
            0 -1 118 -5.6637468514963984e-04</internalNodes>
          <leafValues>
            -7.5494241714477539e-01 1.2099802494049072e-01</leafValues></_>
        <_>
          <internalNodes>
            0 -1 221 2.3852517188061029e-05</internalNodes>
          <leafValues>
            -2.3570539057254791e-01 4.5364624261856079e-01</leafValues></_>
        <_>
          <internalNodes>
            0 -1 83 1.4090919648879208e-05</internalNodes>
          <leafValues>
            -6.4292138814926147e-01 1.6782256960868835e-01</leafValues></_>
        <_>
          <internalNodes>
            0 -1 93 -2.4478766135871410e-04</internalNodes>
          <leafValues>
            -7.1746051311492920e-01 1.3508780300617218e-01</leafValues></_></weakClassifiers></_>
    <!-- stage 15 -->
    <_>
      <maxWeakCount>16</maxWeakCount>
      <stageThreshold>-1.0528953075408936e+00</stageThreshold>
      <weakClassifiers>
        <_>
          <internalNodes>
            0 -1 171 1.2908128555864096e-03</internalNodes>
          <leafValues>
            4.6029174327850342e-01 -4.5901638269424438e-01</leafValues></_>
        <_>
          <internalNodes>
            0 -1 77 1.8183555221185088e-04</internalNodes>
          <leafValues>
            -8.7040656805038452e-01 1.6201792657375336e-01</leafValues></_>
        <_>
          <internalNodes>
            0 -1 107 2.0323347416706383e-04</internalNodes>
          <leafValues>
            -4.8781910538673401e-01 2.3356615006923676e-01</leafValues></_>
        <_>
          <internalNodes>
            0 -1 12 1.4171118382364511e-03</internalNodes>
          <leafValues>
            -3.7061381340026855e-01 3.6816859245300293e-01</leafValues></_>
        <_>
          <internalNodes>
            0 -1 22 8.6338463006541133e-05</internalNodes>
          <leafValues>
            2.1096298098564148e-01 -5.5539381504058838e-01</leafValues></_>
        <_>
          <internalNodes>
            0 -1 185 -2.8690211474895477e-03</internalNodes>
          <leafValues>
            6.3500344753265381e-01 -1.9257807731628418e-01</leafValues></_>
        <_>
          <internalNodes>
            0 -1 233 -3.3103347050200682e-06</internalNodes>
          <leafValues>
            1.3018538057804108e-01 -8.3245122432708740e-01</leafValues></_>
        <_>
          <internalNodes>
            0 -1 68 7.4251031037420034e-05</internalNodes>
          <leafValues>
            1.3420851528644562e-01 -6.9802284240722656e-01</leafValues></_>
        <_>
          <internalNodes>
            0 -1 73 -1.2476468086242676e-01</internalNodes>
          <leafValues>
            -6.3239246606826782e-01 1.8842281401157379e-01</leafValues></_>
        <_>
          <internalNodes>
            0 -1 250 -1.0493927402421832e-04</internalNodes>
          <leafValues>
            9.1195724904537201e-02 -8.7892997264862061e-01</leafValues></_>
        <_>
          <internalNodes>
            0 -1 264 9.7225850913673639e-04</internalNodes>
          <leafValues>
            -1.9064669311046600e-01 6.4008820056915283e-01</leafValues></_>
        <_>
          <internalNodes>
            0 -1 164 7.6701790094375610e-03</internalNodes>
          <leafValues>
            -1.7481555044651031e-01 5.6202280521392822e-01</leafValues></_>
        <_>
          <internalNodes>
            0 -1 17 -7.6380826067179441e-04</internalNodes>
          <leafValues>
            3.7023848295211792e-01 -2.7517399191856384e-01</leafValues></_>
        <_>
          <internalNodes>
            0 -1 81 3.3986479975283146e-03</internalNodes>
          <leafValues>
            1.6276796162128448e-01 -7.0977848768234253e-01</leafValues></_>
        <_>
          <internalNodes>
            0 -1 138 9.5107767265290022e-04</internalNodes>
          <leafValues>
            -7.2442388534545898e-01 1.3197690248489380e-01</leafValues></_>
        <_>
          <internalNodes>
            0 -1 62 2.7668529655784369e-03</internalNodes>
          <leafValues>
            1.7601977288722992e-01 -6.0710555315017700e-01</leafValues></_></weakClassifiers></_>
    <!-- stage 16 -->
    <_>
      <maxWeakCount>15</maxWeakCount>
      <stageThreshold>-1.1148428916931152e+00</stageThreshold>
      <weakClassifiers>
        <_>
          <internalNodes>
            0 -1 151 6.1684253159910440e-04</internalNodes>
          <leafValues>
            -5.2188551425933838e-01 4.2594012618064880e-01</leafValues></_>
        <_>
          <internalNodes>
            0 -1 20 -3.8024345412850380e-03</internalNodes>
          <leafValues>
            -6.7320793867111206e-01 1.9085091352462769e-01</leafValues></_>
        <_>
          <internalNodes>
            0 -1 6 7.4064731597900391e-03</internalNodes>
          <leafValues>
            -2.8158947825431824e-01 4.2712676525115967e-01</leafValues></_>
        <_>
          <internalNodes>
            0 -1 106 -5.2511371904984117e-05</internalNodes>
          <leafValues>
            -6.5235894918441772e-01 1.7345578968524933e-01</leafValues></_>
        <_>
          <internalNodes>
            0 -1 186 -1.5768263256177306e-04</internalNodes>
          <leafValues>
            3.2664474844932556e-01 -3.4633785486221313e-01</leafValues></_>
        <_>
          <internalNodes>
            0 -1 213 1.4096833765506744e-03</internalNodes>
          <leafValues>
            -7.0087802410125732e-01 1.8597283959388733e-01</leafValues></_>
        <_>
          <internalNodes>
            0 -1 210 9.5893941761460155e-05</internalNodes>
          <leafValues>
            3.9774082601070404e-02 -8.3233618736267090e-01</leafValues></_>
        <_>
          <internalNodes>
            0 -1 58 4.8393922043032944e-04</internalNodes>
          <leafValues>
            1.1985505372285843e-01 -6.8573009967803955e-01</leafValues></_>
        <_>
          <internalNodes>
            0 -1 104 9.4637796282768250e-03</internalNodes>
          <leafValues>
            -1.6641743481159210e-01 6.3693469762802124e-01</leafValues></_>
        <_>
          <internalNodes>
            0 -1 203 -1.2416729077813216e-05</internalNodes>
          <leafValues>
            2.5591245293617249e-01 -4.7319456934928894e-01</leafValues></_>
        <_>
          <internalNodes>
            0 -1 263 -4.7627375461161137e-03</internalNodes>
          <leafValues>
            5.4032611846923828e-01 -1.8949036300182343e-01</leafValues></_>
        <_>
          <internalNodes>
            0 -1 18 -5.3419359028339386e-04</internalNodes>
          <leafValues>
            2.9263979196548462e-01 -3.4445315599441528e-01</leafValues></_>
        <_>
          <internalNodes>
            0 -1 127 1.0784876067191362e-03</internalNodes>
          <leafValues>
            -4.1761887073516846e-01 2.2532917559146881e-01</leafValues></_>
        <_>
          <internalNodes>
            0 -1 131 2.8815957193728536e-06</internalNodes>
          <leafValues>
            -7.3844927549362183e-01 1.3440513610839844e-01</leafValues></_>
        <_>
          <internalNodes>
            0 -1 53 -9.8979705944657326e-04</internalNodes>
          <leafValues>
            -6.9737017154693604e-01 1.2178883701562881e-01</leafValues></_></weakClassifiers></_>
    <!-- stage 17 -->
    <_>
      <maxWeakCount>17</maxWeakCount>
      <stageThreshold>-1.0598096847534180e+00</stageThreshold>
      <weakClassifiers>
        <_>
          <internalNodes>
            0 -1 159 7.0503156166523695e-05</internalNodes>
          <leafValues>
            4.8530721664428711e-01 -3.0398324131965637e-01</leafValues></_>
        <_>
          <internalNodes>
            0 -1 149 1.4812200970482081e-04</internalNodes>
          <leafValues>
            -3.8654154539108276e-01 3.0321413278579712e-01</leafValues></_>
        <_>
          <internalNodes>
            0 -1 9 3.8580452091991901e-03</internalNodes>
          <leafValues>
            -3.8037830591201782e-01 3.0839708447456360e-01</leafValues></_>
        <_>
          <internalNodes>
            0 -1 102 -2.6566172018647194e-03</internalNodes>
          <leafValues>
            5.6215798854827881e-01 -2.0909367501735687e-01</leafValues></_>
        <_>
          <internalNodes>
            0 -1 197 3.2856053439900279e-04</internalNodes>
          <leafValues>
            9.9672034382820129e-02 -9.4727402925491333e-01</leafValues></_>
        <_>
          <internalNodes>
            0 -1 46 -6.0988852055743337e-05</internalNodes>
          <leafValues>
            -6.5883547067642212e-01 1.2412537634372711e-01</leafValues></_>
        <_>
          <internalNodes>
            0 -1 227 8.7052476374083199e-06</internalNodes>
          <leafValues>
            -2.4623206257820129e-01 4.7264447808265686e-01</leafValues></_>
        <_>
          <internalNodes>
            0 -1 112 -1.1537962127476931e-03</internalNodes>
          <leafValues>
            -8.8058191537857056e-01 8.6163319647312164e-02</leafValues></_>
        <_>
          <internalNodes>
            0 -1 259 3.5342869523447007e-05</internalNodes>
          <leafValues>
            -2.9814982414245605e-01 3.1661227345466614e-01</leafValues></_>
        <_>
          <internalNodes>
            0 -1 240 1.0648243129253387e-02</internalNodes>
          <leafValues>
            -2.1649101376533508e-01 4.8130774497985840e-01</leafValues></_>
        <_>
          <internalNodes>
            0 -1 90 1.2000184506177902e-04</internalNodes>
          <leafValues>
            2.0152457058429718e-01 -4.9768689274787903e-01</leafValues></_>
        <_>
          <internalNodes>
            0 -1 143 -1.6980955842882395e-04</internalNodes>
          <leafValues>
            2.7825099229812622e-01 -3.7026804685592651e-01</leafValues></_>
        <_>
          <internalNodes>
            0 -1 0 -1.5404891222715378e-02</internalNodes>
          <leafValues>
            5.3049790859222412e-01 -2.1694162487983704e-01</leafValues></_>
        <_>
          <internalNodes>
            0 -1 148 -1.5924693434499204e-04</internalNodes>
          <leafValues>
            5.1380527019500732e-01 -1.9107405841350555e-01</leafValues></_>
        <_>
          <internalNodes>
            0 -1 160 4.0947656088974327e-05</internalNodes>
          <leafValues>
            -3.2779815793037415e-01 3.9582073688507080e-01</leafValues></_>
        <_>
          <internalNodes>
            0 -1 126 8.3533028373494744e-05</internalNodes>
          <leafValues>
            1.2930189073085785e-01 -8.1623417139053345e-01</leafValues></_>
        <_>
          <internalNodes>
            0 -1 60 -2.4611130356788635e-03</internalNodes>
          <leafValues>
            -5.1054257154464722e-01 2.0117895305156708e-01</leafValues></_></weakClassifiers></_>
    <!-- stage 18 -->
    <_>
      <maxWeakCount>22</maxWeakCount>
      <stageThreshold>-1.2391079664230347e+00</stageThreshold>
      <weakClassifiers>
        <_>
          <internalNodes>
            0 -1 168 2.9840745264664292e-04</internalNodes>
          <leafValues>
            4.4632768630981445e-01 -4.2382270097732544e-01</leafValues></_>
        <_>
          <internalNodes>
            0 -1 87 3.2848738133907318e-02</internalNodes>
          <leafValues>
            -2.3045188188552856e-01 4.9331858754158020e-01</leafValues></_>
        <_>
          <internalNodes>
            0 -1 115 1.3133836546330713e-05</internalNodes>
          <leafValues>
            -9.2973667383193970e-01 1.1236671358346939e-01</leafValues></_>
        <_>
          <internalNodes>
            0 -1 230 2.3389219131786376e-04</internalNodes>
          <leafValues>
            -3.4387359023094177e-01 2.6032730937004089e-01</leafValues></_>
        <_>
          <internalNodes>
            0 -1 224 -1.8961491878144443e-04</internalNodes>
          <leafValues>
            -6.7956340312957764e-01 1.4064481854438782e-01</leafValues></_>
        <_>
          <internalNodes>
            0 -1 152 -3.5080593079328537e-04</internalNodes>
          <leafValues>
            4.9356058239936829e-01 -2.0165726542472839e-01</leafValues></_>
        <_>
          <internalNodes>
            0 -1 167 2.6585138402879238e-04</internalNodes>
          <leafValues>
            -2.7302977442741394e-01 4.3360587954521179e-01</leafValues></_>
        <_>
          <internalNodes>
            0 -1 145 -9.9650991614907980e-04</internalNodes>
          <leafValues>
            3.4105947613716125e-01 -3.0224716663360596e-01</leafValues></_>
        <_>
          <internalNodes>
            0 -1 157 1.2471555965021253e-04</internalNodes>
          <leafValues>
            -3.1655409932136536e-01 3.3742722868919373e-01</leafValues></_>
        <_>
          <internalNodes>
            0 -1 94 7.0075364783406258e-04</internalNodes>
          <leafValues>
            1.8719933927059174e-01 -4.9761611223220825e-01</leafValues></_>
        <_>
          <internalNodes>
            0 -1 175 -6.6910062741953880e-05</internalNodes>
          <leafValues>
            4.2991152405738831e-01 -2.3892404139041901e-01</leafValues></_>
        <_>
          <internalNodes>
            0 -1 74 -3.6826549330726266e-04</internalNodes>
          <leafValues>
            -7.1468585729598999e-01 1.4791320264339447e-01</leafValues></_>
        <_>
          <internalNodes>
            0 -1 200 1.2957557919435203e-04</internalNodes>
          <leafValues>
            1.9371213018894196e-01 -4.3640559911727905e-01</leafValues></_>
        <_>
          <internalNodes>
            0 -1 15 -2.5801272131502628e-03</internalNodes>
          <leafValues>
            3.7136736512184143e-01 -2.7672091126441956e-01</leafValues></_>
        <_>
          <internalNodes>
            0 -1 47 -5.2952859550714493e-03</internalNodes>
          <leafValues>
            -5.8096414804458618e-01 2.1255184710025787e-01</leafValues></_>
        <_>
          <internalNodes>
            0 -1 174 -1.3484447845257819e-04</internalNodes>
          <leafValues>
            2.9778295755386353e-01 -3.5879585146903992e-01</leafValues></_>
        <_>
          <internalNodes>
            0 -1 155 -5.5942604376468807e-05</internalNodes>
          <leafValues>
            4.0258577466011047e-01 -2.1763359010219574e-01</leafValues></_>
        <_>
          <internalNodes>
            0 -1 252 -3.4561700886115432e-04</internalNodes>
          <leafValues>
            1.7694616317749023e-01 -6.4595997333526611e-01</leafValues></_>
        <_>
          <internalNodes>
            0 -1 122 3.4550459531601518e-05</internalNodes>
          <leafValues>
            -9.0044111013412476e-01 6.7830242216587067e-02</leafValues></_>
        <_>
          <internalNodes>
            0 -1 208 -5.7195476983906701e-05</internalNodes>
          <leafValues>
            2.8601023554801941e-01 -3.2143235206604004e-01</leafValues></_>
        <_>
          <internalNodes>
            0 -1 16 -3.7993807345628738e-03</internalNodes>
          <leafValues>
            6.4645975828170776e-01 -1.3678547739982605e-01</leafValues></_>
        <_>
          <internalNodes>
            0 -1 262 3.6970601649954915e-04</internalNodes>
          <leafValues>
            -1.4280730485916138e-01 5.5855214595794678e-01</leafValues></_></weakClassifiers></_>
    <!-- stage 19 -->
    <_>
      <maxWeakCount>20</maxWeakCount>
      <stageThreshold>-1.2768093347549438e+00</stageThreshold>
      <weakClassifiers>
        <_>
          <internalNodes>
            0 -1 21 -3.7341185361583484e-06</internalNodes>
          <leafValues>
            4.5423439145088196e-01 -3.0394431948661804e-01</leafValues></_>
        <_>
          <internalNodes>
            0 -1 24 1.8816503143170848e-05</internalNodes>
          <leafValues>
            -7.0456743240356445e-01 1.8845406174659729e-01</leafValues></_>
        <_>
          <internalNodes>
            0 -1 176 -3.5352651029825211e-02</internalNodes>
          <leafValues>
            -6.9370543956756592e-01 1.4479601383209229e-01</leafValues></_>
        <_>
          <internalNodes>
            0 -1 182 4.9166744574904442e-03</internalNodes>
          <leafValues>
            -3.3855295181274414e-01 3.5403054952621460e-01</leafValues></_>
        <_>
          <internalNodes>
            0 -1 45 -1.1852836178150028e-04</internalNodes>
          <leafValues>
            1.2906111776828766e-01 -6.7269313335418701e-01</leafValues></_>
        <_>
          <internalNodes>
            0 -1 215 1.4444885891862214e-04</internalNodes>
          <leafValues>
            1.1389981955289841e-01 -6.6834759712219238e-01</leafValues></_>
        <_>
          <internalNodes>
            0 -1 196 2.6485585840418935e-04</internalNodes>
          <leafValues>
            -6.3838952779769897e-01 1.2779100239276886e-01</leafValues></_>
        <_>
          <internalNodes>
            0 -1 142 -6.9602450821548700e-04</internalNodes>
          <leafValues>
            8.9188314974308014e-02 -8.8834124803543091e-01</leafValues></_>
        <_>
          <internalNodes>
            0 -1 184 2.9714394713664660e-06</internalNodes>
          <leafValues>
            -2.6173084974288940e-01 3.5388225317001343e-01</leafValues></_>
        <_>
          <internalNodes>
            0 -1 189 -4.1958987821999472e-06</internalNodes>
          <leafValues>
            3.3388289809226990e-01 -2.7952325344085693e-01</leafValues></_>
        <_>
          <internalNodes>
            0 -1 75 -3.2795709557831287e-04</internalNodes>
          <leafValues>
            -5.8001363277435303e-01 1.6728912293910980e-01</leafValues></_>
        <_>
          <internalNodes>
            0 -1 78 4.7895949683152139e-04</internalNodes>
          <leafValues>
            1.4694106578826904e-01 -7.1849572658538818e-01</leafValues></_>
        <_>
          <internalNodes>
            0 -1 10 -1.3277301331982017e-03</internalNodes>
          <leafValues>
            5.4236459732055664e-01 -2.1975810825824738e-01</leafValues></_>
        <_>
          <internalNodes>
            0 -1 139 2.4023018340812996e-05</internalNodes>
          <leafValues>
            -8.6571091413497925e-01 1.3419324159622192e-01</leafValues></_>
        <_>
          <internalNodes>
            0 -1 11 4.8513623187318444e-04</internalNodes>
          <leafValues>
            -1.8369260430335999e-01 5.9000766277313232e-01</leafValues></_>
        <_>
          <internalNodes>
            0 -1 64 1.1439786758273840e-03</internalNodes>
          <leafValues>
            -2.1947209537029266e-01 3.7527832388877869e-01</leafValues></_>
        <_>
          <internalNodes>
            0 -1 241 -8.3080130934831686e-06</internalNodes>
          <leafValues>
            1.3655245304107666e-01 -5.6191849708557129e-01</leafValues></_>
        <_>
          <internalNodes>
            0 -1 235 -5.8816792443394661e-04</internalNodes>
          <leafValues>
            -2.6351982355117798e-01 3.5293689370155334e-01</leafValues></_>
        <_>
          <internalNodes>
            0 -1 212 1.6429316019639373e-04</internalNodes>
          <leafValues>
            -2.3540672659873962e-01 4.2021477222442627e-01</leafValues></_>
        <_>
          <internalNodes>
            0 -1 23 -1.7003386747092009e-03</internalNodes>
          <leafValues>
            6.5579497814178467e-01 -1.4496210217475891e-01</leafValues></_></weakClassifiers></_></stages>
  <features>
    <_>
      <rects>
        <_>
          0 1 39 15 -1.</_>
        <_>
          0 6 39 5 3.</_></rects>
      <tilted>0</tilted></_>
    <_>
      <rects>
        <_>
          0 13 24 22 -1.</_>
        <_>
          8 13 8 22 3.</_></rects>
      <tilted>0</tilted></_>
    <_>
      <rects>
        <_>
          0 15 10 19 -1.</_>
        <_>
          5 15 5 19 2.</_></rects>
      <tilted>0</tilted></_>
    <_>
      <rects>
        <_>
          0 16 8 21 -1.</_>
        <_>
          4 16 4 21 2.</_></rects>
      <tilted>0</tilted></_>
    <_>
      <rects>
        <_>
          0 16 14 16 -1.</_>
        <_>
          7 16 7 16 2.</_></rects>
      <tilted>0</tilted></_>
    <_>
      <rects>
        <_>
          0 18 10 9 -1.</_>
        <_>
          5 18 5 9 2.</_></rects>
      <tilted>0</tilted></_>
    <_>
      <rects>
        <_>
          0 20 15 10 -1.</_>
        <_>
          5 20 5 10 3.</_></rects>
      <tilted>0</tilted></_>
    <_>
      <rects>
        <_>
          0 22 15 1 -1.</_>
        <_>
          5 22 5 1 3.</_></rects>
      <tilted>0</tilted></_>
    <_>
      <rects>
        <_>
          0 24 6 1 -1.</_>
        <_>
          2 24 2 1 3.</_></rects>
      <tilted>0</tilted></_>
    <_>
      <rects>
        <_>
          0 24 27 8 -1.</_>
        <_>
          9 24 9 8 3.</_></rects>
      <tilted>0</tilted></_>
    <_>
      <rects>
        <_>
          0 25 6 3 -1.</_>
        <_>
          2 25 2 3 3.</_></rects>
      <tilted>0</tilted></_>
    <_>
      <rects>
        <_>
          0 26 6 1 -1.</_>
        <_>
          2 26 2 1 3.</_></rects>
      <tilted>0</tilted></_>
    <_>
      <rects>
        <_>
          0 27 27 2 -1.</_>
        <_>
          9 27 9 2 3.</_></rects>
      <tilted>0</tilted></_>
    <_>
      <rects>
        <_>
          0 31 12 1 -1.</_>
        <_>
          4 31 4 1 3.</_></rects>
      <tilted>0</tilted></_>
    <_>
      <rects>
        <_>
          1 12 6 18 -1.</_>
        <_>
          1 12 3 9 2.</_>
        <_>
          4 21 3 9 2.</_></rects>
      <tilted>0</tilted></_>
    <_>
      <rects>
        <_>
          1 30 14 8 -1.</_>
        <_>
          1 30 7 4 2.</_>
        <_>
          8 34 7 4 2.</_></rects>
      <tilted>0</tilted></_>
    <_>
      <rects>
        <_>
          3 43 24 4 -1.</_>
        <_>
          3 43 12 2 2.</_>
        <_>
          15 45 12 2 2.</_></rects>
      <tilted>0</tilted></_>
    <_>
      <rects>
        <_>
          4 26 9 9 -1.</_>
        <_>
          7 26 3 9 3.</_></rects>
      <tilted>0</tilted></_>
    <_>
      <rects>
        <_>
          5 24 9 11 -1.</_>
        <_>
          8 24 3 11 3.</_></rects>
      <tilted>0</tilted></_>
    <_>
      <rects>
        <_>
          6 23 9 4 -1.</_>
        <_>
          9 23 3 4 3.</_></rects>
      <tilted>0</tilted></_>
    <_>
      <rects>
        <_>
          6 23 15 5 -1.</_>
        <_>
          11 23 5 5 3.</_></rects>
      <tilted>0</tilted></_>
    <_>
      <rects>
        <_>
          7 20 9 6 -1.</_>
        <_>
          10 20 3 6 3.</_></rects>
      <tilted>0</tilted></_>
    <_>
      <rects>
        <_>
          7 21 9 6 -1.</_>
        <_>
          10 21 3 6 3.</_></rects>
      <tilted>0</tilted></_>
    <_>
      <rects>
        <_>
          8 4 9 3 -1.</_>
        <_>
          11 4 3 3 3.</_></rects>
      <tilted>0</tilted></_>
    <_>
      <rects>
        <_>
          8 17 4 9 -1.</_>
        <_>
          10 17 2 9 2.</_></rects>
      <tilted>0</tilted></_>
    <_>
      <rects>
        <_>
          8 18 26 8 -1.</_>
        <_>
          8 22 26 4 2.</_></rects>
      <tilted>0</tilted></_>
    <_>
      <rects>
        <_>
          8 19 6 4 -1.</_>
        <_>
          11 19 3 4 2.</_></rects>
      <tilted>0</tilted></_>
    <_>
      <rects>
        <_>
          8 19 9 6 -1.</_>
        <_>
          11 19 3 6 3.</_></rects>
      <tilted>0</tilted></_>
    <_>
      <rects>
        <_>
          8 25 1 6 -1.</_>
        <_>
          8 28 1 3 2.</_></rects>
      <tilted>0</tilted></_>
    <_>
      <rects>
        <_>
          8 25 34 7 -1.</_>
        <_>
          25 25 17 7 2.</_></rects>
      <tilted>0</tilted></_>
    <_>
      <rects>
        <_>
          9 12 22 6 -1.</_>
        <_>
          9 12 11 3 2.</_>
        <_>
          20 15 11 3 2.</_></rects>
      <tilted>0</tilted></_>
    <_>
      <rects>
        <_>
          9 15 27 12 -1.</_>
        <_>
          18 15 9 12 3.</_></rects>
      <tilted>0</tilted></_>
    <_>
      <rects>
        <_>
          9 19 18 4 -1.</_>
        <_>
          18 19 9 4 2.</_></rects>
      <tilted>0</tilted></_>
    <_>
      <rects>
        <_>
          9 21 4 8 -1.</_>
        <_>
          9 25 4 4 2.</_></rects>
      <tilted>0</tilted></_>
    <_>
      <rects>
        <_>
          9 29 10 4 -1.</_>
        <_>
          14 29 5 4 2.</_></rects>
      <tilted>0</tilted></_>
    <_>
      <rects>
        <_>
          10 0 28 18 -1.</_>
        <_>
          10 9 28 9 2.</_></rects>
      <tilted>0</tilted></_>
    <_>
      <rects>
        <_>
          10 12 30 24 -1.</_>
        <_>
          10 24 30 12 2.</_></rects>
      <tilted>0</tilted></_>
    <_>
      <rects>
        <_>
          10 13 27 14 -1.</_>
        <_>
          10 20 27 7 2.</_></rects>
      <tilted>0</tilted></_>
    <_>
      <rects>
        <_>
          10 15 25 12 -1.</_>
        <_>
          10 21 25 6 2.</_></rects>
      <tilted>0</tilted></_>
    <_>
      <rects>
        <_>
          10 17 4 20 -1.</_>
        <_>
          10 27 4 10 2.</_></rects>
      <tilted>0</tilted></_>
    <_>
      <rects>
        <_>
          10 17 14 10 -1.</_>
        <_>
          10 17 7 5 2.</_>
        <_>
          17 22 7 5 2.</_></rects>
      <tilted>0</tilted></_>
    <_>
      <rects>
        <_>
          10 18 4 6 -1.</_>
        <_>
          12 18 2 6 2.</_></rects>
      <tilted>0</tilted></_>
    <_>
      <rects>
        <_>
          10 18 18 2 -1.</_>
        <_>
          19 18 9 2 2.</_></rects>
      <tilted>0</tilted></_>
    <_>
      <rects>
        <_>
          10 19 1 10 -1.</_>
        <_>
          10 24 1 5 2.</_></rects>
      <tilted>0</tilted></_>
    <_>
      <rects>
        <_>
          10 19 9 5 -1.</_>
        <_>
          13 19 3 5 3.</_></rects>
      <tilted>0</tilted></_>
    <_>
      <rects>
        <_>
          10 19 3 16 -1.</_>
        <_>
          10 27 3 8 2.</_></rects>
      <tilted>0</tilted></_>
    <_>
      <rects>
        <_>
          10 21 8 12 -1.</_>
        <_>
          10 25 8 4 3.</_></rects>
      <tilted>0</tilted></_>
    <_>
      <rects>
        <_>
          10 29 32 1 -1.</_>
        <_>
          26 29 16 1 2.</_></rects>
      <tilted>0</tilted></_>
    <_>
      <rects>
        <_>
          10 30 12 3 -1.</_>
        <_>
          16 30 6 3 2.</_></rects>
      <tilted>0</tilted></_>
    <_>
      <rects>
        <_>
          11 0 22 18 -1.</_>
        <_>
          11 6 22 6 3.</_></rects>
      <tilted>0</tilted></_>
    <_>
      <rects>
        <_>
          11 15 16 12 -1.</_>
        <_>
          11 21 16 6 2.</_></rects>
      <tilted>0</tilted></_>
    <_>
      <rects>
        <_>
          11 16 9 8 -1.</_>
        <_>
          14 16 3 8 3.</_></rects>
      <tilted>0</tilted></_>
    <_>
      <rects>
        <_>
          11 16 18 1 -1.</_>
        <_>
          20 16 9 1 2.</_></rects>
      <tilted>0</tilted></_>
    <_>
      <rects>
        <_>
          11 17 9 6 -1.</_>
        <_>
          14 17 3 6 3.</_></rects>
      <tilted>0</tilted></_>
    <_>
      <rects>
        <_>
          11 17 9 10 -1.</_>
        <_>
          14 17 3 10 3.</_></rects>
      <tilted>0</tilted></_>
    <_>
      <rects>
        <_>
          11 17 12 5 -1.</_>
        <_>
          15 17 4 5 3.</_></rects>
      <tilted>0</tilted></_>
    <_>
      <rects>
        <_>
          11 17 25 8 -1.</_>
        <_>
          11 21 25 4 2.</_></rects>
      <tilted>0</tilted></_>
    <_>
      <rects>
        <_>
          11 17 26 8 -1.</_>
        <_>
          11 21 26 4 2.</_></rects>
      <tilted>0</tilted></_>
    <_>
      <rects>
        <_>
          11 18 9 5 -1.</_>
        <_>
          14 18 3 5 3.</_></rects>
      <tilted>0</tilted></_>
    <_>
      <rects>
        <_>
          11 18 12 3 -1.</_>
        <_>
          15 18 4 3 3.</_></rects>
      <tilted>0</tilted></_>
    <_>
      <rects>
        <_>
          11 29 13 4 -1.</_>
        <_>
          11 31 13 2 2.</_></rects>
      <tilted>0</tilted></_>
    <_>
      <rects>
        <_>
          11 29 28 2 -1.</_>
        <_>
          25 29 14 2 2.</_></rects>
      <tilted>0</tilted></_>
    <_>
      <rects>
        <_>
          11 30 26 4 -1.</_>
        <_>
          24 30 13 4 2.</_></rects>
      <tilted>0</tilted></_>
    <_>
      <rects>
        <_>
          11 30 30 2 -1.</_>
        <_>
          26 30 15 2 2.</_></rects>
      <tilted>0</tilted></_>
    <_>
      <rects>
        <_>
          12 3 10 10 -1.</_>
        <_>
          12 3 5 5 2.</_>
        <_>
          17 8 5 5 2.</_></rects>
      <tilted>0</tilted></_>
    <_>
      <rects>
        <_>
          12 15 6 8 -1.</_>
        <_>
          12 19 6 4 2.</_></rects>
      <tilted>0</tilted></_>
    <_>
      <rects>
        <_>
          12 15 7 6 -1.</_>
        <_>
          12 18 7 3 2.</_></rects>
      <tilted>0</tilted></_>
    <_>
      <rects>
        <_>
          12 15 16 1 -1.</_>
        <_>
          20 15 8 1 2.</_></rects>
      <tilted>0</tilted></_>
    <_>
      <rects>
        <_>
          12 19 1 14 -1.</_>
        <_>
          12 26 1 7 2.</_></rects>
      <tilted>0</tilted></_>
    <_>
      <rects>
        <_>
          12 21 4 12 -1.</_>
        <_>
          12 27 4 6 2.</_></rects>
      <tilted>0</tilted></_>
    <_>
      <rects>
        <_>
          12 24 10 4 -1.</_>
        <_>
          17 24 5 4 2.</_></rects>
      <tilted>0</tilted></_>
    <_>
      <rects>
        <_>
          12 26 4 8 -1.</_>
        <_>
          12 30 4 4 2.</_></rects>
      <tilted>0</tilted></_>
    <_>
      <rects>
        <_>
          12 29 28 1 -1.</_>
        <_>
          26 29 14 1 2.</_></rects>
      <tilted>0</tilted></_>
    <_>
      <rects>
        <_>
          13 5 26 38 -1.</_>
        <_>
          13 24 26 19 2.</_></rects>
      <tilted>0</tilted></_>
    <_>
      <rects>
        <_>
          13 14 7 6 -1.</_>
        <_>
          13 17 7 3 2.</_></rects>
      <tilted>0</tilted></_>
    <_>
      <rects>
        <_>
          13 16 9 4 -1.</_>
        <_>
          16 16 3 4 3.</_></rects>
      <tilted>0</tilted></_>
    <_>
      <rects>
        <_>
          13 16 12 1 -1.</_>
        <_>
          19 16 6 1 2.</_></rects>
      <tilted>0</tilted></_>
    <_>
      <rects>
        <_>
          13 16 14 2 -1.</_>
        <_>
          20 16 7 2 2.</_></rects>
      <tilted>0</tilted></_>
    <_>
      <rects>
        <_>
          13 17 9 3 -1.</_>
        <_>
          16 17 3 3 3.</_></rects>
      <tilted>0</tilted></_>
    <_>
      <rects>
        <_>
          13 17 18 1 -1.</_>
        <_>
          22 17 9 1 2.</_></rects>
      <tilted>0</tilted></_>
    <_>
      <rects>
        <_>
          13 19 21 24 -1.</_>
        <_>
          13 27 21 8 3.</_></rects>
      <tilted>0</tilted></_>
    <_>
      <rects>
        <_>
          13 19 23 6 -1.</_>
        <_>
          13 22 23 3 2.</_></rects>
      <tilted>0</tilted></_>
    <_>
      <rects>
        <_>
          13 28 6 6 -1.</_>
        <_>
          13 31 6 3 2.</_></rects>
      <tilted>0</tilted></_>
    <_>
      <rects>
        <_>
          14 15 2 9 -1.</_>
        <_>
          15 15 1 9 2.</_></rects>
      <tilted>0</tilted></_>
    <_>
      <rects>
        <_>
          14 15 4 12 -1.</_>
        <_>
          14 15 2 6 2.</_>
        <_>
          16 21 2 6 2.</_></rects>
      <tilted>0</tilted></_>
    <_>
      <rects>
        <_>
          14 16 4 14 -1.</_>
        <_>
          16 16 2 14 2.</_></rects>
      <tilted>0</tilted></_>
    <_>
      <rects>
        <_>
          14 19 2 10 -1.</_>
        <_>
          14 24 2 5 2.</_></rects>
      <tilted>0</tilted></_>
    <_>
      <rects>
        <_>
          14 21 18 27 -1.</_>
        <_>
          14 30 18 9 3.</_></rects>
      <tilted>0</tilted></_>
    <_>
      <rects>
        <_>
          14 24 18 8 -1.</_>
        <_>
          14 24 9 4 2.</_>
        <_>
          23 28 9 4 2.</_></rects>
      <tilted>0</tilted></_>
    <_>
      <rects>
        <_>
          14 28 14 8 -1.</_>
        <_>
          14 32 14 4 2.</_></rects>
      <tilted>0</tilted></_>
    <_>
      <rects>
        <_>
          14 29 10 8 -1.</_>
        <_>
          14 29 5 4 2.</_>
        <_>
          19 33 5 4 2.</_></rects>
      <tilted>0</tilted></_>
    <_>
      <rects>
        <_>
          15 12 2 15 -1.</_>
        <_>
          15 17 2 5 3.</_></rects>
      <tilted>0</tilted></_>
    <_>
      <rects>
        <_>
          15 14 12 14 -1.</_>
        <_>
          15 21 12 7 2.</_></rects>
      <tilted>0</tilted></_>
    <_>
      <rects>
        <_>
          15 15 6 12 -1.</_>
        <_>
          15 15 3 6 2.</_>
        <_>
          18 21 3 6 2.</_></rects>
      <tilted>0</tilted></_>
    <_>
      <rects>
        <_>
          15 15 12 1 -1.</_>
        <_>
          21 15 6 1 2.</_></rects>
      <tilted>0</tilted></_>
    <_>
      <rects>
        <_>
          15 15 11 12 -1.</_>
        <_>
          15 21 11 6 2.</_></rects>
      <tilted>0</tilted></_>
    <_>
      <rects>
        <_>
          15 18 15 8 -1.</_>
        <_>
          15 22 15 4 2.</_></rects>
      <tilted>0</tilted></_>
    <_>
      <rects>
        <_>
          15 21 2 4 -1.</_>
        <_>
          16 21 1 4 2.</_></rects>
      <tilted>0</tilted></_>
    <_>
      <rects>
        <_>
          15 21 16 12 -1.</_>
        <_>
          15 25 16 4 3.</_></rects>
      <tilted>0</tilted></_>
    <_>
      <rects>
        <_>
          15 22 2 5 -1.</_>
        <_>
          16 22 1 5 2.</_></rects>
      <tilted>0</tilted></_>
    <_>
      <rects>
        <_>
          15 26 6 4 -1.</_>
        <_>
          18 26 3 4 2.</_></rects>
      <tilted>0</tilted></_>
    <_>
      <rects>
        <_>
          15 28 6 5 -1.</_>
        <_>
          18 28 3 5 2.</_></rects>
      <tilted>0</tilted></_>
    <_>
      <rects>
        <_>
          16 0 16 6 -1.</_>
        <_>
          16 2 16 2 3.</_></rects>
      <tilted>0</tilted></_>
    <_>
      <rects>
        <_>
          16 0 25 21 -1.</_>
        <_>
          16 7 25 7 3.</_></rects>
      <tilted>0</tilted></_>
    <_>
      <rects>
        <_>
          16 7 24 18 -1.</_>
        <_>
          16 7 12 9 2.</_>
        <_>
          28 16 12 9 2.</_></rects>
      <tilted>0</tilted></_>
    <_>
      <rects>
        <_>
          16 9 4 30 -1.</_>
        <_>
          16 24 4 15 2.</_></rects>
      <tilted>0</tilted></_>
    <_>
      <rects>
        <_>
          16 13 2 8 -1.</_>
        <_>
          16 17 2 4 2.</_></rects>
      <tilted>0</tilted></_>
    <_>
      <rects>
        <_>
          16 13 6 14 -1.</_>
        <_>
          16 13 3 7 2.</_>
        <_>
          19 20 3 7 2.</_></rects>
      <tilted>0</tilted></_>
    <_>
      <rects>
        <_>
          16 15 1 16 -1.</_>
        <_>
          16 23 1 8 2.</_></rects>
      <tilted>0</tilted></_>
    <_>
      <rects>
        <_>
          16 15 4 5 -1.</_>
        <_>
          18 15 2 5 2.</_></rects>
      <tilted>0</tilted></_>
    <_>
      <rects>
        <_>
          16 15 6 3 -1.</_>
        <_>
          19 15 3 3 2.</_></rects>
      <tilted>0</tilted></_>
    <_>
      <rects>
        <_>
          16 15 6 12 -1.</_>
        <_>
          16 15 3 6 2.</_>
        <_>
          19 21 3 6 2.</_></rects>
      <tilted>0</tilted></_>
    <_>
      <rects>
        <_>
          16 15 18 5 -1.</_>
        <_>
          22 15 6 5 3.</_></rects>
      <tilted>0</tilted></_>
    <_>
      <rects>
        <_>
          16 16 2 8 -1.</_>
        <_>
          17 16 1 8 2.</_></rects>
      <tilted>0</tilted></_>
    <_>
      <rects>
        <_>
          16 19 4 13 -1.</_>
        <_>
          18 19 2 13 2.</_></rects>
      <tilted>0</tilted></_>
    <_>
      <rects>
        <_>
          16 21 2 9 -1.</_>
        <_>
          17 21 1 9 2.</_></rects>
      <tilted>0</tilted></_>
    <_>
      <rects>
        <_>
          17 11 6 11 -1.</_>
        <_>
          20 11 3 11 2.</_></rects>
      <tilted>0</tilted></_>
    <_>
      <rects>
        <_>
          17 11 9 30 -1.</_>
        <_>
          17 26 9 15 2.</_></rects>
      <tilted>0</tilted></_>
    <_>
      <rects>
        <_>
          17 15 9 4 -1.</_>
        <_>
          20 15 3 4 3.</_></rects>
      <tilted>0</tilted></_>
    <_>
      <rects>
        <_>
          17 15 6 14 -1.</_>
        <_>
          17 15 3 7 2.</_>
        <_>
          20 22 3 7 2.</_></rects>
      <tilted>0</tilted></_>
    <_>
      <rects>
        <_>
          17 15 8 12 -1.</_>
        <_>
          17 21 8 6 2.</_></rects>
      <tilted>0</tilted></_>
    <_>
      <rects>
        <_>
          17 17 20 9 -1.</_>
        <_>
          27 17 10 9 2.</_></rects>
      <tilted>0</tilted></_>
    <_>
      <rects>
        <_>
          17 18 2 10 -1.</_>
        <_>
          18 18 1 10 2.</_></rects>
      <tilted>0</tilted></_>
    <_>
      <rects>
        <_>
          17 18 4 4 -1.</_>
        <_>
          19 18 2 4 2.</_></rects>
      <tilted>0</tilted></_>
    <_>
      <rects>
        <_>
          17 18 17 18 -1.</_>
        <_>
          17 24 17 6 3.</_></rects>
      <tilted>0</tilted></_>
    <_>
      <rects>
        <_>
          17 19 2 7 -1.</_>
        <_>
          18 19 1 7 2.</_></rects>
      <tilted>0</tilted></_>
    <_>
      <rects>
        <_>
          17 24 1 10 -1.</_>
        <_>
          17 29 1 5 2.</_></rects>
      <tilted>0</tilted></_>
    <_>
      <rects>
        <_>
          17 25 13 9 -1.</_>
        <_>
          17 28 13 3 3.</_></rects>
      <tilted>0</tilted></_>
    <_>
      <rects>
        <_>
          17 28 7 10 -1.</_>
        <_>
          17 33 7 5 2.</_></rects>
      <tilted>0</tilted></_>
    <_>
      <rects>
        <_>
          18 8 24 9 -1.</_>
        <_>
          26 8 8 9 3.</_></rects>
      <tilted>0</tilted></_>
    <_>
      <rects>
        <_>
          18 15 20 12 -1.</_>
        <_>
          18 21 20 6 2.</_></rects>
      <tilted>0</tilted></_>
    <_>
      <rects>
        <_>
          18 16 2 6 -1.</_>
        <_>
          19 16 1 6 2.</_></rects>
      <tilted>0</tilted></_>
    <_>
      <rects>
        <_>
          18 16 4 4 -1.</_>
        <_>
          20 16 2 4 2.</_></rects>
      <tilted>0</tilted></_>
    <_>
      <rects>
        <_>
          18 17 2 8 -1.</_>
        <_>
          18 21 2 4 2.</_></rects>
      <tilted>0</tilted></_>
    <_>
      <rects>
        <_>
          18 18 4 3 -1.</_>
        <_>
          20 18 2 3 2.</_></rects>
      <tilted>0</tilted></_>
    <_>
      <rects>
        <_>
          18 19 2 13 -1.</_>
        <_>
          19 19 1 13 2.</_></rects>
      <tilted>0</tilted></_>
    <_>
      <rects>
        <_>
          18 20 2 12 -1.</_>
        <_>
          18 24 2 4 3.</_></rects>
      <tilted>0</tilted></_>
    <_>
      <rects>
        <_>
          18 20 18 9 -1.</_>
        <_>
          24 20 6 9 3.</_></rects>
      <tilted>0</tilted></_>
    <_>
      <rects>
        <_>
          18 20 10 12 -1.</_>
        <_>
          18 24 10 4 3.</_></rects>
      <tilted>0</tilted></_>
    <_>
      <rects>
        <_>
          18 21 2 8 -1.</_>
        <_>
          19 21 1 8 2.</_></rects>
      <tilted>0</tilted></_>
    <_>
      <rects>
        <_>
          18 22 8 8 -1.</_>
        <_>
          18 26 8 4 2.</_></rects>
      <tilted>0</tilted></_>
    <_>
      <rects>
        <_>
          18 25 18 2 -1.</_>
        <_>
          27 25 9 2 2.</_></rects>
      <tilted>0</tilted></_>
    <_>
      <rects>
        <_>
          18 28 20 2 -1.</_>
        <_>
          28 28 10 2 2.</_></rects>
      <tilted>0</tilted></_>
    <_>
      <rects>
        <_>
          19 11 11 12 -1.</_>
        <_>
          19 15 11 4 3.</_></rects>
      <tilted>0</tilted></_>
    <_>
      <rects>
        <_>
          19 16 8 12 -1.</_>
        <_>
          19 22 8 6 2.</_></rects>
      <tilted>0</tilted></_>
    <_>
      <rects>
        <_>
          19 19 8 12 -1.</_>
        <_>
          23 19 4 12 2.</_></rects>
      <tilted>0</tilted></_>
    <_>
      <rects>
        <_>
          19 21 2 10 -1.</_>
        <_>
          20 21 1 10 2.</_></rects>
      <tilted>0</tilted></_>
    <_>
      <rects>
        <_>
          19 23 2 4 -1.</_>
        <_>
          20 23 1 4 2.</_></rects>
      <tilted>0</tilted></_>
    <_>
      <rects>
        <_>
          19 23 12 5 -1.</_>
        <_>
          23 23 4 5 3.</_></rects>
      <tilted>0</tilted></_>
    <_>
      <rects>
        <_>
          19 24 4 4 -1.</_>
        <_>
          21 24 2 4 2.</_></rects>
      <tilted>0</tilted></_>
    <_>
      <rects>
        <_>
          20 14 15 4 -1.</_>
        <_>
          25 14 5 4 3.</_></rects>
      <tilted>0</tilted></_>
    <_>
      <rects>
        <_>
          20 16 7 12 -1.</_>
        <_>
          20 22 7 6 2.</_></rects>
      <tilted>0</tilted></_>
    <_>
      <rects>
        <_>
          20 19 9 9 -1.</_>
        <_>
          23 19 3 9 3.</_></rects>
      <tilted>0</tilted></_>
    <_>
      <rects>
        <_>
          20 19 18 3 -1.</_>
        <_>
          26 19 6 3 3.</_></rects>
      <tilted>0</tilted></_>
    <_>
      <rects>
        <_>
          20 19 19 15 -1.</_>
        <_>
          20 24 19 5 3.</_></rects>
      <tilted>0</tilted></_>
    <_>
      <rects>
        <_>
          20 20 6 6 -1.</_>
        <_>
          22 20 2 6 3.</_></rects>
      <tilted>0</tilted></_>
    <_>
      <rects>
        <_>
          20 20 6 9 -1.</_>
        <_>
          22 20 2 9 3.</_></rects>
      <tilted>0</tilted></_>
    <_>
      <rects>
        <_>
          20 22 4 4 -1.</_>
        <_>
          22 22 2 4 2.</_></rects>
      <tilted>0</tilted></_>
    <_>
      <rects>
        <_>
          20 24 6 3 -1.</_>
        <_>
          23 24 3 3 2.</_></rects>
      <tilted>0</tilted></_>
    <_>
      <rects>
        <_>
          20 24 21 2 -1.</_>
        <_>
          27 24 7 2 3.</_></rects>
      <tilted>0</tilted></_>
    <_>
      <rects>
        <_>
          20 25 4 1 -1.</_>
        <_>
          22 25 2 1 2.</_></rects>
      <tilted>0</tilted></_>
    <_>
      <rects>
        <_>
          20 26 18 1 -1.</_>
        <_>
          29 26 9 1 2.</_></rects>
      <tilted>0</tilted></_>
    <_>
      <rects>
        <_>
          20 27 6 12 -1.</_>
        <_>
          20 33 6 6 2.</_></rects>
      <tilted>0</tilted></_>
    <_>
      <rects>
        <_>
          20 27 9 9 -1.</_>
        <_>
          20 30 9 3 3.</_></rects>
      <tilted>0</tilted></_>
    <_>
      <rects>
        <_>
          21 1 7 15 -1.</_>
        <_>
          21 6 7 5 3.</_></rects>
      <tilted>0</tilted></_>
    <_>
      <rects>
        <_>
          21 12 2 18 -1.</_>
        <_>
          21 21 2 9 2.</_></rects>
      <tilted>0</tilted></_>
    <_>
      <rects>
        <_>
          21 21 18 5 -1.</_>
        <_>
          27 21 6 5 3.</_></rects>
      <tilted>0</tilted></_>
    <_>
      <rects>
        <_>
          21 23 4 5 -1.</_>
        <_>
          23 23 2 5 2.</_></rects>
      <tilted>0</tilted></_>
    <_>
      <rects>
        <_>
          21 23 18 2 -1.</_>
        <_>
          27 23 6 2 3.</_></rects>
      <tilted>0</tilted></_>
    <_>
      <rects>
        <_>
          21 24 14 2 -1.</_>
        <_>
          28 24 7 2 2.</_></rects>
      <tilted>0</tilted></_>
    <_>
      <rects>
        <_>
          21 36 3 9 -1.</_>
        <_>
          21 39 3 3 3.</_></rects>
      <tilted>0</tilted></_>
    <_>
      <rects>
        <_>
          22 17 15 9 -1.</_>
        <_>
          27 17 5 9 3.</_></rects>
      <tilted>0</tilted></_>
    <_>
      <rects>
        <_>
          22 19 11 21 -1.</_>
        <_>
          22 26 11 7 3.</_></rects>
      <tilted>0</tilted></_>
    <_>
      <rects>
        <_>
          22 23 15 1 -1.</_>
        <_>
          27 23 5 1 3.</_></rects>
      <tilted>0</tilted></_>
    <_>
      <rects>
        <_>
          22 28 15 3 -1.</_>
        <_>
          27 28 5 3 3.</_></rects>
      <tilted>0</tilted></_>
    <_>
      <rects>
        <_>
          22 29 6 2 -1.</_>
        <_>
          22 29 3 1 2.</_>
        <_>
          25 30 3 1 2.</_></rects>
      <tilted>0</tilted></_>
    <_>
      <rects>
        <_>
          23 13 15 22 -1.</_>
        <_>
          23 24 15 11 2.</_></rects>
      <tilted>0</tilted></_>
    <_>
      <rects>
        <_>
          23 18 15 9 -1.</_>
        <_>
          28 18 5 9 3.</_></rects>
      <tilted>0</tilted></_>
    <_>
      <rects>
        <_>
          23 20 15 9 -1.</_>
        <_>
          28 20 5 9 3.</_></rects>
      <tilted>0</tilted></_>
    <_>
      <rects>
        <_>
          24 12 22 4 -1.</_>
        <_>
          24 12 11 2 2.</_>
        <_>
          35 14 11 2 2.</_></rects>
      <tilted>0</tilted></_>
    <_>
      <rects>
        <_>
          24 13 6 17 -1.</_>
        <_>
          27 13 3 17 2.</_></rects>
      <tilted>0</tilted></_>
    <_>
      <rects>
        <_>
          24 13 8 15 -1.</_>
        <_>
          28 13 4 15 2.</_></rects>
      <tilted>0</tilted></_>
    <_>
      <rects>
        <_>
          24 13 24 5 -1.</_>
        <_>
          32 13 8 5 3.</_></rects>
      <tilted>0</tilted></_>
    <_>
      <rects>
        <_>
          24 20 15 1 -1.</_>
        <_>
          29 20 5 1 3.</_></rects>
      <tilted>0</tilted></_>
    <_>
      <rects>
        <_>
          24 21 2 1 -1.</_>
        <_>
          25 21 1 1 2.</_></rects>
      <tilted>0</tilted></_>
    <_>
      <rects>
        <_>
          24 39 4 9 -1.</_>
        <_>
          24 42 4 3 3.</_></rects>
      <tilted>0</tilted></_>
    <_>
      <rects>
        <_>
          25 13 11 6 -1.</_>
        <_>
          25 16 11 3 2.</_></rects>
      <tilted>0</tilted></_>
    <_>
      <rects>
        <_>
          25 21 15 12 -1.</_>
        <_>
          25 27 15 6 2.</_></rects>
      <tilted>0</tilted></_>
    <_>
      <rects>
        <_>
          25 22 15 8 -1.</_>
        <_>
          30 22 5 8 3.</_></rects>
      <tilted>0</tilted></_>
    <_>
      <rects>
        <_>
          26 7 5 6 -1.</_>
        <_>
          26 10 5 3 2.</_></rects>
      <tilted>0</tilted></_>
    <_>
      <rects>
        <_>
          26 14 12 7 -1.</_>
        <_>
          30 14 4 7 3.</_></rects>
      <tilted>0</tilted></_>
    <_>
      <rects>
        <_>
          26 14 12 18 -1.</_>
        <_>
          30 14 4 18 3.</_></rects>
      <tilted>0</tilted></_>
    <_>
      <rects>
        <_>
          26 17 12 5 -1.</_>
        <_>
          32 17 6 5 2.</_></rects>
      <tilted>0</tilted></_>
    <_>
      <rects>
        <_>
          26 17 6 18 -1.</_>
        <_>
          26 23 6 6 3.</_></rects>
      <tilted>0</tilted></_>
    <_>
      <rects>
        <_>
          26 18 10 4 -1.</_>
        <_>
          31 18 5 4 2.</_></rects>
      <tilted>0</tilted></_>
    <_>
      <rects>
        <_>
          27 1 6 6 -1.</_>
        <_>
          27 3 6 2 3.</_></rects>
      <tilted>0</tilted></_>
    <_>
      <rects>
        <_>
          27 16 8 18 -1.</_>
        <_>
          27 22 8 6 3.</_></rects>
      <tilted>0</tilted></_>
    <_>
      <rects>
        <_>
          27 20 10 5 -1.</_>
        <_>
          32 20 5 5 2.</_></rects>
      <tilted>0</tilted></_>
    <_>
      <rects>
        <_>
          27 20 14 1 -1.</_>
        <_>
          34 20 7 1 2.</_></rects>
      <tilted>0</tilted></_>
    <_>
      <rects>
        <_>
          27 23 21 3 -1.</_>
        <_>
          34 23 7 3 3.</_></rects>
      <tilted>0</tilted></_>
    <_>
      <rects>
        <_>
          28 13 7 8 -1.</_>
        <_>
          28 17 7 4 2.</_></rects>
      <tilted>0</tilted></_>
    <_>
      <rects>
        <_>
          28 13 8 8 -1.</_>
        <_>
          28 17 8 4 2.</_></rects>
      <tilted>0</tilted></_>
    <_>
      <rects>
        <_>
          28 13 11 24 -1.</_>
        <_>
          28 21 11 8 3.</_></rects>
      <tilted>0</tilted></_>
    <_>
      <rects>
        <_>
          28 14 8 8 -1.</_>
        <_>
          28 18 8 4 2.</_></rects>
      <tilted>0</tilted></_>
    <_>
      <rects>
        <_>
          28 15 6 10 -1.</_>
        <_>
          28 20 6 5 2.</_></rects>
      <tilted>0</tilted></_>
    <_>
      <rects>
        <_>
          28 15 9 8 -1.</_>
        <_>
          28 19 9 4 2.</_></rects>
      <tilted>0</tilted></_>
    <_>
      <rects>
        <_>
          28 15 9 10 -1.</_>
        <_>
          28 20 9 5 2.</_></rects>
      <tilted>0</tilted></_>
    <_>
      <rects>
        <_>
          28 16 9 10 -1.</_>
        <_>
          28 21 9 5 2.</_></rects>
      <tilted>0</tilted></_>
    <_>
      <rects>
        <_>
          28 17 2 9 -1.</_>
        <_>
          28 20 2 3 3.</_></rects>
      <tilted>0</tilted></_>
    <_>
      <rects>
        <_>
          28 19 8 14 -1.</_>
        <_>
          32 19 4 14 2.</_></rects>
      <tilted>0</tilted></_>
    <_>
      <rects>
        <_>
          28 19 8 8 -1.</_>
        <_>
          28 23 8 4 2.</_></rects>
      <tilted>0</tilted></_>
    <_>
      <rects>
        <_>
          28 20 8 8 -1.</_>
        <_>
          28 24 8 4 2.</_></rects>
      <tilted>0</tilted></_>
    <_>
      <rects>
        <_>
          28 24 6 5 -1.</_>
        <_>
          30 24 2 5 3.</_></rects>
      <tilted>0</tilted></_>
    <_>
      <rects>
        <_>
          29 11 5 27 -1.</_>
        <_>
          29 20 5 9 3.</_></rects>
      <tilted>0</tilted></_>
    <_>
      <rects>
        <_>
          29 11 5 26 -1.</_>
        <_>
          29 24 5 13 2.</_></rects>
      <tilted>0</tilted></_>
    <_>
      <rects>
        <_>
          29 15 5 10 -1.</_>
        <_>
          29 20 5 5 2.</_></rects>
      <tilted>0</tilted></_>
    <_>
      <rects>
        <_>
          29 15 6 10 -1.</_>
        <_>
          29 20 6 5 2.</_></rects>
      <tilted>0</tilted></_>
    <_>
      <rects>
        <_>
          29 15 7 12 -1.</_>
        <_>
          29 21 7 6 2.</_></rects>
      <tilted>0</tilted></_>
    <_>
      <rects>
        <_>
          29 16 6 12 -1.</_>
        <_>
          29 22 6 6 2.</_></rects>
      <tilted>0</tilted></_>
    <_>
      <rects>
        <_>
          29 17 4 6 -1.</_>
        <_>
          29 20 4 3 2.</_></rects>
      <tilted>0</tilted></_>
    <_>
      <rects>
        <_>
          29 18 8 14 -1.</_>
        <_>
          29 25 8 7 2.</_></rects>
      <tilted>0</tilted></_>
    <_>
      <rects>
        <_>
          29 19 2 4 -1.</_>
        <_>
          29 19 1 2 2.</_>
        <_>
          30 21 1 2 2.</_></rects>
      <tilted>0</tilted></_>
    <_>
      <rects>
        <_>
          29 21 12 4 -1.</_>
        <_>
          35 21 6 4 2.</_></rects>
      <tilted>0</tilted></_>
    <_>
      <rects>
        <_>
          29 23 4 12 -1.</_>
        <_>
          29 29 4 6 2.</_></rects>
      <tilted>0</tilted></_>
    <_>
      <rects>
        <_>
          30 12 6 21 -1.</_>
        <_>
          30 19 6 7 3.</_></rects>
      <tilted>0</tilted></_>
    <_>
      <rects>
        <_>
          30 14 6 24 -1.</_>
        <_>
          30 22 6 8 3.</_></rects>
      <tilted>0</tilted></_>
    <_>
      <rects>
        <_>
          30 17 18 6 -1.</_>
        <_>
          36 17 6 6 3.</_></rects>
      <tilted>0</tilted></_>
    <_>
      <rects>
        <_>
          30 21 2 5 -1.</_>
        <_>
          31 21 1 5 2.</_></rects>
      <tilted>0</tilted></_>
    <_>
      <rects>
        <_>
          30 22 6 5 -1.</_>
        <_>
          33 22 3 5 2.</_></rects>
      <tilted>0</tilted></_>
    <_>
      <rects>
        <_>
          30 23 7 10 -1.</_>
        <_>
          30 28 7 5 2.</_></rects>
      <tilted>0</tilted></_>
    <_>
      <rects>
        <_>
          31 12 12 8 -1.</_>
        <_>
          31 12 6 4 2.</_>
        <_>
          37 16 6 4 2.</_></rects>
      <tilted>0</tilted></_>
    <_>
      <rects>
        <_>
          31 16 4 18 -1.</_>
        <_>
          31 22 4 6 3.</_></rects>
      <tilted>0</tilted></_>
    <_>
      <rects>
        <_>
          31 19 4 5 -1.</_>
        <_>
          33 19 2 5 2.</_></rects>
      <tilted>0</tilted></_>
    <_>
      <rects>
        <_>
          31 21 8 4 -1.</_>
        <_>
          35 21 4 4 2.</_></rects>
      <tilted>0</tilted></_>
    <_>
      <rects>
        <_>
          31 21 8 6 -1.</_>
        <_>
          35 21 4 6 2.</_></rects>
      <tilted>0</tilted></_>
    <_>
      <rects>
        <_>
          31 25 6 9 -1.</_>
        <_>
          34 25 3 9 2.</_></rects>
      <tilted>0</tilted></_>
    <_>
      <rects>
        <_>
          32 0 13 34 -1.</_>
        <_>
          32 17 13 17 2.</_></rects>
      <tilted>0</tilted></_>
    <_>
      <rects>
        <_>
          32 15 6 3 -1.</_>
        <_>
          35 15 3 3 2.</_></rects>
      <tilted>0</tilted></_>
    <_>
      <rects>
        <_>
          32 19 3 12 -1.</_>
        <_>
          32 25 3 6 2.</_></rects>
      <tilted>0</tilted></_>
    <_>
      <rects>
        <_>
          32 22 8 3 -1.</_>
        <_>
          36 22 4 3 2.</_></rects>
      <tilted>0</tilted></_>
    <_>
      <rects>
        <_>
          32 31 16 16 -1.</_>
        <_>
          32 31 8 8 2.</_>
        <_>
          40 39 8 8 2.</_></rects>
      <tilted>0</tilted></_>
    <_>
      <rects>
        <_>
          33 13 4 6 -1.</_>
        <_>
          35 13 2 6 2.</_></rects>
      <tilted>0</tilted></_>
    <_>
      <rects>
        <_>
          33 14 3 12 -1.</_>
        <_>
          33 20 3 6 2.</_></rects>
      <tilted>0</tilted></_>
    <_>
      <rects>
        <_>
          33 15 3 12 -1.</_>
        <_>
          33 21 3 6 2.</_></rects>
      <tilted>0</tilted></_>
    <_>
      <rects>
        <_>
          33 17 15 13 -1.</_>
        <_>
          38 17 5 13 3.</_></rects>
      <tilted>0</tilted></_>
    <_>
      <rects>
        <_>
          33 18 3 10 -1.</_>
        <_>
          33 23 3 5 2.</_></rects>
      <tilted>0</tilted></_>
    <_>
      <rects>
        <_>
          33 18 8 9 -1.</_>
        <_>
          37 18 4 9 2.</_></rects>
      <tilted>0</tilted></_>
    <_>
      <rects>
        <_>
          33 20 15 4 -1.</_>
        <_>
          38 20 5 4 3.</_></rects>
      <tilted>0</tilted></_>
    <_>
      <rects>
        <_>
          33 24 4 6 -1.</_>
        <_>
          35 24 2 6 2.</_></rects>
      <tilted>0</tilted></_>
    <_>
      <rects>
        <_>
          34 18 6 8 -1.</_>
        <_>
          34 22 6 4 2.</_></rects>
      <tilted>0</tilted></_>
    <_>
      <rects>
        <_>
          34 21 1 12 -1.</_>
        <_>
          34 27 1 6 2.</_></rects>
      <tilted>0</tilted></_>
    <_>
      <rects>
        <_>
          34 21 4 8 -1.</_>
        <_>
          34 25 4 4 2.</_></rects>
      <tilted>0</tilted></_>
    <_>
      <rects>
        <_>
          35 19 4 10 -1.</_>
        <_>
          35 24 4 5 2.</_></rects>
      <tilted>0</tilted></_>
    <_>
      <rects>
        <_>
          36 12 12 18 -1.</_>
        <_>
          42 12 6 18 2.</_></rects>
      <tilted>0</tilted></_>
    <_>
      <rects>
        <_>
          37 0 7 32 -1.</_>
        <_>
          37 16 7 16 2.</_></rects>
      <tilted>0</tilted></_>
    <_>
      <rects>
        <_>
          37 20 2 10 -1.</_>
        <_>
          37 25 2 5 2.</_></rects>
      <tilted>0</tilted></_>
    <_>
      <rects>
        <_>
          38 17 10 6 -1.</_>
        <_>
          43 17 5 6 2.</_></rects>
      <tilted>0</tilted></_>
    <_>
      <rects>
        <_>
          38 27 6 6 -1.</_>
        <_>
          40 27 2 6 3.</_></rects>
      <tilted>0</tilted></_>
    <_>
      <rects>
        <_>
          40 20 8 7 -1.</_>
        <_>
          44 20 4 7 2.</_></rects>
      <tilted>0</tilted></_>
    <_>
      <rects>
        <_>
          40 29 4 3 -1.</_>
        <_>
          42 29 2 3 2.</_></rects>
      <tilted>0</tilted></_>
    <_>
      <rects>
        <_>
          41 19 6 12 -1.</_>
        <_>
          41 19 3 6 2.</_>
        <_>
          44 25 3 6 2.</_></rects>
      <tilted>0</tilted></_>
    <_>
      <rects>
        <_>
          42 17 6 19 -1.</_>
        <_>
          45 17 3 19 2.</_></rects>
      <tilted>0</tilted></_>
    <_>
      <rects>
        <_>
          42 28 6 1 -1.</_>
        <_>
          44 28 2 1 3.</_></rects>
      <tilted>0</tilted></_>
    <_>
      <rects>
        <_>
          43 1 4 34 -1.</_>
        <_>
          43 1 2 17 2.</_>
        <_>
          45 18 2 17 2.</_></rects>
      <tilted>0</tilted></_>
    <_>
      <rects>
        <_>
          46 24 2 16 -1.</_>
        <_>
          46 24 1 8 2.</_>
        <_>
          47 32 1 8 2.</_></rects>
      <tilted>0</tilted></_></features></cascade>
</opencv_storage>
