<?xml version="1.0"?>
<opencv_storage>
<cascade>
  <stageType>BOOST</stageType>
  <featureType>LBP</featureType>
  <height>30</height>
  <width>30</width>
  <stageParams>
    <boostType>GAB</boostType>
    <minHitRate>9.9900001287460327e-01</minHitRate>
    <maxFalseAlarm>5.0000000000000000e-01</maxFalseAlarm>
    <weightTrimRate>9.4999999999999996e-01</weightTrimRate>
    <maxDepth>1</maxDepth>
    <maxWeakCount>100</maxWeakCount></stageParams>
  <featureParams>
    <maxCatCount>256</maxCatCount>
    <featSize>1</featSize></featureParams>
  <stageNum>20</stageNum>
  <stages>
    <!-- stage 0 -->
    <_>
      <maxWeakCount>3</maxWeakCount>
      <stageThreshold>-1.1503840684890747e+00</stageThreshold>
      <weakClassifiers>
        <_>
          <internalNodes>
            0 -1 35 -180235809 -687648767 1426096472 -620490712
            -2147038053 -578289522 -1064795942 -7628590</internalNodes>
          <leafValues>
            -9.4623655080795288e-01 8.9059501886367798e-01</leafValues></_>
        <_>
          <internalNodes>
            0 -1 34 -779357217 -83361638 -1837002281 -804720552
            -1002402933 -25149303 -1467953157 -862398833</internalNodes>
          <leafValues>
            -9.0154027938842773e-01 7.5423151254653931e-01</leafValues></_>
        <_>
          <internalNodes>
            0 -1 81 -576760355 -544012087 -2130198185 -613203711
            -2137468744 -348225523 -905961280 -3082639</internalNodes>
          <leafValues>
            -8.7175935506820679e-01 6.9739276170730591e-01</leafValues></_></weakClassifiers></_>
    <!-- stage 1 -->
    <_>
      <maxWeakCount>3</maxWeakCount>
      <stageThreshold>-1.1412906646728516e+00</stageThreshold>
      <weakClassifiers>
        <_>
          <internalNodes>
            0 -1 45 -1 -34078949 -15532037 -933976 -939490305 -37
            -1074090758 -67132758</internalNodes>
          <leafValues>
            -8.5284280776977539e-01 9.0818363428115845e-01</leafValues></_>
        <_>
          <internalNodes>
            0 -1 24 -717094913 -547813231 1073840210 -628797440
            -1971263233 -880146296 -2105374484 -207891750</internalNodes>
          <leafValues>
            -8.9344447851181030e-01 7.5868082046508789e-01</leafValues></_>
        <_>
          <internalNodes>
            0 -1 38 -2125803009 -719158414 -1459552173 -192937080
            -2004313957 -1979645822 -1993899813 -387397125</internalNodes>
          <leafValues>
            -8.9463341236114502e-01 6.0499668121337891e-01</leafValues></_></weakClassifiers></_>
    <!-- stage 2 -->
    <_>
      <maxWeakCount>3</maxWeakCount>
      <stageThreshold>-9.1796356439590454e-01</stageThreshold>
      <weakClassifiers>
        <_>
          <internalNodes>
            0 -1 23 -15205441 -787114749 -1793863586 -44475366
            -1340964113 -1130975186 -1963071252 -1057361</internalNodes>
          <leafValues>
            -7.5409835577011108e-01 8.6868685483932495e-01</leafValues></_>
        <_>
          <internalNodes>
            0 -1 31 -2134707273 1979869122 -518307365 -596078486
            -1035934533 -1969717109 -1725180965 -58721341</internalNodes>
          <leafValues>
            -8.2219600677490234e-01 6.9717717170715332e-01</leafValues></_>
        <_>
          <internalNodes>
            0 -1 78 -78127233 -171203801 -2062954081 -241876901 64049408
            -970218999 -1069362607 -2241963</internalNodes>
          <leafValues>
            -8.4004122018814087e-01 6.5833079814910889e-01</leafValues></_></weakClassifiers></_>
    <!-- stage 3 -->
    <_>
      <maxWeakCount>3</maxWeakCount>
      <stageThreshold>-9.0200793743133545e-01</stageThreshold>
      <weakClassifiers>
        <_>
          <internalNodes>
            0 -1 39 -741146665 -783708029 -1862221482 -720875006
            -519400813 629407824 -486061350 -134223362</internalNodes>
          <leafValues>
            -8.7762904167175293e-01 7.9758590459823608e-01</leafValues></_>
        <_>
          <internalNodes>
            0 -1 32 -686304769 -788152112 268457107 -241368302 75612571
            150994950 293773982 -202399046</internalNodes>
          <leafValues>
            -7.9385167360305786e-01 6.1232119798660278e-01</leafValues></_>
        <_>
          <internalNodes>
            0 -1 18 -890368419 520040446 796790741 -1611690259 80610791
            1744137439 1340032511 -807987201</internalNodes>
          <leafValues>
            -6.1528205871582031e-01 7.6947277784347534e-01</leafValues></_></weakClassifiers></_>
    <!-- stage 4 -->
    <_>
      <maxWeakCount>4</maxWeakCount>
      <stageThreshold>-1.5431681871414185e+00</stageThreshold>
      <weakClassifiers>
        <_>
          <internalNodes>
            0 -1 37 -2099075906 -263847912 -1316765387 -670039976
            -2104847886 -1606385664 -2130531941 -90470261</internalNodes>
          <leafValues>
            -8.1422924995422363e-01 7.4223035573959351e-01</leafValues></_>
        <_>
          <internalNodes>
            0 -1 46 -213398087 -1547611943 -1114310436 -179964542
            814467903 -492666861 -1440577798 -72895750</internalNodes>
          <leafValues>
            -8.7334066629409790e-01 6.2591063976287842e-01</leafValues></_>
        <_>
          <internalNodes>
            0 -1 98 -805175272 -520028160 -1879015423 1346568384
            -1879007232 33554432 -2147475432 -98959286</internalNodes>
          <leafValues>
            -6.9958841800689697e-01 6.9035416841506958e-01</leafValues></_>
        <_>
          <internalNodes>
            0 -1 3 -795553657 8194 -1073708925 -1073741806 -2013134846
            -905904096 -1065238510 -213655165</internalNodes>
          <leafValues>
            -7.1246951818466187e-01 7.0393681526184082e-01</leafValues></_></weakClassifiers></_>
    <!-- stage 5 -->
    <_>
      <maxWeakCount>5</maxWeakCount>
      <stageThreshold>-7.8592979907989502e-01</stageThreshold>
      <weakClassifiers>
        <_>
          <internalNodes>
            0 -1 47 -1 -1778810660 -16746090 -580943894 -486498086 -5
            -318832946 -5</internalNodes>
          <leafValues>
            -6.8946397304534912e-01 7.2993391752243042e-01</leafValues></_>
        <_>
          <internalNodes>
            0 -1 64 -711298312 1372815772 -1845346091 -384499517
            -2147415382 -1282897790 -2113910560 -1297592188</internalNodes>
          <leafValues>
            -8.3526337146759033e-01 5.5663001537322998e-01</leafValues></_>
        <_>
          <internalNodes>
            0 -1 69 -653999905 -939487161 1342193808 -1065318264
            -2147463016 -671023101 -536345914 -824487721</internalNodes>
          <leafValues>
            -6.2139934301376343e-01 6.6005212068557739e-01</leafValues></_>
        <_>
          <internalNodes>
            0 -1 17 -783855165 -750235502 -536805376 1426915456
            -2147450742 -1073709048 -1870036804 -1048462720</internalNodes>
          <leafValues>
            -5.9879308938980103e-01 6.9528448581695557e-01</leafValues></_>
        <_>
          <internalNodes>
            0 -1 77 -68223416 -20618 -131335 -410012 -6358376 -245926
            -1081076326 -1761471225</internalNodes>
          <leafValues>
            -6.0558277368545532e-01 6.7753851413726807e-01</leafValues></_></weakClassifiers></_>
    <!-- stage 6 -->
    <_>
      <maxWeakCount>5</maxWeakCount>
      <stageThreshold>-8.0565756559371948e-01</stageThreshold>
      <weakClassifiers>
        <_>
          <internalNodes>
            0 -1 71 -250551969 -1862189046 1073741843 -2130456576
            1644217071 2162946 1107341576 -72756384</internalNodes>
          <leafValues>
            -9.1578948497772217e-01 6.1311477422714233e-01</leafValues></_>
        <_>
          <internalNodes>
            0 -1 61 -1324154640 -237960044 33023 966074441 279445675
            -763133816 -2147321670 -1416937389</internalNodes>
          <leafValues>
            -6.4862877130508423e-01 6.3734769821166992e-01</leafValues></_>
        <_>
          <internalNodes>
            0 -1 14 -787824386 -787971960 285220882 -687243136
            -2013216613 -2113372032 -2128049269 -1716682623</internalNodes>
          <leafValues>
            -5.7234096527099609e-01 7.2357040643692017e-01</leafValues></_>
        <_>
          <internalNodes>
            0 -1 72 -291209532 -18120881 -16863645 -286790559 1857735828
            -268476591 -417687666 -1877224053</internalNodes>
          <leafValues>
            -5.5307489633560181e-01 7.6334995031356812e-01</leafValues></_>
        <_>
          <internalNodes>
            0 -1 65 -653866242 -754778104 671236383 1677787264
            -1073511702 -1342046080 1107333731 -301236221</internalNodes>
          <leafValues>
            -6.4186626672744751e-01 5.8826518058776855e-01</leafValues></_></weakClassifiers></_>
    <!-- stage 7 -->
    <_>
      <maxWeakCount>5</maxWeakCount>
      <stageThreshold>-1.1230880022048950e+00</stageThreshold>
      <weakClassifiers>
        <_>
          <internalNodes>
            0 -1 40 1628292831 -140570428 134435091 -119749293 54689871
            -1152679680 -804042097 -1929584705</internalNodes>
          <leafValues>
            -8.3544301986694336e-01 7.0692718029022217e-01</leafValues></_>
        <_>
          <internalNodes>
            0 -1 21 -1052059169 -1065037652 66195 -1732197888 1250468379
            -880033653 -2147368285 -538145873</internalNodes>
          <leafValues>
            -7.4597573280334473e-01 5.5736011266708374e-01</leafValues></_>
        <_>
          <internalNodes>
            0 -1 53 -1831961377 -31571968 -1862053637 -393602815
            -2096770629 -1285487987 -2096457016 -18186104</internalNodes>
          <leafValues>
            -7.2560214996337891e-01 5.5575257539749146e-01</leafValues></_>
        <_>
          <internalNodes>
            0 -1 89 -37259423 -1050050559 67305665 -938934271 1896415500
            -2004770272 1652809889 -326110501</internalNodes>
          <leafValues>
            -6.3228160142898560e-01 6.5569090843200684e-01</leafValues></_>
        <_>
          <internalNodes>
            0 -1 6 1367589343 357662969 -1719658798 -1181249376
            -1465310977 -929431405 25264819 -490765557</internalNodes>
          <leafValues>
            -6.9910782575607300e-01 5.3485977649688721e-01</leafValues></_></weakClassifiers></_>
    <!-- stage 8 -->
    <_>
      <maxWeakCount>4</maxWeakCount>
      <stageThreshold>-1.2434042692184448e+00</stageThreshold>
      <weakClassifiers>
        <_>
          <internalNodes>
            0 -1 74 -783040033 285343907 16892299 -651347685 50539482
            -1173747574 -1065326012 -120194079</internalNodes>
          <leafValues>
            -7.8801840543746948e-01 6.3636362552642822e-01</leafValues></_>
        <_>
          <internalNodes>
            0 -1 20 -1782254113 -478117410 16994967 -687075200
            -1825864941 -895450990 143622551 -608391425</internalNodes>
          <leafValues>
            -7.3337149620056152e-01 4.9919328093528748e-01</leafValues></_>
        <_>
          <internalNodes>
            0 -1 12 -108609314 -498597880 1560399964 -181829568
            805999003 17399946 8421795 -738230131</internalNodes>
          <leafValues>
            -5.9405797719955444e-01 6.1936867237091064e-01</leafValues></_>
        <_>
          <internalNodes>
            0 -1 50 -2078081569 -117423789 20988305 1963114579 537039581
            -1610596352 692259003 -1080616785</internalNodes>
          <leafValues>
            -5.5233842134475708e-01 6.7640352249145508e-01</leafValues></_></weakClassifiers></_>
    <!-- stage 9 -->
    <_>
      <maxWeakCount>5</maxWeakCount>
      <stageThreshold>-9.6709215641021729e-01</stageThreshold>
      <weakClassifiers>
        <_>
          <internalNodes>
            0 -1 30 -2061614625 1459920962 18022403 -573833200
            -1557495021 -643168087 -905911673 -538139697</internalNodes>
          <leafValues>
            -6.8957871198654175e-01 6.1879897117614746e-01</leafValues></_>
        <_>
          <internalNodes>
            0 -1 56 -1675732739 -175808469 805607857 -1941008128
            -1191067141 -645857146 960150019 -274014208</internalNodes>
          <leafValues>
            -6.4963382482528687e-01 5.5317878723144531e-01</leafValues></_>
        <_>
          <internalNodes>
            0 -1 27 -1055665825 319918111 1214474 469588120 -2130419279
            1610612803 537690782 -1208430342</internalNodes>
          <leafValues>
            -7.0410716533660889e-01 5.2610456943511963e-01</leafValues></_>
        <_>
          <internalNodes>
            0 -1 14 -611179962 1128317144 813793409 1296039960
            -2008514038 -1065353206 1082229387 -1838447923</internalNodes>
          <leafValues>
            -6.7345643043518066e-01 5.4489970207214355e-01</leafValues></_>
        <_>
          <internalNodes>
            0 -1 84 -2092838785 184745987 33554433 1359331344 1744971913
            65538 1949200938 -87272649</internalNodes>
          <leafValues>
            -6.4965474605560303e-01 5.1947224140167236e-01</leafValues></_></weakClassifiers></_>
    <!-- stage 10 -->
    <_>
      <maxWeakCount>4</maxWeakCount>
      <stageThreshold>-1.4358189105987549e+00</stageThreshold>
      <weakClassifiers>
        <_>
          <internalNodes>
            0 -1 33 -1047014401 -1090252010 1350689035 -50849362
            1074791061 -104689663 -619996277 -50794069</internalNodes>
          <leafValues>
            -8.2471907138824463e-01 6.6406923532485962e-01</leafValues></_>
        <_>
          <internalNodes>
            0 -1 25 1360885247 1493692797 -225158440 -539670430
            -1811183959 -173965214 -2147424022 -204481553</internalNodes>
          <leafValues>
            -8.2972472906112671e-01 4.9135744571685791e-01</leafValues></_>
        <_>
          <internalNodes>
            0 -1 13 -1413024513 -2042195760 478220439 1100779700
            -930368203 -2000650238 155756739 -684995937</internalNodes>
          <leafValues>
            -6.3400572538375854e-01 6.1613798141479492e-01</leafValues></_>
        <_>
          <internalNodes>
            0 -1 4 2026278943 177340634 82007 -2147479286 -1736376320
            -905863142 -939319295 -1522277829</internalNodes>
          <leafValues>
            -6.3615769147872925e-01 6.2027579545974731e-01</leafValues></_></weakClassifiers></_>
    <!-- stage 11 -->
    <_>
      <maxWeakCount>6</maxWeakCount>
      <stageThreshold>-4.8433738946914673e-01</stageThreshold>
      <weakClassifiers>
        <_>
          <internalNodes>
            0 -1 76 -771526308 -128220129 285331805 -585433077
            -980756228 -595457621 -2004833056 -980591</internalNodes>
          <leafValues>
            -7.4672490358352661e-01 6.4973729848861694e-01</leafValues></_>
        <_>
          <internalNodes>
            0 -1 41 -1877783105 1367576715 1360723413 -751880686
            271941983 352944136 -1467700534 1926736008</internalNodes>
          <leafValues>
            -7.6087677478790283e-01 4.9251532554626465e-01</leafValues></_>
        <_>
          <internalNodes>
            0 -1 57 -754544386 -74632880 -2121121509 -1437728703
            -502154326 -1157430807 -217842870 -290552759</internalNodes>
          <leafValues>
            -7.6074218750000000e-01 4.9337419867515564e-01</leafValues></_>
        <_>
          <internalNodes>
            0 -1 8 -1974760705 -2046689278 16843789 -1894809576
            -368893937 -1046478824 -2138920191 -811104127</internalNodes>
          <leafValues>
            -6.4692270755767822e-01 5.6538325548171997e-01</leafValues></_>
        <_>
          <internalNodes>
            0 -1 80 -618964651 1162215757 -1728016225 -1587343351
            -939222992 -1878982527 1502122201 -284546897</internalNodes>
          <leafValues>
            -6.0225808620452881e-01 5.9981697797775269e-01</leafValues></_>
        <_>
          <internalNodes>
            0 -1 85 -1319699505 1967362203 -2130638717 -1911848649
            1787978271 462041250 -398312694 -118691017</internalNodes>
          <leafValues>
            -5.9238857030868530e-01 6.1880618333816528e-01</leafValues></_></weakClassifiers></_>
    <!-- stage 12 -->
    <_>
      <maxWeakCount>6</maxWeakCount>
      <stageThreshold>-3.6737626791000366e-01</stageThreshold>
      <weakClassifiers>
        <_>
          <internalNodes>
            0 -1 96 -285245645 -1358960641 -145 2096623615 2096565248
            1291648380 -705076156 -521158849</internalNodes>
          <leafValues>
            -5.2430558204650879e-01 6.8554687500000000e-01</leafValues></_>
        <_>
          <internalNodes>
            0 -1 22 1208062743 1092157719 1158156664 1563595024
            606077083 -1207435071 -922355530 -206572809</internalNodes>
          <leafValues>
            -7.5216811895370483e-01 4.8518157005310059e-01</leafValues></_>
        <_>
          <internalNodes>
            0 -1 37 -65604645 -136937340 -1258191959 -591453020
            -469554681 -16678783 -2036236082 -1632171337</internalNodes>
          <leafValues>
            -6.4613634347915649e-01 5.2722954750061035e-01</leafValues></_>
        <_>
          <internalNodes>
            0 -1 36 -83918849 -537919490 -83886085 -35265798 -83887233
            -269090824 -1157694465 -846081584</internalNodes>
          <leafValues>
            -5.3548091650009155e-01 6.3796108961105347e-01</leafValues></_>
        <_>
          <internalNodes>
            0 -1 0 -2136727423 -2062483119 289427713 -1759436479
            16827195 -1056890845 587235585 18055940</internalNodes>
          <leafValues>
            -7.7460539340972900e-01 4.4955945014953613e-01</leafValues></_>
        <_>
          <internalNodes>
            0 -1 5 -1869393861 1745325702 1075904520 104450 -2012790115
            134218315 8633279 55300015</internalNodes>
          <leafValues>
            -6.5474706888198853e-01 5.1851212978363037e-01</leafValues></_></weakClassifiers></_>
    <!-- stage 13 -->
    <_>
      <maxWeakCount>6</maxWeakCount>
      <stageThreshold>-1.2633188962936401e+00</stageThreshold>
      <weakClassifiers>
        <_>
          <internalNodes>
            0 -1 73 -1627911052 -8511623 83770876 1992706245 -1078002728
            -327681 -1963524100 -1143425200</internalNodes>
          <leafValues>
            -5.0909090042114258e-01 6.4761906862258911e-01</leafValues></_>
        <_>
          <internalNodes>
            0 -1 88 -1787561463 1155367437 -2044657313 -738082557
            -2004115412 -1744781055 -2071344996 -130180517</internalNodes>
          <leafValues>
            -5.6443494558334351e-01 5.7865267992019653e-01</leafValues></_>
        <_>
          <internalNodes>
            0 -1 29 -340079121 -354227012 -688079105 -546284300
            -1342316547 259850069 939325375 -3209989</internalNodes>
          <leafValues>
            -4.4234606623649597e-01 7.2873431444168091e-01</leafValues></_>
        <_>
          <internalNodes>
            0 -1 2 38325055 -1068380071 353452313 -1760194299 1174417927
            557062 -2104980701 1132679481</internalNodes>
          <leafValues>
            -7.2004437446594238e-01 4.6125575900077820e-01</leafValues></_>
        <_>
          <internalNodes>
            0 -1 43 -1046835073 -1056919534 -2146140106 -2050271198
            -2096061330 -2139095024 -1442610946 -996558661</internalNodes>
          <leafValues>
            -7.3563319444656372e-01 4.1995304822921753e-01</leafValues></_>
        <_>
          <internalNodes>
            0 -1 11 -224698257 -636384829 4102 268607554 -2096608680
            571293696 -1979678008 -1823604598</internalNodes>
          <leafValues>
            -6.1615711450576782e-01 5.6058126688003540e-01</leafValues></_></weakClassifiers></_>
    <!-- stage 14 -->
    <_>
      <maxWeakCount>6</maxWeakCount>
      <stageThreshold>-6.9841867685317993e-01</stageThreshold>
      <weakClassifiers>
        <_>
          <internalNodes>
            0 -1 44 -897162985 1897022346 -1958624495 -53182336
            -2096431093 -1416951135 -1610212977 -321093461</internalNodes>
          <leafValues>
            -8.0609416961669922e-01 5.5770784616470337e-01</leafValues></_>
        <_>
          <internalNodes>
            0 -1 91 -53273827 -1862044382 -1819127653 1430483083
            -1056845800 -1609957116 268495032 -97477960</internalNodes>
          <leafValues>
            -6.1850339174270630e-01 5.2673947811126709e-01</leafValues></_>
        <_>
          <internalNodes>
            0 -1 58 2097811838 369394050 35012866 -957934996 285220866
            1610727456 -1680930038 -324278073</internalNodes>
          <leafValues>
            -7.0043230056762695e-01 4.1984042525291443e-01</leafValues></_>
        <_>
          <internalNodes>
            0 -1 66 -2147286633 -644874109 285803798 -2078865064
            -2147483400 -1879048063 -332881392 -475954781</internalNodes>
          <leafValues>
            -8.1336510181427002e-01 3.7812396883964539e-01</leafValues></_>
        <_>
          <internalNodes>
            0 -1 94 1426784573 -786742891 268713991 1409368137
            -1065090376 134365192 1073809834 -217160721</internalNodes>
          <leafValues>
            -6.7128109931945801e-01 4.5170256495475769e-01</leafValues></_>
        <_>
          <internalNodes>
            0 -1 15 -217128482 1074421824 593946 -259944432 1208188939
            1074364419 -2113732086 -941649777</internalNodes>
          <leafValues>
            -5.2348804473876953e-01 6.0198855400085449e-01</leafValues></_></weakClassifiers></_>
    <!-- stage 15 -->
    <_>
      <maxWeakCount>7</maxWeakCount>
      <stageThreshold>-9.1111087799072266e-01</stageThreshold>
      <weakClassifiers>
        <_>
          <internalNodes>
            0 -1 63 -1667364104 -686423982 -2004684463 -33549072
            -1202709846 -253655035 411601344 -1347813376</internalNodes>
          <leafValues>
            -7.5392669439315796e-01 5.6486040353775024e-01</leafValues></_>
        <_>
          <internalNodes>
            0 -1 90 -710061964 -779155432 1082458771 1402667083
            -775896592 -671055869 -1853301864 -81762276</internalNodes>
          <leafValues>
            -6.4486020803451538e-01 4.7979599237442017e-01</leafValues></_>
        <_>
          <internalNodes>
            0 -1 26 -803748865 -586841966 -2128510957 -1055862134
            -939003446 1872298120 -1610364776 -1694465904</internalNodes>
          <leafValues>
            -5.7684129476547241e-01 5.1868587732315063e-01</leafValues></_>
        <_>
          <internalNodes>
            0 -1 75 1350734016 -805240832 268959745 -761986432
            -2004713344 -1633681400 -1308435942 -215871485</internalNodes>
          <leafValues>
            -6.4325237274169922e-01 5.0040280818939209e-01</leafValues></_>
        <_>
          <internalNodes>
            0 -1 51 -1605360931 -670037616 285246365 -577748787
            -1459581797 -1442184960 -1853843277 -542453335</internalNodes>
          <leafValues>
            -5.4332011938095093e-01 5.6762844324111938e-01</leafValues></_>
        <_>
          <internalNodes>
            0 -1 67 -1285089963 -1095041297 -1078017406 -1108381745
            2147483372 981008255 1608326911 -576897025</internalNodes>
          <leafValues>
            -5.4134309291839600e-01 6.0803347826004028e-01</leafValues></_>
        <_>
          <internalNodes>
            0 -1 86 38293735 18415621 -2113896302 16842945 268439806
            638296353 453640286 -41389357</internalNodes>
          <leafValues>
            -5.7140558958053589e-01 5.8242225646972656e-01</leafValues></_></weakClassifiers></_>
    <!-- stage 16 -->
    <_>
      <maxWeakCount>7</maxWeakCount>
      <stageThreshold>-9.4896435737609863e-01</stageThreshold>
      <weakClassifiers>
        <_>
          <internalNodes>
            0 -1 54 -1100023809 -248638823 1498632479 -1073610736
            -1324166814 -106758128 -1283258226 -359743284</internalNodes>
          <leafValues>
            -6.3265305757522583e-01 5.8584988117218018e-01</leafValues></_>
        <_>
          <internalNodes>
            0 -1 16 -238702369 -817368632 268636370 -740175616
            -1869995873 -1572634024 940280543 -675220484</internalNodes>
          <leafValues>
            -6.1208528280258179e-01 5.3230851888656616e-01</leafValues></_>
        <_>
          <internalNodes>
            0 -1 79 -788277763 -582938367 -2147311478 -913866275
            -358083824 1804206230 1260006146 -118640441</internalNodes>
          <leafValues>
            -6.1648327112197876e-01 4.6995556354522705e-01</leafValues></_>
        <_>
          <internalNodes>
            0 -1 87 -172351883 -98962 -1141113029 2004041599 1062265308
            -1087144073 -183190596 -350668099</internalNodes>
          <leafValues>
            -5.1791226863861084e-01 6.2179476022720337e-01</leafValues></_>
        <_>
          <internalNodes>
            0 -1 1 -531207125 566476945 1078034705 524738 268488299
            1610780674 268484759 1649146779</internalNodes>
          <leafValues>
            -6.5248745679855347e-01 4.7068971395492554e-01</leafValues></_>
        <_>
          <internalNodes>
            0 -1 42 -805207563 420511827 -2130701934 -539110976
            268435463 -686685519 -1610102597 -993423461</internalNodes>
          <leafValues>
            -6.0045433044433594e-01 4.9117285013198853e-01</leafValues></_>
        <_>
          <internalNodes>
            0 -1 73 -1933572880 -50315110 1914339545 -1836908403
            -1869944107 -1473740775 -2139051840 -78108363</internalNodes>
          <leafValues>
            -6.5116989612579346e-01 5.0504535436630249e-01</leafValues></_></weakClassifiers></_>
    <!-- stage 17 -->
    <_>
      <maxWeakCount>8</maxWeakCount>
      <stageThreshold>-1.2611974477767944e+00</stageThreshold>
      <weakClassifiers>
        <_>
          <internalNodes>
            0 -1 82 -1291454017 -738131515 33769603 -1014650877 33579034
            -914194290 -1027469198 -37426847</internalNodes>
          <leafValues>
            -7.3259055614471436e-01 5.3424656391143799e-01</leafValues></_>
        <_>
          <internalNodes>
            0 -1 95 -1010064559 -2143083519 147463 1979810049
            -1865711608 822675457 -1350295496 -331617749</internalNodes>
          <leafValues>
            -5.6273454427719116e-01 4.9229112267494202e-01</leafValues></_>
        <_>
          <internalNodes>
            0 -1 19 -783380378 -2108522344 -2147286959 -640835456
            -1056210917 -939327472 -1044135633 -887754664</internalNodes>
          <leafValues>
            -6.2807571887969971e-01 4.5609292387962341e-01</leafValues></_>
        <_>
          <internalNodes>
            0 -1 7 -791141254 -1324269518 -1878948847 21053701
            -2147311580 -1294983168 180755 1091609216</internalNodes>
          <leafValues>
            -6.3597613573074341e-01 4.4736877083778381e-01</leafValues></_>
        <_>
          <internalNodes>
            0 -1 99 -268566623 -1348522003 -4361 -1452048398 -328357624
            -1644282044 -54098814 192930991</internalNodes>
          <leafValues>
            -4.7499090433120728e-01 6.1827081441879272e-01</leafValues></_>
        <_>
          <internalNodes>
            0 -1 59 -25199241 1793785838 -1359073710 -335565075
            -545431980 -1192165633 1568627935 -537223753</internalNodes>
          <leafValues>
            -5.1999884843826294e-01 6.0259830951690674e-01</leafValues></_>
        <_>
          <internalNodes>
            0 -1 48 -1409351681 -1969033233 -33554562 2037512022
            -301990068 -2004944907 183617864 -1617695408</internalNodes>
          <leafValues>
            -4.4346040487289429e-01 6.2892580032348633e-01</leafValues></_>
        <_>
          <internalNodes>
            0 -1 62 -1476254916 1943289875 -2130640447 1598164992
            -1577017166 -100114304 -1601664549 195963552</internalNodes>
          <leafValues>
            -6.6857796907424927e-01 4.6239638328552246e-01</leafValues></_></weakClassifiers></_>
    <!-- stage 18 -->
    <_>
      <maxWeakCount>7</maxWeakCount>
      <stageThreshold>-9.9486696720123291e-01</stageThreshold>
      <weakClassifiers>
        <_>
          <internalNodes>
            0 -1 10 1090639897 835784849 286856024 -710129918 33555
            -2013233120 814239938 -537424997</internalNodes>
          <leafValues>
            -6.9393140077590942e-01 5.4299753904342651e-01</leafValues></_>
        <_>
          <internalNodes>
            0 -1 70 -137345539 -1857836835 16826499 -270581345
            -528265077 -2146926591 671787139 -1356144127</internalNodes>
          <leafValues>
            -5.1955515146255493e-01 5.3326636552810669e-01</leafValues></_>
        <_>
          <internalNodes>
            0 -1 55 1091367379 51972354 268435700 -579763952 -788522791
            -737599357 -926931202 -675849997</internalNodes>
          <leafValues>
            -5.5291914939880371e-01 5.3027993440628052e-01</leafValues></_>
        <_>
          <internalNodes>
            0 -1 28 172634903 -1755803008 16847873 -1928265150 675564291
            134217730 134330371 457935257</internalNodes>
          <leafValues>
            -6.5392935276031494e-01 4.5880576968193054e-01</leafValues></_>
        <_>
          <internalNodes>
            0 -1 97 -2121534757 -687464317 134283270 1883472139
            -352220608 -1876946656 -1121138520 -356791637</internalNodes>
          <leafValues>
            -5.0765460729598999e-01 5.4418069124221802e-01</leafValues></_>
        <_>
          <internalNodes>
            0 -1 49 -648947663 -1562016742 16777228 -586821375
            -2080140585 -1602191101 1627521611 -1995942997</internalNodes>
          <leafValues>
            -5.4359459877014160e-01 5.4261690378189087e-01</leafValues></_>
        <_>
          <internalNodes>
            0 -1 92 -1606294552 -2013265903 98305 286851080 -1878945588
            671613083 2014643840 4586043</internalNodes>
          <leafValues>
            -7.1113866567611694e-01 4.0612110495567322e-01</leafValues></_></weakClassifiers></_>
    <!-- stage 19 -->
    <_>
      <maxWeakCount>7</maxWeakCount>
      <stageThreshold>-7.6927953958511353e-01</stageThreshold>
      <weakClassifiers>
        <_>
          <internalNodes>
            0 -1 83 538172315 -1878949631 1095041055 -804945913
            956514366 -1988100033 1219232530 -52125087</internalNodes>
          <leafValues>
            -7.3760932683944702e-01 5.1949083805084229e-01</leafValues></_>
        <_>
          <internalNodes>
            0 -1 52 2073223613 -745422543 692392409 -1999920440 34087864
            -503312181 268632203 -365240182</internalNodes>
          <leafValues>
            -5.0460499525070190e-01 5.4140108823776245e-01</leafValues></_>
        <_>
          <internalNodes>
            0 -1 16 1364439967 -582859446 1100546329 1158000648
            -1996388182 -935198574 537625343 -808390403</internalNodes>
          <leafValues>
            -6.0085141658782959e-01 4.7789189219474792e-01</leafValues></_>
        <_>
          <internalNodes>
            0 -1 9 273072131 537018394 -2097151965 543096840 285447210
            437403907 -1601077205 1611634895</internalNodes>
          <leafValues>
            -6.3215303421020508e-01 4.6869581937789917e-01</leafValues></_>
        <_>
          <internalNodes>
            0 -1 60 1975383735 -545259673 262800009 -1145327632
            1585437917 2147483100 1340018139 -1080035573</internalNodes>
          <leafValues>
            -3.8508242368698120e-01 7.7400034666061401e-01</leafValues></_>
        <_>
          <internalNodes>
            0 -1 93 -787745999 -2146211787 233603 32896 25370888
            143163528 -1597308742 161196331</internalNodes>
          <leafValues>
            -5.1373243331909180e-01 5.5799591541290283e-01</leafValues></_>
        <_>
          <internalNodes>
            0 -1 68 -1810152890 2035361792 1212498385 -1072889839
            -1610555007 -1869053878 -1718842985 -81074159</internalNodes>
          <leafValues>
            -6.2084412574768066e-01 4.8113575577735901e-01</leafValues></_></weakClassifiers></_></stages>
  <features>
    <_>
      <rect>
        0 2 7 4</rect></_>
    <_>
      <rect>
        0 13 2 2</rect></_>
    <_>
      <rect>
        1 3 6 4</rect></_>
    <_>
      <rect>
        1 9 3 4</rect></_>
    <_>
      <rect>
        1 11 2 3</rect></_>
    <_>
      <rect>
        1 14 2 2</rect></_>
    <_>
      <rect>
        1 15 9 2</rect></_>
    <_>
      <rect>
        2 2 8 4</rect></_>
    <_>
      <rect>
        2 7 3 2</rect></_>
    <_>
      <rect>
        2 9 2 3</rect></_>
    <_>
      <rect>
        3 14 7 2</rect></_>
    <_>
      <rect>
        3 16 1 1</rect></_>
    <_>
      <rect>
        4 8 2 1</rect></_>
    <_>
      <rect>
        4 8 2 2</rect></_>
    <_>
      <rect>
        4 10 2 2</rect></_>
    <_>
      <rect>
        4 11 1 2</rect></_>
    <_>
      <rect>
        4 13 2 2</rect></_>
    <_>
      <rect>
        4 14 2 2</rect></_>
    <_>
      <rect>
        5 4 5 2</rect></_>
    <_>
      <rect>
        5 9 1 3</rect></_>
    <_>
      <rect>
        5 9 2 3</rect></_>
    <_>
      <rect>
        5 10 2 3</rect></_>
    <_>
      <rect>
        5 12 6 3</rect></_>
    <_>
      <rect>
        5 12 7 3</rect></_>
    <_>
      <rect>
        5 14 7 3</rect></_>
    <_>
      <rect>
        5 15 7 2</rect></_>
    <_>
      <rect>
        5 16 2 2</rect></_>
    <_>
      <rect>
        5 16 7 3</rect></_>
    <_>
      <rect>
        6 5 2 3</rect></_>
    <_>
      <rect>
        6 8 1 1</rect></_>
    <_>
      <rect>
        6 9 2 3</rect></_>
    <_>
      <rect>
        6 9 3 2</rect></_>
    <_>
      <rect>
        6 9 6 6</rect></_>
    <_>
      <rect>
        6 11 3 2</rect></_>
    <_>
      <rect>
        6 12 3 2</rect></_>
    <_>
      <rect>
        6 13 6 3</rect></_>
    <_>
      <rect>
        6 15 2 2</rect></_>
    <_>
      <rect>
        7 8 3 2</rect></_>
    <_>
      <rect>
        7 10 2 2</rect></_>
    <_>
      <rect>
        7 10 5 4</rect></_>
    <_>
      <rect>
        7 11 3 3</rect></_>
    <_>
      <rect>
        7 12 6 5</rect></_>
    <_>
      <rect>
        7 16 4 2</rect></_>
    <_>
      <rect>
        7 17 5 2</rect></_>
    <_>
      <rect>
        8 10 2 2</rect></_>
    <_>
      <rect>
        8 10 5 5</rect></_>
    <_>
      <rect>
        8 13 5 3</rect></_>
    <_>
      <rect>
        8 14 5 2</rect></_>
    <_>
      <rect>
        8 19 2 1</rect></_>
    <_>
      <rect>
        8 20 4 2</rect></_>
    <_>
      <rect>
        9 5 2 2</rect></_>
    <_>
      <rect>
        9 6 2 1</rect></_>
    <_>
      <rect>
        9 8 3 2</rect></_>
    <_>
      <rect>
        9 9 3 2</rect></_>
    <_>
      <rect>
        10 9 2 2</rect></_>
    <_>
      <rect>
        10 17 5 2</rect></_>
    <_>
      <rect>
        11 8 3 2</rect></_>
    <_>
      <rect>
        11 10 2 2</rect></_>
    <_>
      <rect>
        11 11 2 2</rect></_>
    <_>
      <rect>
        11 20 3 2</rect></_>
    <_>
      <rect>
        11 21 4 2</rect></_>
    <_>
      <rect>
        12 4 4 3</rect></_>
    <_>
      <rect>
        12 5 2 1</rect></_>
    <_>
      <rect>
        12 7 3 2</rect></_>
    <_>
      <rect>
        12 7 4 3</rect></_>
    <_>
      <rect>
        12 9 2 2</rect></_>
    <_>
      <rect>
        12 15 4 2</rect></_>
    <_>
      <rect>
        12 20 3 2</rect></_>
    <_>
      <rect>
        13 10 3 1</rect></_>
    <_>
      <rect>
        13 18 2 2</rect></_>
    <_>
      <rect>
        14 8 2 2</rect></_>
    <_>
      <rect>
        14 10 2 4</rect></_>
    <_>
      <rect>
        14 14 1 1</rect></_>
    <_>
      <rect>
        15 8 2 1</rect></_>
    <_>
      <rect>
        15 13 3 2</rect></_>
    <_>
      <rect>
        15 14 1 1</rect></_>
    <_>
      <rect>
        16 10 3 2</rect></_>
    <_>
      <rect>
        16 13 1 1</rect></_>
    <_>
      <rect>
        16 14 2 2</rect></_>
    <_>
      <rect>
        16 18 2 1</rect></_>
    <_>
      <rect>
        17 6 3 2</rect></_>
    <_>
      <rect>
        17 10 2 2</rect></_>
    <_>
      <rect>
        17 14 2 2</rect></_>
    <_>
      <rect>
        18 13 2 2</rect></_>
    <_>
      <rect>
        18 13 2 3</rect></_>
    <_>
      <rect>
        18 14 2 2</rect></_>
    <_>
      <rect>
        18 15 2 2</rect></_>
    <_>
      <rect>
        19 7 1 1</rect></_>
    <_>
      <rect>
        20 7 2 3</rect></_>
    <_>
      <rect>
        20 8 3 3</rect></_>
    <_>
      <rect>
        20 9 1 1</rect></_>
    <_>
      <rect>
        20 10 1 1</rect></_>
    <_>
      <rect>
        20 11 3 4</rect></_>
    <_>
      <rect>
        21 4 3 6</rect></_>
    <_>
      <rect>
        21 5 1 3</rect></_>
    <_>
      <rect>
        21 8 2 3</rect></_>
    <_>
      <rect>
        21 9 3 3</rect></_>
    <_>
      <rect>
        21 11 2 1</rect></_>
    <_>
      <rect>
        22 9 1 1</rect></_>
    <_>
      <rect>
        24 12 2 3</rect></_></features></cascade>
</opencv_storage>
