<?xml version="1.0"?>
<opencv_storage>
<cascade>
  <stageType>BOOST</stageType>
  <featureType>HAAR</featureType>
  <height>50</height>
  <width>50</width>
  <stageParams>
    <boostType>GAB</boostType>
    <minHitRate>9.9900001287460327e-01</minHitRate>
    <maxFalseAlarm>5.0000000000000000e-01</maxFalseAlarm>
    <weightTrimRate>9.4999999999999996e-01</weightTrimRate>
    <maxDepth>1</maxDepth>
    <maxWeakCount>100</maxWeakCount></stageParams>
  <featureParams>
    <maxCatCount>0</maxCatCount>
    <featSize>1</featSize>
    <mode>BASIC</mode></featureParams>
  <stageNum>20</stageNum>
  <stages>
    <!-- stage 0 -->
    <_>
      <maxWeakCount>5</maxWeakCount>
      <stageThreshold>-1.4854885339736938e+00</stageThreshold>
      <weakClassifiers>
        <_>
          <internalNodes>
            0 -1 47 -1.0541688650846481e-02</internalNodes>
          <leafValues>
            7.4818837642669678e-01 -8.5887098312377930e-01</leafValues></_>
        <_>
          <internalNodes>
            0 -1 101 -3.1391044612973928e-03</internalNodes>
          <leafValues>
            5.8953166007995605e-01 -8.9396309852600098e-01</leafValues></_>
        <_>
          <internalNodes>
            0 -1 24 4.2050585150718689e-02</internalNodes>
          <leafValues>
            -6.4285838603973389e-01 7.4539935588836670e-01</leafValues></_>
        <_>
          <internalNodes>
            0 -1 91 -6.3476938521489501e-05</internalNodes>
          <leafValues>
            4.9410840868949890e-01 -8.4765595197677612e-01</leafValues></_>
        <_>
          <internalNodes>
            0 -1 175 -3.2086228020489216e-04</internalNodes>
          <leafValues>
            3.6960214376449585e-01 -7.6901495456695557e-01</leafValues></_></weakClassifiers></_>
    <!-- stage 1 -->
    <_>
      <maxWeakCount>5</maxWeakCount>
      <stageThreshold>-1.0424557924270630e+00</stageThreshold>
      <weakClassifiers>
        <_>
          <internalNodes>
            0 -1 53 -5.0376635044813156e-03</internalNodes>
          <leafValues>
            7.3273545503616333e-01 -8.5979384183883667e-01</leafValues></_>
        <_>
          <internalNodes>
            0 -1 31 2.6171477511525154e-02</internalNodes>
          <leafValues>
            -4.2664051055908203e-01 8.2844316959381104e-01</leafValues></_>
        <_>
          <internalNodes>
            0 -1 119 -3.5481445956975222e-04</internalNodes>
          <leafValues>
            3.8729050755500793e-01 -9.3943536281585693e-01</leafValues></_>
        <_>
          <internalNodes>
            0 -1 87 -2.9618167900480330e-04</internalNodes>
          <leafValues>
            3.0026909708976746e-01 -7.9374575614929199e-01</leafValues></_>
        <_>
          <internalNodes>
            0 -1 22 9.1236404841765761e-04</internalNodes>
          <leafValues>
            -4.3141594529151917e-01 6.5043383836746216e-01</leafValues></_></weakClassifiers></_>
    <!-- stage 2 -->
    <_>
      <maxWeakCount>5</maxWeakCount>
      <stageThreshold>-1.2977645397186279e+00</stageThreshold>
      <weakClassifiers>
        <_>
          <internalNodes>
            0 -1 69 -1.7225576448254287e-04</internalNodes>
          <leafValues>
            6.4333331584930420e-01 -9.3000000715255737e-01</leafValues></_>
        <_>
          <internalNodes>
            0 -1 149 -5.8632671425584704e-05</internalNodes>
          <leafValues>
            6.4326304197311401e-01 -6.0417073965072632e-01</leafValues></_>
        <_>
          <internalNodes>
            0 -1 230 7.2598799306433648e-05</internalNodes>
          <leafValues>
            -5.9378165006637573e-01 6.1505228281021118e-01</leafValues></_>
        <_>
          <internalNodes>
            0 -1 157 -1.3162152026779950e-04</internalNodes>
          <leafValues>
            4.5604601502418518e-01 -8.1049519777297974e-01</leafValues></_>
        <_>
          <internalNodes>
            0 -1 63 -9.2592346481978893e-04</internalNodes>
          <leafValues>
            3.7414190173149109e-01 -7.9594361782073975e-01</leafValues></_></weakClassifiers></_>
    <!-- stage 3 -->
    <_>
      <maxWeakCount>9</maxWeakCount>
      <stageThreshold>-1.2946473360061646e+00</stageThreshold>
      <weakClassifiers>
        <_>
          <internalNodes>
            0 -1 177 -8.3695969078689814e-04</internalNodes>
          <leafValues>
            5.7692307233810425e-01 -7.1782177686691284e-01</leafValues></_>
        <_>
          <internalNodes>
            0 -1 51 -5.8953254483640194e-04</internalNodes>
          <leafValues>
            4.3481773138046265e-01 -7.9227489233016968e-01</leafValues></_>
        <_>
          <internalNodes>
            0 -1 99 -3.1420955201610923e-04</internalNodes>
          <leafValues>
            3.4377840161323547e-01 -9.0601748228073120e-01</leafValues></_>
        <_>
          <internalNodes>
            0 -1 21 4.3617133051156998e-03</internalNodes>
          <leafValues>
            -5.0526255369186401e-01 5.3222370147705078e-01</leafValues></_>
        <_>
          <internalNodes>
            0 -1 159 -2.0958743698429316e-04</internalNodes>
          <leafValues>
            4.8117095232009888e-01 -5.4769068956375122e-01</leafValues></_>
        <_>
          <internalNodes>
            0 -1 103 -3.3195075229741633e-04</internalNodes>
          <leafValues>
            2.4665796756744385e-01 -9.1218179464340210e-01</leafValues></_>
        <_>
          <internalNodes>
            0 -1 194 -2.5486510246992111e-02</internalNodes>
          <leafValues>
            5.8733779191970825e-01 -4.2411175370216370e-01</leafValues></_>
        <_>
          <internalNodes>
            0 -1 68 -1.5121274627745152e-03</internalNodes>
          <leafValues>
            3.1472843885421753e-01 -7.7191531658172607e-01</leafValues></_>
        <_>
          <internalNodes>
            0 -1 26 4.6871602535247803e-05</internalNodes>
          <leafValues>
            -3.3736905455589294e-01 7.1909672021865845e-01</leafValues></_></weakClassifiers></_>
    <!-- stage 4 -->
    <_>
      <maxWeakCount>8</maxWeakCount>
      <stageThreshold>-1.1814959049224854e+00</stageThreshold>
      <weakClassifiers>
        <_>
          <internalNodes>
            0 -1 8 1.9657909870147705e-02</internalNodes>
          <leafValues>
            -2.7895981073379517e-01 8.4350132942199707e-01</leafValues></_>
        <_>
          <internalNodes>
            0 -1 70 -1.4862820971757174e-03</internalNodes>
          <leafValues>
            4.2987576127052307e-01 -7.4914270639419556e-01</leafValues></_>
        <_>
          <internalNodes>
            0 -1 111 -7.8453700989484787e-03</internalNodes>
          <leafValues>
            -8.8427364826202393e-01 2.6249006390571594e-01</leafValues></_>
        <_>
          <internalNodes>
            0 -1 202 -7.1900949114933610e-04</internalNodes>
          <leafValues>
            3.1723278760910034e-01 -6.4981019496917725e-01</leafValues></_>
        <_>
          <internalNodes>
            0 -1 170 5.6061074137687683e-03</internalNodes>
          <leafValues>
            2.1202434599399567e-01 -9.5279830694198608e-01</leafValues></_>
        <_>
          <internalNodes>
            0 -1 19 1.1741441488265991e-01</internalNodes>
          <leafValues>
            -3.9473989605903625e-01 6.3622915744781494e-01</leafValues></_>
        <_>
          <internalNodes>
            0 -1 154 -1.0681168176233768e-02</internalNodes>
          <leafValues>
            -8.7970107793807983e-01 2.5555929541587830e-01</leafValues></_>
        <_>
          <internalNodes>
            0 -1 214 -3.4357812255620956e-03</internalNodes>
          <leafValues>
            3.4080371260643005e-01 -5.2083569765090942e-01</leafValues></_></weakClassifiers></_>
    <!-- stage 5 -->
    <_>
      <maxWeakCount>10</maxWeakCount>
      <stageThreshold>-1.2319947481155396e+00</stageThreshold>
      <weakClassifiers>
        <_>
          <internalNodes>
            0 -1 54 -8.2434806972742081e-04</internalNodes>
          <leafValues>
            4.9611198902130127e-01 -7.5796180963516235e-01</leafValues></_>
        <_>
          <internalNodes>
            0 -1 131 -6.0330268752295524e-05</internalNodes>
          <leafValues>
            2.7767080068588257e-01 -9.3498694896697998e-01</leafValues></_>
        <_>
          <internalNodes>
            0 -1 2 2.9479268938302994e-02</internalNodes>
          <leafValues>
            -4.9150526523590088e-01 4.8266181349754333e-01</leafValues></_>
        <_>
          <internalNodes>
            0 -1 128 1.0240681003779173e-03</internalNodes>
          <leafValues>
            2.7402228116989136e-01 -8.4041142463684082e-01</leafValues></_>
        <_>
          <internalNodes>
            0 -1 190 3.6951578222215176e-03</internalNodes>
          <leafValues>
            1.9490407407283783e-01 -8.2345092296600342e-01</leafValues></_>
        <_>
          <internalNodes>
            0 -1 143 -8.1319268792867661e-04</internalNodes>
          <leafValues>
            1.6838155686855316e-01 -7.4280065298080444e-01</leafValues></_>
        <_>
          <internalNodes>
            0 -1 120 -2.6414858177304268e-02</internalNodes>
          <leafValues>
            -8.3832526206970215e-01 1.9601702690124512e-01</leafValues></_>
        <_>
          <internalNodes>
            0 -1 209 -1.7806577961891890e-03</internalNodes>
          <leafValues>
            3.7143296003341675e-01 -4.3480336666107178e-01</leafValues></_>
        <_>
          <internalNodes>
            0 -1 83 -8.8232634880114347e-05</internalNodes>
          <leafValues>
            1.7549091577529907e-01 -9.5385158061981201e-01</leafValues></_>
        <_>
          <internalNodes>
            0 -1 52 -1.6630721802357584e-04</internalNodes>
          <leafValues>
            3.4039801359176636e-01 -5.7205563783645630e-01</leafValues></_></weakClassifiers></_>
    <!-- stage 6 -->
    <_>
      <maxWeakCount>11</maxWeakCount>
      <stageThreshold>-1.8967342376708984e+00</stageThreshold>
      <weakClassifiers>
        <_>
          <internalNodes>
            0 -1 20 4.6014122664928436e-02</internalNodes>
          <leafValues>
            -2.6913580298423767e-01 7.8227847814559937e-01</leafValues></_>
        <_>
          <internalNodes>
            0 -1 179 1.1826718691736460e-03</internalNodes>
          <leafValues>
            3.2157337665557861e-01 -8.8888788223266602e-01</leafValues></_>
        <_>
          <internalNodes>
            0 -1 180 -1.1139550479128957e-03</internalNodes>
          <leafValues>
            -8.7974900007247925e-01 2.2007931768894196e-01</leafValues></_>
        <_>
          <internalNodes>
            0 -1 229 -4.7367135994136333e-04</internalNodes>
          <leafValues>
            -6.7882484197616577e-01 2.2830186784267426e-01</leafValues></_>
        <_>
          <internalNodes>
            0 -1 201 1.5825622249394655e-03</internalNodes>
          <leafValues>
            2.0390926301479340e-01 -8.1183141469955444e-01</leafValues></_>
        <_>
          <internalNodes>
            0 -1 37 -6.4911646768450737e-04</internalNodes>
          <leafValues>
            2.2543019056320190e-01 -6.7045432329177856e-01</leafValues></_>
        <_>
          <internalNodes>
            0 -1 90 4.8827833961695433e-04</internalNodes>
          <leafValues>
            2.1658155322074890e-01 -8.3532786369323730e-01</leafValues></_>
        <_>
          <internalNodes>
            0 -1 141 -1.1479586362838745e-02</internalNodes>
          <leafValues>
            -9.0163385868072510e-01 1.5136249363422394e-01</leafValues></_>
        <_>
          <internalNodes>
            0 -1 97 4.9542362103238702e-04</internalNodes>
          <leafValues>
            1.2818646430969238e-01 -9.5492303371429443e-01</leafValues></_>
        <_>
          <internalNodes>
            0 -1 139 -1.6883973148651421e-04</internalNodes>
          <leafValues>
            3.4120255708694458e-01 -4.8446053266525269e-01</leafValues></_>
        <_>
          <internalNodes>
            0 -1 82 1.7519170651212335e-03</internalNodes>
          <leafValues>
            1.7347006499767303e-01 -9.7930240631103516e-01</leafValues></_></weakClassifiers></_>
    <!-- stage 7 -->
    <_>
      <maxWeakCount>10</maxWeakCount>
      <stageThreshold>-1.3253120183944702e+00</stageThreshold>
      <weakClassifiers>
        <_>
          <internalNodes>
            0 -1 33 -3.4062704071402550e-03</internalNodes>
          <leafValues>
            6.6800802946090698e-01 -4.3564355373382568e-01</leafValues></_>
        <_>
          <internalNodes>
            0 -1 40 -4.5731561258435249e-03</internalNodes>
          <leafValues>
            5.0643926858901978e-01 -4.4685623049736023e-01</leafValues></_>
        <_>
          <internalNodes>
            0 -1 59 -5.1520956913009286e-04</internalNodes>
          <leafValues>
            2.8270241618156433e-01 -7.1778243780136108e-01</leafValues></_>
        <_>
          <internalNodes>
            0 -1 213 6.0690431855618954e-03</internalNodes>
          <leafValues>
            -3.1252121925354004e-01 5.6184178590774536e-01</leafValues></_>
        <_>
          <internalNodes>
            0 -1 248 -1.8151239491999149e-03</internalNodes>
          <leafValues>
            4.7209811210632324e-01 -3.9157396554946899e-01</leafValues></_>
        <_>
          <internalNodes>
            0 -1 135 -1.8830660264939070e-03</internalNodes>
          <leafValues>
            -7.5526243448257446e-01 2.6528093218803406e-01</leafValues></_>
        <_>
          <internalNodes>
            0 -1 28 4.7044316306710243e-03</internalNodes>
          <leafValues>
            -3.1419488787651062e-01 5.5148667097091675e-01</leafValues></_>
        <_>
          <internalNodes>
            0 -1 86 -5.5137171875685453e-04</internalNodes>
          <leafValues>
            1.4040884375572205e-01 -9.2931544780731201e-01</leafValues></_>
        <_>
          <internalNodes>
            0 -1 155 -1.3963142409920692e-03</internalNodes>
          <leafValues>
            4.8642337322235107e-01 -3.3711397647857666e-01</leafValues></_>
        <_>
          <internalNodes>
            0 -1 11 -1.7416571080684662e-01</internalNodes>
          <leafValues>
            -8.5603082180023193e-01 2.2419960796833038e-01</leafValues></_></weakClassifiers></_>
    <!-- stage 8 -->
    <_>
      <maxWeakCount>13</maxWeakCount>
      <stageThreshold>-1.3571534156799316e+00</stageThreshold>
      <weakClassifiers>
        <_>
          <internalNodes>
            0 -1 164 -1.0268583428114653e-03</internalNodes>
          <leafValues>
            4.5344436168670654e-01 -7.1326166391372681e-01</leafValues></_>
        <_>
          <internalNodes>
            0 -1 5 2.5253579020500183e-02</internalNodes>
          <leafValues>
            -2.9226189851760864e-01 6.8546789884567261e-01</leafValues></_>
        <_>
          <internalNodes>
            0 -1 62 -1.0407410445623100e-04</internalNodes>
          <leafValues>
            2.3778764903545380e-01 -7.8887909650802612e-01</leafValues></_>
        <_>
          <internalNodes>
            0 -1 225 4.4400095939636230e-03</internalNodes>
          <leafValues>
            -2.9932913184165955e-01 5.8108830451965332e-01</leafValues></_>
        <_>
          <internalNodes>
            0 -1 166 1.0909393895417452e-03</internalNodes>
          <leafValues>
            1.7096060514450073e-01 -8.9962935447692871e-01</leafValues></_>
        <_>
          <internalNodes>
            0 -1 235 -6.0951756313443184e-03</internalNodes>
          <leafValues>
            6.0405361652374268e-01 -2.5852417945861816e-01</leafValues></_>
        <_>
          <internalNodes>
            0 -1 106 6.1141654441598803e-05</internalNodes>
          <leafValues>
            2.4700492620468140e-01 -7.0579791069030762e-01</leafValues></_>
        <_>
          <internalNodes>
            0 -1 208 -2.6356484740972519e-03</internalNodes>
          <leafValues>
            3.5653471946716309e-01 -3.7811920046806335e-01</leafValues></_>
        <_>
          <internalNodes>
            0 -1 145 -1.2300489470362663e-02</internalNodes>
          <leafValues>
            -8.2113420963287354e-01 2.0058488845825195e-01</leafValues></_>
        <_>
          <internalNodes>
            0 -1 244 4.5183002948760986e-02</internalNodes>
          <leafValues>
            -2.7466112375259399e-01 6.4186841249465942e-01</leafValues></_>
        <_>
          <internalNodes>
            0 -1 183 3.8714212132617831e-04</internalNodes>
          <leafValues>
            2.2122986614704132e-01 -6.1498337984085083e-01</leafValues></_>
        <_>
          <internalNodes>
            0 -1 196 -1.3943433295935392e-03</internalNodes>
          <leafValues>
            -7.5407803058624268e-01 1.7610815167427063e-01</leafValues></_>
        <_>
          <internalNodes>
            0 -1 15 4.0345219895243645e-04</internalNodes>
          <leafValues>
            -3.8922911882400513e-01 3.1580689549446106e-01</leafValues></_></weakClassifiers></_>
    <!-- stage 9 -->
    <_>
      <maxWeakCount>15</maxWeakCount>
      <stageThreshold>-1.4274840354919434e+00</stageThreshold>
      <weakClassifiers>
        <_>
          <internalNodes>
            0 -1 18 -3.8067293353378773e-03</internalNodes>
          <leafValues>
            5.3363227844238281e-01 -4.0206184983253479e-01</leafValues></_>
        <_>
          <internalNodes>
            0 -1 132 -2.4412863422185183e-04</internalNodes>
          <leafValues>
            2.2115817666053772e-01 -8.5776001214981079e-01</leafValues></_>
        <_>
          <internalNodes>
            0 -1 215 -3.1336939428001642e-03</internalNodes>
          <leafValues>
            3.5968539118766785e-01 -4.5616227388381958e-01</leafValues></_>
        <_>
          <internalNodes>
            0 -1 241 -2.6535112410783768e-03</internalNodes>
          <leafValues>
            7.1035259962081909e-01 -2.4140869081020355e-01</leafValues></_>
        <_>
          <internalNodes>
            0 -1 108 4.8746442189440131e-04</internalNodes>
          <leafValues>
            2.0563906431198120e-01 -8.1983643770217896e-01</leafValues></_>
        <_>
          <internalNodes>
            0 -1 159 -6.5882362832780927e-05</internalNodes>
          <leafValues>
            2.6856371760368347e-01 -5.3950172662734985e-01</leafValues></_>
        <_>
          <internalNodes>
            0 -1 58 -6.1964325141161680e-04</internalNodes>
          <leafValues>
            2.9975292086601257e-01 -5.5412632226943970e-01</leafValues></_>
        <_>
          <internalNodes>
            0 -1 205 1.5380701050162315e-02</internalNodes>
          <leafValues>
            -1.9173355400562286e-01 8.1044244766235352e-01</leafValues></_>
        <_>
          <internalNodes>
            0 -1 67 4.4503819663077593e-04</internalNodes>
          <leafValues>
            2.1027335524559021e-01 -7.8135204315185547e-01</leafValues></_>
        <_>
          <internalNodes>
            0 -1 207 -2.8791185468435287e-03</internalNodes>
          <leafValues>
            4.6384158730506897e-01 -3.2627716660499573e-01</leafValues></_>
        <_>
          <internalNodes>
            0 -1 112 -8.6489325622096658e-04</internalNodes>
          <leafValues>
            -9.0161955356597900e-01 1.6471411287784576e-01</leafValues></_>
        <_>
          <internalNodes>
            0 -1 142 -3.2534218917135149e-05</internalNodes>
          <leafValues>
            3.1113058328628540e-01 -4.6243864297866821e-01</leafValues></_>
        <_>
          <internalNodes>
            0 -1 123 -1.2987514492124319e-03</internalNodes>
          <leafValues>
            -8.4783589839935303e-01 1.2939357757568359e-01</leafValues></_>
        <_>
          <internalNodes>
            0 -1 238 1.0217844974249601e-03</internalNodes>
          <leafValues>
            -2.4739678204059601e-01 6.5357637405395508e-01</leafValues></_>
        <_>
          <internalNodes>
            0 -1 173 -1.6382413450628519e-03</internalNodes>
          <leafValues>
            3.9212545752525330e-01 -3.4599676728248596e-01</leafValues></_></weakClassifiers></_>
    <!-- stage 10 -->
    <_>
      <maxWeakCount>17</maxWeakCount>
      <stageThreshold>-1.4537652730941772e+00</stageThreshold>
      <weakClassifiers>
        <_>
          <internalNodes>
            0 -1 50 -1.5473731327801943e-03</internalNodes>
          <leafValues>
            5.2110248804092407e-01 -4.6697038412094116e-01</leafValues></_>
        <_>
          <internalNodes>
            0 -1 193 -8.6903228657320142e-04</internalNodes>
          <leafValues>
            3.0694237351417542e-01 -5.7280546426773071e-01</leafValues></_>
        <_>
          <internalNodes>
            0 -1 226 -7.9980783630162477e-04</internalNodes>
          <leafValues>
            -6.0469168424606323e-01 3.4397742152214050e-01</leafValues></_>
        <_>
          <internalNodes>
            0 -1 23 -1.1126723140478134e-02</internalNodes>
          <leafValues>
            2.5426718592643738e-01 -5.1924514770507812e-01</leafValues></_>
        <_>
          <internalNodes>
            0 -1 96 -4.8392939788755029e-05</internalNodes>
          <leafValues>
            1.6153576970100403e-01 -8.3806383609771729e-01</leafValues></_>
        <_>
          <internalNodes>
            0 -1 148 2.1349295973777771e-02</internalNodes>
          <leafValues>
            -2.3732675611972809e-01 5.7069993019104004e-01</leafValues></_>
        <_>
          <internalNodes>
            0 -1 104 1.2325093848630786e-04</internalNodes>
          <leafValues>
            1.6141265630722046e-01 -7.1572983264923096e-01</leafValues></_>
        <_>
          <internalNodes>
            0 -1 17 5.5089816451072693e-03</internalNodes>
          <leafValues>
            -2.6657208800315857e-01 5.4025340080261230e-01</leafValues></_>
        <_>
          <internalNodes>
            0 -1 71 -2.3700559977442026e-03</internalNodes>
          <leafValues>
            2.4017715454101562e-01 -5.9428107738494873e-01</leafValues></_>
        <_>
          <internalNodes>
            0 -1 3 -2.4161208420991898e-02</internalNodes>
          <leafValues>
            6.2585878372192383e-01 -2.5543347001075745e-01</leafValues></_>
        <_>
          <internalNodes>
            0 -1 84 -7.6771061867475510e-04</internalNodes>
          <leafValues>
            -7.6327496767044067e-01 2.1099489927291870e-01</leafValues></_>
        <_>
          <internalNodes>
            0 -1 36 -7.9877173993736506e-04</internalNodes>
          <leafValues>
            3.2318201661109924e-01 -4.0287625789642334e-01</leafValues></_>
        <_>
          <internalNodes>
            0 -1 255 -1.5522052999585867e-03</internalNodes>
          <leafValues>
            6.3081032037734985e-01 -1.9686870276927948e-01</leafValues></_>
        <_>
          <internalNodes>
            0 -1 212 -1.6161324456334114e-02</internalNodes>
          <leafValues>
            8.3940863609313965e-01 -1.2507435679435730e-01</leafValues></_>
        <_>
          <internalNodes>
            0 -1 247 -2.4040821008384228e-03</internalNodes>
          <leafValues>
            4.8267623782157898e-01 -2.9666295647621155e-01</leafValues></_>
        <_>
          <internalNodes>
            0 -1 200 -2.9098542290739715e-04</internalNodes>
          <leafValues>
            3.2438948750495911e-01 -4.5241254568099976e-01</leafValues></_>
        <_>
          <internalNodes>
            0 -1 220 2.0072082988917828e-03</internalNodes>
          <leafValues>
            1.8702244758605957e-01 -8.2719689607620239e-01</leafValues></_></weakClassifiers></_>
    <!-- stage 11 -->
    <_>
      <maxWeakCount>15</maxWeakCount>
      <stageThreshold>-1.3520624637603760e+00</stageThreshold>
      <weakClassifiers>
        <_>
          <internalNodes>
            0 -1 29 7.2621135041117668e-03</internalNodes>
          <leafValues>
            -1.4716981351375580e-01 6.4223605394363403e-01</leafValues></_>
        <_>
          <internalNodes>
            0 -1 124 -2.1652788855135441e-03</internalNodes>
          <leafValues>
            2.3358371853828430e-01 -7.2147321701049805e-01</leafValues></_>
        <_>
          <internalNodes>
            0 -1 1 -3.0934539437294006e-01</internalNodes>
          <leafValues>
            -7.0728284120559692e-01 2.0830526947975159e-01</leafValues></_>
        <_>
          <internalNodes>
            0 -1 169 1.0847147786989808e-03</internalNodes>
          <leafValues>
            -3.2091626524925232e-01 4.6413543820381165e-01</leafValues></_>
        <_>
          <internalNodes>
            0 -1 60 -2.1850009215995669e-04</internalNodes>
          <leafValues>
            1.8274877965450287e-01 -8.0961823463439941e-01</leafValues></_>
        <_>
          <internalNodes>
            0 -1 57 3.8494708132930100e-04</internalNodes>
          <leafValues>
            1.2891016900539398e-01 -8.3893644809722900e-01</leafValues></_>
        <_>
          <internalNodes>
            0 -1 39 -6.5333843231201172e-02</internalNodes>
          <leafValues>
            5.2237832546234131e-01 -2.8679871559143066e-01</leafValues></_>
        <_>
          <internalNodes>
            0 -1 136 -2.5256405933760107e-04</internalNodes>
          <leafValues>
            3.2526406645774841e-01 -4.1143015027046204e-01</leafValues></_>
        <_>
          <internalNodes>
            0 -1 133 8.3154824096709490e-04</internalNodes>
          <leafValues>
            1.4306551218032837e-01 -8.4393996000289917e-01</leafValues></_>
        <_>
          <internalNodes>
            0 -1 232 7.1145977926789783e-06</internalNodes>
          <leafValues>
            -3.8658860325813293e-01 3.0822366476058960e-01</leafValues></_>
        <_>
          <internalNodes>
            0 -1 110 -7.5067894067615271e-04</internalNodes>
          <leafValues>
            -7.5844073295593262e-01 1.6153410077095032e-01</leafValues></_>
        <_>
          <internalNodes>
            0 -1 191 1.6750718932598829e-03</internalNodes>
          <leafValues>
            -2.2344599664211273e-01 6.3236528635025024e-01</leafValues></_>
        <_>
          <internalNodes>
            0 -1 43 -1.8112575635313988e-02</internalNodes>
          <leafValues>
            -4.9438992142677307e-01 2.7089074254035950e-01</leafValues></_>
        <_>
          <internalNodes>
            0 -1 254 -2.1427141036838293e-03</internalNodes>
          <leafValues>
            6.0304176807403564e-01 -2.0563508570194244e-01</leafValues></_>
        <_>
          <internalNodes>
            0 -1 25 -2.1525693591684103e-03</internalNodes>
          <leafValues>
            2.9962453246116638e-01 -4.1028502583503723e-01</leafValues></_></weakClassifiers></_>
    <!-- stage 12 -->
    <_>
      <maxWeakCount>17</maxWeakCount>
      <stageThreshold>-1.4196696281433105e+00</stageThreshold>
      <weakClassifiers>
        <_>
          <internalNodes>
            0 -1 13 3.6037033423781395e-03</internalNodes>
          <leafValues>
            -1.3486005365848541e-01 6.2162160873413086e-01</leafValues></_>
        <_>
          <internalNodes>
            0 -1 76 8.1572320777922869e-04</internalNodes>
          <leafValues>
            2.2940416634082794e-01 -6.9554138183593750e-01</leafValues></_>
        <_>
          <internalNodes>
            0 -1 98 -6.5343547612428665e-04</internalNodes>
          <leafValues>
            1.7645250260829926e-01 -6.9716089963912964e-01</leafValues></_>
        <_>
          <internalNodes>
            0 -1 167 -2.3788640100974590e-04</internalNodes>
          <leafValues>
            1.7667061090469360e-01 -7.3259639739990234e-01</leafValues></_>
        <_>
          <internalNodes>
            0 -1 218 -3.4832484088838100e-03</internalNodes>
          <leafValues>
            3.7474718689918518e-01 -3.3050966262817383e-01</leafValues></_>
        <_>
          <internalNodes>
            0 -1 198 1.0756579227745533e-02</internalNodes>
          <leafValues>
            -2.5471079349517822e-01 6.0060960054397583e-01</leafValues></_>
        <_>
          <internalNodes>
            0 -1 140 -2.9429200367303565e-05</internalNodes>
          <leafValues>
            2.2753901779651642e-01 -5.3606295585632324e-01</leafValues></_>
        <_>
          <internalNodes>
            0 -1 80 -2.6832153089344501e-03</internalNodes>
          <leafValues>
            -7.7282083034515381e-01 1.6929998993873596e-01</leafValues></_>
        <_>
          <internalNodes>
            0 -1 240 7.4930912815034389e-03</internalNodes>
          <leafValues>
            -2.1873541176319122e-01 6.2999677658081055e-01</leafValues></_>
        <_>
          <internalNodes>
            0 -1 55 -8.6098257452249527e-03</internalNodes>
          <leafValues>
            -6.9206881523132324e-01 2.0385111868381500e-01</leafValues></_>
        <_>
          <internalNodes>
            0 -1 211 -7.6033780351281166e-04</internalNodes>
          <leafValues>
            -6.9379073381423950e-01 1.0445570200681686e-01</leafValues></_>
        <_>
          <internalNodes>
            0 -1 252 -2.5263524730689824e-04</internalNodes>
          <leafValues>
            5.2842831611633301e-01 -2.0856857299804688e-01</leafValues></_>
        <_>
          <internalNodes>
            0 -1 227 3.5260124132037163e-03</internalNodes>
          <leafValues>
            -1.5007445216178894e-01 7.2868877649307251e-01</leafValues></_>
        <_>
          <internalNodes>
            0 -1 129 8.1801284977700561e-05</internalNodes>
          <leafValues>
            2.0041981339454651e-01 -5.9183800220489502e-01</leafValues></_>
        <_>
          <internalNodes>
            0 -1 7 -4.0601886808872223e-02</internalNodes>
          <leafValues>
            -5.9402364492416382e-01 1.8155770003795624e-01</leafValues></_>
        <_>
          <internalNodes>
            0 -1 206 -1.6816477291285992e-03</internalNodes>
          <leafValues>
            4.1510087251663208e-01 -2.8811103105545044e-01</leafValues></_>
        <_>
          <internalNodes>
            0 -1 130 -2.0597811089828610e-04</internalNodes>
          <leafValues>
            1.6804596781730652e-01 -6.7108911275863647e-01</leafValues></_></weakClassifiers></_>
    <!-- stage 13 -->
    <_>
      <maxWeakCount>18</maxWeakCount>
      <stageThreshold>-1.4862816333770752e+00</stageThreshold>
      <weakClassifiers>
        <_>
          <internalNodes>
            0 -1 46 -1.9513054285198450e-03</internalNodes>
          <leafValues>
            4.9910554289817810e-01 -3.2780084013938904e-01</leafValues></_>
        <_>
          <internalNodes>
            0 -1 125 -1.0280716232955456e-03</internalNodes>
          <leafValues>
            3.9400324225425720e-01 -3.6405616998672485e-01</leafValues></_>
        <_>
          <internalNodes>
            0 -1 30 -5.7660304009914398e-02</internalNodes>
          <leafValues>
            4.6479311585426331e-01 -3.1569844484329224e-01</leafValues></_>
        <_>
          <internalNodes>
            0 -1 151 6.8915146403014660e-03</internalNodes>
          <leafValues>
            1.7189355194568634e-01 -8.3984184265136719e-01</leafValues></_>
        <_>
          <internalNodes>
            0 -1 32 -8.0369692295789719e-03</internalNodes>
          <leafValues>
            3.9980670809745789e-01 -3.5779881477355957e-01</leafValues></_>
        <_>
          <internalNodes>
            0 -1 10 2.3333661258220673e-02</internalNodes>
          <leafValues>
            -1.9345870614051819e-01 6.4504081010818481e-01</leafValues></_>
        <_>
          <internalNodes>
            0 -1 4 -7.7884364873170853e-03</internalNodes>
          <leafValues>
            3.7914621829986572e-01 -3.5514611005783081e-01</leafValues></_>
        <_>
          <internalNodes>
            0 -1 95 3.7005846388638020e-04</internalNodes>
          <leafValues>
            1.6875813901424408e-01 -8.9686822891235352e-01</leafValues></_>
        <_>
          <internalNodes>
            0 -1 210 -1.2443680316209793e-04</internalNodes>
          <leafValues>
            2.3800393939018250e-01 -4.7415992617607117e-01</leafValues></_>
        <_>
          <internalNodes>
            0 -1 187 1.4554694294929504e-02</internalNodes>
          <leafValues>
            -2.2215881943702698e-01 5.3057652711868286e-01</leafValues></_>
        <_>
          <internalNodes>
            0 -1 152 -9.2334318906068802e-03</internalNodes>
          <leafValues>
            -8.5302078723907471e-01 1.8158411979675293e-01</leafValues></_>
        <_>
          <internalNodes>
            0 -1 253 -1.3888200046494603e-03</internalNodes>
          <leafValues>
            5.1530784368515015e-01 -2.4799804389476776e-01</leafValues></_>
        <_>
          <internalNodes>
            0 -1 89 3.1851701351115480e-05</internalNodes>
          <leafValues>
            1.7472529411315918e-01 -6.5546888113021851e-01</leafValues></_>
        <_>
          <internalNodes>
            0 -1 115 -1.6205531210289337e-05</internalNodes>
          <leafValues>
            3.2079145312309265e-01 -3.6232742667198181e-01</leafValues></_>
        <_>
          <internalNodes>
            0 -1 74 -3.3187490771524608e-05</internalNodes>
          <leafValues>
            1.1849652230739594e-01 -9.7349989414215088e-01</leafValues></_>
        <_>
          <internalNodes>
            0 -1 223 -3.3069786150008440e-04</internalNodes>
          <leafValues>
            -4.9377849698066711e-01 1.7185990512371063e-01</leafValues></_>
        <_>
          <internalNodes>
            0 -1 231 -2.6319274911656976e-04</internalNodes>
          <leafValues>
            3.4588468074798584e-01 -3.1855198740959167e-01</leafValues></_>
        <_>
          <internalNodes>
            0 -1 237 -9.1808903962373734e-03</internalNodes>
          <leafValues>
            5.3544819355010986e-01 -2.0193238556385040e-01</leafValues></_></weakClassifiers></_>
    <!-- stage 14 -->
    <_>
      <maxWeakCount>18</maxWeakCount>
      <stageThreshold>-1.3564800024032593e+00</stageThreshold>
      <weakClassifiers>
        <_>
          <internalNodes>
            0 -1 105 -2.2396366111934185e-03</internalNodes>
          <leafValues>
            -3.2442748546600342e-01 5.2973979711532593e-01</leafValues></_>
        <_>
          <internalNodes>
            0 -1 109 6.3855206826701760e-04</internalNodes>
          <leafValues>
            2.1580871939659119e-01 -5.9099650382995605e-01</leafValues></_>
        <_>
          <internalNodes>
            0 -1 35 -1.3696869136765599e-03</internalNodes>
          <leafValues>
            2.3101557791233063e-01 -4.8982572555541992e-01</leafValues></_>
        <_>
          <internalNodes>
            0 -1 78 -2.7574684470891953e-02</internalNodes>
          <leafValues>
            4.3919879198074341e-01 -2.7658796310424805e-01</leafValues></_>
        <_>
          <internalNodes>
            0 -1 203 -1.2467085616663098e-03</internalNodes>
          <leafValues>
            2.4669367074966431e-01 -4.9170973896980286e-01</leafValues></_>
        <_>
          <internalNodes>
            0 -1 81 -1.2668441049754620e-03</internalNodes>
          <leafValues>
            -8.6175990104675293e-01 7.1618631482124329e-02</leafValues></_>
        <_>
          <internalNodes>
            0 -1 93 1.5942323952913284e-02</internalNodes>
          <leafValues>
            1.4275756478309631e-01 -8.4366047382354736e-01</leafValues></_>
        <_>
          <internalNodes>
            0 -1 245 2.8652022592723370e-03</internalNodes>
          <leafValues>
            -2.2421829402446747e-01 6.2258213758468628e-01</leafValues></_>
        <_>
          <internalNodes>
            0 -1 118 -7.0887501351535320e-04</internalNodes>
          <leafValues>
            2.1215237677097321e-01 -6.6467708349227905e-01</leafValues></_>
        <_>
          <internalNodes>
            0 -1 161 -9.4604241894558072e-05</internalNodes>
          <leafValues>
            3.0225539207458496e-01 -3.4841144084930420e-01</leafValues></_>
        <_>
          <internalNodes>
            0 -1 138 -7.6735094189643860e-03</internalNodes>
          <leafValues>
            -6.2004345655441284e-01 1.7760796844959259e-01</leafValues></_>
        <_>
          <internalNodes>
            0 -1 79 9.7143054008483887e-03</internalNodes>
          <leafValues>
            -2.8632590174674988e-01 4.8715162277221680e-01</leafValues></_>
        <_>
          <internalNodes>
            0 -1 165 -1.5543239424005151e-03</internalNodes>
          <leafValues>
            5.2168953418731689e-01 -2.3641209304332733e-01</leafValues></_>
        <_>
          <internalNodes>
            0 -1 134 -5.1824739202857018e-03</internalNodes>
          <leafValues>
            -6.9389718770980835e-01 2.0567722618579865e-01</leafValues></_>
        <_>
          <internalNodes>
            0 -1 127 2.6928768493235111e-03</internalNodes>
          <leafValues>
            7.9902999103069305e-02 -9.2513948678970337e-01</leafValues></_>
        <_>
          <internalNodes>
            0 -1 171 4.7637565876357257e-04</internalNodes>
          <leafValues>
            -2.5737577676773071e-01 4.5232066512107849e-01</leafValues></_>
        <_>
          <internalNodes>
            0 -1 160 -3.2568699680268764e-04</internalNodes>
          <leafValues>
            2.9722005128860474e-01 -3.6803033947944641e-01</leafValues></_>
        <_>
          <internalNodes>
            0 -1 85 5.7994399685412645e-04</internalNodes>
          <leafValues>
            -3.8202226161956787e-01 3.2284519076347351e-01</leafValues></_></weakClassifiers></_>
    <!-- stage 15 -->
    <_>
      <maxWeakCount>15</maxWeakCount>
      <stageThreshold>-1.1922398805618286e+00</stageThreshold>
      <weakClassifiers>
        <_>
          <internalNodes>
            0 -1 186 -1.4283158816397190e-03</internalNodes>
          <leafValues>
            5.0219106674194336e-01 -3.7690630555152893e-01</leafValues></_>
        <_>
          <internalNodes>
            0 -1 236 -5.1848770817741752e-04</internalNodes>
          <leafValues>
            -5.5278509855270386e-01 2.8311040997505188e-01</leafValues></_>
        <_>
          <internalNodes>
            0 -1 41 -1.0088730778079480e-04</internalNodes>
          <leafValues>
            3.5281020402908325e-01 -4.0745902061462402e-01</leafValues></_>
        <_>
          <internalNodes>
            0 -1 250 -7.9436860978603363e-03</internalNodes>
          <leafValues>
            5.5817019939422607e-01 -2.5590404868125916e-01</leafValues></_>
        <_>
          <internalNodes>
            0 -1 153 -1.7950680339708924e-03</internalNodes>
          <leafValues>
            4.6690160036087036e-01 -3.0650326609611511e-01</leafValues></_>
        <_>
          <internalNodes>
            0 -1 117 3.7085260264575481e-03</internalNodes>
          <leafValues>
            -2.7654275298118591e-01 5.0261145830154419e-01</leafValues></_>
        <_>
          <internalNodes>
            0 -1 64 1.0675300145521760e-03</internalNodes>
          <leafValues>
            1.5169985592365265e-01 -9.7594159841537476e-01</leafValues></_>
        <_>
          <internalNodes>
            0 -1 0 9.7134679555892944e-02</internalNodes>
          <leafValues>
            -2.6181200146675110e-01 5.1060134172439575e-01</leafValues></_>
        <_>
          <internalNodes>
            0 -1 219 -2.1469960920512676e-03</internalNodes>
          <leafValues>
            3.0262905359268188e-01 -4.1382908821105957e-01</leafValues></_>
        <_>
          <internalNodes>
            0 -1 150 -1.1394415050745010e-03</internalNodes>
          <leafValues>
            -8.9577645063400269e-01 1.3466365635395050e-01</leafValues></_>
        <_>
          <internalNodes>
            0 -1 16 5.6584901176393032e-04</internalNodes>
          <leafValues>
            -4.2854440212249756e-01 2.5123575329780579e-01</leafValues></_>
        <_>
          <internalNodes>
            0 -1 181 -7.2548072785139084e-03</internalNodes>
          <leafValues>
            -7.6626956462860107e-01 1.3621085882186890e-01</leafValues></_>
        <_>
          <internalNodes>
            0 -1 246 -2.0274822600185871e-03</internalNodes>
          <leafValues>
            5.2458816766738892e-01 -2.0469249784946442e-01</leafValues></_>
        <_>
          <internalNodes>
            0 -1 73 5.3751585073769093e-04</internalNodes>
          <leafValues>
            1.1932373791933060e-01 -8.2680290937423706e-01</leafValues></_>
        <_>
          <internalNodes>
            0 -1 107 -5.7413510512560606e-04</internalNodes>
          <leafValues>
            9.2588953673839569e-02 -8.5486358404159546e-01</leafValues></_></weakClassifiers></_>
    <!-- stage 16 -->
    <_>
      <maxWeakCount>16</maxWeakCount>
      <stageThreshold>-9.8261010646820068e-01</stageThreshold>
      <weakClassifiers>
        <_>
          <internalNodes>
            0 -1 184 1.4110731426626444e-03</internalNodes>
          <leafValues>
            3.9420288801193237e-01 -6.5454542636871338e-01</leafValues></_>
        <_>
          <internalNodes>
            0 -1 12 4.2212316766381264e-03</internalNodes>
          <leafValues>
            -2.8454640507698059e-01 4.3017160892486572e-01</leafValues></_>
        <_>
          <internalNodes>
            0 -1 228 -4.4679015991277993e-04</internalNodes>
          <leafValues>
            -3.9911201596260071e-01 3.6461478471755981e-01</leafValues></_>
        <_>
          <internalNodes>
            0 -1 188 -5.2170435083098710e-05</internalNodes>
          <leafValues>
            2.4510182440280914e-01 -3.8626968860626221e-01</leafValues></_>
        <_>
          <internalNodes>
            0 -1 224 6.8706661462783813e-02</internalNodes>
          <leafValues>
            -1.9947093725204468e-01 5.2690452337265015e-01</leafValues></_>
        <_>
          <internalNodes>
            0 -1 126 1.4965780428610742e-04</internalNodes>
          <leafValues>
            -4.2935332655906677e-01 2.1690928936004639e-01</leafValues></_>
        <_>
          <internalNodes>
            0 -1 61 -9.0268085477873683e-04</internalNodes>
          <leafValues>
            1.5611161291599274e-01 -6.9701391458511353e-01</leafValues></_>
        <_>
          <internalNodes>
            0 -1 146 -2.0889444276690483e-03</internalNodes>
          <leafValues>
            4.8056522011756897e-01 -2.5208663940429688e-01</leafValues></_>
        <_>
          <internalNodes>
            0 -1 88 -9.0856244787573814e-03</internalNodes>
          <leafValues>
            -8.0108934640884399e-01 1.3589422404766083e-01</leafValues></_>
        <_>
          <internalNodes>
            0 -1 199 -6.1051966622471809e-04</internalNodes>
          <leafValues>
            2.8085207939147949e-01 -3.7108314037322998e-01</leafValues></_>
        <_>
          <internalNodes>
            0 -1 176 2.0072869956493378e-03</internalNodes>
          <leafValues>
            1.6452889144420624e-01 -7.1245634555816650e-01</leafValues></_>
        <_>
          <internalNodes>
            0 -1 92 3.5978695377707481e-03</internalNodes>
          <leafValues>
            -2.4103336036205292e-01 4.6268862485885620e-01</leafValues></_>
        <_>
          <internalNodes>
            0 -1 197 -1.8502559512853622e-02</internalNodes>
          <leafValues>
            -8.6270374059677124e-01 1.2600168585777283e-01</leafValues></_>
        <_>
          <internalNodes>
            0 -1 168 2.5140501093119383e-03</internalNodes>
          <leafValues>
            -1.9770832359790802e-01 6.1577421426773071e-01</leafValues></_>
        <_>
          <internalNodes>
            0 -1 192 -1.4170121867209673e-03</internalNodes>
          <leafValues>
            4.9434101581573486e-01 -2.4210698902606964e-01</leafValues></_>
        <_>
          <internalNodes>
            0 -1 147 7.0585578214377165e-04</internalNodes>
          <leafValues>
            1.7807689309120178e-01 -7.2964161634445190e-01</leafValues></_></weakClassifiers></_>
    <!-- stage 17 -->
    <_>
      <maxWeakCount>18</maxWeakCount>
      <stageThreshold>-1.2250828742980957e+00</stageThreshold>
      <weakClassifiers>
        <_>
          <internalNodes>
            0 -1 122 -1.0372522228863090e-04</internalNodes>
          <leafValues>
            5.4375612735748291e-01 -2.6243567466735840e-01</leafValues></_>
        <_>
          <internalNodes>
            0 -1 65 6.4072042005136609e-04</internalNodes>
          <leafValues>
            1.8123550713062286e-01 -7.5160008668899536e-01</leafValues></_>
        <_>
          <internalNodes>
            0 -1 185 -1.4113958459347486e-03</internalNodes>
          <leafValues>
            3.6278092861175537e-01 -3.1813609600067139e-01</leafValues></_>
        <_>
          <internalNodes>
            0 -1 233 -1.0214423760771751e-02</internalNodes>
          <leafValues>
            6.2600624561309814e-01 -1.9177111983299255e-01</leafValues></_>
        <_>
          <internalNodes>
            0 -1 216 -5.8713369071483612e-04</internalNodes>
          <leafValues>
            2.4946638941764832e-01 -4.0236008167266846e-01</leafValues></_>
        <_>
          <internalNodes>
            0 -1 172 -1.3809981755912304e-03</internalNodes>
          <leafValues>
            5.3756016492843628e-01 -2.3303785920143127e-01</leafValues></_>
        <_>
          <internalNodes>
            0 -1 156 -2.0518181845545769e-03</internalNodes>
          <leafValues>
            -7.4138677120208740e-01 1.6854165494441986e-01</leafValues></_>
        <_>
          <internalNodes>
            0 -1 178 -9.9759992735926062e-05</internalNodes>
          <leafValues>
            1.6514632105827332e-01 -6.0774475336074829e-01</leafValues></_>
        <_>
          <internalNodes>
            0 -1 14 3.2608621404506266e-04</internalNodes>
          <leafValues>
            -3.6634704470634460e-01 2.9204398393630981e-01</leafValues></_>
        <_>
          <internalNodes>
            0 -1 44 1.4115383964963257e-04</internalNodes>
          <leafValues>
            -2.6875865459442139e-01 4.0221273899078369e-01</leafValues></_>
        <_>
          <internalNodes>
            0 -1 221 -4.6683300752192736e-04</internalNodes>
          <leafValues>
            -5.7857185602188110e-01 1.8745146691799164e-01</leafValues></_>
        <_>
          <internalNodes>
            0 -1 239 -1.4704132918268442e-03</internalNodes>
          <leafValues>
            6.4498746395111084e-01 -1.6426442563533783e-01</leafValues></_>
        <_>
          <internalNodes>
            0 -1 158 -1.1956590460613370e-03</internalNodes>
          <leafValues>
            -6.9504761695861816e-01 1.5171833336353302e-01</leafValues></_>
        <_>
          <internalNodes>
            0 -1 174 -1.7914259806275368e-03</internalNodes>
          <leafValues>
            2.4040551483631134e-01 -4.4518408179283142e-01</leafValues></_>
        <_>
          <internalNodes>
            0 -1 242 -3.5256351111456752e-04</internalNodes>
          <leafValues>
            4.9541583657264709e-01 -1.9252230226993561e-01</leafValues></_>
        <_>
          <internalNodes>
            0 -1 251 7.1095849853008986e-04</internalNodes>
          <leafValues>
            -1.7847208678722382e-01 5.8449864387512207e-01</leafValues></_>
        <_>
          <internalNodes>
            0 -1 100 1.5604415966663510e-04</internalNodes>
          <leafValues>
            1.6739308834075928e-01 -6.9699019193649292e-01</leafValues></_>
        <_>
          <internalNodes>
            0 -1 249 1.3958210183773190e-04</internalNodes>
          <leafValues>
            -1.7179544270038605e-01 6.9184106588363647e-01</leafValues></_></weakClassifiers></_>
    <!-- stage 18 -->
    <_>
      <maxWeakCount>15</maxWeakCount>
      <stageThreshold>-9.9750733375549316e-01</stageThreshold>
      <weakClassifiers>
        <_>
          <internalNodes>
            0 -1 42 3.4122625365853310e-03</internalNodes>
          <leafValues>
            -2.4528302252292633e-01 4.9532711505889893e-01</leafValues></_>
        <_>
          <internalNodes>
            0 -1 113 8.3306379383429885e-04</internalNodes>
          <leafValues>
            1.9302974641323090e-01 -6.8635982275009155e-01</leafValues></_>
        <_>
          <internalNodes>
            0 -1 222 2.5918371975421906e-03</internalNodes>
          <leafValues>
            1.5502342581748962e-01 -7.9423558712005615e-01</leafValues></_>
        <_>
          <internalNodes>
            0 -1 121 -5.8702519163489342e-03</internalNodes>
          <leafValues>
            -6.5096801519393921e-01 1.5024675428867340e-01</leafValues></_>
        <_>
          <internalNodes>
            0 -1 137 -5.2479148143902421e-04</internalNodes>
          <leafValues>
            2.7578949928283691e-01 -4.5435661077499390e-01</leafValues></_>
        <_>
          <internalNodes>
            0 -1 6 2.2412599995732307e-02</internalNodes>
          <leafValues>
            -1.5865169465541840e-01 7.3769682645797729e-01</leafValues></_>
        <_>
          <internalNodes>
            0 -1 66 3.8089878857135773e-02</internalNodes>
          <leafValues>
            -2.0282305777072906e-01 4.7532618045806885e-01</leafValues></_>
        <_>
          <internalNodes>
            0 -1 77 -3.0562095344066620e-04</internalNodes>
          <leafValues>
            1.2058300524950027e-01 -6.8448728322982788e-01</leafValues></_>
        <_>
          <internalNodes>
            0 -1 163 1.0638749226927757e-03</internalNodes>
          <leafValues>
            -2.3183636367321014e-01 4.2747461795806885e-01</leafValues></_>
        <_>
          <internalNodes>
            0 -1 116 -7.0372014306485653e-04</internalNodes>
          <leafValues>
            -9.3790662288665771e-01 1.1752103269100189e-01</leafValues></_>
        <_>
          <internalNodes>
            0 -1 195 6.6643342142924666e-04</internalNodes>
          <leafValues>
            1.1511079967021942e-01 -6.8148350715637207e-01</leafValues></_>
        <_>
          <internalNodes>
            0 -1 144 8.2286391407251358e-03</internalNodes>
          <leafValues>
            9.5089502632617950e-02 -8.3111602067947388e-01</leafValues></_>
        <_>
          <internalNodes>
            0 -1 45 -3.9929891936480999e-03</internalNodes>
          <leafValues>
            -4.3025556206703186e-01 2.0161487162113190e-01</leafValues></_>
        <_>
          <internalNodes>
            0 -1 217 -8.8351167505607009e-04</internalNodes>
          <leafValues>
            3.3224886655807495e-01 -2.7544420957565308e-01</leafValues></_>
        <_>
          <internalNodes>
            0 -1 204 1.3385587371885777e-03</internalNodes>
          <leafValues>
            -2.3972409963607788e-01 5.5280119180679321e-01</leafValues></_></weakClassifiers></_>
    <!-- stage 19 -->
    <_>
      <maxWeakCount>18</maxWeakCount>
      <stageThreshold>-1.2237048149108887e+00</stageThreshold>
      <weakClassifiers>
        <_>
          <internalNodes>
            0 -1 48 -1.1650445958366618e-04</internalNodes>
          <leafValues>
            4.8994514346122742e-01 -2.6877471804618835e-01</leafValues></_>
        <_>
          <internalNodes>
            0 -1 34 7.7199369668960571e-02</internalNodes>
          <leafValues>
            -3.2887762784957886e-01 3.7617796659469604e-01</leafValues></_>
        <_>
          <internalNodes>
            0 -1 72 -1.8939850851893425e-03</internalNodes>
          <leafValues>
            1.4371339976787567e-01 -7.7183079719543457e-01</leafValues></_>
        <_>
          <internalNodes>
            0 -1 114 -3.1085154041647911e-03</internalNodes>
          <leafValues>
            1.4503887295722961e-01 -7.1497094631195068e-01</leafValues></_>
        <_>
          <internalNodes>
            0 -1 162 1.0909077245742083e-03</internalNodes>
          <leafValues>
            -2.9360923171043396e-01 4.3947595357894897e-01</leafValues></_>
        <_>
          <internalNodes>
            0 -1 9 -5.0158858299255371e-02</internalNodes>
          <leafValues>
            -3.0882006883621216e-01 3.5149627923965454e-01</leafValues></_>
        <_>
          <internalNodes>
            0 -1 56 8.9256143837701529e-05</internalNodes>
          <leafValues>
            1.6655987501144409e-01 -5.8386838436126709e-01</leafValues></_>
        <_>
          <internalNodes>
            0 -1 102 -3.9922789437696338e-04</internalNodes>
          <leafValues>
            1.6407886147499084e-01 -6.5221989154815674e-01</leafValues></_>
        <_>
          <internalNodes>
            0 -1 182 -4.1692899540066719e-03</internalNodes>
          <leafValues>
            3.8572642207145691e-01 -2.9988822340965271e-01</leafValues></_>
        <_>
          <internalNodes>
            0 -1 49 -1.2767937034368515e-02</internalNodes>
          <leafValues>
            -8.0291849374771118e-01 1.5191458165645599e-01</leafValues></_>
        <_>
          <internalNodes>
            0 -1 256 2.4762359680607915e-04</internalNodes>
          <leafValues>
            -1.8858686089515686e-01 6.0018855333328247e-01</leafValues></_>
        <_>
          <internalNodes>
            0 -1 189 -2.4763976398389786e-05</internalNodes>
          <leafValues>
            2.6913511753082275e-01 -3.5755696892738342e-01</leafValues></_>
        <_>
          <internalNodes>
            0 -1 94 2.2200145758688450e-03</internalNodes>
          <leafValues>
            1.0603529959917068e-01 -9.2776834964752197e-01</leafValues></_>
        <_>
          <internalNodes>
            0 -1 234 7.7405027695931494e-05</internalNodes>
          <leafValues>
            -1.6198660433292389e-01 6.3924998044967651e-01</leafValues></_>
        <_>
          <internalNodes>
            0 -1 75 -1.0634233243763447e-02</internalNodes>
          <leafValues>
            -7.2362732887268066e-01 1.2690185010433197e-01</leafValues></_>
        <_>
          <internalNodes>
            0 -1 243 -5.4156153055373579e-05</internalNodes>
          <leafValues>
            4.0855056047439575e-01 -2.3977321386337280e-01</leafValues></_>
        <_>
          <internalNodes>
            0 -1 38 1.8428622570354491e-04</internalNodes>
          <leafValues>
            -3.3362102508544922e-01 2.8975567221641541e-01</leafValues></_>
        <_>
          <internalNodes>
            0 -1 27 -1.5833607176318765e-03</internalNodes>
          <leafValues>
            2.4345982074737549e-01 -3.9273276925086975e-01</leafValues></_></weakClassifiers></_></stages>
  <features>
    <_>
      <rects>
        <_>
          0 2 22 41 -1.</_>
        <_>
          11 2 11 41 2.</_></rects>
      <tilted>0</tilted></_>
    <_>
      <rects>
        <_>
          0 2 48 37 -1.</_>
        <_>
          24 2 24 37 2.</_></rects>
      <tilted>0</tilted></_>
    <_>
      <rects>
        <_>
          0 8 12 36 -1.</_>
        <_>
          6 8 6 36 2.</_></rects>
      <tilted>0</tilted></_>
    <_>
      <rects>
        <_>
          0 12 15 24 -1.</_>
        <_>
          5 12 5 24 3.</_></rects>
      <tilted>0</tilted></_>
    <_>
      <rects>
        <_>
          0 15 12 22 -1.</_>
        <_>
          4 15 4 22 3.</_></rects>
      <tilted>0</tilted></_>
    <_>
      <rects>
        <_>
          0 20 10 11 -1.</_>
        <_>
          5 20 5 11 2.</_></rects>
      <tilted>0</tilted></_>
    <_>
      <rects>
        <_>
          0 21 12 10 -1.</_>
        <_>
          4 21 4 10 3.</_></rects>
      <tilted>0</tilted></_>
    <_>
      <rects>
        <_>
          0 21 50 4 -1.</_>
        <_>
          25 21 25 4 2.</_></rects>
      <tilted>0</tilted></_>
    <_>
      <rects>
        <_>
          0 25 18 7 -1.</_>
        <_>
          6 25 6 7 3.</_></rects>
      <tilted>0</tilted></_>
    <_>
      <rects>
        <_>
          0 27 44 7 -1.</_>
        <_>
          22 27 22 7 2.</_></rects>
      <tilted>0</tilted></_>
    <_>
      <rects>
        <_>
          1 20 12 12 -1.</_>
        <_>
          5 20 4 12 3.</_></rects>
      <tilted>0</tilted></_>
    <_>
      <rects>
        <_>
          3 12 46 18 -1.</_>
        <_>
          26 12 23 18 2.</_></rects>
      <tilted>0</tilted></_>
    <_>
      <rects>
        <_>
          3 19 4 12 -1.</_>
        <_>
          5 19 2 12 2.</_></rects>
      <tilted>0</tilted></_>
    <_>
      <rects>
        <_>
          4 21 4 12 -1.</_>
        <_>
          6 21 2 12 2.</_></rects>
      <tilted>0</tilted></_>
    <_>
      <rects>
        <_>
          5 7 4 14 -1.</_>
        <_>
          7 7 2 14 2.</_></rects>
      <tilted>0</tilted></_>
    <_>
      <rects>
        <_>
          5 30 8 1 -1.</_>
        <_>
          9 30 4 1 2.</_></rects>
      <tilted>0</tilted></_>
    <_>
      <rects>
        <_>
          6 19 4 6 -1.</_>
        <_>
          6 22 4 3 2.</_></rects>
      <tilted>0</tilted></_>
    <_>
      <rects>
        <_>
          6 26 8 10 -1.</_>
        <_>
          6 26 4 5 2.</_>
        <_>
          10 31 4 5 2.</_></rects>
      <tilted>0</tilted></_>
    <_>
      <rects>
        <_>
          6 29 7 10 -1.</_>
        <_>
          6 34 7 5 2.</_></rects>
      <tilted>0</tilted></_>
    <_>
      <rects>
        <_>
          7 2 9 48 -1.</_>
        <_>
          7 18 9 16 3.</_></rects>
      <tilted>0</tilted></_>
    <_>
      <rects>
        <_>
          7 10 5 36 -1.</_>
        <_>
          7 22 5 12 3.</_></rects>
      <tilted>0</tilted></_>
    <_>
      <rects>
        <_>
          7 23 8 16 -1.</_>
        <_>
          7 23 4 8 2.</_>
        <_>
          11 31 4 8 2.</_></rects>
      <tilted>0</tilted></_>
    <_>
      <rects>
        <_>
          7 27 4 6 -1.</_>
        <_>
          9 27 2 6 2.</_></rects>
      <tilted>0</tilted></_>
    <_>
      <rects>
        <_>
          7 31 16 12 -1.</_>
        <_>
          7 37 16 6 2.</_></rects>
      <tilted>0</tilted></_>
    <_>
      <rects>
        <_>
          8 5 6 45 -1.</_>
        <_>
          8 20 6 15 3.</_></rects>
      <tilted>0</tilted></_>
    <_>
      <rects>
        <_>
          8 13 16 8 -1.</_>
        <_>
          8 13 8 4 2.</_>
        <_>
          16 17 8 4 2.</_></rects>
      <tilted>0</tilted></_>
    <_>
      <rects>
        <_>
          8 16 2 2 -1.</_>
        <_>
          8 16 1 1 2.</_>
        <_>
          9 17 1 1 2.</_></rects>
      <tilted>0</tilted></_>
    <_>
      <rects>
        <_>
          8 16 8 12 -1.</_>
        <_>
          8 16 4 6 2.</_>
        <_>
          12 22 4 6 2.</_></rects>
      <tilted>0</tilted></_>
    <_>
      <rects>
        <_>
          8 24 8 12 -1.</_>
        <_>
          8 24 4 6 2.</_>
        <_>
          12 30 4 6 2.</_></rects>
      <tilted>0</tilted></_>
    <_>
      <rects>
        <_>
          8 25 8 16 -1.</_>
        <_>
          8 25 4 8 2.</_>
        <_>
          12 33 4 8 2.</_></rects>
      <tilted>0</tilted></_>
    <_>
      <rects>
        <_>
          8 32 35 18 -1.</_>
        <_>
          8 41 35 9 2.</_></rects>
      <tilted>0</tilted></_>
    <_>
      <rects>
        <_>
          9 5 2 45 -1.</_>
        <_>
          9 20 2 15 3.</_></rects>
      <tilted>0</tilted></_>
    <_>
      <rects>
        <_>
          9 8 30 10 -1.</_>
        <_>
          9 8 15 5 2.</_>
        <_>
          24 13 15 5 2.</_></rects>
      <tilted>0</tilted></_>
    <_>
      <rects>
        <_>
          9 11 8 18 -1.</_>
        <_>
          9 11 4 9 2.</_>
        <_>
          13 20 4 9 2.</_></rects>
      <tilted>0</tilted></_>
    <_>
      <rects>
        <_>
          9 11 31 39 -1.</_>
        <_>
          9 24 31 13 3.</_></rects>
      <tilted>0</tilted></_>
    <_>
      <rects>
        <_>
          9 14 10 10 -1.</_>
        <_>
          9 14 5 5 2.</_>
        <_>
          14 19 5 5 2.</_></rects>
      <tilted>0</tilted></_>
    <_>
      <rects>
        <_>
          9 15 4 14 -1.</_>
        <_>
          9 15 2 7 2.</_>
        <_>
          11 22 2 7 2.</_></rects>
      <tilted>0</tilted></_>
    <_>
      <rects>
        <_>
          9 15 12 8 -1.</_>
        <_>
          9 15 6 4 2.</_>
        <_>
          15 19 6 4 2.</_></rects>
      <tilted>0</tilted></_>
    <_>
      <rects>
        <_>
          9 32 4 3 -1.</_>
        <_>
          11 32 2 3 2.</_></rects>
      <tilted>0</tilted></_>
    <_>
      <rects>
        <_>
          9 32 31 18 -1.</_>
        <_>
          9 41 31 9 2.</_></rects>
      <tilted>0</tilted></_>
    <_>
      <rects>
        <_>
          9 35 25 8 -1.</_>
        <_>
          9 39 25 4 2.</_></rects>
      <tilted>0</tilted></_>
    <_>
      <rects>
        <_>
          10 20 9 9 -1.</_>
        <_>
          13 20 3 9 3.</_></rects>
      <tilted>0</tilted></_>
    <_>
      <rects>
        <_>
          10 23 6 22 -1.</_>
        <_>
          10 23 3 11 2.</_>
        <_>
          13 34 3 11 2.</_></rects>
      <tilted>0</tilted></_>
    <_>
      <rects>
        <_>
          10 27 33 4 -1.</_>
        <_>
          21 27 11 4 3.</_></rects>
      <tilted>0</tilted></_>
    <_>
      <rects>
        <_>
          10 30 2 3 -1.</_>
        <_>
          11 30 1 3 2.</_></rects>
      <tilted>0</tilted></_>
    <_>
      <rects>
        <_>
          10 40 14 4 -1.</_>
        <_>
          17 40 7 4 2.</_></rects>
      <tilted>0</tilted></_>
    <_>
      <rects>
        <_>
          11 16 12 17 -1.</_>
        <_>
          15 16 4 17 3.</_></rects>
      <tilted>0</tilted></_>
    <_>
      <rects>
        <_>
          11 22 14 12 -1.</_>
        <_>
          18 22 7 12 2.</_></rects>
      <tilted>0</tilted></_>
    <_>
      <rects>
        <_>
          11 23 9 8 -1.</_>
        <_>
          14 23 3 8 3.</_></rects>
      <tilted>0</tilted></_>
    <_>
      <rects>
        <_>
          11 23 15 6 -1.</_>
        <_>
          16 23 5 6 3.</_></rects>
      <tilted>0</tilted></_>
    <_>
      <rects>
        <_>
          11 25 15 8 -1.</_>
        <_>
          16 25 5 8 3.</_></rects>
      <tilted>0</tilted></_>
    <_>
      <rects>
        <_>
          12 17 12 15 -1.</_>
        <_>
          16 17 4 15 3.</_></rects>
      <tilted>0</tilted></_>
    <_>
      <rects>
        <_>
          12 19 9 13 -1.</_>
        <_>
          15 19 3 13 3.</_></rects>
      <tilted>0</tilted></_>
    <_>
      <rects>
        <_>
          12 23 21 10 -1.</_>
        <_>
          19 23 7 10 3.</_></rects>
      <tilted>0</tilted></_>
    <_>
      <rects>
        <_>
          12 28 18 4 -1.</_>
        <_>
          18 28 6 4 3.</_></rects>
      <tilted>0</tilted></_>
    <_>
      <rects>
        <_>
          13 7 15 9 -1.</_>
        <_>
          18 7 5 9 3.</_></rects>
      <tilted>0</tilted></_>
    <_>
      <rects>
        <_>
          13 15 9 15 -1.</_>
        <_>
          16 15 3 15 3.</_></rects>
      <tilted>0</tilted></_>
    <_>
      <rects>
        <_>
          13 16 24 10 -1.</_>
        <_>
          25 16 12 10 2.</_></rects>
      <tilted>0</tilted></_>
    <_>
      <rects>
        <_>
          13 17 9 19 -1.</_>
        <_>
          16 17 3 19 3.</_></rects>
      <tilted>0</tilted></_>
    <_>
      <rects>
        <_>
          13 20 12 8 -1.</_>
        <_>
          17 20 4 8 3.</_></rects>
      <tilted>0</tilted></_>
    <_>
      <rects>
        <_>
          13 22 12 7 -1.</_>
        <_>
          17 22 4 7 3.</_></rects>
      <tilted>0</tilted></_>
    <_>
      <rects>
        <_>
          13 28 18 5 -1.</_>
        <_>
          19 28 6 5 3.</_></rects>
      <tilted>0</tilted></_>
    <_>
      <rects>
        <_>
          13 31 21 2 -1.</_>
        <_>
          20 31 7 2 3.</_></rects>
      <tilted>0</tilted></_>
    <_>
      <rects>
        <_>
          13 32 24 3 -1.</_>
        <_>
          21 32 8 3 3.</_></rects>
      <tilted>0</tilted></_>
    <_>
      <rects>
        <_>
          14 20 24 9 -1.</_>
        <_>
          26 20 12 9 2.</_></rects>
      <tilted>0</tilted></_>
    <_>
      <rects>
        <_>
          14 23 9 8 -1.</_>
        <_>
          17 23 3 8 3.</_></rects>
      <tilted>0</tilted></_>
    <_>
      <rects>
        <_>
          15 0 28 20 -1.</_>
        <_>
          15 10 28 10 2.</_></rects>
      <tilted>0</tilted></_>
    <_>
      <rects>
        <_>
          15 18 22 1 -1.</_>
        <_>
          26 18 11 1 2.</_></rects>
      <tilted>0</tilted></_>
    <_>
      <rects>
        <_>
          15 20 12 14 -1.</_>
        <_>
          19 20 4 14 3.</_></rects>
      <tilted>0</tilted></_>
    <_>
      <rects>
        <_>
          15 21 4 6 -1.</_>
        <_>
          17 21 2 6 2.</_></rects>
      <tilted>0</tilted></_>
    <_>
      <rects>
        <_>
          15 30 24 5 -1.</_>
        <_>
          23 30 8 5 3.</_></rects>
      <tilted>0</tilted></_>
    <_>
      <rects>
        <_>
          16 10 12 26 -1.</_>
        <_>
          20 10 4 26 3.</_></rects>
      <tilted>0</tilted></_>
    <_>
      <rects>
        <_>
          16 19 12 15 -1.</_>
        <_>
          20 19 4 15 3.</_></rects>
      <tilted>0</tilted></_>
    <_>
      <rects>
        <_>
          16 21 9 9 -1.</_>
        <_>
          19 21 3 9 3.</_></rects>
      <tilted>0</tilted></_>
    <_>
      <rects>
        <_>
          16 25 6 2 -1.</_>
        <_>
          19 25 3 2 2.</_></rects>
      <tilted>0</tilted></_>
    <_>
      <rects>
        <_>
          16 27 12 15 -1.</_>
        <_>
          20 27 4 15 3.</_></rects>
      <tilted>0</tilted></_>
    <_>
      <rects>
        <_>
          16 29 9 7 -1.</_>
        <_>
          19 29 3 7 3.</_></rects>
      <tilted>0</tilted></_>
    <_>
      <rects>
        <_>
          16 32 21 2 -1.</_>
        <_>
          23 32 7 2 3.</_></rects>
      <tilted>0</tilted></_>
    <_>
      <rects>
        <_>
          16 34 19 16 -1.</_>
        <_>
          16 42 19 8 2.</_></rects>
      <tilted>0</tilted></_>
    <_>
      <rects>
        <_>
          17 2 26 12 -1.</_>
        <_>
          17 6 26 4 3.</_></rects>
      <tilted>0</tilted></_>
    <_>
      <rects>
        <_>
          17 14 10 6 -1.</_>
        <_>
          17 17 10 3 2.</_></rects>
      <tilted>0</tilted></_>
    <_>
      <rects>
        <_>
          17 17 6 4 -1.</_>
        <_>
          17 19 6 2 2.</_></rects>
      <tilted>0</tilted></_>
    <_>
      <rects>
        <_>
          17 18 18 16 -1.</_>
        <_>
          26 18 9 16 2.</_></rects>
      <tilted>0</tilted></_>
    <_>
      <rects>
        <_>
          17 22 4 7 -1.</_>
        <_>
          19 22 2 7 2.</_></rects>
      <tilted>0</tilted></_>
    <_>
      <rects>
        <_>
          17 22 9 1 -1.</_>
        <_>
          20 22 3 1 3.</_></rects>
      <tilted>0</tilted></_>
    <_>
      <rects>
        <_>
          17 22 8 15 -1.</_>
        <_>
          17 27 8 5 3.</_></rects>
      <tilted>0</tilted></_>
    <_>
      <rects>
        <_>
          17 25 6 5 -1.</_>
        <_>
          20 25 3 5 2.</_></rects>
      <tilted>0</tilted></_>
    <_>
      <rects>
        <_>
          17 26 12 6 -1.</_>
        <_>
          21 26 4 6 3.</_></rects>
      <tilted>0</tilted></_>
    <_>
      <rects>
        <_>
          17 30 15 7 -1.</_>
        <_>
          22 30 5 7 3.</_></rects>
      <tilted>0</tilted></_>
    <_>
      <rects>
        <_>
          17 30 21 1 -1.</_>
        <_>
          24 30 7 1 3.</_></rects>
      <tilted>0</tilted></_>
    <_>
      <rects>
        <_>
          17 31 18 2 -1.</_>
        <_>
          23 31 6 2 3.</_></rects>
      <tilted>0</tilted></_>
    <_>
      <rects>
        <_>
          17 31 21 2 -1.</_>
        <_>
          24 31 7 2 3.</_></rects>
      <tilted>0</tilted></_>
    <_>
      <rects>
        <_>
          17 33 4 15 -1.</_>
        <_>
          17 38 4 5 3.</_></rects>
      <tilted>0</tilted></_>
    <_>
      <rects>
        <_>
          18 14 12 21 -1.</_>
        <_>
          18 21 12 7 3.</_></rects>
      <tilted>0</tilted></_>
    <_>
      <rects>
        <_>
          18 17 6 19 -1.</_>
        <_>
          20 17 2 19 3.</_></rects>
      <tilted>0</tilted></_>
    <_>
      <rects>
        <_>
          18 21 9 13 -1.</_>
        <_>
          21 21 3 13 3.</_></rects>
      <tilted>0</tilted></_>
    <_>
      <rects>
        <_>
          18 22 4 6 -1.</_>
        <_>
          20 22 2 6 2.</_></rects>
      <tilted>0</tilted></_>
    <_>
      <rects>
        <_>
          18 22 9 2 -1.</_>
        <_>
          21 22 3 2 3.</_></rects>
      <tilted>0</tilted></_>
    <_>
      <rects>
        <_>
          18 24 12 8 -1.</_>
        <_>
          22 24 4 8 3.</_></rects>
      <tilted>0</tilted></_>
    <_>
      <rects>
        <_>
          18 26 6 4 -1.</_>
        <_>
          21 26 3 4 2.</_></rects>
      <tilted>0</tilted></_>
    <_>
      <rects>
        <_>
          18 27 12 4 -1.</_>
        <_>
          22 27 4 4 3.</_></rects>
      <tilted>0</tilted></_>
    <_>
      <rects>
        <_>
          18 27 22 6 -1.</_>
        <_>
          29 27 11 6 2.</_></rects>
      <tilted>0</tilted></_>
    <_>
      <rects>
        <_>
          18 28 6 3 -1.</_>
        <_>
          21 28 3 3 2.</_></rects>
      <tilted>0</tilted></_>
    <_>
      <rects>
        <_>
          18 31 12 2 -1.</_>
        <_>
          24 31 6 2 2.</_></rects>
      <tilted>0</tilted></_>
    <_>
      <rects>
        <_>
          18 31 21 1 -1.</_>
        <_>
          25 31 7 1 3.</_></rects>
      <tilted>0</tilted></_>
    <_>
      <rects>
        <_>
          19 17 21 16 -1.</_>
        <_>
          26 17 7 16 3.</_></rects>
      <tilted>0</tilted></_>
    <_>
      <rects>
        <_>
          19 18 9 13 -1.</_>
        <_>
          22 18 3 13 3.</_></rects>
      <tilted>0</tilted></_>
    <_>
      <rects>
        <_>
          19 20 18 13 -1.</_>
        <_>
          28 20 9 13 2.</_></rects>
      <tilted>0</tilted></_>
    <_>
      <rects>
        <_>
          19 29 9 5 -1.</_>
        <_>
          22 29 3 5 3.</_></rects>
      <tilted>0</tilted></_>
    <_>
      <rects>
        <_>
          19 30 12 10 -1.</_>
        <_>
          23 30 4 10 3.</_></rects>
      <tilted>0</tilted></_>
    <_>
      <rects>
        <_>
          20 14 4 4 -1.</_>
        <_>
          20 16 4 2 2.</_></rects>
      <tilted>0</tilted></_>
    <_>
      <rects>
        <_>
          20 14 14 16 -1.</_>
        <_>
          20 22 14 8 2.</_></rects>
      <tilted>0</tilted></_>
    <_>
      <rects>
        <_>
          20 16 1 12 -1.</_>
        <_>
          20 22 1 6 2.</_></rects>
      <tilted>0</tilted></_>
    <_>
      <rects>
        <_>
          20 17 18 2 -1.</_>
        <_>
          29 17 9 2 2.</_></rects>
      <tilted>0</tilted></_>
    <_>
      <rects>
        <_>
          20 17 20 16 -1.</_>
        <_>
          30 17 10 16 2.</_></rects>
      <tilted>0</tilted></_>
    <_>
      <rects>
        <_>
          20 18 2 4 -1.</_>
        <_>
          20 20 2 2 2.</_></rects>
      <tilted>0</tilted></_>
    <_>
      <rects>
        <_>
          20 18 2 6 -1.</_>
        <_>
          20 21 2 3 2.</_></rects>
      <tilted>0</tilted></_>
    <_>
      <rects>
        <_>
          20 18 15 12 -1.</_>
        <_>
          25 18 5 12 3.</_></rects>
      <tilted>0</tilted></_>
    <_>
      <rects>
        <_>
          20 29 21 6 -1.</_>
        <_>
          27 29 7 6 3.</_></rects>
      <tilted>0</tilted></_>
    <_>
      <rects>
        <_>
          20 30 14 2 -1.</_>
        <_>
          27 30 7 2 2.</_></rects>
      <tilted>0</tilted></_>
    <_>
      <rects>
        <_>
          21 9 18 23 -1.</_>
        <_>
          30 9 9 23 2.</_></rects>
      <tilted>0</tilted></_>
    <_>
      <rects>
        <_>
          21 12 11 18 -1.</_>
        <_>
          21 21 11 9 2.</_></rects>
      <tilted>0</tilted></_>
    <_>
      <rects>
        <_>
          21 15 3 6 -1.</_>
        <_>
          21 18 3 3 2.</_></rects>
      <tilted>0</tilted></_>
    <_>
      <rects>
        <_>
          21 15 4 6 -1.</_>
        <_>
          21 18 4 3 2.</_></rects>
      <tilted>0</tilted></_>
    <_>
      <rects>
        <_>
          21 15 18 20 -1.</_>
        <_>
          30 15 9 20 2.</_></rects>
      <tilted>0</tilted></_>
    <_>
      <rects>
        <_>
          21 18 9 12 -1.</_>
        <_>
          24 18 3 12 3.</_></rects>
      <tilted>0</tilted></_>
    <_>
      <rects>
        <_>
          21 23 4 8 -1.</_>
        <_>
          21 27 4 4 2.</_></rects>
      <tilted>0</tilted></_>
    <_>
      <rects>
        <_>
          21 23 4 12 -1.</_>
        <_>
          21 27 4 4 3.</_></rects>
      <tilted>0</tilted></_>
    <_>
      <rects>
        <_>
          21 28 9 6 -1.</_>
        <_>
          24 28 3 6 3.</_></rects>
      <tilted>0</tilted></_>
    <_>
      <rects>
        <_>
          21 29 22 1 -1.</_>
        <_>
          32 29 11 1 2.</_></rects>
      <tilted>0</tilted></_>
    <_>
      <rects>
        <_>
          21 30 18 6 -1.</_>
        <_>
          27 30 6 6 3.</_></rects>
      <tilted>0</tilted></_>
    <_>
      <rects>
        <_>
          21 30 14 1 -1.</_>
        <_>
          28 30 7 1 2.</_></rects>
      <tilted>0</tilted></_>
    <_>
      <rects>
        <_>
          21 31 12 2 -1.</_>
        <_>
          27 31 6 2 2.</_></rects>
      <tilted>0</tilted></_>
    <_>
      <rects>
        <_>
          21 32 9 4 -1.</_>
        <_>
          24 32 3 4 3.</_></rects>
      <tilted>0</tilted></_>
    <_>
      <rects>
        <_>
          21 32 18 4 -1.</_>
        <_>
          27 32 6 4 3.</_></rects>
      <tilted>0</tilted></_>
    <_>
      <rects>
        <_>
          21 33 12 3 -1.</_>
        <_>
          25 33 4 3 3.</_></rects>
      <tilted>0</tilted></_>
    <_>
      <rects>
        <_>
          22 11 2 8 -1.</_>
        <_>
          22 15 2 4 2.</_></rects>
      <tilted>0</tilted></_>
    <_>
      <rects>
        <_>
          22 11 4 8 -1.</_>
        <_>
          22 15 4 4 2.</_></rects>
      <tilted>0</tilted></_>
    <_>
      <rects>
        <_>
          22 11 10 20 -1.</_>
        <_>
          22 21 10 10 2.</_></rects>
      <tilted>0</tilted></_>
    <_>
      <rects>
        <_>
          22 14 3 6 -1.</_>
        <_>
          22 17 3 3 2.</_></rects>
      <tilted>0</tilted></_>
    <_>
      <rects>
        <_>
          22 14 4 4 -1.</_>
        <_>
          22 16 4 2 2.</_></rects>
      <tilted>0</tilted></_>
    <_>
      <rects>
        <_>
          22 14 10 20 -1.</_>
        <_>
          22 24 10 10 2.</_></rects>
      <tilted>0</tilted></_>
    <_>
      <rects>
        <_>
          22 16 3 4 -1.</_>
        <_>
          22 18 3 2 2.</_></rects>
      <tilted>0</tilted></_>
    <_>
      <rects>
        <_>
          22 16 18 16 -1.</_>
        <_>
          31 16 9 16 2.</_></rects>
      <tilted>0</tilted></_>
    <_>
      <rects>
        <_>
          22 16 18 14 -1.</_>
        <_>
          22 23 18 7 2.</_></rects>
      <tilted>0</tilted></_>
    <_>
      <rects>
        <_>
          22 18 15 16 -1.</_>
        <_>
          22 26 15 8 2.</_></rects>
      <tilted>0</tilted></_>
    <_>
      <rects>
        <_>
          22 21 12 9 -1.</_>
        <_>
          26 21 4 9 3.</_></rects>
      <tilted>0</tilted></_>
    <_>
      <rects>
        <_>
          22 29 9 4 -1.</_>
        <_>
          25 29 3 4 3.</_></rects>
      <tilted>0</tilted></_>
    <_>
      <rects>
        <_>
          23 0 17 14 -1.</_>
        <_>
          23 7 17 7 2.</_></rects>
      <tilted>0</tilted></_>
    <_>
      <rects>
        <_>
          23 13 2 6 -1.</_>
        <_>
          23 16 2 3 2.</_></rects>
      <tilted>0</tilted></_>
    <_>
      <rects>
        <_>
          23 14 1 18 -1.</_>
        <_>
          23 23 1 9 2.</_></rects>
      <tilted>0</tilted></_>
    <_>
      <rects>
        <_>
          23 16 9 18 -1.</_>
        <_>
          23 25 9 9 2.</_></rects>
      <tilted>0</tilted></_>
    <_>
      <rects>
        <_>
          23 16 15 14 -1.</_>
        <_>
          23 23 15 7 2.</_></rects>
      <tilted>0</tilted></_>
    <_>
      <rects>
        <_>
          23 19 9 11 -1.</_>
        <_>
          26 19 3 11 3.</_></rects>
      <tilted>0</tilted></_>
    <_>
      <rects>
        <_>
          23 19 10 16 -1.</_>
        <_>
          23 27 10 8 2.</_></rects>
      <tilted>0</tilted></_>
    <_>
      <rects>
        <_>
          23 21 9 5 -1.</_>
        <_>
          26 21 3 5 3.</_></rects>
      <tilted>0</tilted></_>
    <_>
      <rects>
        <_>
          23 29 12 2 -1.</_>
        <_>
          29 29 6 2 2.</_></rects>
      <tilted>0</tilted></_>
    <_>
      <rects>
        <_>
          23 31 8 2 -1.</_>
        <_>
          27 31 4 2 2.</_></rects>
      <tilted>0</tilted></_>
    <_>
      <rects>
        <_>
          24 7 4 14 -1.</_>
        <_>
          26 7 2 14 2.</_></rects>
      <tilted>0</tilted></_>
    <_>
      <rects>
        <_>
          24 11 3 6 -1.</_>
        <_>
          24 14 3 3 2.</_></rects>
      <tilted>0</tilted></_>
    <_>
      <rects>
        <_>
          24 12 8 4 -1.</_>
        <_>
          24 14 8 2 2.</_></rects>
      <tilted>0</tilted></_>
    <_>
      <rects>
        <_>
          24 15 3 4 -1.</_>
        <_>
          24 17 3 2 2.</_></rects>
      <tilted>0</tilted></_>
    <_>
      <rects>
        <_>
          24 16 10 13 -1.</_>
        <_>
          29 16 5 13 2.</_></rects>
      <tilted>0</tilted></_>
    <_>
      <rects>
        <_>
          24 19 10 6 -1.</_>
        <_>
          24 19 5 3 2.</_>
        <_>
          29 22 5 3 2.</_></rects>
      <tilted>0</tilted></_>
    <_>
      <rects>
        <_>
          24 19 16 14 -1.</_>
        <_>
          32 19 8 14 2.</_></rects>
      <tilted>0</tilted></_>
    <_>
      <rects>
        <_>
          24 19 11 9 -1.</_>
        <_>
          24 22 11 3 3.</_></rects>
      <tilted>0</tilted></_>
    <_>
      <rects>
        <_>
          24 30 9 8 -1.</_>
        <_>
          27 30 3 8 3.</_></rects>
      <tilted>0</tilted></_>
    <_>
      <rects>
        <_>
          24 30 8 5 -1.</_>
        <_>
          28 30 4 5 2.</_></rects>
      <tilted>0</tilted></_>
    <_>
      <rects>
        <_>
          25 17 8 14 -1.</_>
        <_>
          25 17 4 7 2.</_>
        <_>
          29 24 4 7 2.</_></rects>
      <tilted>0</tilted></_>
    <_>
      <rects>
        <_>
          25 17 8 12 -1.</_>
        <_>
          29 17 4 12 2.</_></rects>
      <tilted>0</tilted></_>
    <_>
      <rects>
        <_>
          25 18 13 16 -1.</_>
        <_>
          25 26 13 8 2.</_></rects>
      <tilted>0</tilted></_>
    <_>
      <rects>
        <_>
          25 20 8 4 -1.</_>
        <_>
          25 20 4 2 2.</_>
        <_>
          29 22 4 2 2.</_></rects>
      <tilted>0</tilted></_>
    <_>
      <rects>
        <_>
          25 20 10 9 -1.</_>
        <_>
          25 23 10 3 3.</_></rects>
      <tilted>0</tilted></_>
    <_>
      <rects>
        <_>
          25 21 8 14 -1.</_>
        <_>
          25 21 4 7 2.</_>
        <_>
          29 28 4 7 2.</_></rects>
      <tilted>0</tilted></_>
    <_>
      <rects>
        <_>
          25 21 12 20 -1.</_>
        <_>
          25 31 12 10 2.</_></rects>
      <tilted>0</tilted></_>
    <_>
      <rects>
        <_>
          25 25 14 5 -1.</_>
        <_>
          32 25 7 5 2.</_></rects>
      <tilted>0</tilted></_>
    <_>
      <rects>
        <_>
          25 26 16 8 -1.</_>
        <_>
          25 30 16 4 2.</_></rects>
      <tilted>0</tilted></_>
    <_>
      <rects>
        <_>
          25 27 12 8 -1.</_>
        <_>
          31 27 6 8 2.</_></rects>
      <tilted>0</tilted></_>
    <_>
      <rects>
        <_>
          25 30 6 3 -1.</_>
        <_>
          28 30 3 3 2.</_></rects>
      <tilted>0</tilted></_>
    <_>
      <rects>
        <_>
          25 30 9 8 -1.</_>
        <_>
          28 30 3 8 3.</_></rects>
      <tilted>0</tilted></_>
    <_>
      <rects>
        <_>
          25 32 9 3 -1.</_>
        <_>
          28 32 3 3 3.</_></rects>
      <tilted>0</tilted></_>
    <_>
      <rects>
        <_>
          26 10 12 9 -1.</_>
        <_>
          32 10 6 9 2.</_></rects>
      <tilted>0</tilted></_>
    <_>
      <rects>
        <_>
          26 18 15 8 -1.</_>
        <_>
          31 18 5 8 3.</_></rects>
      <tilted>0</tilted></_>
    <_>
      <rects>
        <_>
          26 18 9 18 -1.</_>
        <_>
          26 27 9 9 2.</_></rects>
      <tilted>0</tilted></_>
    <_>
      <rects>
        <_>
          26 19 13 16 -1.</_>
        <_>
          26 27 13 8 2.</_></rects>
      <tilted>0</tilted></_>
    <_>
      <rects>
        <_>
          26 20 8 14 -1.</_>
        <_>
          26 20 4 7 2.</_>
        <_>
          30 27 4 7 2.</_></rects>
      <tilted>0</tilted></_>
    <_>
      <rects>
        <_>
          26 21 13 16 -1.</_>
        <_>
          26 29 13 8 2.</_></rects>
      <tilted>0</tilted></_>
    <_>
      <rects>
        <_>
          27 6 12 18 -1.</_>
        <_>
          27 12 12 6 3.</_></rects>
      <tilted>0</tilted></_>
    <_>
      <rects>
        <_>
          27 14 8 2 -1.</_>
        <_>
          27 15 8 1 2.</_></rects>
      <tilted>0</tilted></_>
    <_>
      <rects>
        <_>
          27 15 2 4 -1.</_>
        <_>
          27 17 2 2 2.</_></rects>
      <tilted>0</tilted></_>
    <_>
      <rects>
        <_>
          27 15 13 20 -1.</_>
        <_>
          27 25 13 10 2.</_></rects>
      <tilted>0</tilted></_>
    <_>
      <rects>
        <_>
          27 18 6 10 -1.</_>
        <_>
          27 18 3 5 2.</_>
        <_>
          30 23 3 5 2.</_></rects>
      <tilted>0</tilted></_>
    <_>
      <rects>
        <_>
          27 19 6 12 -1.</_>
        <_>
          27 19 3 6 2.</_>
        <_>
          30 25 3 6 2.</_></rects>
      <tilted>0</tilted></_>
    <_>
      <rects>
        <_>
          27 20 13 16 -1.</_>
        <_>
          27 28 13 8 2.</_></rects>
      <tilted>0</tilted></_>
    <_>
      <rects>
        <_>
          27 22 18 28 -1.</_>
        <_>
          27 36 18 14 2.</_></rects>
      <tilted>0</tilted></_>
    <_>
      <rects>
        <_>
          27 30 12 7 -1.</_>
        <_>
          31 30 4 7 3.</_></rects>
      <tilted>0</tilted></_>
    <_>
      <rects>
        <_>
          27 30 11 6 -1.</_>
        <_>
          27 33 11 3 2.</_></rects>
      <tilted>0</tilted></_>
    <_>
      <rects>
        <_>
          28 19 14 16 -1.</_>
        <_>
          28 27 14 8 2.</_></rects>
      <tilted>0</tilted></_>
    <_>
      <rects>
        <_>
          29 18 21 12 -1.</_>
        <_>
          36 18 7 12 3.</_></rects>
      <tilted>0</tilted></_>
    <_>
      <rects>
        <_>
          29 22 9 7 -1.</_>
        <_>
          32 22 3 7 3.</_></rects>
      <tilted>0</tilted></_>
    <_>
      <rects>
        <_>
          29 26 12 3 -1.</_>
        <_>
          33 26 4 3 3.</_></rects>
      <tilted>0</tilted></_>
    <_>
      <rects>
        <_>
          29 27 9 8 -1.</_>
        <_>
          29 31 9 4 2.</_></rects>
      <tilted>0</tilted></_>
    <_>
      <rects>
        <_>
          30 14 10 12 -1.</_>
        <_>
          30 14 5 6 2.</_>
        <_>
          35 20 5 6 2.</_></rects>
      <tilted>0</tilted></_>
    <_>
      <rects>
        <_>
          30 14 10 14 -1.</_>
        <_>
          30 14 5 7 2.</_>
        <_>
          35 21 5 7 2.</_></rects>
      <tilted>0</tilted></_>
    <_>
      <rects>
        <_>
          30 18 18 1 -1.</_>
        <_>
          36 18 6 1 3.</_></rects>
      <tilted>0</tilted></_>
    <_>
      <rects>
        <_>
          31 0 5 20 -1.</_>
        <_>
          31 10 5 10 2.</_></rects>
      <tilted>0</tilted></_>
    <_>
      <rects>
        <_>
          31 8 8 14 -1.</_>
        <_>
          31 8 4 7 2.</_>
        <_>
          35 15 4 7 2.</_></rects>
      <tilted>0</tilted></_>
    <_>
      <rects>
        <_>
          31 12 10 10 -1.</_>
        <_>
          31 12 5 5 2.</_>
        <_>
          36 17 5 5 2.</_></rects>
      <tilted>0</tilted></_>
    <_>
      <rects>
        <_>
          31 15 10 12 -1.</_>
        <_>
          31 15 5 6 2.</_>
        <_>
          36 21 5 6 2.</_></rects>
      <tilted>0</tilted></_>
    <_>
      <rects>
        <_>
          31 16 9 15 -1.</_>
        <_>
          34 16 3 15 3.</_></rects>
      <tilted>0</tilted></_>
    <_>
      <rects>
        <_>
          31 26 4 10 -1.</_>
        <_>
          33 26 2 10 2.</_></rects>
      <tilted>0</tilted></_>
    <_>
      <rects>
        <_>
          31 28 5 6 -1.</_>
        <_>
          31 31 5 3 2.</_></rects>
      <tilted>0</tilted></_>
    <_>
      <rects>
        <_>
          32 11 16 6 -1.</_>
        <_>
          40 11 8 6 2.</_></rects>
      <tilted>0</tilted></_>
    <_>
      <rects>
        <_>
          32 14 18 5 -1.</_>
        <_>
          38 14 6 5 3.</_></rects>
      <tilted>0</tilted></_>
    <_>
      <rects>
        <_>
          32 16 12 16 -1.</_>
        <_>
          36 16 4 16 3.</_></rects>
      <tilted>0</tilted></_>
    <_>
      <rects>
        <_>
          32 18 12 9 -1.</_>
        <_>
          36 18 4 9 3.</_></rects>
      <tilted>0</tilted></_>
    <_>
      <rects>
        <_>
          33 13 8 6 -1.</_>
        <_>
          33 16 8 3 2.</_></rects>
      <tilted>0</tilted></_>
    <_>
      <rects>
        <_>
          33 18 12 2 -1.</_>
        <_>
          37 18 4 2 3.</_></rects>
      <tilted>0</tilted></_>
    <_>
      <rects>
        <_>
          33 19 12 7 -1.</_>
        <_>
          37 19 4 7 3.</_></rects>
      <tilted>0</tilted></_>
    <_>
      <rects>
        <_>
          33 20 12 15 -1.</_>
        <_>
          37 20 4 15 3.</_></rects>
      <tilted>0</tilted></_>
    <_>
      <rects>
        <_>
          33 23 5 12 -1.</_>
        <_>
          33 29 5 6 2.</_></rects>
      <tilted>0</tilted></_>
    <_>
      <rects>
        <_>
          33 27 3 8 -1.</_>
        <_>
          33 31 3 4 2.</_></rects>
      <tilted>0</tilted></_>
    <_>
      <rects>
        <_>
          34 19 6 16 -1.</_>
        <_>
          34 27 6 8 2.</_></rects>
      <tilted>0</tilted></_>
    <_>
      <rects>
        <_>
          34 25 3 12 -1.</_>
        <_>
          34 31 3 6 2.</_></rects>
      <tilted>0</tilted></_>
    <_>
      <rects>
        <_>
          35 0 13 48 -1.</_>
        <_>
          35 16 13 16 3.</_></rects>
      <tilted>0</tilted></_>
    <_>
      <rects>
        <_>
          35 16 15 4 -1.</_>
        <_>
          40 16 5 4 3.</_></rects>
      <tilted>0</tilted></_>
    <_>
      <rects>
        <_>
          35 23 5 12 -1.</_>
        <_>
          35 29 5 6 2.</_></rects>
      <tilted>0</tilted></_>
    <_>
      <rects>
        <_>
          36 7 2 10 -1.</_>
        <_>
          36 12 2 5 2.</_></rects>
      <tilted>0</tilted></_>
    <_>
      <rects>
        <_>
          36 19 3 18 -1.</_>
        <_>
          36 28 3 9 2.</_></rects>
      <tilted>0</tilted></_>
    <_>
      <rects>
        <_>
          36 21 1 14 -1.</_>
        <_>
          36 28 1 7 2.</_></rects>
      <tilted>0</tilted></_>
    <_>
      <rects>
        <_>
          36 21 8 1 -1.</_>
        <_>
          40 21 4 1 2.</_></rects>
      <tilted>0</tilted></_>
    <_>
      <rects>
        <_>
          36 22 9 2 -1.</_>
        <_>
          39 22 3 2 3.</_></rects>
      <tilted>0</tilted></_>
    <_>
      <rects>
        <_>
          36 26 2 2 -1.</_>
        <_>
          37 26 1 2 2.</_></rects>
      <tilted>0</tilted></_>
    <_>
      <rects>
        <_>
          36 27 14 8 -1.</_>
        <_>
          43 27 7 8 2.</_></rects>
      <tilted>0</tilted></_>
    <_>
      <rects>
        <_>
          36 36 2 2 -1.</_>
        <_>
          36 36 1 1 2.</_>
        <_>
          37 37 1 1 2.</_></rects>
      <tilted>0</tilted></_>
    <_>
      <rects>
        <_>
          37 20 12 10 -1.</_>
        <_>
          41 20 4 10 3.</_></rects>
      <tilted>0</tilted></_>
    <_>
      <rects>
        <_>
          37 22 3 12 -1.</_>
        <_>
          37 28 3 6 2.</_></rects>
      <tilted>0</tilted></_>
    <_>
      <rects>
        <_>
          38 5 12 22 -1.</_>
        <_>
          38 5 6 11 2.</_>
        <_>
          44 16 6 11 2.</_></rects>
      <tilted>0</tilted></_>
    <_>
      <rects>
        <_>
          38 9 1 10 -1.</_>
        <_>
          38 14 1 5 2.</_></rects>
      <tilted>0</tilted></_>
    <_>
      <rects>
        <_>
          38 9 2 9 -1.</_>
        <_>
          38 12 2 3 3.</_></rects>
      <tilted>0</tilted></_>
    <_>
      <rects>
        <_>
          38 11 10 10 -1.</_>
        <_>
          38 11 5 5 2.</_>
        <_>
          43 16 5 5 2.</_></rects>
      <tilted>0</tilted></_>
    <_>
      <rects>
        <_>
          38 21 12 2 -1.</_>
        <_>
          44 21 6 2 2.</_></rects>
      <tilted>0</tilted></_>
    <_>
      <rects>
        <_>
          38 30 9 1 -1.</_>
        <_>
          41 30 3 1 3.</_></rects>
      <tilted>0</tilted></_>
    <_>
      <rects>
        <_>
          38 33 2 4 -1.</_>
        <_>
          38 33 1 2 2.</_>
        <_>
          39 35 1 2 2.</_></rects>
      <tilted>0</tilted></_>
    <_>
      <rects>
        <_>
          39 1 9 48 -1.</_>
        <_>
          39 17 9 16 3.</_></rects>
      <tilted>0</tilted></_>
    <_>
      <rects>
        <_>
          39 5 1 20 -1.</_>
        <_>
          39 15 1 10 2.</_></rects>
      <tilted>0</tilted></_>
    <_>
      <rects>
        <_>
          39 19 9 4 -1.</_>
        <_>
          42 19 3 4 3.</_></rects>
      <tilted>0</tilted></_>
    <_>
      <rects>
        <_>
          40 8 2 18 -1.</_>
        <_>
          40 17 2 9 2.</_></rects>
      <tilted>0</tilted></_>
    <_>
      <rects>
        <_>
          41 15 6 18 -1.</_>
        <_>
          41 15 3 9 2.</_>
        <_>
          44 24 3 9 2.</_></rects>
      <tilted>0</tilted></_>
    <_>
      <rects>
        <_>
          41 16 2 2 -1.</_>
        <_>
          41 16 1 1 2.</_>
        <_>
          42 17 1 1 2.</_></rects>
      <tilted>0</tilted></_>
    <_>
      <rects>
        <_>
          42 21 8 18 -1.</_>
        <_>
          46 21 4 18 2.</_></rects>
      <tilted>0</tilted></_>
    <_>
      <rects>
        <_>
          42 29 4 6 -1.</_>
        <_>
          42 29 2 3 2.</_>
        <_>
          44 32 2 3 2.</_></rects>
      <tilted>0</tilted></_>
    <_>
      <rects>
        <_>
          43 15 2 8 -1.</_>
        <_>
          43 15 1 4 2.</_>
        <_>
          44 19 1 4 2.</_></rects>
      <tilted>0</tilted></_>
    <_>
      <rects>
        <_>
          43 18 4 10 -1.</_>
        <_>
          43 18 2 5 2.</_>
        <_>
          45 23 2 5 2.</_></rects>
      <tilted>0</tilted></_>
    <_>
      <rects>
        <_>
          43 23 6 7 -1.</_>
        <_>
          45 23 2 7 3.</_></rects>
      <tilted>0</tilted></_>
    <_>
      <rects>
        <_>
          44 21 4 12 -1.</_>
        <_>
          44 21 2 6 2.</_>
        <_>
          46 27 2 6 2.</_></rects>
      <tilted>0</tilted></_>
    <_>
      <rects>
        <_>
          45 25 2 6 -1.</_>
        <_>
          45 25 1 3 2.</_>
        <_>
          46 28 1 3 2.</_></rects>
      <tilted>0</tilted></_></features></cascade>
</opencv_storage>
