<?xml version="1.0"?>
<opencv_storage>
<cascade>
  <stageType>BOOST</stageType>
  <featureType>HAAR</featureType>
  <height>25</height>
  <width>50</width>
  <stageParams>
    <boostType>GAB</boostType>
    <minHitRate>9.9900001287460327e-01</minHitRate>
    <maxFalseAlarm>5.0000000000000000e-01</maxFalseAlarm>
    <weightTrimRate>9.4999999999999996e-01</weightTrimRate>
    <maxDepth>1</maxDepth>
    <maxWeakCount>100</maxWeakCount></stageParams>
  <featureParams>
    <maxCatCount>0</maxCatCount>
    <featSize>1</featSize>
    <mode>BASIC</mode></featureParams>
  <stageNum>15</stageNum>
  <stages>
    <!-- stage 0 -->
    <_>
      <maxWeakCount>6</maxWeakCount>
      <stageThreshold>-1.6621683835983276e+00</stageThreshold>
      <weakClassifiers>
        <_>
          <internalNodes>
            0 -1 151 -3.1262813135981560e-03</internalNodes>
          <leafValues>
            7.3284536600112915e-01 -7.9092699289321899e-01</leafValues></_>
        <_>
          <internalNodes>
            0 -1 113 1.3296527322381735e-04</internalNodes>
          <leafValues>
            -8.5764896869659424e-01 5.1462030410766602e-01</leafValues></_>
        <_>
          <internalNodes>
            0 -1 50 3.0445313313975930e-04</internalNodes>
          <leafValues>
            -8.5470330715179443e-01 4.0391439199447632e-01</leafValues></_>
        <_>
          <internalNodes>
            0 -1 82 3.4600953222252429e-04</internalNodes>
          <leafValues>
            -8.9970535039901733e-01 3.3906605839729309e-01</leafValues></_>
        <_>
          <internalNodes>
            0 -1 79 3.4245989809278399e-05</internalNodes>
          <leafValues>
            -9.0638726949691772e-01 2.5737664103507996e-01</leafValues></_>
        <_>
          <internalNodes>
            0 -1 80 2.6941663236357272e-04</internalNodes>
          <leafValues>
            2.2482189536094666e-01 -8.8601720333099365e-01</leafValues></_></weakClassifiers></_>
    <!-- stage 1 -->
    <_>
      <maxWeakCount>7</maxWeakCount>
      <stageThreshold>-1.3510359525680542e+00</stageThreshold>
      <weakClassifiers>
        <_>
          <internalNodes>
            0 -1 87 7.3367706499993801e-04</internalNodes>
          <leafValues>
            -8.7951809167861938e-01 5.4574131965637207e-01</leafValues></_>
        <_>
          <internalNodes>
            0 -1 43 1.4508821186609566e-04</internalNodes>
          <leafValues>
            -8.6262232065200806e-01 3.6725991964340210e-01</leafValues></_>
        <_>
          <internalNodes>
            0 -1 151 -4.1208257898688316e-03</internalNodes>
          <leafValues>
            3.8955450057983398e-01 -6.9549679756164551e-01</leafValues></_>
        <_>
          <internalNodes>
            0 -1 123 2.5351209842483513e-05</internalNodes>
          <leafValues>
            -8.1714904308319092e-01 2.5468453764915466e-01</leafValues></_>
        <_>
          <internalNodes>
            0 -1 110 7.0016423705965281e-05</internalNodes>
          <leafValues>
            -7.3958468437194824e-01 3.2077783346176147e-01</leafValues></_>
        <_>
          <internalNodes>
            0 -1 108 -1.9343577150721103e-05</internalNodes>
          <leafValues>
            -9.5900213718414307e-01 1.6187794506549835e-01</leafValues></_>
        <_>
          <internalNodes>
            0 -1 74 7.5711053796112537e-05</internalNodes>
          <leafValues>
            -9.2567288875579834e-01 1.9121229648590088e-01</leafValues></_></weakClassifiers></_>
    <!-- stage 2 -->
    <_>
      <maxWeakCount>11</maxWeakCount>
      <stageThreshold>-1.4343047142028809e+00</stageThreshold>
      <weakClassifiers>
        <_>
          <internalNodes>
            0 -1 166 -4.9737311201170087e-05</internalNodes>
          <leafValues>
            6.0269361734390259e-01 -7.6699030399322510e-01</leafValues></_>
        <_>
          <internalNodes>
            0 -1 49 3.3764830732252449e-05</internalNodes>
          <leafValues>
            -7.1566039323806763e-01 4.0030321478843689e-01</leafValues></_>
        <_>
          <internalNodes>
            0 -1 135 1.1791394172178116e-05</internalNodes>
          <leafValues>
            -8.0209624767303467e-01 3.2248023152351379e-01</leafValues></_>
        <_>
          <internalNodes>
            0 -1 172 -5.6106969714164734e-03</internalNodes>
          <leafValues>
            5.6802600622177124e-01 -4.5662757754325867e-01</leafValues></_>
        <_>
          <internalNodes>
            0 -1 15 -5.1815510960295796e-04</internalNodes>
          <leafValues>
            4.7284138202667236e-01 -4.0660378336906433e-01</leafValues></_>
        <_>
          <internalNodes>
            0 -1 86 -2.6149288169108331e-04</internalNodes>
          <leafValues>
            -7.7739512920379639e-01 2.5113865733146667e-01</leafValues></_>
        <_>
          <internalNodes>
            0 -1 119 7.8001397196203470e-04</internalNodes>
          <leafValues>
            2.1870182454586029e-01 -9.0915310382843018e-01</leafValues></_>
        <_>
          <internalNodes>
            0 -1 93 6.0079946706537157e-06</internalNodes>
          <leafValues>
            -8.2963103055953979e-01 1.3851471245288849e-01</leafValues></_>
        <_>
          <internalNodes>
            0 -1 126 6.3271982071455568e-06</internalNodes>
          <leafValues>
            -7.9465281963348389e-01 2.1831114590167999e-01</leafValues></_>
        <_>
          <internalNodes>
            0 -1 9 1.3359704613685608e-01</internalNodes>
          <leafValues>
            1.7607901990413666e-01 -9.2194038629531860e-01</leafValues></_>
        <_>
          <internalNodes>
            0 -1 12 -1.1372179538011551e-01</internalNodes>
          <leafValues>
            7.8192657232284546e-01 -2.7151656150817871e-01</leafValues></_></weakClassifiers></_>
    <!-- stage 3 -->
    <_>
      <maxWeakCount>11</maxWeakCount>
      <stageThreshold>-1.3579076528549194e+00</stageThreshold>
      <weakClassifiers>
        <_>
          <internalNodes>
            0 -1 42 -3.1266541918739676e-04</internalNodes>
          <leafValues>
            -6.2529271841049194e-01 5.6862747669219971e-01</leafValues></_>
        <_>
          <internalNodes>
            0 -1 181 -9.1996672563254833e-04</internalNodes>
          <leafValues>
            6.8599563837051392e-01 -4.3897402286529541e-01</leafValues></_>
        <_>
          <internalNodes>
            0 -1 18 3.9994245767593384e-01</internalNodes>
          <leafValues>
            3.4430184960365295e-01 -7.7482300996780396e-01</leafValues></_>
        <_>
          <internalNodes>
            0 -1 141 4.4460532080847770e-05</internalNodes>
          <leafValues>
            -6.1396998167037964e-01 3.8338220119476318e-01</leafValues></_>
        <_>
          <internalNodes>
            0 -1 62 -3.3478473778814077e-04</internalNodes>
          <leafValues>
            -9.4854688644409180e-01 1.8849100172519684e-01</leafValues></_>
        <_>
          <internalNodes>
            0 -1 14 -8.6483123595826328e-05</internalNodes>
          <leafValues>
            4.5005950331687927e-01 -4.9765434861183167e-01</leafValues></_>
        <_>
          <internalNodes>
            0 -1 188 -9.7542710136622190e-05</internalNodes>
          <leafValues>
            5.8012926578521729e-01 -3.7504780292510986e-01</leafValues></_>
        <_>
          <internalNodes>
            0 -1 176 -3.5948550794273615e-04</internalNodes>
          <leafValues>
            5.3823727369308472e-01 -3.8991338014602661e-01</leafValues></_>
        <_>
          <internalNodes>
            0 -1 17 4.4313352555036545e-04</internalNodes>
          <leafValues>
            -3.2016408443450928e-01 6.7091822624206543e-01</leafValues></_>
        <_>
          <internalNodes>
            0 -1 90 1.9147894345223904e-03</internalNodes>
          <leafValues>
            2.9271879792213440e-01 -8.7047904729843140e-01</leafValues></_>
        <_>
          <internalNodes>
            0 -1 102 1.9991485169157386e-04</internalNodes>
          <leafValues>
            -7.1838265657424927e-01 2.9615396261215210e-01</leafValues></_></weakClassifiers></_>
    <!-- stage 4 -->
    <_>
      <maxWeakCount>11</maxWeakCount>
      <stageThreshold>-1.2008550167083740e+00</stageThreshold>
      <weakClassifiers>
        <_>
          <internalNodes>
            0 -1 160 -1.8837714742403477e-04</internalNodes>
          <leafValues>
            5.7266438007354736e-01 -5.9009009599685669e-01</leafValues></_>
        <_>
          <internalNodes>
            0 -1 60 6.8811648816335946e-05</internalNodes>
          <leafValues>
            -7.9351741075515747e-01 3.0619433522224426e-01</leafValues></_>
        <_>
          <internalNodes>
            0 -1 175 -2.4256757460534573e-03</internalNodes>
          <leafValues>
            6.1635774374008179e-01 -2.9680627584457397e-01</leafValues></_>
        <_>
          <internalNodes>
            0 -1 146 5.7000281231012195e-05</internalNodes>
          <leafValues>
            -4.8878923058509827e-01 3.7385946512222290e-01</leafValues></_>
        <_>
          <internalNodes>
            0 -1 177 -1.0615771170705557e-03</internalNodes>
          <leafValues>
            4.8446840047836304e-01 -3.5312652587890625e-01</leafValues></_>
        <_>
          <internalNodes>
            0 -1 191 -1.1345213715685531e-04</internalNodes>
          <leafValues>
            5.3548866510391235e-01 -2.9805627465248108e-01</leafValues></_>
        <_>
          <internalNodes>
            0 -1 143 3.3912359504029155e-04</internalNodes>
          <leafValues>
            1.6355802118778229e-01 -8.6742830276489258e-01</leafValues></_>
        <_>
          <internalNodes>
            0 -1 115 2.1844261209480464e-04</internalNodes>
          <leafValues>
            -5.9124231338500977e-01 2.5718876719474792e-01</leafValues></_>
        <_>
          <internalNodes>
            0 -1 104 4.4511078158393502e-04</internalNodes>
          <leafValues>
            2.0037104189395905e-01 -7.7249270677566528e-01</leafValues></_>
        <_>
          <internalNodes>
            0 -1 22 1.7761779017746449e-03</internalNodes>
          <leafValues>
            -2.9529714584350586e-01 6.4437979459762573e-01</leafValues></_>
        <_>
          <internalNodes>
            0 -1 81 7.1223810664378107e-05</internalNodes>
          <leafValues>
            -9.4579148292541504e-01 1.9399841129779816e-01</leafValues></_></weakClassifiers></_>
    <!-- stage 5 -->
    <_>
      <maxWeakCount>9</maxWeakCount>
      <stageThreshold>-1.1921751499176025e+00</stageThreshold>
      <weakClassifiers>
        <_>
          <internalNodes>
            0 -1 61 -1.7315777949988842e-04</internalNodes>
          <leafValues>
            -7.8778135776519775e-01 5.0038790702819824e-01</leafValues></_>
        <_>
          <internalNodes>
            0 -1 92 2.9746274231001735e-04</internalNodes>
          <leafValues>
            2.7188152074813843e-01 -8.4229433536529541e-01</leafValues></_>
        <_>
          <internalNodes>
            0 -1 69 -1.3458321336656809e-03</internalNodes>
          <leafValues>
            -8.5298943519592285e-01 1.9596952199935913e-01</leafValues></_>
        <_>
          <internalNodes>
            0 -1 67 1.8303446995560080e-04</internalNodes>
          <leafValues>
            -7.7832561731338501e-01 2.4871550500392914e-01</leafValues></_>
        <_>
          <internalNodes>
            0 -1 40 1.4792872592806816e-02</internalNodes>
          <leafValues>
            1.6316220164299011e-01 -8.4938782453536987e-01</leafValues></_>
        <_>
          <internalNodes>
            0 -1 114 -1.6217216034419835e-04</internalNodes>
          <leafValues>
            -8.9887714385986328e-01 1.5654945373535156e-01</leafValues></_>
        <_>
          <internalNodes>
            0 -1 100 -1.5983814955689013e-04</internalNodes>
          <leafValues>
            -7.3525696992874146e-01 1.9212724268436432e-01</leafValues></_>
        <_>
          <internalNodes>
            0 -1 48 -3.6053237272426486e-04</internalNodes>
          <leafValues>
            -8.1638866662979126e-01 1.3964858651161194e-01</leafValues></_>
        <_>
          <internalNodes>
            0 -1 170 -6.0079946706537157e-06</internalNodes>
          <leafValues>
            2.3901607096195221e-01 -6.5632855892181396e-01</leafValues></_></weakClassifiers></_>
    <!-- stage 6 -->
    <_>
      <maxWeakCount>11</maxWeakCount>
      <stageThreshold>-1.1806768178939819e+00</stageThreshold>
      <weakClassifiers>
        <_>
          <internalNodes>
            0 -1 85 2.0668767392635345e-03</internalNodes>
          <leafValues>
            4.8949417471885681e-01 -7.2698414325714111e-01</leafValues></_>
        <_>
          <internalNodes>
            0 -1 65 2.1248593111522496e-04</internalNodes>
          <leafValues>
            -8.5865384340286255e-01 2.2341835498809814e-01</leafValues></_>
        <_>
          <internalNodes>
            0 -1 89 6.1892339726909995e-04</internalNodes>
          <leafValues>
            1.9564129412174225e-01 -8.6311244964599609e-01</leafValues></_>
        <_>
          <internalNodes>
            0 -1 99 -6.0447571740951389e-05</internalNodes>
          <leafValues>
            -8.0529350042343140e-01 2.3100243508815765e-01</leafValues></_>
        <_>
          <internalNodes>
            0 -1 142 -1.8759057857096195e-03</internalNodes>
          <leafValues>
            3.1756815314292908e-01 -4.7127234935760498e-01</leafValues></_>
        <_>
          <internalNodes>
            0 -1 94 -2.3546055308543146e-04</internalNodes>
          <leafValues>
            -7.9708826541900635e-01 2.0847137272357941e-01</leafValues></_>
        <_>
          <internalNodes>
            0 -1 51 3.1357556581497192e-03</internalNodes>
          <leafValues>
            2.3042793571949005e-01 -6.6355103254318237e-01</leafValues></_>
        <_>
          <internalNodes>
            0 -1 55 3.9848225424066186e-04</internalNodes>
          <leafValues>
            -7.7129215002059937e-01 1.6455414891242981e-01</leafValues></_>
        <_>
          <internalNodes>
            0 -1 125 4.5962105505168438e-03</internalNodes>
          <leafValues>
            -3.3347076177597046e-01 4.3394607305526733e-01</leafValues></_>
        <_>
          <internalNodes>
            0 -1 7 -2.3779092729091644e-01</internalNodes>
          <leafValues>
            6.9367003440856934e-01 -2.4297207593917847e-01</leafValues></_>
        <_>
          <internalNodes>
            0 -1 64 -1.5125470235943794e-04</internalNodes>
          <leafValues>
            5.0439918041229248e-01 -3.4659332036972046e-01</leafValues></_></weakClassifiers></_>
    <!-- stage 7 -->
    <_>
      <maxWeakCount>11</maxWeakCount>
      <stageThreshold>-1.3952404260635376e+00</stageThreshold>
      <weakClassifiers>
        <_>
          <internalNodes>
            0 -1 127 1.8527476640883833e-05</internalNodes>
          <leafValues>
            -8.1518149375915527e-01 4.9884349107742310e-01</leafValues></_>
        <_>
          <internalNodes>
            0 -1 154 -2.7712405426427722e-04</internalNodes>
          <leafValues>
            3.4797999262809753e-01 -5.7624936103820801e-01</leafValues></_>
        <_>
          <internalNodes>
            0 -1 39 -1.4110666234046221e-03</internalNodes>
          <leafValues>
            -7.4070173501968384e-01 2.9851952195167542e-01</leafValues></_>
        <_>
          <internalNodes>
            0 -1 61 5.7763821678236127e-04</internalNodes>
          <leafValues>
            1.8184302747249603e-01 -9.2340821027755737e-01</leafValues></_>
        <_>
          <internalNodes>
            0 -1 137 3.1029485398903489e-05</internalNodes>
          <leafValues>
            -7.5488668680191040e-01 1.8856751918792725e-01</leafValues></_>
        <_>
          <internalNodes>
            0 -1 73 6.1229247876326554e-06</internalNodes>
          <leafValues>
            -7.8188431262969971e-01 1.8621532618999481e-01</leafValues></_>
        <_>
          <internalNodes>
            0 -1 148 -3.3962423913180828e-04</internalNodes>
          <leafValues>
            -9.5809876918792725e-01 1.1223273724317551e-01</leafValues></_>
        <_>
          <internalNodes>
            0 -1 167 -1.1141519062221050e-03</internalNodes>
          <leafValues>
            2.9708135128021240e-01 -5.2374517917633057e-01</leafValues></_>
        <_>
          <internalNodes>
            0 -1 75 7.9775019548833370e-04</internalNodes>
          <leafValues>
            1.8453758955001831e-01 -7.9973262548446655e-01</leafValues></_>
        <_>
          <internalNodes>
            0 -1 6 1.3464786112308502e-02</internalNodes>
          <leafValues>
            2.1642518043518066e-01 -6.6355937719345093e-01</leafValues></_>
        <_>
          <internalNodes>
            0 -1 149 2.2764495224691927e-04</internalNodes>
          <leafValues>
            1.3891921937465668e-01 -9.5706039667129517e-01</leafValues></_></weakClassifiers></_>
    <!-- stage 8 -->
    <_>
      <maxWeakCount>17</maxWeakCount>
      <stageThreshold>-1.5162460803985596e+00</stageThreshold>
      <weakClassifiers>
        <_>
          <internalNodes>
            0 -1 150 -5.4352749139070511e-03</internalNodes>
          <leafValues>
            4.7619047760963440e-01 -5.8823531866073608e-01</leafValues></_>
        <_>
          <internalNodes>
            0 -1 103 -3.9370934246107936e-04</internalNodes>
          <leafValues>
            -7.8346705436706543e-01 2.0755198597908020e-01</leafValues></_>
        <_>
          <internalNodes>
            0 -1 106 7.3276436887681484e-04</internalNodes>
          <leafValues>
            1.8048724532127380e-01 -8.0564552545547485e-01</leafValues></_>
        <_>
          <internalNodes>
            0 -1 97 7.2498078225180507e-05</internalNodes>
          <leafValues>
            -6.2630397081375122e-01 2.2365973889827728e-01</leafValues></_>
        <_>
          <internalNodes>
            0 -1 186 -8.9682277757674456e-04</internalNodes>
          <leafValues>
            6.4249199628829956e-01 -2.5111162662506104e-01</leafValues></_>
        <_>
          <internalNodes>
            0 -1 21 -3.0696345493197441e-04</internalNodes>
          <leafValues>
            4.2021656036376953e-01 -3.2252383232116699e-01</leafValues></_>
        <_>
          <internalNodes>
            0 -1 122 6.1229247876326554e-06</internalNodes>
          <leafValues>
            -7.8601527214050293e-01 1.7667439579963684e-01</leafValues></_>
        <_>
          <internalNodes>
            0 -1 44 7.1652398219157476e-06</internalNodes>
          <leafValues>
            -5.9089404344558716e-01 2.2107547521591187e-01</leafValues></_>
        <_>
          <internalNodes>
            0 -1 184 5.8915704721584916e-04</internalNodes>
          <leafValues>
            -3.0555126070976257e-01 5.0400948524475098e-01</leafValues></_>
        <_>
          <internalNodes>
            0 -1 163 -7.1922276401892304e-04</internalNodes>
          <leafValues>
            -6.5821719169616699e-01 2.1187941730022430e-01</leafValues></_>
        <_>
          <internalNodes>
            0 -1 32 -1.7193448729813099e-03</internalNodes>
          <leafValues>
            6.8583649396896362e-01 -2.2683534026145935e-01</leafValues></_>
        <_>
          <internalNodes>
            0 -1 83 1.3032315473537892e-04</internalNodes>
          <leafValues>
            -6.8393123149871826e-01 2.0473168790340424e-01</leafValues></_>
        <_>
          <internalNodes>
            0 -1 30 5.8019245043396950e-03</internalNodes>
          <leafValues>
            -2.6715987920761108e-01 5.7158809900283813e-01</leafValues></_>
        <_>
          <internalNodes>
            0 -1 124 8.3979968621861190e-05</internalNodes>
          <leafValues>
            2.0548267662525177e-01 -6.9891560077667236e-01</leafValues></_>
        <_>
          <internalNodes>
            0 -1 31 -5.5162077769637108e-03</internalNodes>
          <leafValues>
            5.4861563444137573e-01 -2.5429588556289673e-01</leafValues></_>
        <_>
          <internalNodes>
            0 -1 28 -1.2143696844577789e-01</internalNodes>
          <leafValues>
            6.3000643253326416e-01 -1.9007313251495361e-01</leafValues></_>
        <_>
          <internalNodes>
            0 -1 121 -1.9080396741628647e-03</internalNodes>
          <leafValues>
            -8.6704301834106445e-01 1.5360999107360840e-01</leafValues></_></weakClassifiers></_>
    <!-- stage 9 -->
    <_>
      <maxWeakCount>16</maxWeakCount>
      <stageThreshold>-1.2760386466979980e+00</stageThreshold>
      <weakClassifiers>
        <_>
          <internalNodes>
            0 -1 162 -2.6553290808806196e-05</internalNodes>
          <leafValues>
            4.9232012033462524e-01 -5.7575756311416626e-01</leafValues></_>
        <_>
          <internalNodes>
            0 -1 169 -2.3067661095410585e-03</internalNodes>
          <leafValues>
            5.2431708574295044e-01 -2.5756061077117920e-01</leafValues></_>
        <_>
          <internalNodes>
            0 -1 109 -9.1200141469016671e-05</internalNodes>
          <leafValues>
            -7.9305541515350342e-01 1.8654233217239380e-01</leafValues></_>
        <_>
          <internalNodes>
            0 -1 107 4.4034546590410173e-04</internalNodes>
          <leafValues>
            -6.3185685873031616e-01 2.0297420024871826e-01</leafValues></_>
        <_>
          <internalNodes>
            0 -1 76 1.6478453471790999e-04</internalNodes>
          <leafValues>
            -4.1612243652343750e-01 3.7779539823532104e-01</leafValues></_>
        <_>
          <internalNodes>
            0 -1 24 -1.0798966104630381e-04</internalNodes>
          <leafValues>
            3.2085496187210083e-01 -3.7440693378448486e-01</leafValues></_>
        <_>
          <internalNodes>
            0 -1 178 -1.4057366177439690e-02</internalNodes>
          <leafValues>
            6.4635235071182251e-01 -2.1802990138530731e-01</leafValues></_>
        <_>
          <internalNodes>
            0 -1 112 -2.4987498181872070e-04</internalNodes>
          <leafValues>
            -7.2678220272064209e-01 1.9076408445835114e-01</leafValues></_>
        <_>
          <internalNodes>
            0 -1 77 -1.4430692419409752e-02</internalNodes>
          <leafValues>
            5.4960501194000244e-01 -2.3302647471427917e-01</leafValues></_>
        <_>
          <internalNodes>
            0 -1 96 1.6125573893077672e-04</internalNodes>
          <leafValues>
            -5.3966152667999268e-01 2.4001799523830414e-01</leafValues></_>
        <_>
          <internalNodes>
            0 -1 70 2.3158264812082052e-03</internalNodes>
          <leafValues>
            1.8709969520568848e-01 -6.6151767969131470e-01</leafValues></_>
        <_>
          <internalNodes>
            0 -1 10 -2.0417994819581509e-03</internalNodes>
          <leafValues>
            5.3642129898071289e-01 -2.4828980863094330e-01</leafValues></_>
        <_>
          <internalNodes>
            0 -1 165 -8.7404233636334538e-04</internalNodes>
          <leafValues>
            2.3966810107231140e-01 -5.8245885372161865e-01</leafValues></_>
        <_>
          <internalNodes>
            0 -1 174 1.4695670455694199e-02</internalNodes>
          <leafValues>
            -2.0970419049263000e-01 7.6962488889694214e-01</leafValues></_>
        <_>
          <internalNodes>
            0 -1 145 1.6801623860374093e-04</internalNodes>
          <leafValues>
            -2.8828594088554382e-01 4.2779245972633362e-01</leafValues></_>
        <_>
          <internalNodes>
            0 -1 183 -3.4814483951777220e-03</internalNodes>
          <leafValues>
            7.8981220722198486e-01 -1.8631505966186523e-01</leafValues></_></weakClassifiers></_>
    <!-- stage 10 -->
    <_>
      <maxWeakCount>18</maxWeakCount>
      <stageThreshold>-1.1034098863601685e+00</stageThreshold>
      <weakClassifiers>
        <_>
          <internalNodes>
            0 -1 51 8.8505967141827568e-06</internalNodes>
          <leafValues>
            -8.2999998331069946e-01 4.0428572893142700e-01</leafValues></_>
        <_>
          <internalNodes>
            0 -1 129 4.8498768592253327e-04</internalNodes>
          <leafValues>
            -5.8212155103683472e-01 3.5255110263824463e-01</leafValues></_>
        <_>
          <internalNodes>
            0 -1 78 -5.1341590005904436e-04</internalNodes>
          <leafValues>
            3.2225850224494934e-01 -3.9577698707580566e-01</leafValues></_>
        <_>
          <internalNodes>
            0 -1 133 -1.3722782568947878e-05</internalNodes>
          <leafValues>
            2.4453140795230865e-01 -5.0936818122863770e-01</leafValues></_>
        <_>
          <internalNodes>
            0 -1 56 -4.7580519458279014e-04</internalNodes>
          <leafValues>
            -7.1817487478256226e-01 1.7833243310451508e-01</leafValues></_>
        <_>
          <internalNodes>
            0 -1 140 3.2124586869031191e-04</internalNodes>
          <leafValues>
            1.1564149707555771e-01 -7.9001337289810181e-01</leafValues></_>
        <_>
          <internalNodes>
            0 -1 37 8.6023017764091492e-02</internalNodes>
          <leafValues>
            1.4819850027561188e-01 -6.7306435108184814e-01</leafValues></_>
        <_>
          <internalNodes>
            0 -1 180 8.0412449315190315e-03</internalNodes>
          <leafValues>
            -1.7917691171169281e-01 7.1450859308242798e-01</leafValues></_>
        <_>
          <internalNodes>
            0 -1 27 4.8828329890966415e-03</internalNodes>
          <leafValues>
            -1.9280730187892914e-01 5.8173668384552002e-01</leafValues></_>
        <_>
          <internalNodes>
            0 -1 66 3.5611999919638038e-05</internalNodes>
          <leafValues>
            -5.9854537248611450e-01 1.9033998250961304e-01</leafValues></_>
        <_>
          <internalNodes>
            0 -1 136 -9.1580245643854141e-03</internalNodes>
          <leafValues>
            4.2481711506843567e-01 -2.8055128455162048e-01</leafValues></_>
        <_>
          <internalNodes>
            0 -1 193 1.4219123404473066e-03</internalNodes>
          <leafValues>
            -1.7161069810390472e-01 6.9623512029647827e-01</leafValues></_>
        <_>
          <internalNodes>
            0 -1 117 4.7732931561768055e-03</internalNodes>
          <leafValues>
            1.6364105045795441e-01 -9.4427019357681274e-01</leafValues></_>
        <_>
          <internalNodes>
            0 -1 131 1.6051682177931070e-04</internalNodes>
          <leafValues>
            -4.8518732190132141e-01 2.1085247397422791e-01</leafValues></_>
        <_>
          <internalNodes>
            0 -1 138 8.5605075582861900e-04</internalNodes>
          <leafValues>
            1.6978245973587036e-01 -6.8496716022491455e-01</leafValues></_>
        <_>
          <internalNodes>
            0 -1 91 1.2118306585762184e-05</internalNodes>
          <leafValues>
            -7.0583891868591309e-01 1.3274881243705750e-01</leafValues></_>
        <_>
          <internalNodes>
            0 -1 45 -1.9516835454851389e-03</internalNodes>
          <leafValues>
            7.2790557146072388e-01 -1.6116942465305328e-01</leafValues></_>
        <_>
          <internalNodes>
            0 -1 36 3.6497795954346657e-03</internalNodes>
          <leafValues>
            -1.4872604608535767e-01 6.6534376144409180e-01</leafValues></_></weakClassifiers></_>
    <!-- stage 11 -->
    <_>
      <maxWeakCount>15</maxWeakCount>
      <stageThreshold>-1.0934796333312988e+00</stageThreshold>
      <weakClassifiers>
        <_>
          <internalNodes>
            0 -1 164 -8.5136685811448842e-05</internalNodes>
          <leafValues>
            4.4827586412429810e-01 -6.2711864709854126e-01</leafValues></_>
        <_>
          <internalNodes>
            0 -1 120 7.1127666160464287e-05</internalNodes>
          <leafValues>
            -5.7509714365005493e-01 2.5117358565330505e-01</leafValues></_>
        <_>
          <internalNodes>
            0 -1 47 6.1949363043822814e-06</internalNodes>
          <leafValues>
            -5.3686004877090454e-01 2.7097094058990479e-01</leafValues></_>
        <_>
          <internalNodes>
            0 -1 126 6.3271982071455568e-06</internalNodes>
          <leafValues>
            -6.6138088703155518e-01 1.3038638234138489e-01</leafValues></_>
        <_>
          <internalNodes>
            0 -1 71 1.1629330692812800e-03</internalNodes>
          <leafValues>
            1.5898047387599945e-01 -6.4181590080261230e-01</leafValues></_>
        <_>
          <internalNodes>
            0 -1 57 5.8048183564096689e-04</internalNodes>
          <leafValues>
            1.4896230399608612e-01 -7.1889311075210571e-01</leafValues></_>
        <_>
          <internalNodes>
            0 -1 182 -6.7393435165286064e-04</internalNodes>
          <leafValues>
            3.5805216431617737e-01 -2.9987466335296631e-01</leafValues></_>
        <_>
          <internalNodes>
            0 -1 98 -2.2477782331407070e-03</internalNodes>
          <leafValues>
            4.5255762338638306e-01 -2.8864538669586182e-01</leafValues></_>
        <_>
          <internalNodes>
            0 -1 179 8.3341868594288826e-04</internalNodes>
          <leafValues>
            -2.1376706659793854e-01 5.0071179866790771e-01</leafValues></_>
        <_>
          <internalNodes>
            0 -1 84 1.2964985216967762e-04</internalNodes>
          <leafValues>
            -4.8961532115936279e-01 2.2815866768360138e-01</leafValues></_>
        <_>
          <internalNodes>
            0 -1 144 7.0519413384317886e-06</internalNodes>
          <leafValues>
            -4.8648422956466675e-01 2.7858191728591919e-01</leafValues></_>
        <_>
          <internalNodes>
            0 -1 155 -8.6605697870254517e-03</internalNodes>
          <leafValues>
            7.6868754625320435e-01 -1.5333494544029236e-01</leafValues></_>
        <_>
          <internalNodes>
            0 -1 105 6.6120628616772592e-06</internalNodes>
          <leafValues>
            -9.1546994447708130e-01 1.2864430248737335e-01</leafValues></_>
        <_>
          <internalNodes>
            0 -1 5 -1.3748698402196169e-03</internalNodes>
          <leafValues>
            5.1628178358078003e-01 -2.4674712121486664e-01</leafValues></_>
        <_>
          <internalNodes>
            0 -1 192 -1.6261211130768061e-03</internalNodes>
          <leafValues>
            6.0782247781753540e-01 -1.5827359259128571e-01</leafValues></_></weakClassifiers></_>
    <!-- stage 12 -->
    <_>
      <maxWeakCount>21</maxWeakCount>
      <stageThreshold>-1.1259480714797974e+00</stageThreshold>
      <weakClassifiers>
        <_>
          <internalNodes>
            0 -1 42 1.7662851314526051e-04</internalNodes>
          <leafValues>
            -3.3887735009193420e-01 5.0312781333923340e-01</leafValues></_>
        <_>
          <internalNodes>
            0 -1 101 -5.2607581892516464e-05</internalNodes>
          <leafValues>
            -7.9707235097885132e-01 1.7141026258468628e-01</leafValues></_>
        <_>
          <internalNodes>
            0 -1 16 -6.2589839217253029e-05</internalNodes>
          <leafValues>
            2.8246060013771057e-01 -3.8797414302825928e-01</leafValues></_>
        <_>
          <internalNodes>
            0 -1 53 1.9586561247706413e-03</internalNodes>
          <leafValues>
            1.3563838601112366e-01 -7.9006814956665039e-01</leafValues></_>
        <_>
          <internalNodes>
            0 -1 156 -1.2708531357930042e-05</internalNodes>
          <leafValues>
            2.4931375682353973e-01 -3.8903182744979858e-01</leafValues></_>
        <_>
          <internalNodes>
            0 -1 152 1.9181741663487628e-05</internalNodes>
          <leafValues>
            -4.2984685301780701e-01 2.6192891597747803e-01</leafValues></_>
        <_>
          <internalNodes>
            0 -1 187 -7.3324423283338547e-04</internalNodes>
          <leafValues>
            4.3743216991424561e-01 -2.6937571167945862e-01</leafValues></_>
        <_>
          <internalNodes>
            0 -1 29 1.6007943078875542e-02</internalNodes>
          <leafValues>
            1.1345419287681580e-01 -7.4787217378616333e-01</leafValues></_>
        <_>
          <internalNodes>
            0 -1 54 3.4092838177457452e-04</internalNodes>
          <leafValues>
            -6.3307565450668335e-01 1.7140197753906250e-01</leafValues></_>
        <_>
          <internalNodes>
            0 -1 95 1.6360610723495483e-02</internalNodes>
          <leafValues>
            -1.8112514913082123e-01 6.9282233715057373e-01</leafValues></_>
        <_>
          <internalNodes>
            0 -1 13 -4.3267890810966492e-02</internalNodes>
          <leafValues>
            5.6522637605667114e-01 -1.8241925537586212e-01</leafValues></_>
        <_>
          <internalNodes>
            0 -1 63 1.6357284039258957e-05</internalNodes>
          <leafValues>
            -5.5046367645263672e-01 1.9896155595779419e-01</leafValues></_>
        <_>
          <internalNodes>
            0 -1 23 -9.1536866966634989e-04</internalNodes>
          <leafValues>
            4.5521605014801025e-01 -2.3132732510566711e-01</leafValues></_>
        <_>
          <internalNodes>
            0 -1 189 -2.6643020100891590e-03</internalNodes>
          <leafValues>
            5.2168160676956177e-01 -1.8992385268211365e-01</leafValues></_>
        <_>
          <internalNodes>
            0 -1 168 -1.6923292423598468e-04</internalNodes>
          <leafValues>
            -6.4721632003784180e-01 1.8323577940464020e-01</leafValues></_>
        <_>
          <internalNodes>
            0 -1 185 1.1140205897390842e-03</internalNodes>
          <leafValues>
            -1.7344753444194794e-01 6.5584278106689453e-01</leafValues></_>
        <_>
          <internalNodes>
            0 -1 139 -3.1081450288183987e-04</internalNodes>
          <leafValues>
            -7.5453096628189087e-01 1.5121763944625854e-01</leafValues></_>
        <_>
          <internalNodes>
            0 -1 26 8.5933636873960495e-03</internalNodes>
          <leafValues>
            -1.6492961347103119e-01 6.4560365676879883e-01</leafValues></_>
        <_>
          <internalNodes>
            0 -1 33 4.9430027138441801e-04</internalNodes>
          <leafValues>
            -2.4297566711902618e-01 3.8643181324005127e-01</leafValues></_>
        <_>
          <internalNodes>
            0 -1 52 1.7114994989242405e-05</internalNodes>
          <leafValues>
            -5.2742481231689453e-01 2.2699669003486633e-01</leafValues></_>
        <_>
          <internalNodes>
            0 -1 8 -2.5468177627772093e-03</internalNodes>
          <leafValues>
            5.6901818513870239e-01 -2.0610913634300232e-01</leafValues></_></weakClassifiers></_>
    <!-- stage 13 -->
    <_>
      <maxWeakCount>16</maxWeakCount>
      <stageThreshold>-1.0822010040283203e+00</stageThreshold>
      <weakClassifiers>
        <_>
          <internalNodes>
            0 -1 116 1.4269605162553489e-04</internalNodes>
          <leafValues>
            -4.6964856982231140e-01 4.2501941323280334e-01</leafValues></_>
        <_>
          <internalNodes>
            0 -1 88 1.7673224210739136e-03</internalNodes>
          <leafValues>
            1.8487019836902618e-01 -6.8897724151611328e-01</leafValues></_>
        <_>
          <internalNodes>
            0 -1 159 -1.3666227459907532e-04</internalNodes>
          <leafValues>
            2.7389499545097351e-01 -4.6406891942024231e-01</leafValues></_>
        <_>
          <internalNodes>
            0 -1 134 6.1229247876326554e-06</internalNodes>
          <leafValues>
            -6.1511850357055664e-01 1.7517483234405518e-01</leafValues></_>
        <_>
          <internalNodes>
            0 -1 157 7.0006807800382376e-04</internalNodes>
          <leafValues>
            -3.0312934517860413e-01 3.7594416737556458e-01</leafValues></_>
        <_>
          <internalNodes>
            0 -1 1 -1.7882483080029488e-03</internalNodes>
          <leafValues>
            6.8219906091690063e-01 -1.5953145921230316e-01</leafValues></_>
        <_>
          <internalNodes>
            0 -1 2 4.2926380410790443e-03</internalNodes>
          <leafValues>
            -2.2686029970645905e-01 6.6842865943908691e-01</leafValues></_>
        <_>
          <internalNodes>
            0 -1 161 -9.0085039846599102e-04</internalNodes>
          <leafValues>
            4.7521552443504333e-01 -1.9759508967399597e-01</leafValues></_>
        <_>
          <internalNodes>
            0 -1 145 1.8621049821376801e-04</internalNodes>
          <leafValues>
            -3.1813859939575195e-01 3.5748228430747986e-01</leafValues></_>
        <_>
          <internalNodes>
            0 -1 41 -2.4879310512915254e-04</internalNodes>
          <leafValues>
            -6.8378120660781860e-01 1.6832043230533600e-01</leafValues></_>
        <_>
          <internalNodes>
            0 -1 46 5.3298827260732651e-02</internalNodes>
          <leafValues>
            1.2169587612152100e-01 -8.6842638254165649e-01</leafValues></_>
        <_>
          <internalNodes>
            0 -1 158 1.5305271372199059e-03</internalNodes>
          <leafValues>
            -2.5406473875045776e-01 3.8892742991447449e-01</leafValues></_>
        <_>
          <internalNodes>
            0 -1 176 -5.3506926633417606e-04</internalNodes>
          <leafValues>
            3.6228135228157043e-01 -3.0740639567375183e-01</leafValues></_>
        <_>
          <internalNodes>
            0 -1 130 -2.0451439195312560e-04</internalNodes>
          <leafValues>
            -5.8088952302932739e-01 1.9165442883968353e-01</leafValues></_>
        <_>
          <internalNodes>
            0 -1 111 1.9573266035877168e-04</internalNodes>
          <leafValues>
            -4.7414049506187439e-01 2.6967003941535950e-01</leafValues></_>
        <_>
          <internalNodes>
            0 -1 0 -8.8362321257591248e-03</internalNodes>
          <leafValues>
            4.2713320255279541e-01 -2.5692123174667358e-01</leafValues></_></weakClassifiers></_>
    <!-- stage 14 -->
    <_>
      <maxWeakCount>21</maxWeakCount>
      <stageThreshold>-8.1772613525390625e-01</stageThreshold>
      <weakClassifiers>
        <_>
          <internalNodes>
            0 -1 132 -7.1951503741729539e-06</internalNodes>
          <leafValues>
            4.6553191542625427e-01 -3.4588235616683960e-01</leafValues></_>
        <_>
          <internalNodes>
            0 -1 153 8.8250648695975542e-04</internalNodes>
          <leafValues>
            -2.0024850964546204e-01 5.1513701677322388e-01</leafValues></_>
        <_>
          <internalNodes>
            0 -1 118 -6.7069992655888200e-04</internalNodes>
          <leafValues>
            -8.2148450613021851e-01 1.5197238326072693e-01</leafValues></_>
        <_>
          <internalNodes>
            0 -1 58 -1.2898355489596725e-03</internalNodes>
          <leafValues>
            -6.9358873367309570e-01 1.3852025568485260e-01</leafValues></_>
        <_>
          <internalNodes>
            0 -1 20 -1.1515006190165877e-04</internalNodes>
          <leafValues>
            2.5841018557548523e-01 -4.1167080402374268e-01</leafValues></_>
        <_>
          <internalNodes>
            0 -1 147 -9.8874978721141815e-03</internalNodes>
          <leafValues>
            5.1253193616867065e-01 -2.0841653645038605e-01</leafValues></_>
        <_>
          <internalNodes>
            0 -1 128 2.3358766338787973e-04</internalNodes>
          <leafValues>
            -6.2916320562362671e-01 1.5816931426525116e-01</leafValues></_>
        <_>
          <internalNodes>
            0 -1 19 1.0259854793548584e-01</internalNodes>
          <leafValues>
            1.2087583541870117e-01 -7.9001748561859131e-01</leafValues></_>
        <_>
          <internalNodes>
            0 -1 59 1.2113783668610267e-05</internalNodes>
          <leafValues>
            -6.9711160659790039e-01 9.5303431153297424e-02</leafValues></_>
        <_>
          <internalNodes>
            0 -1 4 -3.1577178742736578e-04</internalNodes>
          <leafValues>
            4.1112717986106873e-01 -2.5021383166313171e-01</leafValues></_>
        <_>
          <internalNodes>
            0 -1 3 5.3278752602636814e-04</internalNodes>
          <leafValues>
            -1.4143264293670654e-01 5.7908546924591064e-01</leafValues></_>
        <_>
          <internalNodes>
            0 -1 72 2.8387894853949547e-03</internalNodes>
          <leafValues>
            1.0010994970798492e-01 -8.4090256690979004e-01</leafValues></_>
        <_>
          <internalNodes>
            0 -1 171 7.4714410584419966e-04</internalNodes>
          <leafValues>
            -2.2760325670242310e-01 4.2927780747413635e-01</leafValues></_>
        <_>
          <internalNodes>
            0 -1 11 -3.6908067762851715e-02</internalNodes>
          <leafValues>
            -8.9274078607559204e-01 1.2118212878704071e-01</leafValues></_>
        <_>
          <internalNodes>
            0 -1 34 1.1982969008386135e-02</internalNodes>
          <leafValues>
            -1.7137254774570465e-01 6.4962697029113770e-01</leafValues></_>
        <_>
          <internalNodes>
            0 -1 173 1.2058462743880227e-04</internalNodes>
          <leafValues>
            1.7365485429763794e-01 -6.2091434001922607e-01</leafValues></_>
        <_>
          <internalNodes>
            0 -1 35 -7.2449562139809132e-04</internalNodes>
          <leafValues>
            4.5108905434608459e-01 -2.2370575368404388e-01</leafValues></_>
        <_>
          <internalNodes>
            0 -1 25 4.5099906623363495e-02</internalNodes>
          <leafValues>
            1.8958488106727600e-01 -5.7008337974548340e-01</leafValues></_>
        <_>
          <internalNodes>
            0 -1 38 5.1965862512588501e-03</internalNodes>
          <leafValues>
            -1.4668734371662140e-01 6.5914750099182129e-01</leafValues></_>
        <_>
          <internalNodes>
            0 -1 68 6.4125109929591417e-04</internalNodes>
          <leafValues>
            -8.2504004240036011e-01 1.2704037129878998e-01</leafValues></_>
        <_>
          <internalNodes>
            0 -1 190 1.1067497543990612e-03</internalNodes>
          <leafValues>
            -2.2263237833976746e-01 4.4168579578399658e-01</leafValues></_></weakClassifiers></_></stages>
  <features>
    <_>
      <rects>
        <_>
          0 7 21 9 -1.</_>
        <_>
          0 10 21 3 3.</_></rects>
      <tilted>0</tilted></_>
    <_>
      <rects>
        <_>
          0 8 2 8 -1.</_>
        <_>
          1 8 1 8 2.</_></rects>
      <tilted>0</tilted></_>
    <_>
      <rects>
        <_>
          0 9 4 7 -1.</_>
        <_>
          2 9 2 7 2.</_></rects>
      <tilted>0</tilted></_>
    <_>
      <rects>
        <_>
          0 11 2 4 -1.</_>
        <_>
          0 11 1 2 2.</_>
        <_>
          1 13 1 2 2.</_></rects>
      <tilted>0</tilted></_>
    <_>
      <rects>
        <_>
          0 12 2 4 -1.</_>
        <_>
          0 12 1 2 2.</_>
        <_>
          1 14 1 2 2.</_></rects>
      <tilted>0</tilted></_>
    <_>
      <rects>
        <_>
          0 12 4 6 -1.</_>
        <_>
          0 12 2 3 2.</_>
        <_>
          2 15 2 3 2.</_></rects>
      <tilted>0</tilted></_>
    <_>
      <rects>
        <_>
          1 0 30 2 -1.</_>
        <_>
          16 0 15 2 2.</_></rects>
      <tilted>0</tilted></_>
    <_>
      <rects>
        <_>
          1 2 46 21 -1.</_>
        <_>
          1 9 46 7 3.</_></rects>
      <tilted>0</tilted></_>
    <_>
      <rects>
        <_>
          1 13 15 3 -1.</_>
        <_>
          1 14 15 1 3.</_></rects>
      <tilted>0</tilted></_>
    <_>
      <rects>
        <_>
          2 9 48 9 -1.</_>
        <_>
          26 9 24 9 2.</_></rects>
      <tilted>0</tilted></_>
    <_>
      <rects>
        <_>
          2 11 8 4 -1.</_>
        <_>
          2 11 4 2 2.</_>
        <_>
          6 13 4 2 2.</_></rects>
      <tilted>0</tilted></_>
    <_>
      <rects>
        <_>
          2 11 14 7 -1.</_>
        <_>
          9 11 7 7 2.</_></rects>
      <tilted>0</tilted></_>
    <_>
      <rects>
        <_>
          3 0 35 12 -1.</_>
        <_>
          3 6 35 6 2.</_></rects>
      <tilted>0</tilted></_>
    <_>
      <rects>
        <_>
          3 3 44 6 -1.</_>
        <_>
          3 6 44 3 2.</_></rects>
      <tilted>0</tilted></_>
    <_>
      <rects>
        <_>
          3 10 2 3 -1.</_>
        <_>
          4 10 1 3 2.</_></rects>
      <tilted>0</tilted></_>
    <_>
      <rects>
        <_>
          3 10 4 3 -1.</_>
        <_>
          5 10 2 3 2.</_></rects>
      <tilted>0</tilted></_>
    <_>
      <rects>
        <_>
          3 11 2 2 -1.</_>
        <_>
          4 11 1 2 2.</_></rects>
      <tilted>0</tilted></_>
    <_>
      <rects>
        <_>
          3 14 6 2 -1.</_>
        <_>
          3 14 3 1 2.</_>
        <_>
          6 15 3 1 2.</_></rects>
      <tilted>0</tilted></_>
    <_>
      <rects>
        <_>
          4 1 45 23 -1.</_>
        <_>
          19 1 15 23 3.</_></rects>
      <tilted>0</tilted></_>
    <_>
      <rects>
        <_>
          4 8 44 9 -1.</_>
        <_>
          26 8 22 9 2.</_></rects>
      <tilted>0</tilted></_>
    <_>
      <rects>
        <_>
          4 10 2 3 -1.</_>
        <_>
          5 10 1 3 2.</_></rects>
      <tilted>0</tilted></_>
    <_>
      <rects>
        <_>
          4 10 2 5 -1.</_>
        <_>
          5 10 1 5 2.</_></rects>
      <tilted>0</tilted></_>
    <_>
      <rects>
        <_>
          4 15 21 3 -1.</_>
        <_>
          4 16 21 1 3.</_></rects>
      <tilted>0</tilted></_>
    <_>
      <rects>
        <_>
          4 17 12 2 -1.</_>
        <_>
          4 18 12 1 2.</_></rects>
      <tilted>0</tilted></_>
    <_>
      <rects>
        <_>
          5 9 2 4 -1.</_>
        <_>
          6 9 1 4 2.</_></rects>
      <tilted>0</tilted></_>
    <_>
      <rects>
        <_>
          6 3 30 7 -1.</_>
        <_>
          16 3 10 7 3.</_></rects>
      <tilted>0</tilted></_>
    <_>
      <rects>
        <_>
          6 8 8 6 -1.</_>
        <_>
          6 10 8 2 3.</_></rects>
      <tilted>0</tilted></_>
    <_>
      <rects>
        <_>
          7 8 8 6 -1.</_>
        <_>
          7 10 8 2 3.</_></rects>
      <tilted>0</tilted></_>
    <_>
      <rects>
        <_>
          8 0 36 12 -1.</_>
        <_>
          8 6 36 6 2.</_></rects>
      <tilted>0</tilted></_>
    <_>
      <rects>
        <_>
          8 12 30 2 -1.</_>
        <_>
          23 12 15 2 2.</_></rects>
      <tilted>0</tilted></_>
    <_>
      <rects>
        <_>
          8 13 9 6 -1.</_>
        <_>
          8 15 9 2 3.</_></rects>
      <tilted>0</tilted></_>
    <_>
      <rects>
        <_>
          8 14 14 4 -1.</_>
        <_>
          8 14 7 2 2.</_>
        <_>
          15 16 7 2 2.</_></rects>
      <tilted>0</tilted></_>
    <_>
      <rects>
        <_>
          8 15 7 3 -1.</_>
        <_>
          8 16 7 1 3.</_></rects>
      <tilted>0</tilted></_>
    <_>
      <rects>
        <_>
          9 13 11 3 -1.</_>
        <_>
          9 14 11 1 3.</_></rects>
      <tilted>0</tilted></_>
    <_>
      <rects>
        <_>
          9 15 8 6 -1.</_>
        <_>
          9 17 8 2 3.</_></rects>
      <tilted>0</tilted></_>
    <_>
      <rects>
        <_>
          10 16 4 3 -1.</_>
        <_>
          10 17 4 1 3.</_></rects>
      <tilted>0</tilted></_>
    <_>
      <rects>
        <_>
          10 19 27 3 -1.</_>
        <_>
          10 20 27 1 3.</_></rects>
      <tilted>0</tilted></_>
    <_>
      <rects>
        <_>
          12 0 14 24 -1.</_>
        <_>
          19 0 7 24 2.</_></rects>
      <tilted>0</tilted></_>
    <_>
      <rects>
        <_>
          12 7 32 2 -1.</_>
        <_>
          12 7 16 1 2.</_>
        <_>
          28 8 16 1 2.</_></rects>
      <tilted>0</tilted></_>
    <_>
      <rects>
        <_>
          13 9 12 6 -1.</_>
        <_>
          17 9 4 6 3.</_></rects>
      <tilted>0</tilted></_>
    <_>
      <rects>
        <_>
          13 10 24 5 -1.</_>
        <_>
          25 10 12 5 2.</_></rects>
      <tilted>0</tilted></_>
    <_>
      <rects>
        <_>
          13 11 3 2 -1.</_>
        <_>
          14 11 1 2 3.</_></rects>
      <tilted>0</tilted></_>
    <_>
      <rects>
        <_>
          13 12 9 2 -1.</_>
        <_>
          16 12 3 2 3.</_></rects>
      <tilted>0</tilted></_>
    <_>
      <rects>
        <_>
          13 12 12 2 -1.</_>
        <_>
          17 12 4 2 3.</_></rects>
      <tilted>0</tilted></_>
    <_>
      <rects>
        <_>
          13 13 2 1 -1.</_>
        <_>
          14 13 1 1 2.</_></rects>
      <tilted>0</tilted></_>
    <_>
      <rects>
        <_>
          13 19 8 3 -1.</_>
        <_>
          13 20 8 1 3.</_></rects>
      <tilted>0</tilted></_>
    <_>
      <rects>
        <_>
          14 7 20 12 -1.</_>
        <_>
          14 13 20 6 2.</_></rects>
      <tilted>0</tilted></_>
    <_>
      <rects>
        <_>
          14 10 2 1 -1.</_>
        <_>
          15 10 1 1 2.</_></rects>
      <tilted>0</tilted></_>
    <_>
      <rects>
        <_>
          14 11 3 3 -1.</_>
        <_>
          15 11 1 3 3.</_></rects>
      <tilted>0</tilted></_>
    <_>
      <rects>
        <_>
          14 12 2 1 -1.</_>
        <_>
          15 12 1 1 2.</_></rects>
      <tilted>0</tilted></_>
    <_>
      <rects>
        <_>
          14 12 4 2 -1.</_>
        <_>
          16 12 2 2 2.</_></rects>
      <tilted>0</tilted></_>
    <_>
      <rects>
        <_>
          14 12 12 2 -1.</_>
        <_>
          18 12 4 2 3.</_></rects>
      <tilted>0</tilted></_>
    <_>
      <rects>
        <_>
          14 14 2 1 -1.</_>
        <_>
          15 14 1 1 2.</_></rects>
      <tilted>0</tilted></_>
    <_>
      <rects>
        <_>
          15 9 6 6 -1.</_>
        <_>
          17 9 2 6 3.</_></rects>
      <tilted>0</tilted></_>
    <_>
      <rects>
        <_>
          15 9 10 1 -1.</_>
        <_>
          20 9 5 1 2.</_></rects>
      <tilted>0</tilted></_>
    <_>
      <rects>
        <_>
          15 10 6 2 -1.</_>
        <_>
          18 10 3 2 2.</_></rects>
      <tilted>0</tilted></_>
    <_>
      <rects>
        <_>
          15 10 6 4 -1.</_>
        <_>
          15 12 6 2 2.</_></rects>
      <tilted>0</tilted></_>
    <_>
      <rects>
        <_>
          15 11 2 4 -1.</_>
        <_>
          15 13 2 2 2.</_></rects>
      <tilted>0</tilted></_>
    <_>
      <rects>
        <_>
          15 11 12 4 -1.</_>
        <_>
          15 11 6 2 2.</_>
        <_>
          21 13 6 2 2.</_></rects>
      <tilted>0</tilted></_>
    <_>
      <rects>
        <_>
          15 12 2 1 -1.</_>
        <_>
          16 12 1 1 2.</_></rects>
      <tilted>0</tilted></_>
    <_>
      <rects>
        <_>
          15 12 2 2 -1.</_>
        <_>
          16 12 1 2 2.</_></rects>
      <tilted>0</tilted></_>
    <_>
      <rects>
        <_>
          15 12 6 1 -1.</_>
        <_>
          17 12 2 1 3.</_></rects>
      <tilted>0</tilted></_>
    <_>
      <rects>
        <_>
          15 13 12 1 -1.</_>
        <_>
          19 13 4 1 3.</_></rects>
      <tilted>0</tilted></_>
    <_>
      <rects>
        <_>
          15 14 2 1 -1.</_>
        <_>
          16 14 1 1 2.</_></rects>
      <tilted>0</tilted></_>
    <_>
      <rects>
        <_>
          15 14 1 4 -1.</_>
        <_>
          15 16 1 2 2.</_></rects>
      <tilted>0</tilted></_>
    <_>
      <rects>
        <_>
          15 14 6 1 -1.</_>
        <_>
          18 14 3 1 2.</_></rects>
      <tilted>0</tilted></_>
    <_>
      <rects>
        <_>
          16 9 2 3 -1.</_>
        <_>
          17 9 1 3 2.</_></rects>
      <tilted>0</tilted></_>
    <_>
      <rects>
        <_>
          16 9 8 1 -1.</_>
        <_>
          20 9 4 1 2.</_></rects>
      <tilted>0</tilted></_>
    <_>
      <rects>
        <_>
          16 10 15 2 -1.</_>
        <_>
          21 10 5 2 3.</_></rects>
      <tilted>0</tilted></_>
    <_>
      <rects>
        <_>
          16 10 10 4 -1.</_>
        <_>
          16 10 5 2 2.</_>
        <_>
          21 12 5 2 2.</_></rects>
      <tilted>0</tilted></_>
    <_>
      <rects>
        <_>
          16 10 18 2 -1.</_>
        <_>
          16 11 18 1 2.</_></rects>
      <tilted>0</tilted></_>
    <_>
      <rects>
        <_>
          16 11 10 4 -1.</_>
        <_>
          16 11 5 2 2.</_>
        <_>
          21 13 5 2 2.</_></rects>
      <tilted>0</tilted></_>
    <_>
      <rects>
        <_>
          16 11 13 3 -1.</_>
        <_>
          16 12 13 1 3.</_></rects>
      <tilted>0</tilted></_>
    <_>
      <rects>
        <_>
          16 12 2 1 -1.</_>
        <_>
          17 12 1 1 2.</_></rects>
      <tilted>0</tilted></_>
    <_>
      <rects>
        <_>
          16 12 4 2 -1.</_>
        <_>
          18 12 2 2 2.</_></rects>
      <tilted>0</tilted></_>
    <_>
      <rects>
        <_>
          16 14 6 2 -1.</_>
        <_>
          18 14 2 2 3.</_></rects>
      <tilted>0</tilted></_>
    <_>
      <rects>
        <_>
          16 14 12 2 -1.</_>
        <_>
          16 14 6 1 2.</_>
        <_>
          22 15 6 1 2.</_></rects>
      <tilted>0</tilted></_>
    <_>
      <rects>
        <_>
          17 0 6 14 -1.</_>
        <_>
          17 7 6 7 2.</_></rects>
      <tilted>0</tilted></_>
    <_>
      <rects>
        <_>
          17 10 18 6 -1.</_>
        <_>
          17 12 18 2 3.</_></rects>
      <tilted>0</tilted></_>
    <_>
      <rects>
        <_>
          17 11 2 3 -1.</_>
        <_>
          18 11 1 3 2.</_></rects>
      <tilted>0</tilted></_>
    <_>
      <rects>
        <_>
          17 11 3 3 -1.</_>
        <_>
          18 11 1 3 3.</_></rects>
      <tilted>0</tilted></_>
    <_>
      <rects>
        <_>
          17 11 4 2 -1.</_>
        <_>
          19 11 2 2 2.</_></rects>
      <tilted>0</tilted></_>
    <_>
      <rects>
        <_>
          17 13 6 2 -1.</_>
        <_>
          20 13 3 2 2.</_></rects>
      <tilted>0</tilted></_>
    <_>
      <rects>
        <_>
          17 15 6 1 -1.</_>
        <_>
          20 15 3 1 2.</_></rects>
      <tilted>0</tilted></_>
    <_>
      <rects>
        <_>
          18 8 4 6 -1.</_>
        <_>
          18 10 4 2 3.</_></rects>
      <tilted>0</tilted></_>
    <_>
      <rects>
        <_>
          18 9 6 7 -1.</_>
        <_>
          20 9 2 7 3.</_></rects>
      <tilted>0</tilted></_>
    <_>
      <rects>
        <_>
          18 9 3 6 -1.</_>
        <_>
          18 12 3 3 2.</_></rects>
      <tilted>0</tilted></_>
    <_>
      <rects>
        <_>
          18 10 6 4 -1.</_>
        <_>
          21 10 3 4 2.</_></rects>
      <tilted>0</tilted></_>
    <_>
      <rects>
        <_>
          18 10 13 2 -1.</_>
        <_>
          18 11 13 1 2.</_></rects>
      <tilted>0</tilted></_>
    <_>
      <rects>
        <_>
          18 11 3 4 -1.</_>
        <_>
          18 13 3 2 2.</_></rects>
      <tilted>0</tilted></_>
    <_>
      <rects>
        <_>
          18 11 7 4 -1.</_>
        <_>
          18 13 7 2 2.</_></rects>
      <tilted>0</tilted></_>
    <_>
      <rects>
        <_>
          18 12 2 1 -1.</_>
        <_>
          19 12 1 1 2.</_></rects>
      <tilted>0</tilted></_>
    <_>
      <rects>
        <_>
          18 12 6 2 -1.</_>
        <_>
          18 12 3 1 2.</_>
        <_>
          21 13 3 1 2.</_></rects>
      <tilted>0</tilted></_>
    <_>
      <rects>
        <_>
          18 14 2 1 -1.</_>
        <_>
          19 14 1 1 2.</_></rects>
      <tilted>0</tilted></_>
    <_>
      <rects>
        <_>
          18 14 6 1 -1.</_>
        <_>
          20 14 2 1 3.</_></rects>
      <tilted>0</tilted></_>
    <_>
      <rects>
        <_>
          19 3 10 9 -1.</_>
        <_>
          19 6 10 3 3.</_></rects>
      <tilted>0</tilted></_>
    <_>
      <rects>
        <_>
          19 8 2 4 -1.</_>
        <_>
          19 10 2 2 2.</_></rects>
      <tilted>0</tilted></_>
    <_>
      <rects>
        <_>
          19 9 4 2 -1.</_>
        <_>
          19 10 4 1 2.</_></rects>
      <tilted>0</tilted></_>
    <_>
      <rects>
        <_>
          19 9 15 6 -1.</_>
        <_>
          19 11 15 2 3.</_></rects>
      <tilted>0</tilted></_>
    <_>
      <rects>
        <_>
          19 10 1 4 -1.</_>
        <_>
          19 12 1 2 2.</_></rects>
      <tilted>0</tilted></_>
    <_>
      <rects>
        <_>
          19 10 3 2 -1.</_>
        <_>
          20 10 1 2 3.</_></rects>
      <tilted>0</tilted></_>
    <_>
      <rects>
        <_>
          19 10 5 2 -1.</_>
        <_>
          19 11 5 1 2.</_></rects>
      <tilted>0</tilted></_>
    <_>
      <rects>
        <_>
          19 10 6 4 -1.</_>
        <_>
          19 12 6 2 2.</_></rects>
      <tilted>0</tilted></_>
    <_>
      <rects>
        <_>
          19 11 1 4 -1.</_>
        <_>
          19 13 1 2 2.</_></rects>
      <tilted>0</tilted></_>
    <_>
      <rects>
        <_>
          19 11 2 3 -1.</_>
        <_>
          20 11 1 3 2.</_></rects>
      <tilted>0</tilted></_>
    <_>
      <rects>
        <_>
          19 11 2 4 -1.</_>
        <_>
          20 11 1 4 2.</_></rects>
      <tilted>0</tilted></_>
    <_>
      <rects>
        <_>
          19 11 6 4 -1.</_>
        <_>
          19 13 6 2 2.</_></rects>
      <tilted>0</tilted></_>
    <_>
      <rects>
        <_>
          19 12 6 2 -1.</_>
        <_>
          22 12 3 2 2.</_></rects>
      <tilted>0</tilted></_>
    <_>
      <rects>
        <_>
          19 13 2 1 -1.</_>
        <_>
          20 13 1 1 2.</_></rects>
      <tilted>0</tilted></_>
    <_>
      <rects>
        <_>
          19 14 3 1 -1.</_>
        <_>
          20 14 1 1 3.</_></rects>
      <tilted>0</tilted></_>
    <_>
      <rects>
        <_>
          20 8 2 4 -1.</_>
        <_>
          20 10 2 2 2.</_></rects>
      <tilted>0</tilted></_>
    <_>
      <rects>
        <_>
          20 8 3 6 -1.</_>
        <_>
          20 10 3 2 3.</_></rects>
      <tilted>0</tilted></_>
    <_>
      <rects>
        <_>
          20 9 3 3 -1.</_>
        <_>
          21 9 1 3 3.</_></rects>
      <tilted>0</tilted></_>
    <_>
      <rects>
        <_>
          20 9 3 4 -1.</_>
        <_>
          20 11 3 2 2.</_></rects>
      <tilted>0</tilted></_>
    <_>
      <rects>
        <_>
          20 10 1 4 -1.</_>
        <_>
          20 12 1 2 2.</_></rects>
      <tilted>0</tilted></_>
    <_>
      <rects>
        <_>
          20 10 2 6 -1.</_>
        <_>
          20 12 2 2 3.</_></rects>
      <tilted>0</tilted></_>
    <_>
      <rects>
        <_>
          20 10 6 4 -1.</_>
        <_>
          20 12 6 2 2.</_></rects>
      <tilted>0</tilted></_>
    <_>
      <rects>
        <_>
          20 10 7 4 -1.</_>
        <_>
          20 12 7 2 2.</_></rects>
      <tilted>0</tilted></_>
    <_>
      <rects>
        <_>
          20 11 2 4 -1.</_>
        <_>
          20 13 2 2 2.</_></rects>
      <tilted>0</tilted></_>
    <_>
      <rects>
        <_>
          20 11 3 4 -1.</_>
        <_>
          20 13 3 2 2.</_></rects>
      <tilted>0</tilted></_>
    <_>
      <rects>
        <_>
          20 11 5 2 -1.</_>
        <_>
          20 12 5 1 2.</_></rects>
      <tilted>0</tilted></_>
    <_>
      <rects>
        <_>
          20 11 5 4 -1.</_>
        <_>
          20 13 5 2 2.</_></rects>
      <tilted>0</tilted></_>
    <_>
      <rects>
        <_>
          20 13 2 2 -1.</_>
        <_>
          21 13 1 2 2.</_></rects>
      <tilted>0</tilted></_>
    <_>
      <rects>
        <_>
          20 13 2 3 -1.</_>
        <_>
          21 13 1 3 2.</_></rects>
      <tilted>0</tilted></_>
    <_>
      <rects>
        <_>
          20 13 3 2 -1.</_>
        <_>
          20 14 3 1 2.</_></rects>
      <tilted>0</tilted></_>
    <_>
      <rects>
        <_>
          20 13 18 2 -1.</_>
        <_>
          26 13 6 2 3.</_></rects>
      <tilted>0</tilted></_>
    <_>
      <rects>
        <_>
          20 14 2 1 -1.</_>
        <_>
          21 14 1 1 2.</_></rects>
      <tilted>0</tilted></_>
    <_>
      <rects>
        <_>
          20 14 4 1 -1.</_>
        <_>
          22 14 2 1 2.</_></rects>
      <tilted>0</tilted></_>
    <_>
      <rects>
        <_>
          21 9 3 6 -1.</_>
        <_>
          21 11 3 2 3.</_></rects>
      <tilted>0</tilted></_>
    <_>
      <rects>
        <_>
          21 10 4 5 -1.</_>
        <_>
          23 10 2 5 2.</_></rects>
      <tilted>0</tilted></_>
    <_>
      <rects>
        <_>
          21 11 1 4 -1.</_>
        <_>
          21 13 1 2 2.</_></rects>
      <tilted>0</tilted></_>
    <_>
      <rects>
        <_>
          21 11 5 3 -1.</_>
        <_>
          21 12 5 1 3.</_></rects>
      <tilted>0</tilted></_>
    <_>
      <rects>
        <_>
          21 12 5 2 -1.</_>
        <_>
          21 13 5 1 2.</_></rects>
      <tilted>0</tilted></_>
    <_>
      <rects>
        <_>
          21 13 2 2 -1.</_>
        <_>
          21 14 2 1 2.</_></rects>
      <tilted>0</tilted></_>
    <_>
      <rects>
        <_>
          21 14 2 1 -1.</_>
        <_>
          22 14 1 1 2.</_></rects>
      <tilted>0</tilted></_>
    <_>
      <rects>
        <_>
          21 14 2 2 -1.</_>
        <_>
          22 14 1 2 2.</_></rects>
      <tilted>0</tilted></_>
    <_>
      <rects>
        <_>
          22 7 14 9 -1.</_>
        <_>
          22 10 14 3 3.</_></rects>
      <tilted>0</tilted></_>
    <_>
      <rects>
        <_>
          22 9 1 6 -1.</_>
        <_>
          22 11 1 2 3.</_></rects>
      <tilted>0</tilted></_>
    <_>
      <rects>
        <_>
          22 9 6 2 -1.</_>
        <_>
          24 9 2 2 3.</_></rects>
      <tilted>0</tilted></_>
    <_>
      <rects>
        <_>
          22 10 6 1 -1.</_>
        <_>
          24 10 2 1 3.</_></rects>
      <tilted>0</tilted></_>
    <_>
      <rects>
        <_>
          22 12 3 3 -1.</_>
        <_>
          22 13 3 1 3.</_></rects>
      <tilted>0</tilted></_>
    <_>
      <rects>
        <_>
          22 14 4 2 -1.</_>
        <_>
          24 14 2 2 2.</_></rects>
      <tilted>0</tilted></_>
    <_>
      <rects>
        <_>
          23 10 12 6 -1.</_>
        <_>
          23 12 12 2 3.</_></rects>
      <tilted>0</tilted></_>
    <_>
      <rects>
        <_>
          23 12 3 3 -1.</_>
        <_>
          23 13 3 1 3.</_></rects>
      <tilted>0</tilted></_>
    <_>
      <rects>
        <_>
          23 14 2 2 -1.</_>
        <_>
          24 14 1 2 2.</_></rects>
      <tilted>0</tilted></_>
    <_>
      <rects>
        <_>
          23 14 6 1 -1.</_>
        <_>
          26 14 3 1 2.</_></rects>
      <tilted>0</tilted></_>
    <_>
      <rects>
        <_>
          23 15 4 2 -1.</_>
        <_>
          25 15 2 2 2.</_></rects>
      <tilted>0</tilted></_>
    <_>
      <rects>
        <_>
          23 15 14 6 -1.</_>
        <_>
          23 17 14 2 3.</_></rects>
      <tilted>0</tilted></_>
    <_>
      <rects>
        <_>
          24 9 3 3 -1.</_>
        <_>
          25 9 1 3 3.</_></rects>
      <tilted>0</tilted></_>
    <_>
      <rects>
        <_>
          24 10 3 1 -1.</_>
        <_>
          25 10 1 1 3.</_></rects>
      <tilted>0</tilted></_>
    <_>
      <rects>
        <_>
          24 10 10 5 -1.</_>
        <_>
          29 10 5 5 2.</_></rects>
      <tilted>0</tilted></_>
    <_>
      <rects>
        <_>
          24 11 10 3 -1.</_>
        <_>
          29 11 5 3 2.</_></rects>
      <tilted>0</tilted></_>
    <_>
      <rects>
        <_>
          24 14 2 2 -1.</_>
        <_>
          25 14 1 2 2.</_></rects>
      <tilted>0</tilted></_>
    <_>
      <rects>
        <_>
          24 16 6 3 -1.</_>
        <_>
          24 17 6 1 3.</_></rects>
      <tilted>0</tilted></_>
    <_>
      <rects>
        <_>
          25 12 4 1 -1.</_>
        <_>
          27 12 2 1 2.</_></rects>
      <tilted>0</tilted></_>
    <_>
      <rects>
        <_>
          26 1 1 24 -1.</_>
        <_>
          26 9 1 8 3.</_></rects>
      <tilted>0</tilted></_>
    <_>
      <rects>
        <_>
          26 10 2 2 -1.</_>
        <_>
          26 10 1 1 2.</_>
        <_>
          27 11 1 1 2.</_></rects>
      <tilted>0</tilted></_>
    <_>
      <rects>
        <_>
          26 10 6 5 -1.</_>
        <_>
          28 10 2 5 3.</_></rects>
      <tilted>0</tilted></_>
    <_>
      <rects>
        <_>
          26 10 15 3 -1.</_>
        <_>
          26 11 15 1 3.</_></rects>
      <tilted>0</tilted></_>
    <_>
      <rects>
        <_>
          26 11 2 2 -1.</_>
        <_>
          27 11 1 2 2.</_></rects>
      <tilted>0</tilted></_>
    <_>
      <rects>
        <_>
          27 10 2 4 -1.</_>
        <_>
          28 10 1 4 2.</_></rects>
      <tilted>0</tilted></_>
    <_>
      <rects>
        <_>
          27 11 3 6 -1.</_>
        <_>
          27 13 3 2 3.</_></rects>
      <tilted>0</tilted></_>
    <_>
      <rects>
        <_>
          27 12 2 1 -1.</_>
        <_>
          28 12 1 1 2.</_></rects>
      <tilted>0</tilted></_>
    <_>
      <rects>
        <_>
          28 8 6 2 -1.</_>
        <_>
          30 8 2 2 3.</_></rects>
      <tilted>0</tilted></_>
    <_>
      <rects>
        <_>
          28 10 2 3 -1.</_>
        <_>
          29 10 1 3 2.</_></rects>
      <tilted>0</tilted></_>
    <_>
      <rects>
        <_>
          28 10 4 6 -1.</_>
        <_>
          30 10 2 6 2.</_></rects>
      <tilted>0</tilted></_>
    <_>
      <rects>
        <_>
          28 11 2 2 -1.</_>
        <_>
          29 11 1 2 2.</_></rects>
      <tilted>0</tilted></_>
    <_>
      <rects>
        <_>
          29 8 4 8 -1.</_>
        <_>
          31 8 2 8 2.</_></rects>
      <tilted>0</tilted></_>
    <_>
      <rects>
        <_>
          29 10 3 1 -1.</_>
        <_>
          30 10 1 1 3.</_></rects>
      <tilted>0</tilted></_>
    <_>
      <rects>
        <_>
          29 11 17 2 -1.</_>
        <_>
          29 12 17 1 2.</_></rects>
      <tilted>0</tilted></_>
    <_>
      <rects>
        <_>
          29 12 2 1 -1.</_>
        <_>
          30 12 1 1 2.</_></rects>
      <tilted>0</tilted></_>
    <_>
      <rects>
        <_>
          29 12 16 2 -1.</_>
        <_>
          29 12 8 1 2.</_>
        <_>
          37 13 8 1 2.</_></rects>
      <tilted>0</tilted></_>
    <_>
      <rects>
        <_>
          30 8 5 9 -1.</_>
        <_>
          30 11 5 3 3.</_></rects>
      <tilted>0</tilted></_>
    <_>
      <rects>
        <_>
          30 10 3 1 -1.</_>
        <_>
          31 10 1 1 3.</_></rects>
      <tilted>0</tilted></_>
    <_>
      <rects>
        <_>
          31 7 9 9 -1.</_>
        <_>
          31 10 9 3 3.</_></rects>
      <tilted>0</tilted></_>
    <_>
      <rects>
        <_>
          31 11 15 2 -1.</_>
        <_>
          31 12 15 1 2.</_></rects>
      <tilted>0</tilted></_>
    <_>
      <rects>
        <_>
          32 7 1 4 -1.</_>
        <_>
          32 9 1 2 2.</_></rects>
      <tilted>0</tilted></_>
    <_>
      <rects>
        <_>
          32 8 2 4 -1.</_>
        <_>
          32 10 2 2 2.</_></rects>
      <tilted>0</tilted></_>
    <_>
      <rects>
        <_>
          32 8 14 6 -1.</_>
        <_>
          32 10 14 2 3.</_></rects>
      <tilted>0</tilted></_>
    <_>
      <rects>
        <_>
          32 11 9 3 -1.</_>
        <_>
          32 12 9 1 3.</_></rects>
      <tilted>0</tilted></_>
    <_>
      <rects>
        <_>
          33 9 10 6 -1.</_>
        <_>
          33 11 10 2 3.</_></rects>
      <tilted>0</tilted></_>
    <_>
      <rects>
        <_>
          33 10 2 6 -1.</_>
        <_>
          33 12 2 2 3.</_></rects>
      <tilted>0</tilted></_>
    <_>
      <rects>
        <_>
          33 11 4 2 -1.</_>
        <_>
          33 12 4 1 2.</_></rects>
      <tilted>0</tilted></_>
    <_>
      <rects>
        <_>
          33 16 12 3 -1.</_>
        <_>
          33 17 12 1 3.</_></rects>
      <tilted>0</tilted></_>
    <_>
      <rects>
        <_>
          34 14 5 3 -1.</_>
        <_>
          34 15 5 1 3.</_></rects>
      <tilted>0</tilted></_>
    <_>
      <rects>
        <_>
          37 16 2 3 -1.</_>
        <_>
          37 17 2 1 3.</_></rects>
      <tilted>0</tilted></_>
    <_>
      <rects>
        <_>
          39 14 3 3 -1.</_>
        <_>
          39 15 3 1 3.</_></rects>
      <tilted>0</tilted></_>
    <_>
      <rects>
        <_>
          42 12 7 2 -1.</_>
        <_>
          42 13 7 1 2.</_></rects>
      <tilted>0</tilted></_>
    <_>
      <rects>
        <_>
          44 13 1 2 -1.</_>
        <_>
          44 14 1 1 2.</_></rects>
      <tilted>0</tilted></_>
    <_>
      <rects>
        <_>
          44 14 3 6 -1.</_>
        <_>
          44 16 3 2 3.</_></rects>
      <tilted>0</tilted></_>
    <_>
      <rects>
        <_>
          46 11 4 4 -1.</_>
        <_>
          46 11 2 2 2.</_>
        <_>
          48 13 2 2 2.</_></rects>
      <tilted>0</tilted></_>
    <_>
      <rects>
        <_>
          46 13 1 2 -1.</_>
        <_>
          46 14 1 1 2.</_></rects>
      <tilted>0</tilted></_>
    <_>
      <rects>
        <_>
          48 7 2 9 -1.</_>
        <_>
          49 7 1 9 2.</_></rects>
      <tilted>0</tilted></_>
    <_>
      <rects>
        <_>
          48 10 2 8 -1.</_>
        <_>
          48 10 1 4 2.</_>
        <_>
          49 14 1 4 2.</_></rects>
      <tilted>0</tilted></_></features></cascade>
</opencv_storage>
