<?xml version="1.0"?>
<opencv_storage>
<cascade>
  <stageType>BOOST</stageType>
  <featureType>HAAR</featureType>
  <height>25</height>
  <width>50</width>
  <stageParams>
    <boostType>GAB</boostType>
    <minHitRate>9.9900001287460327e-01</minHitRate>
    <maxFalseAlarm>5.0000000000000000e-01</maxFalseAlarm>
    <weightTrimRate>9.4999999999999996e-01</weightTrimRate>
    <maxDepth>1</maxDepth>
    <maxWeakCount>100</maxWeakCount></stageParams>
  <featureParams>
    <maxCatCount>0</maxCatCount>
    <featSize>1</featSize>
    <mode>BASIC</mode></featureParams>
  <stageNum>20</stageNum>
  <stages>
    <!-- stage 0 -->
    <_>
      <maxWeakCount>8</maxWeakCount>
      <stageThreshold>-1.6046370267868042e+00</stageThreshold>
      <weakClassifiers>
        <_>
          <internalNodes>
            0 -1 170 -2.7071571093983948e-04</internalNodes>
          <leafValues>
            6.3651591539382935e-01 -8.8669949769973755e-01</leafValues></_>
        <_>
          <internalNodes>
            0 -1 203 -4.6555307926610112e-04</internalNodes>
          <leafValues>
            4.2906239628791809e-01 -8.9805030822753906e-01</leafValues></_>
        <_>
          <internalNodes>
            0 -1 125 1.6610929369926453e-01</internalNodes>
          <leafValues>
            -3.6614078283309937e-01 9.1648095846176147e-01</leafValues></_>
        <_>
          <internalNodes>
            0 -1 103 2.4673763618920930e-05</internalNodes>
          <leafValues>
            -8.6546766757965088e-01 3.6020272970199585e-01</leafValues></_>
        <_>
          <internalNodes>
            0 -1 198 -2.1017667313572019e-04</internalNodes>
          <leafValues>
            3.0623728036880493e-01 -7.7258896827697754e-01</leafValues></_>
        <_>
          <internalNodes>
            0 -1 171 -2.8011859394609928e-03</internalNodes>
          <leafValues>
            -8.9934462308883667e-01 2.5775200128555298e-01</leafValues></_>
        <_>
          <internalNodes>
            0 -1 130 -5.8317818911746144e-04</internalNodes>
          <leafValues>
            2.1496240794658661e-01 -9.2939150333404541e-01</leafValues></_>
        <_>
          <internalNodes>
            0 -1 256 -1.8883633892983198e-03</internalNodes>
          <leafValues>
            4.8592540621757507e-01 -4.9931624531745911e-01</leafValues></_></weakClassifiers></_>
    <!-- stage 1 -->
    <_>
      <maxWeakCount>10</maxWeakCount>
      <stageThreshold>-1.7086895704269409e+00</stageThreshold>
      <weakClassifiers>
        <_>
          <internalNodes>
            0 -1 206 -7.9072829976212233e-05</internalNodes>
          <leafValues>
            5.5336618423461914e-01 -7.1727746725082397e-01</leafValues></_>
        <_>
          <internalNodes>
            0 -1 24 9.5782289281487465e-04</internalNodes>
          <leafValues>
            -6.4256221055984497e-01 4.5008501410484314e-01</leafValues></_>
        <_>
          <internalNodes>
            0 -1 66 -5.9921899810433388e-04</internalNodes>
          <leafValues>
            -8.9679539203643799e-01 3.1808540225028992e-01</leafValues></_>
        <_>
          <internalNodes>
            0 -1 197 -2.9296963475644588e-04</internalNodes>
          <leafValues>
            1.6640573740005493e-01 -9.7519934177398682e-01</leafValues></_>
        <_>
          <internalNodes>
            0 -1 176 6.3076615333557129e-04</internalNodes>
          <leafValues>
            2.5497627258300781e-01 -7.4173885583877563e-01</leafValues></_>
        <_>
          <internalNodes>
            0 -1 281 -4.5022316044196486e-04</internalNodes>
          <leafValues>
            -8.8909274339675903e-01 2.0517392456531525e-01</leafValues></_>
        <_>
          <internalNodes>
            0 -1 146 -3.1212478643283248e-04</internalNodes>
          <leafValues>
            -9.3259721994400024e-01 1.5014761686325073e-01</leafValues></_>
        <_>
          <internalNodes>
            0 -1 138 -4.8026291187852621e-04</internalNodes>
          <leafValues>
            -9.1340339183807373e-01 1.5891854465007782e-01</leafValues></_>
        <_>
          <internalNodes>
            0 -1 65 1.4462026301771402e-03</internalNodes>
          <leafValues>
            2.5833204388618469e-01 -6.7553025484085083e-01</leafValues></_>
        <_>
          <internalNodes>
            0 -1 191 6.8764993920922279e-04</internalNodes>
          <leafValues>
            1.5571776032447815e-01 -9.9772489070892334e-01</leafValues></_></weakClassifiers></_>
    <!-- stage 2 -->
    <_>
      <maxWeakCount>10</maxWeakCount>
      <stageThreshold>-1.5290075540542603e+00</stageThreshold>
      <weakClassifiers>
        <_>
          <internalNodes>
            0 -1 27 3.1298381509259343e-04</internalNodes>
          <leafValues>
            -5.7768923044204712e-01 6.2841528654098511e-01</leafValues></_>
        <_>
          <internalNodes>
            0 -1 104 8.3264912973390892e-06</internalNodes>
          <leafValues>
            -9.0325820446014404e-01 3.1668120622634888e-01</leafValues></_>
        <_>
          <internalNodes>
            0 -1 94 1.8731987802311778e-03</internalNodes>
          <leafValues>
            3.6523351073265076e-01 -6.6521716117858887e-01</leafValues></_>
        <_>
          <internalNodes>
            0 -1 209 -2.2619835363002494e-05</internalNodes>
          <leafValues>
            3.1217131018638611e-01 -6.7405682802200317e-01</leafValues></_>
        <_>
          <internalNodes>
            0 -1 89 1.9295826787129045e-03</internalNodes>
          <leafValues>
            -8.9944076538085938e-01 2.1205626428127289e-01</leafValues></_>
        <_>
          <internalNodes>
            0 -1 127 -6.7559922172222286e-06</internalNodes>
          <leafValues>
            2.2119578719139099e-01 -7.4556279182434082e-01</leafValues></_>
        <_>
          <internalNodes>
            0 -1 199 -6.0812602896476164e-05</internalNodes>
          <leafValues>
            1.8611098825931549e-01 -9.3455314636230469e-01</leafValues></_>
        <_>
          <internalNodes>
            0 -1 255 -7.2291019023396075e-05</internalNodes>
          <leafValues>
            2.3049309849739075e-01 -6.6571009159088135e-01</leafValues></_>
        <_>
          <internalNodes>
            0 -1 59 -2.9923774302005768e-02</internalNodes>
          <leafValues>
            -9.1335719823837280e-01 1.9486846029758453e-01</leafValues></_>
        <_>
          <internalNodes>
            0 -1 235 -6.6028505898430012e-06</internalNodes>
          <leafValues>
            3.0806612968444824e-01 -5.9445291757583618e-01</leafValues></_></weakClassifiers></_>
    <!-- stage 3 -->
    <_>
      <maxWeakCount>8</maxWeakCount>
      <stageThreshold>-1.1201670169830322e+00</stageThreshold>
      <weakClassifiers>
        <_>
          <internalNodes>
            0 -1 35 2.4016186944209039e-04</internalNodes>
          <leafValues>
            -5.3736656904220581e-01 6.7630058526992798e-01</leafValues></_>
        <_>
          <internalNodes>
            0 -1 202 -2.8299812693148851e-03</internalNodes>
          <leafValues>
            -8.0326718091964722e-01 4.0108424425125122e-01</leafValues></_>
        <_>
          <internalNodes>
            0 -1 299 -1.6500453057233244e-05</internalNodes>
          <leafValues>
            4.5155966281890869e-01 -5.8486396074295044e-01</leafValues></_>
        <_>
          <internalNodes>
            0 -1 71 1.3786698691546917e-03</internalNodes>
          <leafValues>
            -9.1105574369430542e-01 2.8469982743263245e-01</leafValues></_>
        <_>
          <internalNodes>
            0 -1 25 -1.5093819456524216e-05</internalNodes>
          <leafValues>
            5.6258571147918701e-01 -4.4937944412231445e-01</leafValues></_>
        <_>
          <internalNodes>
            0 -1 243 -6.4954012632369995e-03</internalNodes>
          <leafValues>
            -8.7378507852554321e-01 2.5088301301002502e-01</leafValues></_>
        <_>
          <internalNodes>
            0 -1 223 1.1785092283389531e-05</internalNodes>
          <leafValues>
            -4.8529988527297974e-01 4.4002979993820190e-01</leafValues></_>
        <_>
          <internalNodes>
            0 -1 109 2.1238289773464203e-03</internalNodes>
          <leafValues>
            2.7050155401229858e-01 -7.2954910993576050e-01</leafValues></_></weakClassifiers></_>
    <!-- stage 4 -->
    <_>
      <maxWeakCount>11</maxWeakCount>
      <stageThreshold>-1.1610423326492310e+00</stageThreshold>
      <weakClassifiers>
        <_>
          <internalNodes>
            0 -1 33 2.1625563385896385e-04</internalNodes>
          <leafValues>
            -5.2589643001556396e-01 6.0473591089248657e-01</leafValues></_>
        <_>
          <internalNodes>
            0 -1 222 -3.2709882361814380e-04</internalNodes>
          <leafValues>
            3.3137664198875427e-01 -7.0895546674728394e-01</leafValues></_>
        <_>
          <internalNodes>
            0 -1 77 1.0016354918479919e-01</internalNodes>
          <leafValues>
            3.0309084057807922e-01 -8.1958395242691040e-01</leafValues></_>
        <_>
          <internalNodes>
            0 -1 79 3.3724702894687653e-02</internalNodes>
          <leafValues>
            -3.8071912527084351e-01 6.0314857959747314e-01</leafValues></_>
        <_>
          <internalNodes>
            0 -1 86 -8.9794950326904655e-05</internalNodes>
          <leafValues>
            3.7272855639457703e-01 -5.3436958789825439e-01</leafValues></_>
        <_>
          <internalNodes>
            0 -1 196 -3.0820682877674699e-04</internalNodes>
          <leafValues>
            1.8295721709728241e-01 -9.7578501701354980e-01</leafValues></_>
        <_>
          <internalNodes>
            0 -1 56 -7.5966748408973217e-04</internalNodes>
          <leafValues>
            -9.0939819812774658e-01 1.7222854495048523e-01</leafValues></_>
        <_>
          <internalNodes>
            0 -1 11 1.8798650125972927e-04</internalNodes>
          <leafValues>
            -2.7486246824264526e-01 7.1804267168045044e-01</leafValues></_>
        <_>
          <internalNodes>
            0 -1 17 -3.0427624005824327e-04</internalNodes>
          <leafValues>
            5.1286327838897705e-01 -3.1421664357185364e-01</leafValues></_>
        <_>
          <internalNodes>
            0 -1 135 -4.3215579353272915e-04</internalNodes>
          <leafValues>
            3.1067544221878052e-01 -5.6202512979507446e-01</leafValues></_>
        <_>
          <internalNodes>
            0 -1 224 1.3849723618477583e-03</internalNodes>
          <leafValues>
            -2.1115763485431671e-01 8.6719089746475220e-01</leafValues></_></weakClassifiers></_>
    <!-- stage 5 -->
    <_>
      <maxWeakCount>11</maxWeakCount>
      <stageThreshold>-1.0113421678543091e+00</stageThreshold>
      <weakClassifiers>
        <_>
          <internalNodes>
            0 -1 43 -3.0914426315575838e-03</internalNodes>
          <leafValues>
            -7.1771770715713501e-01 5.0434094667434692e-01</leafValues></_>
        <_>
          <internalNodes>
            0 -1 140 -1.8195909797213972e-04</internalNodes>
          <leafValues>
            -9.5870363712310791e-01 2.6101666688919067e-01</leafValues></_>
        <_>
          <internalNodes>
            0 -1 155 1.2339005479589105e-03</internalNodes>
          <leafValues>
            1.9335202872753143e-01 -7.7977794408798218e-01</leafValues></_>
        <_>
          <internalNodes>
            0 -1 147 -8.3511695265769958e-06</internalNodes>
          <leafValues>
            2.1629680693149567e-01 -8.1944453716278076e-01</leafValues></_>
        <_>
          <internalNodes>
            0 -1 284 5.5044738110154867e-04</internalNodes>
          <leafValues>
            1.5191277861595154e-01 -8.0127483606338501e-01</leafValues></_>
        <_>
          <internalNodes>
            0 -1 282 -3.0897110700607300e-03</internalNodes>
          <leafValues>
            -8.2233387231826782e-01 1.9338247179985046e-01</leafValues></_>
        <_>
          <internalNodes>
            0 -1 236 -1.3639109056384768e-05</internalNodes>
          <leafValues>
            2.3663373291492462e-01 -6.4093577861785889e-01</leafValues></_>
        <_>
          <internalNodes>
            0 -1 242 -1.3012569397687912e-03</internalNodes>
          <leafValues>
            -7.8999119997024536e-01 1.8521963059902191e-01</leafValues></_>
        <_>
          <internalNodes>
            0 -1 114 3.6135748028755188e-02</internalNodes>
          <leafValues>
            -2.7168610692024231e-01 6.3736635446548462e-01</leafValues></_>
        <_>
          <internalNodes>
            0 -1 83 -1.3697866052098107e-05</internalNodes>
          <leafValues>
            -9.8600161075592041e-01 1.4297246932983398e-01</leafValues></_>
        <_>
          <internalNodes>
            0 -1 2 -1.2356298975646496e-02</internalNodes>
          <leafValues>
            5.9012538194656372e-01 -3.4650230407714844e-01</leafValues></_></weakClassifiers></_>
    <!-- stage 6 -->
    <_>
      <maxWeakCount>13</maxWeakCount>
      <stageThreshold>-1.6540560722351074e+00</stageThreshold>
      <weakClassifiers>
        <_>
          <internalNodes>
            0 -1 179 2.1172981359995902e-04</internalNodes>
          <leafValues>
            4.6106868982315063e-01 -7.0344829559326172e-01</leafValues></_>
        <_>
          <internalNodes>
            0 -1 188 -4.8745060339570045e-03</internalNodes>
          <leafValues>
            -8.7213528156280518e-01 2.5787082314491272e-01</leafValues></_>
        <_>
          <internalNodes>
            0 -1 26 7.0333102485165000e-04</internalNodes>
          <leafValues>
            -5.5932593345642090e-01 2.7577978372573853e-01</leafValues></_>
        <_>
          <internalNodes>
            0 -1 186 1.5233768499456346e-04</internalNodes>
          <leafValues>
            2.2527977824211121e-01 -8.0231338739395142e-01</leafValues></_>
        <_>
          <internalNodes>
            0 -1 248 -6.5279635600745678e-04</internalNodes>
          <leafValues>
            2.5524073839187622e-01 -5.6002110242843628e-01</leafValues></_>
        <_>
          <internalNodes>
            0 -1 226 -3.0833384953439236e-03</internalNodes>
          <leafValues>
            -5.8904910087585449e-01 2.4373105168342590e-01</leafValues></_>
        <_>
          <internalNodes>
            0 -1 214 -7.2038848884403706e-05</internalNodes>
          <leafValues>
            1.4703612029552460e-01 -8.7021440267562866e-01</leafValues></_>
        <_>
          <internalNodes>
            0 -1 149 5.8839836856350303e-04</internalNodes>
          <leafValues>
            1.2124782055616379e-01 -9.0595030784606934e-01</leafValues></_>
        <_>
          <internalNodes>
            0 -1 232 -4.3088733218610287e-04</internalNodes>
          <leafValues>
            2.2466273605823517e-01 -5.5587524175643921e-01</leafValues></_>
        <_>
          <internalNodes>
            0 -1 120 -2.1782955445814878e-04</internalNodes>
          <leafValues>
            -9.1617727279663086e-01 1.2074366211891174e-01</leafValues></_>
        <_>
          <internalNodes>
            0 -1 38 5.6849241256713867e-02</internalNodes>
          <leafValues>
            1.4048273861408234e-01 -7.4752843379974365e-01</leafValues></_>
        <_>
          <internalNodes>
            0 -1 286 1.4090493787080050e-03</internalNodes>
          <leafValues>
            -3.2682526111602783e-01 3.7565362453460693e-01</leafValues></_>
        <_>
          <internalNodes>
            0 -1 20 -5.1200941205024719e-02</internalNodes>
          <leafValues>
            6.6521054506301880e-01 -2.3946318030357361e-01</leafValues></_></weakClassifiers></_>
    <!-- stage 7 -->
    <_>
      <maxWeakCount>15</maxWeakCount>
      <stageThreshold>-1.3924435377120972e+00</stageThreshold>
      <weakClassifiers>
        <_>
          <internalNodes>
            0 -1 99 1.0187145562667865e-05</internalNodes>
          <leafValues>
            -7.3484849929809570e-01 4.4461077451705933e-01</leafValues></_>
        <_>
          <internalNodes>
            0 -1 128 1.9899322651326656e-03</internalNodes>
          <leafValues>
            2.7780088782310486e-01 -7.6456528902053833e-01</leafValues></_>
        <_>
          <internalNodes>
            0 -1 22 8.1107369624078274e-04</internalNodes>
          <leafValues>
            -5.7180678844451904e-01 2.6677221059799194e-01</leafValues></_>
        <_>
          <internalNodes>
            0 -1 69 -7.2867815106292255e-06</internalNodes>
          <leafValues>
            2.3962260782718658e-01 -6.8736118078231812e-01</leafValues></_>
        <_>
          <internalNodes>
            0 -1 219 -6.2138412613421679e-04</internalNodes>
          <leafValues>
            -7.7053952217102051e-01 1.4551812410354614e-01</leafValues></_>
        <_>
          <internalNodes>
            0 -1 118 6.7851797211915255e-04</internalNodes>
          <leafValues>
            -6.9684702157974243e-01 1.8823705613613129e-01</leafValues></_>
        <_>
          <internalNodes>
            0 -1 212 -7.5108464807271957e-03</internalNodes>
          <leafValues>
            -8.9454656839370728e-01 1.5773864090442657e-01</leafValues></_>
        <_>
          <internalNodes>
            0 -1 303 -2.7444674633443356e-03</internalNodes>
          <leafValues>
            4.6260187029838562e-01 -3.0173051357269287e-01</leafValues></_>
        <_>
          <internalNodes>
            0 -1 85 -2.9899065339122899e-05</internalNodes>
          <leafValues>
            2.8949528932571411e-01 -4.5535877346992493e-01</leafValues></_>
        <_>
          <internalNodes>
            0 -1 172 -9.2767382739111781e-05</internalNodes>
          <leafValues>
            2.6901113986968994e-01 -5.2037101984024048e-01</leafValues></_>
        <_>
          <internalNodes>
            0 -1 148 -1.3139322982169688e-04</internalNodes>
          <leafValues>
            -8.9965993165969849e-01 1.4061605930328369e-01</leafValues></_>
        <_>
          <internalNodes>
            0 -1 106 -4.5977422269061208e-04</internalNodes>
          <leafValues>
            1.6273081302642822e-01 -7.0061832666397095e-01</leafValues></_>
        <_>
          <internalNodes>
            0 -1 46 -2.1565966308116913e-02</internalNodes>
          <leafValues>
            6.6807162761688232e-01 -2.2584860026836395e-01</leafValues></_>
        <_>
          <internalNodes>
            0 -1 82 2.0528486929833889e-03</internalNodes>
          <leafValues>
            -6.5220999717712402e-01 2.2864606976509094e-01</leafValues></_>
        <_>
          <internalNodes>
            0 -1 141 -2.6869270368479192e-04</internalNodes>
          <leafValues>
            -8.3620959520339966e-01 1.3496369123458862e-01</leafValues></_></weakClassifiers></_>
    <!-- stage 8 -->
    <_>
      <maxWeakCount>18</maxWeakCount>
      <stageThreshold>-1.2578614950180054e+00</stageThreshold>
      <weakClassifiers>
        <_>
          <internalNodes>
            0 -1 201 -1.2569071259349585e-03</internalNodes>
          <leafValues>
            4.7996857762336731e-01 -6.4525991678237915e-01</leafValues></_>
        <_>
          <internalNodes>
            0 -1 81 1.1893360642716289e-03</internalNodes>
          <leafValues>
            2.3617051541805267e-01 -7.0499783754348755e-01</leafValues></_>
        <_>
          <internalNodes>
            0 -1 75 2.0886451238766313e-04</internalNodes>
          <leafValues>
            -5.9670418500900269e-01 2.5947171449661255e-01</leafValues></_>
        <_>
          <internalNodes>
            0 -1 272 -2.1980474411975592e-04</internalNodes>
          <leafValues>
            2.3959946632385254e-01 -5.9561318159103394e-01</leafValues></_>
        <_>
          <internalNodes>
            0 -1 144 1.5277171769412234e-05</internalNodes>
          <leafValues>
            -6.0646325349807739e-01 2.0927043259143829e-01</leafValues></_>
        <_>
          <internalNodes>
            0 -1 189 5.2362076530698687e-05</internalNodes>
          <leafValues>
            2.0872946083545685e-01 -6.1418718099594116e-01</leafValues></_>
        <_>
          <internalNodes>
            0 -1 247 -4.4677098048850894e-04</internalNodes>
          <leafValues>
            2.7864974737167358e-01 -4.3357306718826294e-01</leafValues></_>
        <_>
          <internalNodes>
            0 -1 90 2.5718133896589279e-02</internalNodes>
          <leafValues>
            2.1325264871120453e-01 -6.1916005611419678e-01</leafValues></_>
        <_>
          <internalNodes>
            0 -1 48 7.0743903961556498e-06</internalNodes>
          <leafValues>
            -4.3034017086029053e-01 2.8147238492965698e-01</leafValues></_>
        <_>
          <internalNodes>
            0 -1 70 1.2741403770633042e-04</internalNodes>
          <leafValues>
            -9.3715810775756836e-01 9.0064562857151031e-02</leafValues></_>
        <_>
          <internalNodes>
            0 -1 153 6.0725308954715729e-02</internalNodes>
          <leafValues>
            -2.6045164465904236e-01 4.9734598398208618e-01</leafValues></_>
        <_>
          <internalNodes>
            0 -1 9 -2.3545490112155676e-03</internalNodes>
          <leafValues>
            5.3559994697570801e-01 -2.6404213905334473e-01</leafValues></_>
        <_>
          <internalNodes>
            0 -1 234 -8.5071071225684136e-05</internalNodes>
          <leafValues>
            2.4600969254970551e-01 -6.6359561681747437e-01</leafValues></_>
        <_>
          <internalNodes>
            0 -1 139 -2.4265324464067817e-04</internalNodes>
          <leafValues>
            -8.2771587371826172e-01 1.2332572042942047e-01</leafValues></_>
        <_>
          <internalNodes>
            0 -1 294 3.9111562073230743e-03</internalNodes>
          <leafValues>
            -2.9659274220466614e-01 4.5015254616737366e-01</leafValues></_>
        <_>
          <internalNodes>
            0 -1 6 7.1386410854756832e-04</internalNodes>
          <leafValues>
            -2.1148955821990967e-01 5.8607202768325806e-01</leafValues></_>
        <_>
          <internalNodes>
            0 -1 132 -5.5888458155095577e-04</internalNodes>
          <leafValues>
            -7.8816330432891846e-01 1.7381475865840912e-01</leafValues></_>
        <_>
          <internalNodes>
            0 -1 307 2.4990616366267204e-03</internalNodes>
          <leafValues>
            -2.3062206804752350e-01 5.8667218685150146e-01</leafValues></_></weakClassifiers></_>
    <!-- stage 9 -->
    <_>
      <maxWeakCount>17</maxWeakCount>
      <stageThreshold>-1.2546944618225098e+00</stageThreshold>
      <weakClassifiers>
        <_>
          <internalNodes>
            0 -1 221 6.3392953961738385e-06</internalNodes>
          <leafValues>
            -3.1545740365982056e-01 6.2111800909042358e-01</leafValues></_>
        <_>
          <internalNodes>
            0 -1 178 -6.5823587647173554e-05</internalNodes>
          <leafValues>
            3.1502586603164673e-01 -6.7530661821365356e-01</leafValues></_>
        <_>
          <internalNodes>
            0 -1 309 -1.9620910752564669e-03</internalNodes>
          <leafValues>
            6.7947709560394287e-01 -2.5748202204704285e-01</leafValues></_>
        <_>
          <internalNodes>
            0 -1 240 -2.2528024856001139e-03</internalNodes>
          <leafValues>
            -6.9019871950149536e-01 2.2039583325386047e-01</leafValues></_>
        <_>
          <internalNodes>
            0 -1 63 -1.3197259249864146e-05</internalNodes>
          <leafValues>
            3.0664908885955811e-01 -4.5902577042579651e-01</leafValues></_>
        <_>
          <internalNodes>
            0 -1 44 -8.3237810758873820e-04</internalNodes>
          <leafValues>
            -7.2988861799240112e-01 1.6065847873687744e-01</leafValues></_>
        <_>
          <internalNodes>
            0 -1 100 1.1719602625817060e-03</internalNodes>
          <leafValues>
            2.1992625296115875e-01 -5.6236654520034790e-01</leafValues></_>
        <_>
          <internalNodes>
            0 -1 241 -8.1548405432840809e-06</internalNodes>
          <leafValues>
            1.5731059014797211e-01 -9.5895773172378540e-01</leafValues></_>
        <_>
          <internalNodes>
            0 -1 275 1.3287770561873913e-03</internalNodes>
          <leafValues>
            8.9975871145725250e-02 -7.6173549890518188e-01</leafValues></_>
        <_>
          <internalNodes>
            0 -1 8 -2.8763758018612862e-03</internalNodes>
          <leafValues>
            5.9714162349700928e-01 -2.2415077686309814e-01</leafValues></_>
        <_>
          <internalNodes>
            0 -1 285 -3.8685280742356554e-05</internalNodes>
          <leafValues>
            2.9968661069869995e-01 -4.0040230751037598e-01</leafValues></_>
        <_>
          <internalNodes>
            0 -1 268 -5.1319971680641174e-04</internalNodes>
          <leafValues>
            -9.2429226636886597e-01 1.3493122160434723e-01</leafValues></_>
        <_>
          <internalNodes>
            0 -1 51 1.1405579745769501e-02</internalNodes>
          <leafValues>
            -2.2862549126148224e-01 6.0711073875427246e-01</leafValues></_>
        <_>
          <internalNodes>
            0 -1 246 1.6679925465723500e-05</internalNodes>
          <leafValues>
            -2.4209471046924591e-01 4.7498533129692078e-01</leafValues></_>
        <_>
          <internalNodes>
            0 -1 169 -1.2791686458513141e-04</internalNodes>
          <leafValues>
            1.3519594073295593e-01 -9.4208890199661255e-01</leafValues></_>
        <_>
          <internalNodes>
            0 -1 161 4.2740288336062804e-05</internalNodes>
          <leafValues>
            -5.2490556240081787e-01 2.0246028900146484e-01</leafValues></_>
        <_>
          <internalNodes>
            0 -1 276 1.4961802662583068e-05</internalNodes>
          <leafValues>
            -3.0682006478309631e-01 3.7861862778663635e-01</leafValues></_></weakClassifiers></_>
    <!-- stage 10 -->
    <_>
      <maxWeakCount>17</maxWeakCount>
      <stageThreshold>-1.4165319204330444e+00</stageThreshold>
      <weakClassifiers>
        <_>
          <internalNodes>
            0 -1 244 -7.2531911428086460e-05</internalNodes>
          <leafValues>
            4.8953974246978760e-01 -4.5679011940956116e-01</leafValues></_>
        <_>
          <internalNodes>
            0 -1 28 4.2856592335738242e-04</internalNodes>
          <leafValues>
            -5.0944823026657104e-01 3.1038340926170349e-01</leafValues></_>
        <_>
          <internalNodes>
            0 -1 288 4.7880859347060323e-04</internalNodes>
          <leafValues>
            2.8406858444213867e-01 -6.0345679521560669e-01</leafValues></_>
        <_>
          <internalNodes>
            0 -1 254 1.1439607478678226e-03</internalNodes>
          <leafValues>
            1.4647038280963898e-01 -6.3487613201141357e-01</leafValues></_>
        <_>
          <internalNodes>
            0 -1 220 -1.5817371604498476e-04</internalNodes>
          <leafValues>
            2.1470484137535095e-01 -5.5111438035964966e-01</leafValues></_>
        <_>
          <internalNodes>
            0 -1 259 2.4469097843393683e-04</internalNodes>
          <leafValues>
            1.6230100393295288e-01 -6.9709289073944092e-01</leafValues></_>
        <_>
          <internalNodes>
            0 -1 250 -6.2749802600592375e-04</internalNodes>
          <leafValues>
            4.6156120300292969e-01 -2.4564994871616364e-01</leafValues></_>
        <_>
          <internalNodes>
            0 -1 101 1.1955572292208672e-02</internalNodes>
          <leafValues>
            1.7501917481422424e-01 -6.3399702310562134e-01</leafValues></_>
        <_>
          <internalNodes>
            0 -1 310 2.6053427718579769e-03</internalNodes>
          <leafValues>
            -1.8553471565246582e-01 5.7885169982910156e-01</leafValues></_>
        <_>
          <internalNodes>
            0 -1 21 -6.4217264298349619e-04</internalNodes>
          <leafValues>
            5.5446791648864746e-01 -2.0947533845901489e-01</leafValues></_>
        <_>
          <internalNodes>
            0 -1 278 -1.5120737953111529e-04</internalNodes>
          <leafValues>
            3.0346733331680298e-01 -3.8005059957504272e-01</leafValues></_>
        <_>
          <internalNodes>
            0 -1 126 -3.3726019319146872e-03</internalNodes>
          <leafValues>
            6.0138660669326782e-01 -2.0148581266403198e-01</leafValues></_>
        <_>
          <internalNodes>
            0 -1 57 -5.0635804655030370e-04</internalNodes>
          <leafValues>
            -9.2062252759933472e-01 1.7140613496303558e-01</leafValues></_>
        <_>
          <internalNodes>
            0 -1 119 1.0575541527941823e-03</internalNodes>
          <leafValues>
            7.9874888062477112e-02 -8.0006438493728638e-01</leafValues></_>
        <_>
          <internalNodes>
            0 -1 204 -2.9521348187699914e-04</internalNodes>
          <leafValues>
            2.2962528467178345e-01 -4.2467594146728516e-01</leafValues></_>
        <_>
          <internalNodes>
            0 -1 72 1.1568786430871114e-04</internalNodes>
          <leafValues>
            1.3197395205497742e-01 -7.2221845388412476e-01</leafValues></_>
        <_>
          <internalNodes>
            0 -1 4 1.1814294848591089e-03</internalNodes>
          <leafValues>
            -2.2804458439350128e-01 5.0784635543823242e-01</leafValues></_></weakClassifiers></_>
    <!-- stage 11 -->
    <_>
      <maxWeakCount>19</maxWeakCount>
      <stageThreshold>-1.3371365070343018e+00</stageThreshold>
      <weakClassifiers>
        <_>
          <internalNodes>
            0 -1 192 1.6463677457068115e-04</internalNodes>
          <leafValues>
            4.2792451381683350e-01 -6.0727274417877197e-01</leafValues></_>
        <_>
          <internalNodes>
            0 -1 37 5.0337469577789307e-01</internalNodes>
          <leafValues>
            -1.5562225878238678e-01 8.3235847949981689e-01</leafValues></_>
        <_>
          <internalNodes>
            0 -1 239 5.4712809287593700e-06</internalNodes>
          <leafValues>
            -3.3675864338874817e-01 3.5417309403419495e-01</leafValues></_>
        <_>
          <internalNodes>
            0 -1 218 -7.2265715971298050e-06</internalNodes>
          <leafValues>
            2.3053382337093353e-01 -4.9097231030464172e-01</leafValues></_>
        <_>
          <internalNodes>
            0 -1 293 -2.7709273854270577e-04</internalNodes>
          <leafValues>
            -8.2355511188507080e-01 1.4951884746551514e-01</leafValues></_>
        <_>
          <internalNodes>
            0 -1 145 6.4075475165736862e-06</internalNodes>
          <leafValues>
            -8.0349415540695190e-01 1.2080989778041840e-01</leafValues></_>
        <_>
          <internalNodes>
            0 -1 312 -5.4303684737533331e-04</internalNodes>
          <leafValues>
            5.5208730697631836e-01 -2.1090218424797058e-01</leafValues></_>
        <_>
          <internalNodes>
            0 -1 260 1.8291224841959774e-04</internalNodes>
          <leafValues>
            1.5583209693431854e-01 -7.2785121202468872e-01</leafValues></_>
        <_>
          <internalNodes>
            0 -1 200 -5.2070606034249067e-04</internalNodes>
          <leafValues>
            3.2587072253227234e-01 -3.2864317297935486e-01</leafValues></_>
        <_>
          <internalNodes>
            0 -1 64 -7.8412296716123819e-05</internalNodes>
          <leafValues>
            2.8559526801109314e-01 -3.9251583814620972e-01</leafValues></_>
        <_>
          <internalNodes>
            0 -1 171 -2.4240068159997463e-03</internalNodes>
          <leafValues>
            -7.5758212804794312e-01 1.7507363855838776e-01</leafValues></_>
        <_>
          <internalNodes>
            0 -1 78 -2.0105846226215363e-02</internalNodes>
          <leafValues>
            5.5732947587966919e-01 -2.2239314019680023e-01</leafValues></_>
        <_>
          <internalNodes>
            0 -1 87 3.6775909829884768e-03</internalNodes>
          <leafValues>
            -1.8835332989692688e-01 6.4534026384353638e-01</leafValues></_>
        <_>
          <internalNodes>
            0 -1 36 -4.5508602634072304e-03</internalNodes>
          <leafValues>
            -7.8985041379928589e-01 1.5849445760250092e-01</leafValues></_>
        <_>
          <internalNodes>
            0 -1 267 -1.4741302002221346e-03</internalNodes>
          <leafValues>
            3.6028355360031128e-01 -3.2728648185729980e-01</leafValues></_>
        <_>
          <internalNodes>
            0 -1 249 -2.5356392143294215e-04</internalNodes>
          <leafValues>
            5.1371824741363525e-01 -1.8995238840579987e-01</leafValues></_>
        <_>
          <internalNodes>
            0 -1 283 3.4833722747862339e-04</internalNodes>
          <leafValues>
            2.2790794074535370e-01 -4.4850748777389526e-01</leafValues></_>
        <_>
          <internalNodes>
            0 -1 265 -6.4363144338130951e-04</internalNodes>
          <leafValues>
            3.3410397171974182e-01 -2.9589375853538513e-01</leafValues></_>
        <_>
          <internalNodes>
            0 -1 29 -2.0053845643997192e-01</internalNodes>
          <leafValues>
            -6.5859973430633545e-01 1.5729805827140808e-01</leafValues></_></weakClassifiers></_>
    <!-- stage 12 -->
    <_>
      <maxWeakCount>15</maxWeakCount>
      <stageThreshold>-1.0873197317123413e+00</stageThreshold>
      <weakClassifiers>
        <_>
          <internalNodes>
            0 -1 84 -5.4567895131185651e-04</internalNodes>
          <leafValues>
            4.3554538488388062e-01 -5.9169548749923706e-01</leafValues></_>
        <_>
          <internalNodes>
            0 -1 35 3.8638827390968800e-04</internalNodes>
          <leafValues>
            -5.1283460855484009e-01 3.0864459276199341e-01</leafValues></_>
        <_>
          <internalNodes>
            0 -1 190 -3.0806777067482471e-03</internalNodes>
          <leafValues>
            -5.6362777948379517e-01 2.4784144759178162e-01</leafValues></_>
        <_>
          <internalNodes>
            0 -1 229 -2.6342412456870079e-04</internalNodes>
          <leafValues>
            2.1884165704250336e-01 -5.1844364404678345e-01</leafValues></_>
        <_>
          <internalNodes>
            0 -1 315 -9.9784508347511292e-04</internalNodes>
          <leafValues>
            6.6573768854141235e-01 -1.8254937231540680e-01</leafValues></_>
        <_>
          <internalNodes>
            0 -1 316 -8.2888873293995857e-04</internalNodes>
          <leafValues>
            6.2672722339630127e-01 -2.1100513637065887e-01</leafValues></_>
        <_>
          <internalNodes>
            0 -1 230 -2.1492797532118857e-04</internalNodes>
          <leafValues>
            1.7372134327888489e-01 -9.9167031049728394e-01</leafValues></_>
        <_>
          <internalNodes>
            0 -1 143 -4.8694844008423388e-04</internalNodes>
          <leafValues>
            4.6913197636604309e-01 -3.0114734172821045e-01</leafValues></_>
        <_>
          <internalNodes>
            0 -1 207 -2.2322288714349270e-04</internalNodes>
          <leafValues>
            4.5796033740043640e-01 -2.5565627217292786e-01</leafValues></_>
        <_>
          <internalNodes>
            0 -1 257 -2.9756422154605389e-03</internalNodes>
          <leafValues>
            -7.4536198377609253e-01 1.4760832488536835e-01</leafValues></_>
        <_>
          <internalNodes>
            0 -1 301 -1.4389201533049345e-03</internalNodes>
          <leafValues>
            4.5093300938606262e-01 -2.6613005995750427e-01</leafValues></_>
        <_>
          <internalNodes>
            0 -1 41 -5.9453337453305721e-03</internalNodes>
          <leafValues>
            -6.1995732784271240e-01 2.0690061151981354e-01</leafValues></_>
        <_>
          <internalNodes>
            0 -1 111 -2.0367572084069252e-02</internalNodes>
          <leafValues>
            4.6075952053070068e-01 -2.5013542175292969e-01</leafValues></_>
        <_>
          <internalNodes>
            0 -1 262 2.6024174876511097e-03</internalNodes>
          <leafValues>
            -2.0773321390151978e-01 5.0927489995956421e-01</leafValues></_>
        <_>
          <internalNodes>
            0 -1 160 3.2109749736264348e-04</internalNodes>
          <leafValues>
            1.1583089828491211e-01 -8.4248006343841553e-01</leafValues></_></weakClassifiers></_>
    <!-- stage 13 -->
    <_>
      <maxWeakCount>19</maxWeakCount>
      <stageThreshold>-1.3600339889526367e+00</stageThreshold>
      <weakClassifiers>
        <_>
          <internalNodes>
            0 -1 216 -9.8939541203435510e-05</internalNodes>
          <leafValues>
            4.7053799033164978e-01 -3.5198134183883667e-01</leafValues></_>
        <_>
          <internalNodes>
            0 -1 58 4.4786513899452984e-04</internalNodes>
          <leafValues>
            -4.0968704223632812e-01 3.1382775306701660e-01</leafValues></_>
        <_>
          <internalNodes>
            0 -1 258 -6.1174164329713676e-06</internalNodes>
          <leafValues>
            2.0534624159336090e-01 -5.2575826644897461e-01</leafValues></_>
        <_>
          <internalNodes>
            0 -1 129 5.8624800294637680e-04</internalNodes>
          <leafValues>
            1.3458226621150970e-01 -7.6534646749496460e-01</leafValues></_>
        <_>
          <internalNodes>
            0 -1 12 -8.5267075337469578e-04</internalNodes>
          <leafValues>
            7.5231462717056274e-01 -1.4703176915645599e-01</leafValues></_>
        <_>
          <internalNodes>
            0 -1 12 3.8073299219831824e-04</internalNodes>
          <leafValues>
            -2.3511013388633728e-01 5.2608853578567505e-01</leafValues></_>
        <_>
          <internalNodes>
            0 -1 181 -1.8209841073257849e-05</internalNodes>
          <leafValues>
            2.8997421264648438e-01 -3.2340201735496521e-01</leafValues></_>
        <_>
          <internalNodes>
            0 -1 113 3.1016379594802856e-02</internalNodes>
          <leafValues>
            -2.5334635376930237e-01 4.1524785757064819e-01</leafValues></_>
        <_>
          <internalNodes>
            0 -1 131 -5.9132024034624919e-05</internalNodes>
          <leafValues>
            2.0775443315505981e-01 -5.0520080327987671e-01</leafValues></_>
        <_>
          <internalNodes>
            0 -1 0 -9.7417697310447693e-02</internalNodes>
          <leafValues>
            6.2403678894042969e-01 -1.6394138336181641e-01</leafValues></_>
        <_>
          <internalNodes>
            0 -1 314 5.8061699382960796e-04</internalNodes>
          <leafValues>
            -1.6062530875205994e-01 5.8557355403900146e-01</leafValues></_>
        <_>
          <internalNodes>
            0 -1 95 4.4229422928765416e-04</internalNodes>
          <leafValues>
            -8.3675587177276611e-01 1.4479735493659973e-01</leafValues></_>
        <_>
          <internalNodes>
            0 -1 313 -8.3193718455731869e-04</internalNodes>
          <leafValues>
            4.0984290838241577e-01 -2.3996049165725708e-01</leafValues></_>
        <_>
          <internalNodes>
            0 -1 274 -1.4994996599853039e-03</internalNodes>
          <leafValues>
            -7.7360594272613525e-01 1.2073078751564026e-01</leafValues></_>
        <_>
          <internalNodes>
            0 -1 150 -8.8601245079189539e-04</internalNodes>
          <leafValues>
            6.6118580102920532e-01 -1.5879538655281067e-01</leafValues></_>
        <_>
          <internalNodes>
            0 -1 215 -3.5596120869740844e-04</internalNodes>
          <leafValues>
            3.1435337662696838e-01 -4.1442516446113586e-01</leafValues></_>
        <_>
          <internalNodes>
            0 -1 73 -1.6210633475566283e-05</internalNodes>
          <leafValues>
            2.6773914694786072e-01 -3.4840232133865356e-01</leafValues></_>
        <_>
          <internalNodes>
            0 -1 49 -9.6261745784431696e-04</internalNodes>
          <leafValues>
            -7.1055334806442261e-01 1.8701024353504181e-01</leafValues></_>
        <_>
          <internalNodes>
            0 -1 80 -1.0426262160763144e-03</internalNodes>
          <leafValues>
            1.8602335453033447e-01 -5.0452685356140137e-01</leafValues></_></weakClassifiers></_>
    <!-- stage 14 -->
    <_>
      <maxWeakCount>23</maxWeakCount>
      <stageThreshold>-1.2031388282775879e+00</stageThreshold>
      <weakClassifiers>
        <_>
          <internalNodes>
            0 -1 55 2.0318317692726851e-03</internalNodes>
          <leafValues>
            4.5280000567436218e-01 -4.7428572177886963e-01</leafValues></_>
        <_>
          <internalNodes>
            0 -1 32 4.2783078970387578e-04</internalNodes>
          <leafValues>
            -6.0862755775451660e-01 2.4113072454929352e-01</leafValues></_>
        <_>
          <internalNodes>
            0 -1 53 -5.9213148233538959e-06</internalNodes>
          <leafValues>
            3.0952438712120056e-01 -4.0308922529220581e-01</leafValues></_>
        <_>
          <internalNodes>
            0 -1 107 -6.2183354748412967e-04</internalNodes>
          <leafValues>
            2.0262388885021210e-01 -5.4226762056350708e-01</leafValues></_>
        <_>
          <internalNodes>
            0 -1 261 -6.3392953961738385e-06</internalNodes>
          <leafValues>
            2.1507723629474640e-01 -5.1723021268844604e-01</leafValues></_>
        <_>
          <internalNodes>
            0 -1 235 7.4986222898587584e-05</internalNodes>
          <leafValues>
            1.8406215310096741e-01 -5.2731186151504517e-01</leafValues></_>
        <_>
          <internalNodes>
            0 -1 97 1.5774458646774292e-02</internalNodes>
          <leafValues>
            -1.6017156839370728e-01 6.5248745679855347e-01</leafValues></_>
        <_>
          <internalNodes>
            0 -1 61 1.2912070378661156e-03</internalNodes>
          <leafValues>
            -7.4311214685440063e-01 1.3299588859081268e-01</leafValues></_>
        <_>
          <internalNodes>
            0 -1 175 2.9185524908825755e-04</internalNodes>
          <leafValues>
            8.8538184762001038e-02 -8.1471079587936401e-01</leafValues></_>
        <_>
          <internalNodes>
            0 -1 164 -7.4832794780377299e-05</internalNodes>
          <leafValues>
            -8.2614511251449585e-01 8.0225668847560883e-02</leafValues></_>
        <_>
          <internalNodes>
            0 -1 271 -5.2593636792153120e-04</internalNodes>
          <leafValues>
            3.9044141769409180e-01 -2.3743349313735962e-01</leafValues></_>
        <_>
          <internalNodes>
            0 -1 296 9.3217019457370043e-04</internalNodes>
          <leafValues>
            -2.1994552016258240e-01 4.0765556693077087e-01</leafValues></_>
        <_>
          <internalNodes>
            0 -1 183 -3.6186617799103260e-03</internalNodes>
          <leafValues>
            -6.0891330242156982e-01 1.5394736826419830e-01</leafValues></_>
        <_>
          <internalNodes>
            0 -1 210 -1.9715395756065845e-03</internalNodes>
          <leafValues>
            5.4595553874969482e-01 -1.7058944702148438e-01</leafValues></_>
        <_>
          <internalNodes>
            0 -1 277 -2.2018610034137964e-03</internalNodes>
          <leafValues>
            -7.4788022041320801e-01 1.3649800419807434e-01</leafValues></_>
        <_>
          <internalNodes>
            0 -1 263 -2.7290992875350639e-05</internalNodes>
          <leafValues>
            2.0030897855758667e-01 -5.2174758911132812e-01</leafValues></_>
        <_>
          <internalNodes>
            0 -1 112 -2.6830425485968590e-02</internalNodes>
          <leafValues>
            6.8272447586059570e-01 -1.3457261025905609e-01</leafValues></_>
        <_>
          <internalNodes>
            0 -1 1 1.1113460641354322e-03</internalNodes>
          <leafValues>
            -1.7637374997138977e-01 4.9598008394241333e-01</leafValues></_>
        <_>
          <internalNodes>
            0 -1 13 -3.4416685812175274e-03</internalNodes>
          <leafValues>
            5.4410851001739502e-01 -1.7389336228370667e-01</leafValues></_>
        <_>
          <internalNodes>
            0 -1 287 2.9392458964139223e-04</internalNodes>
          <leafValues>
            1.4634564518928528e-01 -5.9428811073303223e-01</leafValues></_>
        <_>
          <internalNodes>
            0 -1 253 9.7889197058975697e-04</internalNodes>
          <leafValues>
            1.7267052829265594e-01 -4.7416618466377258e-01</leafValues></_>
        <_>
          <internalNodes>
            0 -1 300 -1.4948543393984437e-03</internalNodes>
          <leafValues>
            5.1553034782409668e-01 -2.1241316199302673e-01</leafValues></_>
        <_>
          <internalNodes>
            0 -1 31 4.6640529762953520e-04</internalNodes>
          <leafValues>
            -4.3382433056831360e-01 2.1007694303989410e-01</leafValues></_></weakClassifiers></_>
    <!-- stage 15 -->
    <_>
      <maxWeakCount>23</maxWeakCount>
      <stageThreshold>-1.3221027851104736e+00</stageThreshold>
      <weakClassifiers>
        <_>
          <internalNodes>
            0 -1 60 1.2207208783365786e-04</internalNodes>
          <leafValues>
            4.5674741268157959e-01 -2.8828829526901245e-01</leafValues></_>
        <_>
          <internalNodes>
            0 -1 117 1.9353590905666351e-03</internalNodes>
          <leafValues>
            1.8013410270214081e-01 -6.9499444961547852e-01</leafValues></_>
        <_>
          <internalNodes>
            0 -1 218 -7.2265715971298050e-06</internalNodes>
          <leafValues>
            2.3248921334743500e-01 -4.4789639115333557e-01</leafValues></_>
        <_>
          <internalNodes>
            0 -1 76 -4.1448528645560145e-04</internalNodes>
          <leafValues>
            3.9753872156143188e-01 -2.9443138837814331e-01</leafValues></_>
        <_>
          <internalNodes>
            0 -1 266 5.6123591959476471e-02</internalNodes>
          <leafValues>
            -1.7974528670310974e-01 5.9871912002563477e-01</leafValues></_>
        <_>
          <internalNodes>
            0 -1 116 2.3895819322206080e-04</internalNodes>
          <leafValues>
            -5.6106537580490112e-01 1.8771134316921234e-01</leafValues></_>
        <_>
          <internalNodes>
            0 -1 96 -8.3926915976917371e-06</internalNodes>
          <leafValues>
            1.7303982377052307e-01 -6.1138200759887695e-01</leafValues></_>
        <_>
          <internalNodes>
            0 -1 295 1.4839456707704812e-04</internalNodes>
          <leafValues>
            -3.3014267683029175e-01 3.3548861742019653e-01</leafValues></_>
        <_>
          <internalNodes>
            0 -1 133 -7.2783836913004052e-06</internalNodes>
          <leafValues>
            1.6540417075157166e-01 -5.3278774023056030e-01</leafValues></_>
        <_>
          <internalNodes>
            0 -1 91 -3.3113796962425113e-04</internalNodes>
          <leafValues>
            -5.3865253925323486e-01 1.8264274299144745e-01</leafValues></_>
        <_>
          <internalNodes>
            0 -1 205 -1.7578022379893810e-04</internalNodes>
          <leafValues>
            4.9805140495300293e-01 -1.9157998263835907e-01</leafValues></_>
        <_>
          <internalNodes>
            0 -1 217 6.0499505707412027e-06</internalNodes>
          <leafValues>
            -3.2721054553985596e-01 3.6335197091102600e-01</leafValues></_>
        <_>
          <internalNodes>
            0 -1 291 -8.8085327297449112e-04</internalNodes>
          <leafValues>
            -7.4779576063156128e-01 1.5042150020599365e-01</leafValues></_>
        <_>
          <internalNodes>
            0 -1 280 -5.4071552585810423e-04</internalNodes>
          <leafValues>
            2.4975298345088959e-01 -3.8289436697959900e-01</leafValues></_>
        <_>
          <internalNodes>
            0 -1 238 -5.2921369206160307e-04</internalNodes>
          <leafValues>
            1.9232422113418579e-01 -4.3376430869102478e-01</leafValues></_>
        <_>
          <internalNodes>
            0 -1 158 -5.4719857871532440e-04</internalNodes>
          <leafValues>
            5.6114232540130615e-01 -1.6972690820693970e-01</leafValues></_>
        <_>
          <internalNodes>
            0 -1 40 4.1015609167516232e-04</internalNodes>
          <leafValues>
            -1.5410609543323517e-01 4.6353396773338318e-01</leafValues></_>
        <_>
          <internalNodes>
            0 -1 228 -3.4533371217548847e-03</internalNodes>
          <leafValues>
            -5.4022234678268433e-01 1.4300824701786041e-01</leafValues></_>
        <_>
          <internalNodes>
            0 -1 302 -4.9078965093940496e-04</internalNodes>
          <leafValues>
            3.3462455868721008e-01 -2.4602122604846954e-01</leafValues></_>
        <_>
          <internalNodes>
            0 -1 157 4.3763028224930167e-04</internalNodes>
          <leafValues>
            -4.7987705469131470e-01 1.7360767722129822e-01</leafValues></_>
        <_>
          <internalNodes>
            0 -1 18 -1.5399693511426449e-03</internalNodes>
          <leafValues>
            6.6126084327697754e-01 -1.3329544663429260e-01</leafValues></_>
        <_>
          <internalNodes>
            0 -1 279 -7.3627927340567112e-03</internalNodes>
          <leafValues>
            -6.6931492090225220e-01 1.3772550225257874e-01</leafValues></_>
        <_>
          <internalNodes>
            0 -1 30 -6.5524773672223091e-03</internalNodes>
          <leafValues>
            5.1282262802124023e-01 -1.8586017191410065e-01</leafValues></_></weakClassifiers></_>
    <!-- stage 16 -->
    <_>
      <maxWeakCount>21</maxWeakCount>
      <stageThreshold>-1.2133965492248535e+00</stageThreshold>
      <weakClassifiers>
        <_>
          <internalNodes>
            0 -1 273 1.4695140998810530e-04</internalNodes>
          <leafValues>
            4.1756549477577209e-01 -4.7019866108894348e-01</leafValues></_>
        <_>
          <internalNodes>
            0 -1 184 -1.8797192024067044e-04</internalNodes>
          <leafValues>
            2.8406146168708801e-01 -4.7147727012634277e-01</leafValues></_>
        <_>
          <internalNodes>
            0 -1 166 1.0019871406257153e-03</internalNodes>
          <leafValues>
            1.7475733160972595e-01 -7.4131584167480469e-01</leafValues></_>
        <_>
          <internalNodes>
            0 -1 142 -3.0867109308019280e-04</internalNodes>
          <leafValues>
            2.6263853907585144e-01 -3.8249775767326355e-01</leafValues></_>
        <_>
          <internalNodes>
            0 -1 122 1.4448130968958139e-04</internalNodes>
          <leafValues>
            1.1292002350091934e-01 -9.0774780511856079e-01</leafValues></_>
        <_>
          <internalNodes>
            0 -1 159 2.4078783392906189e-01</internalNodes>
          <leafValues>
            -2.1247924864292145e-01 5.0502455234527588e-01</leafValues></_>
        <_>
          <internalNodes>
            0 -1 269 5.3411879343912005e-04</internalNodes>
          <leafValues>
            1.6510456800460815e-01 -5.6883054971694946e-01</leafValues></_>
        <_>
          <internalNodes>
            0 -1 102 1.0035388404503465e-03</internalNodes>
          <leafValues>
            1.0782482475042343e-01 -7.9465299844741821e-01</leafValues></_>
        <_>
          <internalNodes>
            0 -1 308 1.8059466965496540e-03</internalNodes>
          <leafValues>
            -2.2113087773323059e-01 4.6918675303459167e-01</leafValues></_>
        <_>
          <internalNodes>
            0 -1 311 -4.2027217568829656e-04</internalNodes>
          <leafValues>
            4.7837162017822266e-01 -1.8054908514022827e-01</leafValues></_>
        <_>
          <internalNodes>
            0 -1 93 -5.9322817833162844e-05</internalNodes>
          <leafValues>
            -7.1430104970932007e-01 1.4431042969226837e-01</leafValues></_>
        <_>
          <internalNodes>
            0 -1 231 1.8696084225666709e-05</internalNodes>
          <leafValues>
            2.0288006961345673e-01 -4.3153914809226990e-01</leafValues></_>
        <_>
          <internalNodes>
            0 -1 289 -6.3590769059373997e-06</internalNodes>
          <leafValues>
            2.7048414945602417e-01 -3.2051715254783630e-01</leafValues></_>
        <_>
          <internalNodes>
            0 -1 196 -2.7110357768833637e-04</internalNodes>
          <leafValues>
            1.0289342701435089e-01 -9.4216662645339966e-01</leafValues></_>
        <_>
          <internalNodes>
            0 -1 14 2.4359646439552307e-01</internalNodes>
          <leafValues>
            1.3282205164432526e-01 -5.9393197298049927e-01</leafValues></_>
        <_>
          <internalNodes>
            0 -1 15 2.7574375271797180e-03</internalNodes>
          <leafValues>
            -2.8617435693740845e-01 3.2627588510513306e-01</leafValues></_>
        <_>
          <internalNodes>
            0 -1 174 3.4846195485442877e-03</internalNodes>
          <leafValues>
            -1.6943837702274323e-01 5.5392974615097046e-01</leafValues></_>
        <_>
          <internalNodes>
            0 -1 50 1.9508544355630875e-03</internalNodes>
          <leafValues>
            -5.7416403293609619e-01 1.6637438535690308e-01</leafValues></_>
        <_>
          <internalNodes>
            0 -1 23 -3.1503621721640229e-04</internalNodes>
          <leafValues>
            4.9412655830383301e-01 -1.8425124883651733e-01</leafValues></_>
        <_>
          <internalNodes>
            0 -1 88 4.3276583892293274e-04</internalNodes>
          <leafValues>
            1.8413987755775452e-01 -4.6270602941513062e-01</leafValues></_>
        <_>
          <internalNodes>
            0 -1 180 1.5010091010481119e-03</internalNodes>
          <leafValues>
            -1.5728116035461426e-01 5.7725709676742554e-01</leafValues></_></weakClassifiers></_>
    <!-- stage 17 -->
    <_>
      <maxWeakCount>23</maxWeakCount>
      <stageThreshold>-1.2124869823455811e+00</stageThreshold>
      <weakClassifiers>
        <_>
          <internalNodes>
            0 -1 156 -8.1121880793944001e-04</internalNodes>
          <leafValues>
            4.6737211942672729e-01 -2.7896994352340698e-01</leafValues></_>
        <_>
          <internalNodes>
            0 -1 163 -1.8163108034059405e-03</internalNodes>
          <leafValues>
            -5.4539740085601807e-01 2.5594031810760498e-01</leafValues></_>
        <_>
          <internalNodes>
            0 -1 252 -9.4861905381549150e-05</internalNodes>
          <leafValues>
            2.2221733629703522e-01 -4.8278769850730896e-01</leafValues></_>
        <_>
          <internalNodes>
            0 -1 105 1.9607045687735081e-03</internalNodes>
          <leafValues>
            1.2092810124158859e-01 -6.5500330924987793e-01</leafValues></_>
        <_>
          <internalNodes>
            0 -1 42 5.6851236149668694e-04</internalNodes>
          <leafValues>
            -3.6076790094375610e-01 2.8180438280105591e-01</leafValues></_>
        <_>
          <internalNodes>
            0 -1 68 -2.6568217435851693e-04</internalNodes>
          <leafValues>
            -6.6976797580718994e-01 1.2569177150726318e-01</leafValues></_>
        <_>
          <internalNodes>
            0 -1 92 -2.6951394829666242e-05</internalNodes>
          <leafValues>
            1.5385684370994568e-01 -5.3035992383956909e-01</leafValues></_>
        <_>
          <internalNodes>
            0 -1 297 4.5051606139168143e-04</internalNodes>
          <leafValues>
            -2.5265184044837952e-01 3.6019366979598999e-01</leafValues></_>
        <_>
          <internalNodes>
            0 -1 137 8.3213861216790974e-05</internalNodes>
          <leafValues>
            1.5852655470371246e-01 -5.1498472690582275e-01</leafValues></_>
        <_>
          <internalNodes>
            0 -1 251 6.8083277437835932e-04</internalNodes>
          <leafValues>
            -3.0558472871780396e-01 2.7743434906005859e-01</leafValues></_>
        <_>
          <internalNodes>
            0 -1 52 1.4381295477505773e-04</internalNodes>
          <leafValues>
            1.8723160028457642e-01 -4.7082263231277466e-01</leafValues></_>
        <_>
          <internalNodes>
            0 -1 306 3.2481099478900433e-03</internalNodes>
          <leafValues>
            -1.9021211564540863e-01 5.4672151803970337e-01</leafValues></_>
        <_>
          <internalNodes>
            0 -1 305 -2.2777267731726170e-03</internalNodes>
          <leafValues>
            4.6643331646919250e-01 -1.5426979959011078e-01</leafValues></_>
        <_>
          <internalNodes>
            0 -1 67 -8.6219068616628647e-03</internalNodes>
          <leafValues>
            5.6821936368942261e-01 -1.3034352660179138e-01</leafValues></_>
        <_>
          <internalNodes>
            0 -1 270 1.5629893459845334e-04</internalNodes>
          <leafValues>
            -1.5910403430461884e-01 4.3972730636596680e-01</leafValues></_>
        <_>
          <internalNodes>
            0 -1 166 -2.3425896652042866e-03</internalNodes>
          <leafValues>
            -6.0513025522232056e-01 1.5079726278781891e-01</leafValues></_>
        <_>
          <internalNodes>
            0 -1 10 1.8403702415525913e-03</internalNodes>
          <leafValues>
            -1.9798918068408966e-01 3.9855697751045227e-01</leafValues></_>
        <_>
          <internalNodes>
            0 -1 16 -7.3454889934509993e-04</internalNodes>
          <leafValues>
            4.1305318474769592e-01 -2.0201234519481659e-01</leafValues></_>
        <_>
          <internalNodes>
            0 -1 108 -9.2962209600955248e-04</internalNodes>
          <leafValues>
            1.5970025956630707e-01 -4.6571487188339233e-01</leafValues></_>
        <_>
          <internalNodes>
            0 -1 98 2.8637390583753586e-02</internalNodes>
          <leafValues>
            -1.4590106904506683e-01 5.9457623958587646e-01</leafValues></_>
        <_>
          <internalNodes>
            0 -1 19 1.8396032974123955e-02</internalNodes>
          <leafValues>
            -1.7150507867336273e-01 4.6287131309509277e-01</leafValues></_>
        <_>
          <internalNodes>
            0 -1 173 6.3392953961738385e-06</internalNodes>
          <leafValues>
            -2.9666113853454590e-01 2.9710069298744202e-01</leafValues></_>
        <_>
          <internalNodes>
            0 -1 185 8.5320287325885147e-05</internalNodes>
          <leafValues>
            -3.2639008760452271e-01 2.3302377760410309e-01</leafValues></_></weakClassifiers></_>
    <!-- stage 18 -->
    <_>
      <maxWeakCount>24</maxWeakCount>
      <stageThreshold>-1.2149155139923096e+00</stageThreshold>
      <weakClassifiers>
        <_>
          <internalNodes>
            0 -1 235 7.8205324825830758e-05</internalNodes>
          <leafValues>
            4.1583397984504700e-01 -4.7157189249992371e-01</leafValues></_>
        <_>
          <internalNodes>
            0 -1 62 1.7101864796131849e-04</internalNodes>
          <leafValues>
            2.4354393780231476e-01 -4.0755417943000793e-01</leafValues></_>
        <_>
          <internalNodes>
            0 -1 34 -1.9281997811049223e-03</internalNodes>
          <leafValues>
            -5.3305119276046753e-01 2.1201832592487335e-01</leafValues></_>
        <_>
          <internalNodes>
            0 -1 47 -2.0582191064022481e-04</internalNodes>
          <leafValues>
            3.4188082814216614e-01 -2.8629896044731140e-01</leafValues></_>
        <_>
          <internalNodes>
            0 -1 298 1.8942807218991220e-04</internalNodes>
          <leafValues>
            -2.9793751239776611e-01 2.8429967164993286e-01</leafValues></_>
        <_>
          <internalNodes>
            0 -1 54 -7.2731381806079298e-06</internalNodes>
          <leafValues>
            2.1964275836944580e-01 -3.7643364071846008e-01</leafValues></_>
        <_>
          <internalNodes>
            0 -1 45 -2.9379822080954909e-04</internalNodes>
          <leafValues>
            -6.9651108980178833e-01 1.5399096906185150e-01</leafValues></_>
        <_>
          <internalNodes>
            0 -1 152 -6.3392953961738385e-06</internalNodes>
          <leafValues>
            2.6869350671768188e-01 -2.9625383019447327e-01</leafValues></_>
        <_>
          <internalNodes>
            0 -1 233 5.4712809287593700e-06</internalNodes>
          <leafValues>
            -2.5840044021606445e-01 3.1604528427124023e-01</leafValues></_>
        <_>
          <internalNodes>
            0 -1 213 -6.6755528678186238e-05</internalNodes>
          <leafValues>
            4.0473967790603638e-01 -2.3443374037742615e-01</leafValues></_>
        <_>
          <internalNodes>
            0 -1 165 -7.3140872700605541e-05</internalNodes>
          <leafValues>
            -6.2845849990844727e-01 1.2361644208431244e-01</leafValues></_>
        <_>
          <internalNodes>
            0 -1 134 -8.6818449199199677e-03</internalNodes>
          <leafValues>
            -7.7969551086425781e-01 8.8044896721839905e-02</leafValues></_>
        <_>
          <internalNodes>
            0 -1 23 5.2292423788458109e-04</internalNodes>
          <leafValues>
            -1.4182007312774658e-01 6.0671836137771606e-01</leafValues></_>
        <_>
          <internalNodes>
            0 -1 193 -1.5231753932312131e-03</internalNodes>
          <leafValues>
            -8.2890343666076660e-01 1.1279383301734924e-01</leafValues></_>
        <_>
          <internalNodes>
            0 -1 5 5.5888995528221130e-02</internalNodes>
          <leafValues>
            1.1483253538608551e-01 -5.8231532573699951e-01</leafValues></_>
        <_>
          <internalNodes>
            0 -1 304 8.5890321061015129e-03</internalNodes>
          <leafValues>
            -1.5538270771503448e-01 5.5320680141448975e-01</leafValues></_>
        <_>
          <internalNodes>
            0 -1 136 4.1183120629284531e-05</internalNodes>
          <leafValues>
            -4.3590351939201355e-01 1.8450459837913513e-01</leafValues></_>
        <_>
          <internalNodes>
            0 -1 110 -1.0019873734563589e-03</internalNodes>
          <leafValues>
            2.1989722549915314e-01 -4.0275058150291443e-01</leafValues></_>
        <_>
          <internalNodes>
            0 -1 264 -7.3361617978662252e-05</internalNodes>
          <leafValues>
            2.8979623317718506e-01 -3.2060146331787109e-01</leafValues></_>
        <_>
          <internalNodes>
            0 -1 121 -1.6636796295642853e-02</internalNodes>
          <leafValues>
            6.0523211956024170e-01 -1.3342677056789398e-01</leafValues></_>
        <_>
          <internalNodes>
            0 -1 208 -1.2976436119060963e-04</internalNodes>
          <leafValues>
            4.6451815962791443e-01 -1.6425608098506927e-01</leafValues></_>
        <_>
          <internalNodes>
            0 -1 177 -4.8594933468848467e-04</internalNodes>
          <leafValues>
            4.6527680754661560e-01 -1.7982435226440430e-01</leafValues></_>
        <_>
          <internalNodes>
            0 -1 227 -2.8185048140585423e-03</internalNodes>
          <leafValues>
            -6.0656851530075073e-01 1.5095524489879608e-01</leafValues></_>
        <_>
          <internalNodes>
            0 -1 162 1.8742377869784832e-03</internalNodes>
          <leafValues>
            9.4765499234199524e-02 -7.3809736967086792e-01</leafValues></_></weakClassifiers></_>
    <!-- stage 19 -->
    <_>
      <maxWeakCount>22</maxWeakCount>
      <stageThreshold>-1.0677275657653809e+00</stageThreshold>
      <weakClassifiers>
        <_>
          <internalNodes>
            0 -1 194 2.8898619348183274e-04</internalNodes>
          <leafValues>
            -1.1198946088552475e-01 5.7669442892074585e-01</leafValues></_>
        <_>
          <internalNodes>
            0 -1 168 -1.6696471720933914e-04</internalNodes>
          <leafValues>
            2.2954340279102325e-01 -5.4858875274658203e-01</leafValues></_>
        <_>
          <internalNodes>
            0 -1 3 2.9767998494207859e-03</internalNodes>
          <leafValues>
            -1.7434351146221161e-01 5.7888668775558472e-01</leafValues></_>
        <_>
          <internalNodes>
            0 -1 167 -2.9883831739425659e-03</internalNodes>
          <leafValues>
            -6.7634958028793335e-01 1.1872809380292892e-01</leafValues></_>
        <_>
          <internalNodes>
            0 -1 7 -2.5495185982435942e-03</internalNodes>
          <leafValues>
            5.4727673530578613e-01 -1.5791837871074677e-01</leafValues></_>
        <_>
          <internalNodes>
            0 -1 292 1.3967161066830158e-04</internalNodes>
          <leafValues>
            1.3738936185836792e-01 -6.1628240346908569e-01</leafValues></_>
        <_>
          <internalNodes>
            0 -1 74 1.3582066167145967e-03</internalNodes>
          <leafValues>
            -5.6500178575515747e-01 1.4009520411491394e-01</leafValues></_>
        <_>
          <internalNodes>
            0 -1 182 -1.3264828885439783e-04</internalNodes>
          <leafValues>
            1.9634892046451569e-01 -3.8778477907180786e-01</leafValues></_>
        <_>
          <internalNodes>
            0 -1 211 1.3067549094557762e-02</internalNodes>
          <leafValues>
            -2.6476702094078064e-01 3.7493184208869934e-01</leafValues></_>
        <_>
          <internalNodes>
            0 -1 39 -7.7825874090194702e-02</internalNodes>
          <leafValues>
            -4.2743593454360962e-01 1.9239263236522675e-01</leafValues></_>
        <_>
          <internalNodes>
            0 -1 124 -1.8532661488279700e-04</internalNodes>
          <leafValues>
            3.4274402260780334e-01 -2.1415239572525024e-01</leafValues></_>
        <_>
          <internalNodes>
            0 -1 187 -6.8996532354503870e-04</internalNodes>
          <leafValues>
            3.9794233441352844e-01 -2.6375511288642883e-01</leafValues></_>
        <_>
          <internalNodes>
            0 -1 123 7.3522576713003218e-05</internalNodes>
          <leafValues>
            1.4060308039188385e-01 -7.0168489217758179e-01</leafValues></_>
        <_>
          <internalNodes>
            0 -1 154 -3.2381020719185472e-04</internalNodes>
          <leafValues>
            -8.1353241205215454e-01 7.6028518378734589e-02</leafValues></_>
        <_>
          <internalNodes>
            0 -1 245 8.1587626482360065e-05</internalNodes>
          <leafValues>
            -1.8326212465763092e-01 4.5413878560066223e-01</leafValues></_>
        <_>
          <internalNodes>
            0 -1 151 -1.2844268931075931e-03</internalNodes>
          <leafValues>
            -3.9752948284149170e-01 2.1780608594417572e-01</leafValues></_>
        <_>
          <internalNodes>
            0 -1 205 -1.3698000111617148e-04</internalNodes>
          <leafValues>
            4.3561938405036926e-01 -2.3050612211227417e-01</leafValues></_>
        <_>
          <internalNodes>
            0 -1 225 -3.2731532119214535e-03</internalNodes>
          <leafValues>
            5.0852191448211670e-01 -1.5169121325016022e-01</leafValues></_>
        <_>
          <internalNodes>
            0 -1 290 -3.0825776048004627e-04</internalNodes>
          <leafValues>
            -4.4899150729179382e-01 1.7095892131328583e-01</leafValues></_>
        <_>
          <internalNodes>
            0 -1 195 -3.2720289891585708e-04</internalNodes>
          <leafValues>
            4.8880833387374878e-01 -1.6737508773803711e-01</leafValues></_>
        <_>
          <internalNodes>
            0 -1 237 5.9263443108648062e-04</internalNodes>
          <leafValues>
            -2.3057155311107635e-01 4.3415093421936035e-01</leafValues></_>
        <_>
          <internalNodes>
            0 -1 115 -1.6115178368636407e-05</internalNodes>
          <leafValues>
            -2.9943642020225525e-01 2.8730267286300659e-01</leafValues></_></weakClassifiers></_></stages>
  <features>
    <_>
      <rects>
        <_>
          0 0 48 18 -1.</_>
        <_>
          0 6 48 6 3.</_></rects>
      <tilted>0</tilted></_>
    <_>
      <rects>
        <_>
          0 1 2 16 -1.</_>
        <_>
          0 1 1 8 2.</_>
        <_>
          1 9 1 8 2.</_></rects>
      <tilted>0</tilted></_>
    <_>
      <rects>
        <_>
          0 4 6 21 -1.</_>
        <_>
          3 4 3 21 2.</_></rects>
      <tilted>0</tilted></_>
    <_>
      <rects>
        <_>
          0 7 4 8 -1.</_>
        <_>
          0 7 2 4 2.</_>
        <_>
          2 11 2 4 2.</_></rects>
      <tilted>0</tilted></_>
    <_>
      <rects>
        <_>
          0 8 2 8 -1.</_>
        <_>
          1 8 1 8 2.</_></rects>
      <tilted>0</tilted></_>
    <_>
      <rects>
        <_>
          0 8 50 9 -1.</_>
        <_>
          25 8 25 9 2.</_></rects>
      <tilted>0</tilted></_>
    <_>
      <rects>
        <_>
          0 9 2 5 -1.</_>
        <_>
          1 9 1 5 2.</_></rects>
      <tilted>0</tilted></_>
    <_>
      <rects>
        <_>
          0 9 4 6 -1.</_>
        <_>
          0 9 2 3 2.</_>
        <_>
          2 12 2 3 2.</_></rects>
      <tilted>0</tilted></_>
    <_>
      <rects>
        <_>
          0 9 4 12 -1.</_>
        <_>
          0 9 2 6 2.</_>
        <_>
          2 15 2 6 2.</_></rects>
      <tilted>0</tilted></_>
    <_>
      <rects>
        <_>
          0 9 4 7 -1.</_>
        <_>
          2 9 2 7 2.</_></rects>
      <tilted>0</tilted></_>
    <_>
      <rects>
        <_>
          0 9 6 10 -1.</_>
        <_>
          2 9 2 10 3.</_></rects>
      <tilted>0</tilted></_>
    <_>
      <rects>
        <_>
          0 11 1 3 -1.</_>
        <_>
          0 12 1 1 3.</_></rects>
      <tilted>0</tilted></_>
    <_>
      <rects>
        <_>
          0 11 2 4 -1.</_>
        <_>
          0 11 1 2 2.</_>
        <_>
          1 13 1 2 2.</_></rects>
      <tilted>0</tilted></_>
    <_>
      <rects>
        <_>
          0 11 6 4 -1.</_>
        <_>
          3 11 3 4 2.</_></rects>
      <tilted>0</tilted></_>
    <_>
      <rects>
        <_>
          1 0 45 25 -1.</_>
        <_>
          16 0 15 25 3.</_></rects>
      <tilted>0</tilted></_>
    <_>
      <rects>
        <_>
          1 8 6 6 -1.</_>
        <_>
          4 8 3 6 2.</_></rects>
      <tilted>0</tilted></_>
    <_>
      <rects>
        <_>
          1 9 2 10 -1.</_>
        <_>
          2 9 1 10 2.</_></rects>
      <tilted>0</tilted></_>
    <_>
      <rects>
        <_>
          1 10 2 5 -1.</_>
        <_>
          2 10 1 5 2.</_></rects>
      <tilted>0</tilted></_>
    <_>
      <rects>
        <_>
          1 15 4 4 -1.</_>
        <_>
          1 15 2 2 2.</_>
        <_>
          3 17 2 2 2.</_></rects>
      <tilted>0</tilted></_>
    <_>
      <rects>
        <_>
          1 15 28 9 -1.</_>
        <_>
          1 18 28 3 3.</_></rects>
      <tilted>0</tilted></_>
    <_>
      <rects>
        <_>
          2 2 47 15 -1.</_>
        <_>
          2 7 47 5 3.</_></rects>
      <tilted>0</tilted></_>
    <_>
      <rects>
        <_>
          2 10 2 4 -1.</_>
        <_>
          3 10 1 4 2.</_></rects>
      <tilted>0</tilted></_>
    <_>
      <rects>
        <_>
          2 10 10 2 -1.</_>
        <_>
          7 10 5 2 2.</_></rects>
      <tilted>0</tilted></_>
    <_>
      <rects>
        <_>
          2 11 1 3 -1.</_>
        <_>
          2 12 1 1 3.</_></rects>
      <tilted>0</tilted></_>
    <_>
      <rects>
        <_>
          2 11 8 3 -1.</_>
        <_>
          6 11 4 3 2.</_></rects>
      <tilted>0</tilted></_>
    <_>
      <rects>
        <_>
          2 12 2 1 -1.</_>
        <_>
          3 12 1 1 2.</_></rects>
      <tilted>0</tilted></_>
    <_>
      <rects>
        <_>
          2 12 6 2 -1.</_>
        <_>
          5 12 3 2 2.</_></rects>
      <tilted>0</tilted></_>
    <_>
      <rects>
        <_>
          2 12 8 1 -1.</_>
        <_>
          6 12 4 1 2.</_></rects>
      <tilted>0</tilted></_>
    <_>
      <rects>
        <_>
          2 12 12 1 -1.</_>
        <_>
          6 12 4 1 3.</_></rects>
      <tilted>0</tilted></_>
    <_>
      <rects>
        <_>
          3 5 34 16 -1.</_>
        <_>
          3 13 34 8 2.</_></rects>
      <tilted>0</tilted></_>
    <_>
      <rects>
        <_>
          3 7 6 9 -1.</_>
        <_>
          3 10 6 3 3.</_></rects>
      <tilted>0</tilted></_>
    <_>
      <rects>
        <_>
          3 10 10 2 -1.</_>
        <_>
          8 10 5 2 2.</_></rects>
      <tilted>0</tilted></_>
    <_>
      <rects>
        <_>
          3 11 14 3 -1.</_>
        <_>
          10 11 7 3 2.</_></rects>
      <tilted>0</tilted></_>
    <_>
      <rects>
        <_>
          3 12 9 1 -1.</_>
        <_>
          6 12 3 1 3.</_></rects>
      <tilted>0</tilted></_>
    <_>
      <rects>
        <_>
          3 12 24 2 -1.</_>
        <_>
          11 12 8 2 3.</_></rects>
      <tilted>0</tilted></_>
    <_>
      <rects>
        <_>
          3 13 9 1 -1.</_>
        <_>
          6 13 3 1 3.</_></rects>
      <tilted>0</tilted></_>
    <_>
      <rects>
        <_>
          3 13 32 2 -1.</_>
        <_>
          19 13 16 2 2.</_></rects>
      <tilted>0</tilted></_>
    <_>
      <rects>
        <_>
          4 1 37 24 -1.</_>
        <_>
          4 9 37 8 3.</_></rects>
      <tilted>0</tilted></_>
    <_>
      <rects>
        <_>
          4 8 44 10 -1.</_>
        <_>
          26 8 22 10 2.</_></rects>
      <tilted>0</tilted></_>
    <_>
      <rects>
        <_>
          4 8 41 10 -1.</_>
        <_>
          4 13 41 5 2.</_></rects>
      <tilted>0</tilted></_>
    <_>
      <rects>
        <_>
          4 9 3 9 -1.</_>
        <_>
          5 9 1 9 3.</_></rects>
      <tilted>0</tilted></_>
    <_>
      <rects>
        <_>
          4 9 21 4 -1.</_>
        <_>
          11 9 7 4 3.</_></rects>
      <tilted>0</tilted></_>
    <_>
      <rects>
        <_>
          4 11 6 3 -1.</_>
        <_>
          6 11 2 3 3.</_></rects>
      <tilted>0</tilted></_>
    <_>
      <rects>
        <_>
          4 12 18 2 -1.</_>
        <_>
          10 12 6 2 3.</_></rects>
      <tilted>0</tilted></_>
    <_>
      <rects>
        <_>
          4 12 14 2 -1.</_>
        <_>
          11 12 7 2 2.</_></rects>
      <tilted>0</tilted></_>
    <_>
      <rects>
        <_>
          4 12 16 1 -1.</_>
        <_>
          12 12 8 1 2.</_></rects>
      <tilted>0</tilted></_>
    <_>
      <rects>
        <_>
          4 12 40 6 -1.</_>
        <_>
          4 12 20 3 2.</_>
        <_>
          24 15 20 3 2.</_></rects>
      <tilted>0</tilted></_>
    <_>
      <rects>
        <_>
          5 8 4 4 -1.</_>
        <_>
          5 8 2 2 2.</_>
        <_>
          7 10 2 2 2.</_></rects>
      <tilted>0</tilted></_>
    <_>
      <rects>
        <_>
          5 12 3 2 -1.</_>
        <_>
          6 12 1 2 3.</_></rects>
      <tilted>0</tilted></_>
    <_>
      <rects>
        <_>
          5 12 14 2 -1.</_>
        <_>
          12 12 7 2 2.</_></rects>
      <tilted>0</tilted></_>
    <_>
      <rects>
        <_>
          5 12 42 2 -1.</_>
        <_>
          19 12 14 2 3.</_></rects>
      <tilted>0</tilted></_>
    <_>
      <rects>
        <_>
          5 16 34 4 -1.</_>
        <_>
          5 16 17 2 2.</_>
        <_>
          22 18 17 2 2.</_></rects>
      <tilted>0</tilted></_>
    <_>
      <rects>
        <_>
          6 11 15 1 -1.</_>
        <_>
          11 11 5 1 3.</_></rects>
      <tilted>0</tilted></_>
    <_>
      <rects>
        <_>
          6 12 6 1 -1.</_>
        <_>
          9 12 3 1 2.</_></rects>
      <tilted>0</tilted></_>
    <_>
      <rects>
        <_>
          6 12 8 1 -1.</_>
        <_>
          10 12 4 1 2.</_></rects>
      <tilted>0</tilted></_>
    <_>
      <rects>
        <_>
          6 12 14 2 -1.</_>
        <_>
          13 12 7 2 2.</_></rects>
      <tilted>0</tilted></_>
    <_>
      <rects>
        <_>
          6 12 16 1 -1.</_>
        <_>
          14 12 8 1 2.</_></rects>
      <tilted>0</tilted></_>
    <_>
      <rects>
        <_>
          6 12 39 1 -1.</_>
        <_>
          19 12 13 1 3.</_></rects>
      <tilted>0</tilted></_>
    <_>
      <rects>
        <_>
          6 12 26 4 -1.</_>
        <_>
          6 12 13 2 2.</_>
        <_>
          19 14 13 2 2.</_></rects>
      <tilted>0</tilted></_>
    <_>
      <rects>
        <_>
          6 12 36 3 -1.</_>
        <_>
          24 12 18 3 2.</_></rects>
      <tilted>0</tilted></_>
    <_>
      <rects>
        <_>
          7 10 12 4 -1.</_>
        <_>
          11 10 4 4 3.</_></rects>
      <tilted>0</tilted></_>
    <_>
      <rects>
        <_>
          7 11 36 2 -1.</_>
        <_>
          19 11 12 2 3.</_></rects>
      <tilted>0</tilted></_>
    <_>
      <rects>
        <_>
          7 12 21 3 -1.</_>
        <_>
          14 12 7 3 3.</_></rects>
      <tilted>0</tilted></_>
    <_>
      <rects>
        <_>
          7 13 6 1 -1.</_>
        <_>
          10 13 3 1 2.</_></rects>
      <tilted>0</tilted></_>
    <_>
      <rects>
        <_>
          7 13 6 2 -1.</_>
        <_>
          10 13 3 2 2.</_></rects>
      <tilted>0</tilted></_>
    <_>
      <rects>
        <_>
          7 13 21 3 -1.</_>
        <_>
          14 13 7 3 3.</_></rects>
      <tilted>0</tilted></_>
    <_>
      <rects>
        <_>
          7 13 36 1 -1.</_>
        <_>
          19 13 12 1 3.</_></rects>
      <tilted>0</tilted></_>
    <_>
      <rects>
        <_>
          8 5 22 9 -1.</_>
        <_>
          8 8 22 3 3.</_></rects>
      <tilted>0</tilted></_>
    <_>
      <rects>
        <_>
          8 11 10 1 -1.</_>
        <_>
          13 11 5 1 2.</_></rects>
      <tilted>0</tilted></_>
    <_>
      <rects>
        <_>
          8 12 7 2 -1.</_>
        <_>
          8 13 7 1 2.</_></rects>
      <tilted>0</tilted></_>
    <_>
      <rects>
        <_>
          8 12 33 1 -1.</_>
        <_>
          19 12 11 1 3.</_></rects>
      <tilted>0</tilted></_>
    <_>
      <rects>
        <_>
          8 12 33 2 -1.</_>
        <_>
          19 12 11 2 3.</_></rects>
      <tilted>0</tilted></_>
    <_>
      <rects>
        <_>
          8 13 3 1 -1.</_>
        <_>
          9 13 1 1 3.</_></rects>
      <tilted>0</tilted></_>
    <_>
      <rects>
        <_>
          8 13 6 1 -1.</_>
        <_>
          11 13 3 1 2.</_></rects>
      <tilted>0</tilted></_>
    <_>
      <rects>
        <_>
          8 13 30 1 -1.</_>
        <_>
          18 13 10 1 3.</_></rects>
      <tilted>0</tilted></_>
    <_>
      <rects>
        <_>
          8 14 24 1 -1.</_>
        <_>
          20 14 12 1 2.</_></rects>
      <tilted>0</tilted></_>
    <_>
      <rects>
        <_>
          8 15 24 1 -1.</_>
        <_>
          16 15 8 1 3.</_></rects>
      <tilted>0</tilted></_>
    <_>
      <rects>
        <_>
          9 3 30 15 -1.</_>
        <_>
          19 3 10 15 3.</_></rects>
      <tilted>0</tilted></_>
    <_>
      <rects>
        <_>
          9 4 38 6 -1.</_>
        <_>
          9 4 19 3 2.</_>
        <_>
          28 7 19 3 2.</_></rects>
      <tilted>0</tilted></_>
    <_>
      <rects>
        <_>
          9 4 34 10 -1.</_>
        <_>
          9 9 34 5 2.</_></rects>
      <tilted>0</tilted></_>
    <_>
      <rects>
        <_>
          9 10 9 4 -1.</_>
        <_>
          9 12 9 2 2.</_></rects>
      <tilted>0</tilted></_>
    <_>
      <rects>
        <_>
          9 12 12 1 -1.</_>
        <_>
          15 12 6 1 2.</_></rects>
      <tilted>0</tilted></_>
    <_>
      <rects>
        <_>
          9 12 27 2 -1.</_>
        <_>
          18 12 9 2 3.</_></rects>
      <tilted>0</tilted></_>
    <_>
      <rects>
        <_>
          9 12 30 1 -1.</_>
        <_>
          19 12 10 1 3.</_></rects>
      <tilted>0</tilted></_>
    <_>
      <rects>
        <_>
          9 12 36 2 -1.</_>
        <_>
          9 13 36 1 2.</_></rects>
      <tilted>0</tilted></_>
    <_>
      <rects>
        <_>
          9 13 18 2 -1.</_>
        <_>
          15 13 6 2 3.</_></rects>
      <tilted>0</tilted></_>
    <_>
      <rects>
        <_>
          9 13 18 3 -1.</_>
        <_>
          15 13 6 3 3.</_></rects>
      <tilted>0</tilted></_>
    <_>
      <rects>
        <_>
          10 6 32 2 -1.</_>
        <_>
          10 6 16 1 2.</_>
        <_>
          26 7 16 1 2.</_></rects>
      <tilted>0</tilted></_>
    <_>
      <rects>
        <_>
          10 10 12 3 -1.</_>
        <_>
          14 10 4 3 3.</_></rects>
      <tilted>0</tilted></_>
    <_>
      <rects>
        <_>
          10 11 27 3 -1.</_>
        <_>
          19 11 9 3 3.</_></rects>
      <tilted>0</tilted></_>
    <_>
      <rects>
        <_>
          10 11 27 5 -1.</_>
        <_>
          19 11 9 5 3.</_></rects>
      <tilted>0</tilted></_>
    <_>
      <rects>
        <_>
          10 12 2 2 -1.</_>
        <_>
          10 13 2 1 2.</_></rects>
      <tilted>0</tilted></_>
    <_>
      <rects>
        <_>
          10 12 4 2 -1.</_>
        <_>
          10 13 4 1 2.</_></rects>
      <tilted>0</tilted></_>
    <_>
      <rects>
        <_>
          10 12 12 1 -1.</_>
        <_>
          16 12 6 1 2.</_></rects>
      <tilted>0</tilted></_>
    <_>
      <rects>
        <_>
          10 12 12 2 -1.</_>
        <_>
          16 12 6 2 2.</_></rects>
      <tilted>0</tilted></_>
    <_>
      <rects>
        <_>
          10 12 27 1 -1.</_>
        <_>
          19 12 9 1 3.</_></rects>
      <tilted>0</tilted></_>
    <_>
      <rects>
        <_>
          10 13 6 2 -1.</_>
        <_>
          10 14 6 1 2.</_></rects>
      <tilted>0</tilted></_>
    <_>
      <rects>
        <_>
          10 13 9 9 -1.</_>
        <_>
          10 16 9 3 3.</_></rects>
      <tilted>0</tilted></_>
    <_>
      <rects>
        <_>
          10 15 28 8 -1.</_>
        <_>
          10 15 14 4 2.</_>
        <_>
          24 19 14 4 2.</_></rects>
      <tilted>0</tilted></_>
    <_>
      <rects>
        <_>
          11 11 10 1 -1.</_>
        <_>
          16 11 5 1 2.</_></rects>
      <tilted>0</tilted></_>
    <_>
      <rects>
        <_>
          11 11 15 7 -1.</_>
        <_>
          16 11 5 7 3.</_></rects>
      <tilted>0</tilted></_>
    <_>
      <rects>
        <_>
          11 11 24 3 -1.</_>
        <_>
          19 11 8 3 3.</_></rects>
      <tilted>0</tilted></_>
    <_>
      <rects>
        <_>
          11 11 20 3 -1.</_>
        <_>
          11 12 20 1 3.</_></rects>
      <tilted>0</tilted></_>
    <_>
      <rects>
        <_>
          11 12 12 1 -1.</_>
        <_>
          17 12 6 1 2.</_></rects>
      <tilted>0</tilted></_>
    <_>
      <rects>
        <_>
          11 12 12 2 -1.</_>
        <_>
          17 12 6 2 2.</_></rects>
      <tilted>0</tilted></_>
    <_>
      <rects>
        <_>
          11 12 14 1 -1.</_>
        <_>
          18 12 7 1 2.</_></rects>
      <tilted>0</tilted></_>
    <_>
      <rects>
        <_>
          11 12 20 4 -1.</_>
        <_>
          11 14 20 2 2.</_></rects>
      <tilted>0</tilted></_>
    <_>
      <rects>
        <_>
          11 13 8 4 -1.</_>
        <_>
          11 15 8 2 2.</_></rects>
      <tilted>0</tilted></_>
    <_>
      <rects>
        <_>
          11 13 10 4 -1.</_>
        <_>
          11 15 10 2 2.</_></rects>
      <tilted>0</tilted></_>
    <_>
      <rects>
        <_>
          11 13 22 1 -1.</_>
        <_>
          22 13 11 1 2.</_></rects>
      <tilted>0</tilted></_>
    <_>
      <rects>
        <_>
          11 14 9 4 -1.</_>
        <_>
          11 16 9 2 2.</_></rects>
      <tilted>0</tilted></_>
    <_>
      <rects>
        <_>
          11 14 26 9 -1.</_>
        <_>
          11 17 26 3 3.</_></rects>
      <tilted>0</tilted></_>
    <_>
      <rects>
        <_>
          11 15 26 8 -1.</_>
        <_>
          11 15 13 4 2.</_>
        <_>
          24 19 13 4 2.</_></rects>
      <tilted>0</tilted></_>
    <_>
      <rects>
        <_>
          12 2 23 16 -1.</_>
        <_>
          12 10 23 8 2.</_></rects>
      <tilted>0</tilted></_>
    <_>
      <rects>
        <_>
          12 4 26 6 -1.</_>
        <_>
          12 7 26 3 2.</_></rects>
      <tilted>0</tilted></_>
    <_>
      <rects>
        <_>
          12 7 6 2 -1.</_>
        <_>
          14 7 2 2 3.</_></rects>
      <tilted>0</tilted></_>
    <_>
      <rects>
        <_>
          12 10 8 3 -1.</_>
        <_>
          16 10 4 3 2.</_></rects>
      <tilted>0</tilted></_>
    <_>
      <rects>
        <_>
          12 11 8 3 -1.</_>
        <_>
          16 11 4 3 2.</_></rects>
      <tilted>0</tilted></_>
    <_>
      <rects>
        <_>
          12 11 21 1 -1.</_>
        <_>
          19 11 7 1 3.</_></rects>
      <tilted>0</tilted></_>
    <_>
      <rects>
        <_>
          12 12 6 4 -1.</_>
        <_>
          14 12 2 4 3.</_></rects>
      <tilted>0</tilted></_>
    <_>
      <rects>
        <_>
          12 12 12 2 -1.</_>
        <_>
          18 12 6 2 2.</_></rects>
      <tilted>0</tilted></_>
    <_>
      <rects>
        <_>
          12 12 22 8 -1.</_>
        <_>
          12 12 11 4 2.</_>
        <_>
          23 16 11 4 2.</_></rects>
      <tilted>0</tilted></_>
    <_>
      <rects>
        <_>
          12 12 17 2 -1.</_>
        <_>
          12 13 17 1 2.</_></rects>
      <tilted>0</tilted></_>
    <_>
      <rects>
        <_>
          12 13 4 2 -1.</_>
        <_>
          12 14 4 1 2.</_></rects>
      <tilted>0</tilted></_>
    <_>
      <rects>
        <_>
          12 14 18 1 -1.</_>
        <_>
          18 14 6 1 3.</_></rects>
      <tilted>0</tilted></_>
    <_>
      <rects>
        <_>
          13 0 21 24 -1.</_>
        <_>
          13 8 21 8 3.</_></rects>
      <tilted>0</tilted></_>
    <_>
      <rects>
        <_>
          13 6 26 2 -1.</_>
        <_>
          13 6 13 1 2.</_>
        <_>
          26 7 13 1 2.</_></rects>
      <tilted>0</tilted></_>
    <_>
      <rects>
        <_>
          13 11 1 4 -1.</_>
        <_>
          13 13 1 2 2.</_></rects>
      <tilted>0</tilted></_>
    <_>
      <rects>
        <_>
          13 11 8 3 -1.</_>
        <_>
          17 11 4 3 2.</_></rects>
      <tilted>0</tilted></_>
    <_>
      <rects>
        <_>
          13 11 18 2 -1.</_>
        <_>
          13 11 9 1 2.</_>
        <_>
          22 12 9 1 2.</_></rects>
      <tilted>0</tilted></_>
    <_>
      <rects>
        <_>
          13 11 15 4 -1.</_>
        <_>
          13 13 15 2 2.</_></rects>
      <tilted>0</tilted></_>
    <_>
      <rects>
        <_>
          13 11 17 3 -1.</_>
        <_>
          13 12 17 1 3.</_></rects>
      <tilted>0</tilted></_>
    <_>
      <rects>
        <_>
          13 12 3 5 -1.</_>
        <_>
          14 12 1 5 3.</_></rects>
      <tilted>0</tilted></_>
    <_>
      <rects>
        <_>
          13 12 2 2 -1.</_>
        <_>
          13 13 2 1 2.</_></rects>
      <tilted>0</tilted></_>
    <_>
      <rects>
        <_>
          13 12 12 6 -1.</_>
        <_>
          17 12 4 6 3.</_></rects>
      <tilted>0</tilted></_>
    <_>
      <rects>
        <_>
          13 12 5 4 -1.</_>
        <_>
          13 14 5 2 2.</_></rects>
      <tilted>0</tilted></_>
    <_>
      <rects>
        <_>
          13 13 16 1 -1.</_>
        <_>
          21 13 8 1 2.</_></rects>
      <tilted>0</tilted></_>
    <_>
      <rects>
        <_>
          13 14 2 2 -1.</_>
        <_>
          14 14 1 2 2.</_></rects>
      <tilted>0</tilted></_>
    <_>
      <rects>
        <_>
          14 10 3 5 -1.</_>
        <_>
          15 10 1 5 3.</_></rects>
      <tilted>0</tilted></_>
    <_>
      <rects>
        <_>
          14 11 3 3 -1.</_>
        <_>
          15 11 1 3 3.</_></rects>
      <tilted>0</tilted></_>
    <_>
      <rects>
        <_>
          14 11 8 3 -1.</_>
        <_>
          18 11 4 3 2.</_></rects>
      <tilted>0</tilted></_>
    <_>
      <rects>
        <_>
          14 12 3 3 -1.</_>
        <_>
          15 12 1 3 3.</_></rects>
      <tilted>0</tilted></_>
    <_>
      <rects>
        <_>
          14 13 12 3 -1.</_>
        <_>
          18 13 4 3 3.</_></rects>
      <tilted>0</tilted></_>
    <_>
      <rects>
        <_>
          14 13 15 2 -1.</_>
        <_>
          19 13 5 2 3.</_></rects>
      <tilted>0</tilted></_>
    <_>
      <rects>
        <_>
          15 9 4 4 -1.</_>
        <_>
          17 9 2 4 2.</_></rects>
      <tilted>0</tilted></_>
    <_>
      <rects>
        <_>
          15 10 6 3 -1.</_>
        <_>
          18 10 3 3 2.</_></rects>
      <tilted>0</tilted></_>
    <_>
      <rects>
        <_>
          15 11 3 3 -1.</_>
        <_>
          16 11 1 3 3.</_></rects>
      <tilted>0</tilted></_>
    <_>
      <rects>
        <_>
          15 11 6 2 -1.</_>
        <_>
          15 12 6 1 2.</_></rects>
      <tilted>0</tilted></_>
    <_>
      <rects>
        <_>
          15 12 2 2 -1.</_>
        <_>
          16 12 1 2 2.</_></rects>
      <tilted>0</tilted></_>
    <_>
      <rects>
        <_>
          15 12 16 4 -1.</_>
        <_>
          15 14 16 2 2.</_></rects>
      <tilted>0</tilted></_>
    <_>
      <rects>
        <_>
          15 13 15 2 -1.</_>
        <_>
          20 13 5 2 3.</_></rects>
      <tilted>0</tilted></_>
    <_>
      <rects>
        <_>
          15 13 19 2 -1.</_>
        <_>
          15 14 19 1 2.</_></rects>
      <tilted>0</tilted></_>
    <_>
      <rects>
        <_>
          15 16 4 1 -1.</_>
        <_>
          17 16 2 1 2.</_></rects>
      <tilted>0</tilted></_>
    <_>
      <rects>
        <_>
          16 1 15 14 -1.</_>
        <_>
          16 8 15 7 2.</_></rects>
      <tilted>0</tilted></_>
    <_>
      <rects>
        <_>
          16 10 12 1 -1.</_>
        <_>
          20 10 4 1 3.</_></rects>
      <tilted>0</tilted></_>
    <_>
      <rects>
        <_>
          16 10 18 4 -1.</_>
        <_>
          16 10 9 2 2.</_>
        <_>
          25 12 9 2 2.</_></rects>
      <tilted>0</tilted></_>
    <_>
      <rects>
        <_>
          16 10 18 6 -1.</_>
        <_>
          16 12 18 2 3.</_></rects>
      <tilted>0</tilted></_>
    <_>
      <rects>
        <_>
          16 11 15 1 -1.</_>
        <_>
          21 11 5 1 3.</_></rects>
      <tilted>0</tilted></_>
    <_>
      <rects>
        <_>
          16 13 15 2 -1.</_>
        <_>
          21 13 5 2 3.</_></rects>
      <tilted>0</tilted></_>
    <_>
      <rects>
        <_>
          17 3 31 21 -1.</_>
        <_>
          17 10 31 7 3.</_></rects>
      <tilted>0</tilted></_>
    <_>
      <rects>
        <_>
          17 12 14 4 -1.</_>
        <_>
          17 14 14 2 2.</_></rects>
      <tilted>0</tilted></_>
    <_>
      <rects>
        <_>
          18 9 4 3 -1.</_>
        <_>
          20 9 2 3 2.</_></rects>
      <tilted>0</tilted></_>
    <_>
      <rects>
        <_>
          18 9 9 2 -1.</_>
        <_>
          21 9 3 2 3.</_></rects>
      <tilted>0</tilted></_>
    <_>
      <rects>
        <_>
          18 9 7 9 -1.</_>
        <_>
          18 12 7 3 3.</_></rects>
      <tilted>0</tilted></_>
    <_>
      <rects>
        <_>
          18 10 2 2 -1.</_>
        <_>
          19 10 1 2 2.</_></rects>
      <tilted>0</tilted></_>
    <_>
      <rects>
        <_>
          18 10 4 2 -1.</_>
        <_>
          20 10 2 2 2.</_></rects>
      <tilted>0</tilted></_>
    <_>
      <rects>
        <_>
          18 10 16 4 -1.</_>
        <_>
          18 10 8 2 2.</_>
        <_>
          26 12 8 2 2.</_></rects>
      <tilted>0</tilted></_>
    <_>
      <rects>
        <_>
          18 11 21 2 -1.</_>
        <_>
          25 11 7 2 3.</_></rects>
      <tilted>0</tilted></_>
    <_>
      <rects>
        <_>
          18 11 24 2 -1.</_>
        <_>
          26 11 8 2 3.</_></rects>
      <tilted>0</tilted></_>
    <_>
      <rects>
        <_>
          18 11 11 4 -1.</_>
        <_>
          18 13 11 2 2.</_></rects>
      <tilted>0</tilted></_>
    <_>
      <rects>
        <_>
          18 11 12 2 -1.</_>
        <_>
          18 12 12 1 2.</_></rects>
      <tilted>0</tilted></_>
    <_>
      <rects>
        <_>
          18 12 24 1 -1.</_>
        <_>
          26 12 8 1 3.</_></rects>
      <tilted>0</tilted></_>
    <_>
      <rects>
        <_>
          19 8 7 4 -1.</_>
        <_>
          19 10 7 2 2.</_></rects>
      <tilted>0</tilted></_>
    <_>
      <rects>
        <_>
          19 9 2 6 -1.</_>
        <_>
          19 9 1 3 2.</_>
        <_>
          20 12 1 3 2.</_></rects>
      <tilted>0</tilted></_>
    <_>
      <rects>
        <_>
          19 9 11 14 -1.</_>
        <_>
          19 16 11 7 2.</_></rects>
      <tilted>0</tilted></_>
    <_>
      <rects>
        <_>
          19 10 5 2 -1.</_>
        <_>
          19 11 5 1 2.</_></rects>
      <tilted>0</tilted></_>
    <_>
      <rects>
        <_>
          19 10 16 4 -1.</_>
        <_>
          19 10 8 2 2.</_>
        <_>
          27 12 8 2 2.</_></rects>
      <tilted>0</tilted></_>
    <_>
      <rects>
        <_>
          19 11 6 4 -1.</_>
        <_>
          21 11 2 4 3.</_></rects>
      <tilted>0</tilted></_>
    <_>
      <rects>
        <_>
          19 11 21 2 -1.</_>
        <_>
          26 11 7 2 3.</_></rects>
      <tilted>0</tilted></_>
    <_>
      <rects>
        <_>
          19 12 24 1 -1.</_>
        <_>
          27 12 8 1 3.</_></rects>
      <tilted>0</tilted></_>
    <_>
      <rects>
        <_>
          20 5 12 2 -1.</_>
        <_>
          20 5 6 1 2.</_>
        <_>
          26 6 6 1 2.</_></rects>
      <tilted>0</tilted></_>
    <_>
      <rects>
        <_>
          20 8 2 2 -1.</_>
        <_>
          20 9 2 1 2.</_></rects>
      <tilted>0</tilted></_>
    <_>
      <rects>
        <_>
          20 8 7 4 -1.</_>
        <_>
          20 10 7 2 2.</_></rects>
      <tilted>0</tilted></_>
    <_>
      <rects>
        <_>
          20 9 8 4 -1.</_>
        <_>
          20 11 8 2 2.</_></rects>
      <tilted>0</tilted></_>
    <_>
      <rects>
        <_>
          20 9 12 6 -1.</_>
        <_>
          20 11 12 2 3.</_></rects>
      <tilted>0</tilted></_>
    <_>
      <rects>
        <_>
          20 10 4 3 -1.</_>
        <_>
          20 11 4 1 3.</_></rects>
      <tilted>0</tilted></_>
    <_>
      <rects>
        <_>
          20 10 8 2 -1.</_>
        <_>
          20 11 8 1 2.</_></rects>
      <tilted>0</tilted></_>
    <_>
      <rects>
        <_>
          20 11 12 4 -1.</_>
        <_>
          20 11 6 2 2.</_>
        <_>
          26 13 6 2 2.</_></rects>
      <tilted>0</tilted></_>
    <_>
      <rects>
        <_>
          20 11 21 2 -1.</_>
        <_>
          27 11 7 2 3.</_></rects>
      <tilted>0</tilted></_>
    <_>
      <rects>
        <_>
          20 11 24 1 -1.</_>
        <_>
          28 11 8 1 3.</_></rects>
      <tilted>0</tilted></_>
    <_>
      <rects>
        <_>
          20 11 10 4 -1.</_>
        <_>
          20 13 10 2 2.</_></rects>
      <tilted>0</tilted></_>
    <_>
      <rects>
        <_>
          20 11 11 3 -1.</_>
        <_>
          20 12 11 1 3.</_></rects>
      <tilted>0</tilted></_>
    <_>
      <rects>
        <_>
          20 12 24 1 -1.</_>
        <_>
          28 12 8 1 3.</_></rects>
      <tilted>0</tilted></_>
    <_>
      <rects>
        <_>
          20 12 10 2 -1.</_>
        <_>
          20 13 10 1 2.</_></rects>
      <tilted>0</tilted></_>
    <_>
      <rects>
        <_>
          20 13 4 2 -1.</_>
        <_>
          22 13 2 2 2.</_></rects>
      <tilted>0</tilted></_>
    <_>
      <rects>
        <_>
          20 13 12 1 -1.</_>
        <_>
          24 13 4 1 3.</_></rects>
      <tilted>0</tilted></_>
    <_>
      <rects>
        <_>
          21 10 5 4 -1.</_>
        <_>
          21 12 5 2 2.</_></rects>
      <tilted>0</tilted></_>
    <_>
      <rects>
        <_>
          21 10 6 4 -1.</_>
        <_>
          21 12 6 2 2.</_></rects>
      <tilted>0</tilted></_>
    <_>
      <rects>
        <_>
          21 10 11 2 -1.</_>
        <_>
          21 11 11 1 2.</_></rects>
      <tilted>0</tilted></_>
    <_>
      <rects>
        <_>
          21 11 5 2 -1.</_>
        <_>
          21 12 5 1 2.</_></rects>
      <tilted>0</tilted></_>
    <_>
      <rects>
        <_>
          21 11 12 4 -1.</_>
        <_>
          21 11 6 2 2.</_>
        <_>
          27 13 6 2 2.</_></rects>
      <tilted>0</tilted></_>
    <_>
      <rects>
        <_>
          21 11 12 4 -1.</_>
        <_>
          27 11 6 4 2.</_></rects>
      <tilted>0</tilted></_>
    <_>
      <rects>
        <_>
          21 11 7 4 -1.</_>
        <_>
          21 13 7 2 2.</_></rects>
      <tilted>0</tilted></_>
    <_>
      <rects>
        <_>
          21 11 14 4 -1.</_>
        <_>
          28 11 7 4 2.</_></rects>
      <tilted>0</tilted></_>
    <_>
      <rects>
        <_>
          21 11 12 3 -1.</_>
        <_>
          21 12 12 1 3.</_></rects>
      <tilted>0</tilted></_>
    <_>
      <rects>
        <_>
          21 12 6 1 -1.</_>
        <_>
          23 12 2 1 3.</_></rects>
      <tilted>0</tilted></_>
    <_>
      <rects>
        <_>
          21 12 10 1 -1.</_>
        <_>
          26 12 5 1 2.</_></rects>
      <tilted>0</tilted></_>
    <_>
      <rects>
        <_>
          21 12 10 2 -1.</_>
        <_>
          21 12 5 1 2.</_>
        <_>
          26 13 5 1 2.</_></rects>
      <tilted>0</tilted></_>
    <_>
      <rects>
        <_>
          21 13 4 1 -1.</_>
        <_>
          23 13 2 1 2.</_></rects>
      <tilted>0</tilted></_>
    <_>
      <rects>
        <_>
          21 13 22 2 -1.</_>
        <_>
          21 13 11 1 2.</_>
        <_>
          32 14 11 1 2.</_></rects>
      <tilted>0</tilted></_>
    <_>
      <rects>
        <_>
          21 15 6 3 -1.</_>
        <_>
          21 16 6 1 3.</_></rects>
      <tilted>0</tilted></_>
    <_>
      <rects>
        <_>
          22 0 4 14 -1.</_>
        <_>
          22 7 4 7 2.</_></rects>
      <tilted>0</tilted></_>
    <_>
      <rects>
        <_>
          22 9 21 4 -1.</_>
        <_>
          29 9 7 4 3.</_></rects>
      <tilted>0</tilted></_>
    <_>
      <rects>
        <_>
          22 11 6 2 -1.</_>
        <_>
          24 11 2 2 3.</_></rects>
      <tilted>0</tilted></_>
    <_>
      <rects>
        <_>
          22 11 4 2 -1.</_>
        <_>
          22 12 4 1 2.</_></rects>
      <tilted>0</tilted></_>
    <_>
      <rects>
        <_>
          22 11 12 4 -1.</_>
        <_>
          22 11 6 2 2.</_>
        <_>
          28 13 6 2 2.</_></rects>
      <tilted>0</tilted></_>
    <_>
      <rects>
        <_>
          22 11 20 4 -1.</_>
        <_>
          22 11 10 2 2.</_>
        <_>
          32 13 10 2 2.</_></rects>
      <tilted>0</tilted></_>
    <_>
      <rects>
        <_>
          22 12 2 1 -1.</_>
        <_>
          23 12 1 1 2.</_></rects>
      <tilted>0</tilted></_>
    <_>
      <rects>
        <_>
          22 12 9 1 -1.</_>
        <_>
          25 12 3 1 3.</_></rects>
      <tilted>0</tilted></_>
    <_>
      <rects>
        <_>
