<?xml version="1.0"?>
<opencv_storage>
<cascade>
  <stageType>BOOST</stageType>
  <featureType>HAAR</featureType>
  <height>48</height>
  <width>48</width>
  <stageParams>
    <boostType>GAB</boostType>
    <minHitRate>9.9900001287460327e-01</minHitRate>
    <maxFalseAlarm>5.0000000000000000e-01</maxFalseAlarm>
    <weightTrimRate>9.4999999999999996e-01</weightTrimRate>
    <maxDepth>1</maxDepth>
    <maxWeakCount>100</maxWeakCount></stageParams>
  <featureParams>
    <maxCatCount>0</maxCatCount>
    <featSize>1</featSize>
    <mode>BASIC</mode></featureParams>
  <stageNum>15</stageNum>
  <stages>
    <!-- stage 0 -->
    <_>
      <maxWeakCount>5</maxWeakCount>
      <stageThreshold>-1.4429317712783813e+00</stageThreshold>
      <weakClassifiers>
        <_>
          <internalNodes>
            0 -1 45 7.1814763359725475e-03</internalNodes>
          <leafValues>
            -9.8000001907348633e-01 6.6000002622604370e-01</leafValues></_>
        <_>
          <internalNodes>
            0 -1 53 -1.6663003712892532e-02</internalNodes>
          <leafValues>
            4.6548327803611755e-01 -8.9621359109878540e-01</leafValues></_>
        <_>
          <internalNodes>
            0 -1 59 4.8860188573598862e-02</internalNodes>
          <leafValues>
            -5.0592666864395142e-01 7.2878497838973999e-01</leafValues></_>
        <_>
          <internalNodes>
            0 -1 190 -8.0339983105659485e-04</internalNodes>
          <leafValues>
            4.3834659457206726e-01 -7.9752540588378906e-01</leafValues></_>
        <_>
          <internalNodes>
            0 -1 33 1.0383247863501310e-03</internalNodes>
          <leafValues>
            -7.9009628295898438e-01 3.7503701448440552e-01</leafValues></_></weakClassifiers></_>
    <!-- stage 1 -->
    <_>
      <maxWeakCount>6</maxWeakCount>
      <stageThreshold>-1.1094487905502319e+00</stageThreshold>
      <weakClassifiers>
        <_>
          <internalNodes>
            0 -1 112 -1.1526735033839941e-03</internalNodes>
          <leafValues>
            5.3477591276168823e-01 -9.5424836874008179e-01</leafValues></_>
        <_>
          <internalNodes>
            0 -1 40 2.5169672444462776e-03</internalNodes>
          <leafValues>
            -9.2791616916656494e-01 3.9685061573982239e-01</leafValues></_>
        <_>
          <internalNodes>
            0 -1 0 2.8234206140041351e-02</internalNodes>
          <leafValues>
            -4.5633870363235474e-01 7.3081302642822266e-01</leafValues></_>
        <_>
          <internalNodes>
            0 -1 111 -5.9429462999105453e-04</internalNodes>
          <leafValues>
            3.1712129712104797e-01 -8.7802916765213013e-01</leafValues></_>
        <_>
          <internalNodes>
            0 -1 34 6.9960500695742667e-05</internalNodes>
          <leafValues>
            -7.8618550300598145e-01 3.0198419094085693e-01</leafValues></_>
        <_>
          <internalNodes>
            0 -1 79 1.3695221859961748e-03</internalNodes>
          <leafValues>
            -9.7805726528167725e-01 2.2630648314952850e-01</leafValues></_></weakClassifiers></_>
    <!-- stage 2 -->
    <_>
      <maxWeakCount>7</maxWeakCount>
      <stageThreshold>-8.7086433172225952e-01</stageThreshold>
      <weakClassifiers>
        <_>
          <internalNodes>
            0 -1 109 8.8176904246211052e-03</internalNodes>
          <leafValues>
            6.4554637670516968e-01 -5.9295499324798584e-01</leafValues></_>
        <_>
          <internalNodes>
            0 -1 31 8.8023155694827437e-04</internalNodes>
          <leafValues>
            -8.6785191297531128e-01 4.1320353746414185e-01</leafValues></_>
        <_>
          <internalNodes>
            0 -1 189 -2.6501511456444860e-04</internalNodes>
          <leafValues>
            2.4150316417217255e-01 -8.2263606786727905e-01</leafValues></_>
        <_>
          <internalNodes>
            0 -1 153 -1.6775468830019236e-03</internalNodes>
          <leafValues>
            -9.4451195001602173e-01 2.1336044371128082e-01</leafValues></_>
        <_>
          <internalNodes>
            0 -1 139 4.5975502580404282e-03</internalNodes>
          <leafValues>
            2.5216364860534668e-01 -8.8469904661178589e-01</leafValues></_>
        <_>
          <internalNodes>
            0 -1 201 1.1126823956146836e-03</internalNodes>
          <leafValues>
            -3.8663825392723083e-01 6.6164398193359375e-01</leafValues></_>
        <_>
          <internalNodes>
            0 -1 146 -3.1534562003798783e-04</internalNodes>
          <leafValues>
            2.6955363154411316e-01 -8.1901967525482178e-01</leafValues></_></weakClassifiers></_>
    <!-- stage 3 -->
    <_>
      <maxWeakCount>11</maxWeakCount>
      <stageThreshold>-1.5146214962005615e+00</stageThreshold>
      <weakClassifiers>
        <_>
          <internalNodes>
            0 -1 68 -1.5310010639950633e-03</internalNodes>
          <leafValues>
            -8.5401457548141479e-01 4.7812971472740173e-01</leafValues></_>
        <_>
          <internalNodes>
            0 -1 120 -4.1095999768003821e-04</internalNodes>
          <leafValues>
            2.5704994797706604e-01 -7.7853775024414062e-01</leafValues></_>
        <_>
          <internalNodes>
            0 -1 130 -1.4417755883187056e-03</internalNodes>
          <leafValues>
            -9.4332969188690186e-01 2.5644984841346741e-01</leafValues></_>
        <_>
          <internalNodes>
            0 -1 25 9.9897488951683044e-02</internalNodes>
          <leafValues>
            -3.9486676454544067e-01 5.8422273397445679e-01</leafValues></_>
        <_>
          <internalNodes>
            0 -1 163 -4.3569516856223345e-04</internalNodes>
          <leafValues>
            2.1161192655563354e-01 -9.2019140720367432e-01</leafValues></_>
        <_>
          <internalNodes>
            0 -1 36 1.4278819435276091e-04</internalNodes>
          <leafValues>
            -9.3321925401687622e-01 1.3263295590877533e-01</leafValues></_>
        <_>
          <internalNodes>
            0 -1 88 6.7734569311141968e-03</internalNodes>
          <leafValues>
            1.7827944457530975e-01 -8.6452156305313110e-01</leafValues></_>
        <_>
          <internalNodes>
            0 -1 177 -1.7255611601285636e-04</internalNodes>
          <leafValues>
            2.6663500070571899e-01 -5.3841280937194824e-01</leafValues></_>
        <_>
          <internalNodes>
            0 -1 100 -3.8716720882803202e-04</internalNodes>
          <leafValues>
            -8.5224157571792603e-01 1.6597752273082733e-01</leafValues></_>
        <_>
          <internalNodes>
            0 -1 141 -5.1311100833117962e-04</internalNodes>
          <leafValues>
            1.2873971462249756e-01 -9.7679364681243896e-01</leafValues></_>
        <_>
          <internalNodes>
            0 -1 173 8.1060081720352173e-03</internalNodes>
          <leafValues>
            -3.1182426214218140e-01 6.1427098512649536e-01</leafValues></_></weakClassifiers></_>
    <!-- stage 4 -->
    <_>
      <maxWeakCount>10</maxWeakCount>
      <stageThreshold>-1.0766416788101196e+00</stageThreshold>
      <weakClassifiers>
        <_>
          <internalNodes>
            0 -1 183 -1.3243474531918764e-03</internalNodes>
          <leafValues>
            4.7424241900444031e-01 -8.0714285373687744e-01</leafValues></_>
        <_>
          <internalNodes>
            0 -1 54 4.1137862717732787e-04</internalNodes>
          <leafValues>
            -8.4275817871093750e-01 2.8005158901214600e-01</leafValues></_>
        <_>
          <internalNodes>
            0 -1 3 2.6988945901393890e-02</internalNodes>
          <leafValues>
            -3.0353406071662903e-01 6.9551777839660645e-01</leafValues></_>
        <_>
          <internalNodes>
            0 -1 144 -2.9066413844702765e-05</internalNodes>
          <leafValues>
            2.2134532034397125e-01 -9.4015628099441528e-01</leafValues></_>
        <_>
          <internalNodes>
            0 -1 155 4.2208130471408367e-03</internalNodes>
          <leafValues>
            1.9268304109573364e-01 -7.8572708368301392e-01</leafValues></_>
        <_>
          <internalNodes>
            0 -1 67 7.3866758611984551e-06</internalNodes>
          <leafValues>
            -8.2313352823257446e-01 1.4576174318790436e-01</leafValues></_>
        <_>
          <internalNodes>
            0 -1 57 1.6932243015617132e-03</internalNodes>
          <leafValues>
            2.1342027187347412e-01 -7.3533922433853149e-01</leafValues></_>
        <_>
          <internalNodes>
            0 -1 187 -4.8762603546492755e-04</internalNodes>
          <leafValues>
            2.0255780220031738e-01 -7.0269149541854858e-01</leafValues></_>
        <_>
          <internalNodes>
            0 -1 86 6.2190825119614601e-03</internalNodes>
          <leafValues>
            1.4656408131122589e-01 -9.3993932008743286e-01</leafValues></_>
        <_>
          <internalNodes>
            0 -1 199 -3.4648984670639038e-02</internalNodes>
          <leafValues>
            7.0233345031738281e-01 -2.4553886055946350e-01</leafValues></_></weakClassifiers></_>
    <!-- stage 5 -->
    <_>
      <maxWeakCount>13</maxWeakCount>
      <stageThreshold>-1.5013080835342407e+00</stageThreshold>
      <weakClassifiers>
        <_>
          <internalNodes>
            0 -1 101 5.4533956572413445e-03</internalNodes>
          <leafValues>
            4.2877906560897827e-01 -8.4821426868438721e-01</leafValues></_>
        <_>
          <internalNodes>
            0 -1 95 9.4835896743461490e-04</internalNodes>
          <leafValues>
            -8.2615882158279419e-01 2.4972052872180939e-01</leafValues></_>
        <_>
          <internalNodes>
            0 -1 22 1.0188173037022352e-03</internalNodes>
          <leafValues>
            -7.0446068048477173e-01 2.2116577625274658e-01</leafValues></_>
        <_>
          <internalNodes>
            0 -1 39 1.6627369914203882e-03</internalNodes>
          <leafValues>
            2.8079763054847717e-01 -7.0987743139266968e-01</leafValues></_>
        <_>
          <internalNodes>
            0 -1 19 -4.4949897564947605e-03</internalNodes>
          <leafValues>
            -6.9914931058883667e-01 1.8240605294704437e-01</leafValues></_>
        <_>
          <internalNodes>
            0 -1 182 -2.7794711058959365e-04</internalNodes>
          <leafValues>
            2.0180070400238037e-01 -8.7415248155593872e-01</leafValues></_>
        <_>
          <internalNodes>
            0 -1 77 -5.1515712402760983e-04</internalNodes>
          <leafValues>
            -9.4843709468841553e-01 1.1595988273620605e-01</leafValues></_>
        <_>
          <internalNodes>
            0 -1 176 -3.0735495965927839e-04</internalNodes>
          <leafValues>
            1.1211697757244110e-01 -8.4732162952423096e-01</leafValues></_>
        <_>
          <internalNodes>
            0 -1 151 4.1088061407208443e-03</internalNodes>
          <leafValues>
            2.1650311350822449e-01 -6.4416325092315674e-01</leafValues></_>
        <_>
          <internalNodes>
            0 -1 137 -1.3768863864243031e-03</internalNodes>
          <leafValues>
            -8.6494165658950806e-01 1.5215811133384705e-01</leafValues></_>
        <_>
          <internalNodes>
            0 -1 102 -3.4824851900339127e-04</internalNodes>
          <leafValues>
            -9.4297254085540771e-01 1.1028040200471878e-01</leafValues></_>
        <_>
          <internalNodes>
            0 -1 114 2.8025318169966340e-04</internalNodes>
          <leafValues>
            1.3351346552371979e-01 -7.6276332139968872e-01</leafValues></_>
        <_>
          <internalNodes>
            0 -1 80 -2.7220202609896660e-03</internalNodes>
          <leafValues>
            1.1810180544853210e-01 -9.1993063688278198e-01</leafValues></_></weakClassifiers></_>
    <!-- stage 6 -->
    <_>
      <maxWeakCount>16</maxWeakCount>
      <stageThreshold>-1.3395855426788330e+00</stageThreshold>
      <weakClassifiers>
        <_>
          <internalNodes>
            0 -1 21 6.6878318786621094e-02</internalNodes>
          <leafValues>
            -1.6824644804000854e-01 7.1693122386932373e-01</leafValues></_>
        <_>
          <internalNodes>
            0 -1 65 1.4180060243234038e-03</internalNodes>
          <leafValues>
            -7.6228070259094238e-01 3.0268499255180359e-01</leafValues></_>
        <_>
          <internalNodes>
            0 -1 5 1.8940493464469910e-02</internalNodes>
          <leafValues>
            -3.0295965075492859e-01 5.8794146776199341e-01</leafValues></_>
        <_>
          <internalNodes>
            0 -1 35 -3.4238847438246012e-03</internalNodes>
          <leafValues>
            -6.7346316576004028e-01 2.0506523549556732e-01</leafValues></_>
        <_>
          <internalNodes>
            0 -1 148 3.6278709303587675e-03</internalNodes>
          <leafValues>
            -2.3568707704544067e-01 6.2710827589035034e-01</leafValues></_>
        <_>
          <internalNodes>
            0 -1 23 1.3604848645627499e-03</internalNodes>
          <leafValues>
            2.3892478644847870e-01 -5.7768583297729492e-01</leafValues></_>
        <_>
          <internalNodes>
            0 -1 174 -3.7987291580066085e-04</internalNodes>
          <leafValues>
            1.7666761577129364e-01 -7.7126830816268921e-01</leafValues></_>
        <_>
          <internalNodes>
            0 -1 44 4.1705454350449145e-04</internalNodes>
          <leafValues>
            -7.1382385492324829e-01 1.3918381929397583e-01</leafValues></_>
        <_>
          <internalNodes>
            0 -1 124 -1.3471260666847229e-02</internalNodes>
          <leafValues>
            5.8049631118774414e-01 -2.5109121203422546e-01</leafValues></_>
        <_>
          <internalNodes>
            0 -1 103 -1.1314595118165016e-02</internalNodes>
          <leafValues>
            -6.7076963186264038e-01 2.3210416734218597e-01</leafValues></_>
        <_>
          <internalNodes>
            0 -1 98 -1.4161400031298399e-04</internalNodes>
          <leafValues>
            1.3595357537269592e-01 -9.4364267587661743e-01</leafValues></_>
        <_>
          <internalNodes>
            0 -1 93 5.6936545297503471e-04</internalNodes>
          <leafValues>
            -8.9957499504089355e-01 9.9786490201950073e-02</leafValues></_>
        <_>
          <internalNodes>
            0 -1 2 -2.0745177753269672e-03</internalNodes>
          <leafValues>
            5.7152140140533447e-01 -2.6647090911865234e-01</leafValues></_>
        <_>
          <internalNodes>
            0 -1 200 4.7677010297775269e-03</internalNodes>
          <leafValues>
            -1.5847308933734894e-01 6.3654267787933350e-01</leafValues></_>
        <_>
          <internalNodes>
            0 -1 136 7.8083993867039680e-03</internalNodes>
          <leafValues>
            -2.1309420466423035e-01 5.9736359119415283e-01</leafValues></_>
        <_>
          <internalNodes>
            0 -1 160 -3.6149627994745970e-03</internalNodes>
          <leafValues>
            6.5977275371551514e-01 -1.7935821413993835e-01</leafValues></_></weakClassifiers></_>
    <!-- stage 7 -->
    <_>
      <maxWeakCount>14</maxWeakCount>
      <stageThreshold>-1.3967573642730713e+00</stageThreshold>
      <weakClassifiers>
        <_>
          <internalNodes>
            0 -1 60 -2.9884189367294312e-01</internalNodes>
          <leafValues>
            -6.3898915052413940e-01 4.3613001704216003e-01</leafValues></_>
        <_>
          <internalNodes>
            0 -1 156 1.3143970863893628e-03</internalNodes>
          <leafValues>
            3.0516642332077026e-01 -6.0361611843109131e-01</leafValues></_>
        <_>
          <internalNodes>
            0 -1 172 -3.4975296330230776e-06</internalNodes>
          <leafValues>
            2.3766231536865234e-01 -6.8127542734146118e-01</leafValues></_>
        <_>
          <internalNodes>
            0 -1 211 6.0992436483502388e-03</internalNodes>
          <leafValues>
            -2.3826248943805695e-01 6.8776488304138184e-01</leafValues></_>
        <_>
          <internalNodes>
            0 -1 28 -3.2421501819044352e-03</internalNodes>
          <leafValues>
            -6.9276398420333862e-01 1.7832407355308533e-01</leafValues></_>
        <_>
          <internalNodes>
            0 -1 105 4.0208833524957299e-06</internalNodes>
          <leafValues>
            -5.3286588191986084e-01 2.3979349434375763e-01</leafValues></_>
        <_>
          <internalNodes>
            0 -1 107 -1.5459817950613797e-04</internalNodes>
          <leafValues>
            -5.6984335184097290e-01 2.1949061751365662e-01</leafValues></_>
        <_>
          <internalNodes>
            0 -1 192 -1.0635029757395387e-03</internalNodes>
          <leafValues>
            2.2069130837917328e-01 -6.3556110858917236e-01</leafValues></_>
        <_>
          <internalNodes>
            0 -1 166 -6.2466226518154144e-04</internalNodes>
          <leafValues>
            1.2934862077236176e-01 -8.7540882825851440e-01</leafValues></_>
        <_>
          <internalNodes>
            0 -1 8 1.7973172944039106e-03</internalNodes>
          <leafValues>
            -2.4424910545349121e-01 5.6131482124328613e-01</leafValues></_>
        <_>
          <internalNodes>
            0 -1 116 7.6642520725727081e-03</internalNodes>
          <leafValues>
            -1.8409191071987152e-01 6.1767387390136719e-01</leafValues></_>
        <_>
          <internalNodes>
            0 -1 143 -5.2137007005512714e-03</internalNodes>
          <leafValues>
            -8.9397650957107544e-01 1.5730018913745880e-01</leafValues></_>
        <_>
          <internalNodes>
            0 -1 152 -3.2222103327512741e-03</internalNodes>
          <leafValues>
            -7.4182653427124023e-01 1.2396278232336044e-01</leafValues></_>
        <_>
          <internalNodes>
            0 -1 42 4.2780243347806390e-06</internalNodes>
          <leafValues>
            -3.4190067648887634e-01 3.5592463612556458e-01</leafValues></_></weakClassifiers></_>
    <!-- stage 8 -->
    <_>
      <maxWeakCount>18</maxWeakCount>
      <stageThreshold>-1.4751564264297485e+00</stageThreshold>
      <weakClassifiers>
        <_>
          <internalNodes>
            0 -1 97 8.8546760380268097e-03</internalNodes>
          <leafValues>
            4.1865509748458862e-01 -8.2488477230072021e-01</leafValues></_>
        <_>
          <internalNodes>
            0 -1 128 1.4016684872331098e-05</internalNodes>
          <leafValues>
            -5.8761221170425415e-01 3.3195251226425171e-01</leafValues></_>
        <_>
          <internalNodes>
            0 -1 157 -5.7956762611865997e-04</internalNodes>
          <leafValues>
            1.7805089056491852e-01 -8.2335764169692993e-01</leafValues></_>
        <_>
          <internalNodes>
            0 -1 106 -1.9338175654411316e-02</internalNodes>
          <leafValues>
            6.1863076686859131e-01 -2.4874377250671387e-01</leafValues></_>
        <_>
          <internalNodes>
            0 -1 4 -1.3014104217290878e-02</internalNodes>
          <leafValues>
            5.0694954395294189e-01 -2.7512776851654053e-01</leafValues></_>
        <_>
          <internalNodes>
            0 -1 38 2.6695115957409143e-04</internalNodes>
          <leafValues>
            2.7237525582313538e-01 -4.8682454228401184e-01</leafValues></_>
        <_>
          <internalNodes>
            0 -1 37 2.0904950797557831e-02</internalNodes>
          <leafValues>
            1.4816807210445404e-01 -6.9714349508285522e-01</leafValues></_>
        <_>
          <internalNodes>
            0 -1 165 5.2321898692753166e-05</internalNodes>
          <leafValues>
            -6.9420379400253296e-01 1.6366031765937805e-01</leafValues></_>
        <_>
          <internalNodes>
            0 -1 110 -8.8699709158390760e-04</internalNodes>
          <leafValues>
            2.0369282364845276e-01 -6.1372715234756470e-01</leafValues></_>
        <_>
          <internalNodes>
            0 -1 30 2.7136527933180332e-04</internalNodes>
          <leafValues>
            -7.6968973875045776e-01 1.2032786756753922e-01</leafValues></_>
        <_>
          <internalNodes>
            0 -1 126 4.6051623030507471e-06</internalNodes>
          <leafValues>
            -3.3247423171997070e-01 3.5592874884605408e-01</leafValues></_>
        <_>
          <internalNodes>
            0 -1 90 -2.2021848708391190e-02</internalNodes>
          <leafValues>
            6.4092737436294556e-01 -1.8476691842079163e-01</leafValues></_>
        <_>
          <internalNodes>
            0 -1 83 -4.6322692651301622e-04</internalNodes>
          <leafValues>
            -3.9565071463584900e-01 3.0583405494689941e-01</leafValues></_>
        <_>
          <internalNodes>
            0 -1 48 2.4659670889377594e-03</internalNodes>
          <leafValues>
            1.8449588119983673e-01 -6.5684032440185547e-01</leafValues></_>
        <_>
          <internalNodes>
            0 -1 149 1.2609702534973621e-03</internalNodes>
          <leafValues>
            -2.8436994552612305e-01 4.2818197607994080e-01</leafValues></_>
        <_>
          <internalNodes>
            0 -1 209 -2.9612975195050240e-03</internalNodes>
          <leafValues>
            6.1560243368148804e-01 -1.9416858255863190e-01</leafValues></_>
        <_>
          <internalNodes>
            0 -1 186 -3.8522977847605944e-03</internalNodes>
          <leafValues>
            4.9502965807914734e-01 -2.0272517204284668e-01</leafValues></_>
        <_>
          <internalNodes>
            0 -1 50 -1.4287309568317141e-05</internalNodes>
          <leafValues>
            2.5121405720710754e-01 -4.8771703243255615e-01</leafValues></_></weakClassifiers></_>
    <!-- stage 9 -->
    <_>
      <maxWeakCount>15</maxWeakCount>
      <stageThreshold>-1.0281518697738647e+00</stageThreshold>
      <weakClassifiers>
        <_>
          <internalNodes>
            0 -1 24 -3.5741585306823254e-03</internalNodes>
          <leafValues>
            -6.6972476243972778e-01 3.9507958292961121e-01</leafValues></_>
        <_>
          <internalNodes>
            0 -1 47 1.6697522951290011e-03</internalNodes>
          <leafValues>
            1.9005414843559265e-01 -6.7686671018600464e-01</leafValues></_>
        <_>
          <internalNodes>
            0 -1 180 -3.2127270242199302e-04</internalNodes>
          <leafValues>
            1.5716300904750824e-01 -7.1494525671005249e-01</leafValues></_>
        <_>
          <internalNodes>
            0 -1 41 1.0613207996357232e-04</internalNodes>
          <leafValues>
            -5.4189300537109375e-01 2.4935814738273621e-01</leafValues></_>
        <_>
          <internalNodes>
            0 -1 169 -6.2168393924366683e-05</internalNodes>
          <leafValues>
            9.1107644140720367e-02 -9.2101061344146729e-01</leafValues></_>
        <_>
          <internalNodes>
            0 -1 85 6.3650727272033691e-02</internalNodes>
          <leafValues>
            -3.0733045935630798e-01 4.3726602196693420e-01</leafValues></_>
        <_>
          <internalNodes>
            0 -1 206 -8.0654304474592209e-03</internalNodes>
          <leafValues>
            5.5623155832290649e-01 -1.9952979683876038e-01</leafValues></_>
        <_>
          <internalNodes>
            0 -1 162 1.1522657005116343e-03</internalNodes>
          <leafValues>
            1.6608464717864990e-01 -6.0910087823867798e-01</leafValues></_>
        <_>
          <internalNodes>
            0 -1 69 -7.5106956064701080e-03</internalNodes>
          <leafValues>
            -6.7881047725677490e-01 1.3591304421424866e-01</leafValues></_>
        <_>
          <internalNodes>
            0 -1 89 -6.4692292362451553e-03</internalNodes>
          <leafValues>
            1.0379593819379807e-01 -8.8624697923660278e-01</leafValues></_>
        <_>
          <internalNodes>
            0 -1 185 -1.3211587793193758e-04</internalNodes>
          <leafValues>
            2.5373598933219910e-01 -3.4372586011886597e-01</leafValues></_>
        <_>
          <internalNodes>
            0 -1 43 1.4287426602095366e-03</internalNodes>
          <leafValues>
            -6.2758749723434448e-01 1.6165208816528320e-01</leafValues></_>
        <_>
          <internalNodes>
            0 -1 55 1.7308155074715614e-03</internalNodes>
          <leafValues>
            8.9883506298065186e-02 -8.4645545482635498e-01</leafValues></_>
        <_>
          <internalNodes>
            0 -1 202 -6.3648039940744638e-05</internalNodes>
          <leafValues>
            -4.1319450736045837e-01 2.2687815129756927e-01</leafValues></_>
        <_>
          <internalNodes>
            0 -1 170 -3.7345469081628835e-06</internalNodes>
          <leafValues>
            1.2606665492057800e-01 -8.8275098800659180e-01</leafValues></_></weakClassifiers></_>
    <!-- stage 10 -->
    <_>
      <maxWeakCount>17</maxWeakCount>
      <stageThreshold>-1.0192079544067383e+00</stageThreshold>
      <weakClassifiers>
        <_>
          <internalNodes>
            0 -1 167 -2.6840851642191410e-03</internalNodes>
          <leafValues>
            -5.6890457868576050e-01 4.2596811056137085e-01</leafValues></_>
        <_>
          <internalNodes>
            0 -1 212 -8.2241818308830261e-03</internalNodes>
          <leafValues>
            5.6943166255950928e-01 -2.0709374547004700e-01</leafValues></_>
        <_>
          <internalNodes>
            0 -1 94 3.1404837500303984e-04</internalNodes>
          <leafValues>
            -6.8774843215942383e-01 1.8415568768978119e-01</leafValues></_>
        <_>
          <internalNodes>
            0 -1 92 -4.6423866297118366e-04</internalNodes>
          <leafValues>
            1.4020122587680817e-01 -7.5983494520187378e-01</leafValues></_>
        <_>
          <internalNodes>
            0 -1 184 -9.2018151190131903e-04</internalNodes>
          <leafValues>
            1.4634871482849121e-01 -6.7718619108200073e-01</leafValues></_>
        <_>
          <internalNodes>
            0 -1 9 5.7700024917721748e-03</internalNodes>
          <leafValues>
            -2.0416213572025299e-01 5.7207399606704712e-01</leafValues></_>
        <_>
          <internalNodes>
            0 -1 63 -4.4226708268979564e-05</internalNodes>
          <leafValues>
            -7.2472935914993286e-01 1.4510275423526764e-01</leafValues></_>
        <_>
          <internalNodes>
            0 -1 104 1.2239723000675440e-03</internalNodes>
          <leafValues>
            1.4146055281162262e-01 -6.3808590173721313e-01</leafValues></_>
        <_>
          <internalNodes>
            0 -1 113 9.0395078586880118e-06</internalNodes>
          <leafValues>
            -4.6539345383644104e-01 2.1567828953266144e-01</leafValues></_>
        <_>
          <internalNodes>
            0 -1 87 2.5349365547299385e-02</internalNodes>
          <leafValues>
            1.3877992331981659e-01 -5.8024364709854126e-01</leafValues></_>
        <_>
          <internalNodes>
            0 -1 164 1.8372188787907362e-03</internalNodes>
          <leafValues>
            1.8267369270324707e-01 -5.5238109827041626e-01</leafValues></_>
        <_>
          <internalNodes>
            0 -1 205 -2.0735550206154585e-03</internalNodes>
          <leafValues>
            4.9414610862731934e-01 -2.2732007503509521e-01</leafValues></_>
        <_>
          <internalNodes>
            0 -1 122 -5.6016270536929369e-04</internalNodes>
          <leafValues>
            2.9823994636535645e-01 -3.3460956811904907e-01</leafValues></_>
        <_>
          <internalNodes>
            0 -1 115 4.3795723468065262e-03</internalNodes>
          <leafValues>
            -2.4527952075004578e-01 4.2426431179046631e-01</leafValues></_>
        <_>
          <internalNodes>
            0 -1 27 -3.2223758807958802e-06</internalNodes>
          <leafValues>
            3.9412379264831543e-01 -2.2260531783103943e-01</leafValues></_>
        <_>
          <internalNodes>
            0 -1 214 -3.0936920666135848e-04</internalNodes>
          <leafValues>
            -3.0503636598587036e-01 3.1070914864540100e-01</leafValues></_>
        <_>
          <internalNodes>
            0 -1 145 2.9344233917072415e-04</internalNodes>
          <leafValues>
            1.0369705408811569e-01 -9.5843547582626343e-01</leafValues></_></weakClassifiers></_>
    <!-- stage 11 -->
    <_>
      <maxWeakCount>20</maxWeakCount>
      <stageThreshold>-1.1023733615875244e+00</stageThreshold>
      <weakClassifiers>
        <_>
          <internalNodes>
            0 -1 119 -1.4373380690813065e-03</internalNodes>
          <leafValues>
            -8.0281692743301392e-01 3.5253772139549255e-01</leafValues></_>
        <_>
          <internalNodes>
            0 -1 118 5.5052367970347404e-03</internalNodes>
          <leafValues>
            2.8998437523841858e-01 -4.5871898531913757e-01</leafValues></_>
        <_>
          <internalNodes>
            0 -1 96 9.6944504184648395e-04</internalNodes>
          <leafValues>
            -8.0683875083923340e-01 9.1218777000904083e-02</leafValues></_>
        <_>
          <internalNodes>
            0 -1 20 -1.1027366854250431e-03</internalNodes>
          <leafValues>
            -5.1278936862945557e-01 2.0965763926506042e-01</leafValues></_>
        <_>
          <internalNodes>
            0 -1 213 2.1050479263067245e-03</internalNodes>
          <leafValues>
            -2.5546011328697205e-01 4.5894482731819153e-01</leafValues></_>
        <_>
          <internalNodes>
            0 -1 191 -3.3663169597275555e-04</internalNodes>
          <leafValues>
            5.8254414796829224e-01 -1.6754186153411865e-01</leafValues></_>
        <_>
          <internalNodes>
            0 -1 12 1.7438387870788574e-01</internalNodes>
          <leafValues>
            -1.6807365417480469e-01 5.4500174522399902e-01</leafValues></_>
        <_>
          <internalNodes>
            0 -1 133 1.0833741398528218e-03</internalNodes>
          <leafValues>
            1.8592490255832672e-01 -5.9656780958175659e-01</leafValues></_>
        <_>
          <internalNodes>
            0 -1 168 -3.2304605701938272e-04</internalNodes>
          <leafValues>
            4.8191210627555847e-01 -2.0531389117240906e-01</leafValues></_>
        <_>
          <internalNodes>
            0 -1 61 3.6896782694384456e-04</internalNodes>
          <leafValues>
            -6.1954575777053833e-01 1.3489212095737457e-01</leafValues></_>
        <_>
          <internalNodes>
            0 -1 11 3.1381769804283977e-04</internalNodes>
          <leafValues>
            -1.7734993994235992e-01 5.5007064342498779e-01</leafValues></_>
        <_>
          <internalNodes>
            0 -1 181 5.9045545640401542e-05</internalNodes>
          <leafValues>
            -1.8964086472988129e-01 4.5073574781417847e-01</leafValues></_>
        <_>
          <internalNodes>
            0 -1 135 7.2732008993625641e-03</internalNodes>
          <leafValues>
            -1.9059908390045166e-01 4.9748378992080688e-01</leafValues></_>
        <_>
          <internalNodes>
            0 -1 121 1.8420696142129600e-04</internalNodes>
          <leafValues>
            1.1459726095199585e-01 -7.9120266437530518e-01</leafValues></_>
        <_>
          <internalNodes>
            0 -1 207 1.7409573774784803e-03</internalNodes>
          <leafValues>
            -1.8666490912437439e-01 5.6266248226165771e-01</leafValues></_>
        <_>
          <internalNodes>
            0 -1 81 -3.2750907121226192e-04</internalNodes>
          <leafValues>
            -9.0734189748764038e-01 1.1834501475095749e-01</leafValues></_>
        <_>
          <internalNodes>
            0 -1 46 1.3826498761773109e-03</internalNodes>
          <leafValues>
            1.4355850219726562e-01 -5.9814530611038208e-01</leafValues></_>
        <_>
          <internalNodes>
            0 -1 154 2.8726799428113736e-06</internalNodes>
          <leafValues>
            -2.2304727137088776e-01 4.3973419070243835e-01</leafValues></_>
        <_>
          <internalNodes>
            0 -1 198 5.2867078920826316e-05</internalNodes>
          <leafValues>
            -2.9478505253791809e-01 3.1656119227409363e-01</leafValues></_>
        <_>
          <internalNodes>
            0 -1 123 -6.3798832707107067e-04</internalNodes>
          <leafValues>
            2.7651825547218323e-01 -3.6453518271446228e-01</leafValues></_></weakClassifiers></_>
    <!-- stage 12 -->
    <_>
      <maxWeakCount>20</maxWeakCount>
      <stageThreshold>-1.0702807903289795e+00</stageThreshold>
      <weakClassifiers>
        <_>
          <internalNodes>
            0 -1 84 -3.1353004276752472e-02</internalNodes>
          <leafValues>
            5.9108781814575195e-01 -6.0931898653507233e-02</leafValues></_>
        <_>
          <internalNodes>
            0 -1 117 1.4189904322847724e-04</internalNodes>
          <leafValues>
            -4.2914754152297974e-01 2.4584153294563293e-01</leafValues></_>
        <_>
          <internalNodes>
            0 -1 140 -6.9364852970466018e-04</internalNodes>
          <leafValues>
            1.1949197202920914e-01 -7.4575406312942505e-01</leafValues></_>
        <_>
          <internalNodes>
            0 -1 6 -1.2157405726611614e-03</internalNodes>
          <leafValues>
            5.0841462612152100e-01 -1.7912445962429047e-01</leafValues></_>
        <_>
          <internalNodes>
            0 -1 7 1.3091992586851120e-03</internalNodes>
          <leafValues>
            -1.7646437883377075e-01 6.3234823942184448e-01</leafValues></_>
        <_>
          <internalNodes>
            0 -1 71 3.2653153175488114e-04</internalNodes>
          <leafValues>
            1.7890544235706329e-01 -6.4985048770904541e-01</leafValues></_>
        <_>
          <internalNodes>
            0 -1 82 9.4270253612194210e-06</internalNodes>
          <leafValues>
            -5.2953028678894043e-01 1.7025864124298096e-01</leafValues></_>
        <_>
          <internalNodes>
            0 -1 161 -5.5199977941811085e-04</internalNodes>
          <leafValues>
            8.2928717136383057e-02 -7.5763761997222900e-01</leafValues></_>
        <_>
          <internalNodes>
            0 -1 91 1.6073241829872131e-02</internalNodes>
          <leafValues>
            1.0362963378429413e-01 -7.7183783054351807e-01</leafValues></_>
        <_>
          <internalNodes>
            0 -1 17 3.0941492877900600e-03</internalNodes>
          <leafValues>
            -1.8367762863636017e-01 4.9598842859268188e-01</leafValues></_>
        <_>
          <internalNodes>
            0 -1 16 -8.2393045886419713e-05</internalNodes>
          <leafValues>
            3.6614602804183960e-01 -2.2638474404811859e-01</leafValues></_>
        <_>
          <internalNodes>
            0 -1 132 -1.0752775706350803e-03</internalNodes>
          <leafValues>
            1.0389355570077896e-01 -8.2934254407882690e-01</leafValues></_>
        <_>
          <internalNodes>
            0 -1 108 9.8236892372369766e-03</internalNodes>
          <leafValues>
            -2.2257186472415924e-01 3.8369241356849670e-01</leafValues></_>
        <_>
          <internalNodes>
            0 -1 58 -1.1129105463624001e-02</internalNodes>
          <leafValues>
            4.0966361761093140e-01 -2.1225851774215698e-01</leafValues></_>
        <_>
          <internalNodes>
            0 -1 147 -2.5726165622472763e-03</internalNodes>
          <leafValues>
            2.1685497462749481e-01 -3.8529399037361145e-01</leafValues></_>
        <_>
          <internalNodes>
            0 -1 14 -9.3037016689777374e-02</internalNodes>
          <leafValues>
            -5.7998085021972656e-01 1.2205287069082260e-01</leafValues></_>
        <_>
          <internalNodes>
            0 -1 193 -9.9993612820981070e-06</internalNodes>
          <leafValues>
            1.7004022002220154e-01 -4.5416796207427979e-01</leafValues></_>
        <_>
          <internalNodes>
            0 -1 204 2.1537006832659245e-03</internalNodes>
          <leafValues>
            -1.7316071689128876e-01 5.2060920000076294e-01</leafValues></_>
        <_>
          <internalNodes>
            0 -1 131 6.1572136473841965e-06</internalNodes>
          <leafValues>
            -2.1824388206005096e-01 3.7173259258270264e-01</leafValues></_>
        <_>
          <internalNodes>
            0 -1 51 2.2778433049097657e-04</internalNodes>
          <leafValues>
            1.7134764790534973e-01 -5.9174454212188721e-01</leafValues></_></weakClassifiers></_>
    <!-- stage 13 -->
    <_>
      <maxWeakCount>23</maxWeakCount>
      <stageThreshold>-1.0819702148437500e+00</stageThreshold>
      <weakClassifiers>
        <_>
          <internalNodes>
            0 -1 1 1.7790349200367928e-02</internalNodes>
          <leafValues>
            -3.5069074481725693e-02 6.5705615282058716e-01</leafValues></_>
        <_>
          <internalNodes>
            0 -1 72 -1.5120576426852494e-04</internalNodes>
          <leafValues>
            -3.5376325249671936e-01 3.1395086646080017e-01</leafValues></_>
        <_>
          <internalNodes>
            0 -1 29 -5.5061932653188705e-03</internalNodes>
          <leafValues>
            -7.3167729377746582e-01 1.4051192998886108e-01</leafValues></_>
        <_>
          <internalNodes>
            0 -1 56 2.9871382866986096e-04</internalNodes>
          <leafValues>
            2.1669021248817444e-01 -4.4574055075645447e-01</leafValues></_>
        <_>
          <internalNodes>
            0 -1 62 9.8684360273182392e-04</internalNodes>
          <leafValues>
            -6.2362122535705566e-01 1.2791238725185394e-01</leafValues></_>
        <_>
          <internalNodes>
            0 -1 76 1.0234825313091278e-03</internalNodes>
          <leafValues>
            1.6193976998329163e-01 -5.2327376604080200e-01</leafValues></_>
        <_>
          <internalNodes>
            0 -1 150 -8.1931240856647491e-05</internalNodes>
          <leafValues>
            -6.6719895601272583e-01 1.3878910243511200e-01</leafValues></_>
        <_>
          <internalNodes>
            0 -1 15 2.4058860540390015e-01</internalNodes>
          <leafValues>
            -1.8326567113399506e-01 6.5240782499313354e-01</leafValues></_>
        <_>
          <internalNodes>
            0 -1 188 9.2072505503892899e-03</internalNodes>
          <leafValues>
            2.3138393461704254e-01 -4.6584209799766541e-01</leafValues></_>
        <_>
          <internalNodes>
            0 -1 74 3.6321846437203931e-06</internalNodes>
          <leafValues>
            -2.8393501043319702e-01 2.7723509073257446e-01</leafValues></_>
        <_>
          <internalNodes>
            0 -1 73 1.1980189010500908e-03</internalNodes>
          <leafValues>
            1.1217452585697174e-01 -7.5321352481842041e-01</leafValues></_>
        <_>
          <internalNodes>
            0 -1 138 8.5701858552056365e-06</internalNodes>
          <leafValues>
            -2.6040306687355042e-01 2.9762917757034302e-01</leafValues></_>
        <_>
          <internalNodes>
            0 -1 171 -4.9342063721269369e-04</internalNodes>
          <leafValues>
            3.0363026261329651e-01 -2.4066020548343658e-01</leafValues></_>
        <_>
          <internalNodes>
            0 -1 197 2.9361308552324772e-03</internalNodes>
          <leafValues>
            -1.1968670040369034e-01 6.0738962888717651e-01</leafValues></_>
        <_>
          <internalNodes>
            0 -1 129 2.7949264040216804e-04</internalNodes>
          <leafValues>
            -2.8674867749214172e-01 2.7429479360580444e-01</leafValues></_>
        <_>
          <internalNodes>
            0 -1 10 -1.0734239593148232e-02</internalNodes>
          <leafValues>
            8.1121867895126343e-01 -1.0906860977411270e-01</leafValues></_>
        <_>
          <internalNodes>
            0 -1 32 1.8375788349658251e-03</internalNodes>
          <leafValues>
            -5.2981847524642944e-01 1.6495934128761292e-01</leafValues></_>
        <_>
          <internalNodes>
            0 -1 49 3.4561153734102845e-04</internalNodes>
          <leafValues>
            1.5660305321216583e-01 -4.8747587203979492e-01</leafValues></_>
        <_>
          <internalNodes>
            0 -1 13 -1.9305112073197961e-03</internalNodes>
          <leafValues>
            3.8391977548599243e-01 -2.0401932299137115e-01</leafValues></_>
        <_>
          <internalNodes>
            0 -1 78 -1.7202617600560188e-03</internalNodes>
          <leafValues>
            -9.5934331417083740e-01 9.3794330954551697e-02</leafValues></_>
        <_>
          <internalNodes>
            0 -1 18 -1.9238349050283432e-03</internalNodes>
          <leafValues>
            4.5480147004127502e-01 -1.8909087777137756e-01</leafValues></_>
        <_>
          <internalNodes>
            0 -1 158 -3.2520893000764772e-05</internalNodes>
          <leafValues>
            9.9904857575893402e-02 -8.3723068237304688e-01</leafValues></_>
        <_>
          <internalNodes>
            0 -1 195 -3.2421028208773350e-06</internalNodes>
          <leafValues>
            2.6317930221557617e-01 -2.8075087070465088e-01</leafValues></_></weakClassifiers></_>
    <!-- stage 14 -->
    <_>
      <maxWeakCount>21</maxWeakCount>
      <stageThreshold>-1.1121068000793457e+00</stageThreshold>
      <weakClassifiers>
        <_>
          <internalNodes>
            0 -1 52 1.2291936203837395e-02</internalNodes>
          <leafValues>
            3.6357194185256958e-01 -5.9788358211517334e-01</leafValues></_>
        <_>
          <internalNodes>
            0 -1 208 4.0167821571230888e-03</internalNodes>
          <leafValues>
            -1.7886775732040405e-01 5.0672382116317749e-01</leafValues></_>
        <_>
          <internalNodes>
            0 -1 66 1.1258038284722716e-04</internalNodes>
          <leafValues>
            -6.9474297761917114e-01 1.4392083883285522e-01</leafValues></_>
        <_>
          <internalNodes>
            0 -1 99 -4.7857385652605444e-05</internalNodes>
          <leafValues>
            -4.1209769248962402e-01 2.3445972800254822e-01</leafValues></_>
        <_>
          <internalNodes>
            0 -1 210 -3.1318777473643422e-04</internalNodes>
          <leafValues>
            3.8747504353523254e-01 -2.3396633565425873e-01</leafValues></_>
        <_>
          <internalNodes>
            0 -1 75 1.7618185374885798e-03</internalNodes>
          <leafValues>
            -6.1479711532592773e-01 1.6730435192584991e-01</leafValues></_>
        <_>
          <internalNodes>
            0 -1 134 1.0701481369324028e-04</internalNodes>
          <leafValues>
            7.6051838696002960e-02 -9.0095156431198120e-01</leafValues></_>
        <_>
          <internalNodes>
            0 -1 215 7.0593890268355608e-04</internalNodes>
          <leafValues>
            -1.8222510814666748e-01 5.6727325916290283e-01</leafValues></_>
        <_>
          <internalNodes>
            0 -1 159 1.2287669815123081e-03</internalNodes>
          <leafValues>
            -2.0821025967597961e-01 4.4324663281440735e-01</leafValues></_>
        <_>
          <internalNodes>
            0 -1 194 6.1185139929875731e-04</internalNodes>
          <leafValues>
            1.4385579526424408e-01 -6.0473877191543579e-01</leafValues></_>
        <_>
          <internalNodes>
            0 -1 203 -1.0928203118965030e-04</internalNodes>
          <leafValues>
            -3.8368752598762512e-01 2.3557965457439423e-01</leafValues></_>
        <_>
          <internalNodes>
            0 -1 125 -9.1825909912586212e-03</internalNodes>
          <leafValues>
            6.3526308536529541e-01 -1.4375266432762146e-01</leafValues></_>
        <_>
          <internalNodes>
            0 -1 127 -1.0201209806837142e-04</internalNodes>
          <leafValues>
            -4.7437334060668945e-01 2.0911958813667297e-01</leafValues></_>
        <_>
          <internalNodes>
            0 -1 175 -5.8206669054925442e-03</internalNodes>
          <leafValues>
            -6.7136973142623901e-01 1.0901933908462524e-01</leafValues></_>
        <_>
          <internalNodes>
            0 -1 179 -1.3322473387233913e-04</internalNodes>
          <leafValues>
            3.9999133348464966e-01 -2.2519570589065552e-01</leafValues></_>
        <_>
          <internalNodes>
            0 -1 196 2.8578556339198258e-06</internalNodes>
          <leafValues>
            -2.1170660853385925e-01 4.0506303310394287e-01</leafValues></_>
        <_>
          <internalNodes>
            0 -1 64 2.8385277837514877e-03</internalNodes>
          <leafValues>
            -9.0916526317596436e-01 1.0719725489616394e-01</leafValues></_>
        <_>
          <internalNodes>
            0 -1 178 -2.0554385264404118e-04</internalNodes>
          <leafValues>
            3.5550937056541443e-01 -2.3379351198673248e-01</leafValues></_>
        <_>
          <internalNodes>
            0 -1 70 -2.5369836948812008e-03</internalNodes>
          <leafValues>
            -8.4287673234939575e-01 1.0345368087291718e-01</leafValues></_>
        <_>
          <internalNodes>
            0 -1 142 9.3379792815539986e-05</internalNodes>
          <leafValues>
            -2.5637882947921753e-01 3.5012644529342651e-01</leafValues></_>
        <_>
          <internalNodes>
            0 -1 26 -1.6075086314231157e-03</internalNodes>
          <leafValues>
            2.0976319909095764e-01 -4.4805115461349487e-01</leafValues></_></weakClassifiers></_></stages>
  <features>
    <_>
      <rects>
        <_>
          0 8 12 25 -1.</_>
        <_>
          6 8 6 25 2.</_></rects>
      <tilted>0</tilted></_>
    <_>
      <rects>
        <_>
          0 10 8 30 -1.</_>
        <_>
          4 10 4 30 2.</_></rects>
      <tilted>0</tilted></_>
    <_>
      <rects>
        <_>
          0 15 6 12 -1.</_>
        <_>
          0 15 3 6 2.</_>
        <_>
          3 21 3 6 2.</_></rects>
      <tilted>0</tilted></_>
    <_>
      <rects>
        <_>
          0 15 10 22 -1.</_>
        <_>
          5 15 5 22 2.</_></rects>
      <tilted>0</tilted></_>
    <_>
      <rects>
        <_>
          0 16 10 30 -1.</_>
        <_>
          0 16 5 15 2.</_>
        <_>
          5 31 5 15 2.</_></rects>
      <tilted>0</tilted></_>
    <_>
      <rects>
        <_>
          0 17 12 13 -1.</_>
        <_>
          6 17 6 13 2.</_></rects>
      <tilted>0</tilted></_>
    <_>
      <rects>
        <_>
          0 22 6 3 -1.</_>
        <_>
          2 22 2 3 3.</_></rects>
      <tilted>0</tilted></_>
    <_>
      <rects>
        <_>
          0 24 6 2 -1.</_>
        <_>
          2 24 2 2 3.</_></rects>
      <tilted>0</tilted></_>
    <_>
      <rects>
        <_>
          0 27 9 3 -1.</_>
        <_>
          3 27 3 3 3.</_></rects>
      <tilted>0</tilted></_>
    <_>
      <rects>
        <_>
          1 20 6 7 -1.</_>
        <_>
          4 20 3 7 2.</_></rects>
      <tilted>0</tilted></_>
    <_>
      <rects>
        <_>
          2 8 42 9 -1.</_>
        <_>
          16 8 14 9 3.</_></rects>
      <tilted>0</tilted></_>
    <_>
      <rects>
        <_>
          2 23 4 4 -1.</_>
        <_>
          2 23 2 2 2.</_>
        <_>
          4 25 2 2 2.</_></rects>
      <tilted>0</tilted></_>
    <_>
      <rects>
        <_>
          3 9 42 39 -1.</_>
        <_>
          3 22 42 13 3.</_></rects>
      <tilted>0</tilted></_>
    <_>
      <rects>
        <_>
          3 32 12 8 -1.</_>
        <_>
          3 32 6 4 2.</_>
        <_>
          9 36 6 4 2.</_></rects>
      <tilted>0</tilted></_>
    <_>
      <rects>
        <_>
          4 7 40 30 -1.</_>
        <_>
          24 7 20 30 2.</_></rects>
      <tilted>0</tilted></_>
    <_>
      <rects>
        <_>
          4 8 37 39 -1.</_>
        <_>
          4 21 37 13 3.</_></rects>
      <tilted>0</tilted></_>
    <_>
      <rects>
        <_>
          5 27 4 3 -1.</_>
        <_>
          7 27 2 3 2.</_></rects>
      <tilted>0</tilted></_>
    <_>
      <rects>
        <_>
          6 5 6 14 -1.</_>
        <_>
          6 5 3 7 2.</_>
        <_>
          9 12 3 7 2.</_></rects>
      <tilted>0</tilted></_>
    <_>
      <rects>
        <_>
          7 10 18 6 -1.</_>
        <_>
          7 10 9 3 2.</_>
        <_>
          16 13 9 3 2.</_></rects>
      <tilted>0</tilted></_>
    <_>
      <rects>
        <_>
          7 27 32 5 -1.</_>
        <_>
          23 27 16 5 2.</_></rects>
      <tilted>0</tilted></_>
    <_>
      <rects>
        <_>
          7 29 32 3 -1.</_>
        <_>
          23 29 16 3 2.</_></rects>
      <tilted>0</tilted></_>
    <_>
      <rects>
        <_>
          8 0 35 18 -1.</_>
        <_>
          8 9 35 9 2.</_></rects>
      <tilted>0</tilted></_>
    <_>
      <rects>
        <_>
          8 13 8 14 -1.</_>
        <_>
          12 13 4 14 2.</_></rects>
      <tilted>0</tilted></_>
    <_>
      <rects>
        <_>
          8 23 15 11 -1.</_>
        <_>
          13 23 5 11 3.</_></rects>
      <tilted>0</tilted></_>
    <_>
      <rects>
        <_>
          8 27 28 5 -1.</_>
        <_>
          22 27 14 5 2.</_></rects>
      <tilted>0</tilted></_>
    <_>
      <rects>
        <_>
          9 0 34 20 -1.</_>
        <_>
          9 10 34 10 2.</_></rects>
      <tilted>0</tilted></_>
    <_>
      <rects>
        <_>
          9 16 22 8 -1.</_>
        <_>
          9 20 22 4 2.</_></rects>
      <tilted>0</tilted></_>
    <_>
      <rects>
        <_>
          9 20 2 3 -1.</_>
        <_>
          10 20 1 3 2.</_></rects>
      <tilted>0</tilted></_>
    <_>
      <rects>
        <_>
          9 20 15 10 -1.</_>
        <_>
          14 20 5 10 3.</_></rects>
      <tilted>0</tilted></_>
    <_>
      <rects>
        <_>
          9 20 15 13 -1.</_>
        <_>
          14 20 5 13 3.</_></rects>
      <tilted>0</tilted></_>
    <_>
      <rects>
        <_>
          9 21 10 4 -1.</_>
        <_>
          14 21 5 4 2.</_></rects>
      <tilted>0</tilted></_>
    <_>
      <rects>
        <_>
          9 29 33 2 -1.</_>
        <_>
          20 29 11 2 3.</_></rects>
      <tilted>0</tilted></_>
    <_>
      <rects>
        <_>
          10 13 12 7 -1.</_>
        <_>
          16 13 6 7 2.</_></rects>
      <tilted>0</tilted></_>
    <_>
      <rects>
        <_>
          10 16 10 6 -1.</_>
        <_>
          15 16 5 6 2.</_></rects>
      <tilted>0</tilted></_>
    <_>
      <rects>
        <_>
          10 20 6 9 -1.</_>
        <_>
          13 20 3 9 2.</_></rects>
      <tilted>0</tilted></_>
    <_>
      <rects>
        <_>
          10 20 12 13 -1.</_>
        <_>
          14 20 4 13 3.</_></rects>
      <tilted>0</tilted></_>
    <_>
      <rects>
        <_>
          10 20 10 9 -1.</_>
        <_>
          15 20 5 9 2.</_></rects>
      <tilted>0</tilted></_>
    <_>
      <rects>
        <_>
          10 24 27 5 -1.</_>
        <_>
          19 24 9 5 3.</_></rects>
      <tilted>0</tilted></_>
    <_>
      <rects>
        <_>
          10 25 12 6 -1.</_>
        <_>
          14 25 4 6 3.</_></rects>
      <tilted>0</tilted></_>
    <_>
      <rects>
        <_>
          10 27 10 2 -1.</_>
        <_>
          15 27 5 2 2.</_></rects>
      <tilted>0</tilted></_>
    <_>
      <rects>
        <_>
          10 27 30 4 -1.</_>
        <_>
          20 27 10 4 3.</_></rects>
      <tilted>0</tilted></_>
    <_>
      <rects>
        <_>
          10 28 8 3 -1.</_>
        <_>
          14 28 4 3 2.</_></rects>
      <tilted>0</tilted></_>
    <_>
      <rects>
        <_>
          10 35 12 2 -1.</_>
        <_>
          10 36 12 1 2.</_></rects>
      <tilted>0</tilted></_>
    <_>
      <rects>
        <_>
          11 14 10 9 -1.</_>
        <_>
          16 14 5 9 2.</_></rects>
      <tilted>0</tilted></_>
    <_>
      <rects>
        <_>
          11 16 10 4 -1.</_>
        <_>
          16 16 5 4 2.</_></rects>
      <tilted>0</tilted></_>
    <_>
      <rects>
        <_>
          11 18 27 11 -1.</_>
        <_>
          20 18 9 11 3.</_></rects>
      <tilted>0</tilted></_>
    <_>
      <rects>
        <_>
          11 21 12 1 -1.</_>
        <_>
          17 21 6 1 2.</_></rects>
      <tilted>0</tilted></_>
    <_>
      <rects>
        <_>
          11 26 6 6 -1.</_>
        <_>
          14 26 3 6 2.</_></rects>
      <tilted>0</tilted></_>
    <_>
      <rects>
        <_>
          11 27 32 3 -1.</_>
        <_>
          27 27 16 3 2.</_></rects>
      <tilted>0</tilted></_>
    <_>
      <rects>
        <_>
          11 31 9 3 -1.</_>
        <_>
          14 31 3 3 3.</_></rects>
      <tilted>0</tilted></_>
    <_>
      <rects>
        <_>
          12 15 2 6 -1.</_>
        <_>
          12 18 2 3 2.</_></rects>
      <tilted>0</tilted></_>
    <_>
      <rects>
        <_>
          12 15 13 8 -1.</_>
        <_>
          12 19 13 4 2.</_></rects>
      <tilted>0</tilted></_>
    <_>
      <rects>
        <_>
          12 16 15 19 -1.</_>
        <_>
          17 16 5 19 3.</_></rects>
      <tilted>0</tilted></_>
    <_>
      <rects>
        <_>
          12 16 22 20 -1.</_>
        <_>
          12 26 22 10 2.</_></rects>
      <tilted>0</tilted></_>
    <_>
      <rects>
        <_>
          12 18 18 4 -1.</_>
        <_>
          18 18 6 4 3.</_></rects>
      <tilted>0</tilted></_>
    <_>
      <rects>
        <_>
          12 24 12 1 -1.</_>
        <_>
          18 24 6 1 2.</_></rects>
      <tilted>0</tilted></_>
    <_>
      <rects>
        <_>
          12 26 12 3 -1.</_>
        <_>
          16 26 4 3 3.</_></rects>
      <tilted>0</tilted></_>
    <_>
      <rects>
        <_>
          12 31 28 1 -1.</_>
        <_>
          26 31 14 1 2.</_></rects>
      <tilted>0</tilted></_>
    <_>
      <rects>
        <_>
          13 0 22 21 -1.</_>
        <_>
          13 7 22 7 3.</_></rects>
      <tilted>0</tilted></_>
    <_>
      <rects>
        <_>
          13 0 27 18 -1.</_>
        <_>
          13 9 27 9 2.</_></rects>
      <tilted>0</tilted></_>
    <_>
      <rects>
        <_>
          13 3 29 42 -1.</_>
        <_>
          13 24 29 21 2.</_></rects>
      <tilted>0</tilted></_>
    <_>
      <rects>
        <_>
          13 17 15 5 -1.</_>
        <_>
          18 17 5 5 3.</_></rects>
      <tilted>0</tilted></_>
    <_>
      <rects>
        <_>
          13 18 18 4 -1.</_>
        <_>
          19 18 6 4 3.</_></rects>
      <tilted>0</tilted></_>
    <_>
      <rects>
        <_>
          13 22 6 8 -1.</_>
        <_>
          16 22 3 8 2.</_></rects>
      <tilted>0</tilted></_>
    <_>
      <rects>
        <_>
          13 22 24 5 -1.</_>
        <_>
          21 22 8 5 3.</_></rects>
      <tilted>0</tilted></_>
    <_>
      <rects>
        <_>
          13 23 14 10 -1.</_>
        <_>
          20 23 7 10 2.</_></rects>
      <tilted>0</tilted></_>
    <_>
      <rects>
        <_>
          13 26 8 8 -1.</_>
        <_>
          17 26 4 8 2.</_></rects>
      <tilted>0</tilted></_>
    <_>
      <rects>
        <_>
          13 26 10 2 -1.</_>
        <_>
          18 26 5 2 2.</_></rects>
      <tilted>0</tilted></_>
    <_>
      <rects>
        <_>
          13 30 22 1 -1.</_>
        <_>
          24 30 11 1 2.</_></rects>
      <tilted>0</tilted></_>
    <_>
      <rects>
        <_>
          14 12 2 20 -1.</_>
        <_>
          14 22 2 10 2.</_></rects>
      <tilted>0</tilted></_>
    <_>
      <rects>
        <_>
          14 15 3 8 -1.</_>
        <_>
          14 19 3 4 2.</_></rects>
      <tilted>0</tilted></_>
    <_>
      <rects>
        <_>
          14 32 6 1 -1.</_>
        <_>
          17 32 3 1 2.</_></rects>
      <tilted>0</tilted></_>
    <_>
      <rects>
        <_>
          14 32 6 4 -1.</_>
        <_>
          14 34 6 2 2.</_></rects>
      <tilted>0</tilted></_>
    <_>
      <rects>
        <_>
          14 33 9 4 -1.</_>
        <_>
          14 35 9 2 2.</_></rects>
      <tilted>0</tilted></_>
    <_>
      <rects>
        <_>
          14 34 3 4 -1.</_>
        <_>
          14 36 3 2 2.</_></rects>
      <tilted>0</tilted></_>
    <_>
      <rects>
        <_>
          15 10 12 21 -1.</_>
        <_>
          15 17 12 7 3.</_></rects>
      <tilted>0</tilted></_>
    <_>
      <rects>
        <_>
          15 13 11 8 -1.</_>
        <_>
          15 17 11 4 2.</_></rects>
      <tilted>0</tilted></_>
    <_>
      <rects>
        <_>
          15 16 15 7 -1.</_>
        <_>
          20 16 5 7 3.</_></rects>
      <tilted>0</tilted></_>
    <_>
      <rects>
        <_>
          15 17 12 7 -1.</_>
        <_>
          19 17 4 7 3.</_></rects>
      <tilted>0</tilted></_>
    <_>
      <rects>
        <_>
          15 19 18 8 -1.</_>
        <_>
          21 19 6 8 3.</_></rects>
      <tilted>0</tilted></_>
    <_>
      <rects>
        <_>
          15 20 17 10 -1.</_>
        <_>
          15 25 17 5 2.</_></rects>
      <tilted>0</tilted></_>
    <_>
      <rects>
        <_>
          15 23 10 7 -1.</_>
        <_>
          20 23 5 7 2.</_></rects>
      <tilted>0</tilted></_>
    <_>
      <rects>
        <_>
          15 32 6 2 -1.</_>
        <_>
          18 32 3 2 2.</_></rects>
      <tilted>0</tilted></_>
    <_>
      <rects>
        <_>
          15 32 6 6 -1.</_>
        <_>
          15 35 6 3 2.</_></rects>
      <tilted>0</tilted></_>
    <_>
      <rects>
        <_>
          15 32 21 16 -1.</_>
        <_>
          15 40 21 8 2.</_></rects>
      <tilted>0</tilted></_>
    <_>
      <rects>
        <_>
          16 0 24 16 -1.</_>
        <_>
          16 8 24 8 2.</_></rects>
      <tilted>0</tilted></_>
    <_>
      <rects>
        <_>
          16 14 12 8 -1.</_>
        <_>
          20 14 4 8 3.</_></rects>
      <tilted>0</tilted></_>
    <_>
      <rects>
        <_>
          16 15 18 20 -1.</_>
        <_>
          22 15 6 20 3.</_></rects>
      <tilted>0</tilted></_>
    <_>
      <rects>
        <_>
          16 17 15 6 -1.</_>
        <_>
          21 17 5 6 3.</_></rects>
      <tilted>0</tilted></_>
    <_>
      <rects>
        <_>
          16 18 17 14 -1.</_>
        <_>
          16 25 17 7 2.</_></rects>
      <tilted>0</tilted></_>
    <_>
      <rects>
        <_>
          16 32 19 15 -1.</_>
        <_>
          16 37 19 5 3.</_></rects>
      <tilted>0</tilted></_>
    <_>
      <rects>
        <_>
          17 12 15 15 -1.</_>
        <_>
          22 12 5 15 3.</_></rects>
      <tilted>0</tilted></_>
    <_>
      <rects>
        <_>
          17 15 2 16 -1.</_>
        <_>
          17 23 2 8 2.</_></rects>
      <tilted>0</tilted></_>
    <_>
      <rects>
        <_>
          17 19 15 7 -1.</_>
        <_>
          22 19 5 7 3.</_></rects>
      <tilted>0</tilted></_>
    <_>
      <rects>
        <_>
          18 12 12 10 -1.</_>
        <_>
          22 12 4 10 3.</_></rects>
      <tilted>0</tilted></_>
    <_>
      <rects>
        <_>
          18 14 15 9 -1.</_>
        <_>
          23 14 5 9 3.</_></rects>
      <tilted>0</tilted></_>
    <_>
      <rects>
        <_>
          18 15 15 9 -1.</_>
        <_>
          23 15 5 9 3.</_></rects>
      <tilted>0</tilted></_>
    <_>
      <rects>
        <_>
          18 18 18 5 -1.</_>
        <_>
          24 18 6 5 3.</_></rects>
      <tilted>0</tilted></_>
    <_>
      <rects>
        <_>
          18 18 13 8 -1.</_>
        <_>
          18 22 13 4 2.</_></rects>
      <tilted>0</tilted></_>
    <_>
      <rects>
        <_>
          18 31 1 4 -1.</_>
        <_>
          18 33 1 2 2.</_></rects>
      <tilted>0</tilted></_>
    <_>
      <rects>
        <_>
          19 16 4 20 -1.</_>
        <_>
          21 16 2 20 2.</_></rects>
      <tilted>0</tilted></_>
    <_>
      <rects>
        <_>
          19 16 12 8 -1.</_>
        <_>
          23 16 4 8 3.</_></rects>
      <tilted>0</tilted></_>
    <_>
      <rects>
        <_>
          19 19 12 7 -1.</_>
        <_>
          23 19 4 7 3.</_></rects>
      <tilted>0</tilted></_>
    <_>
      <rects>
        <_>
          19 19 12 10 -1.</_>
        <_>
          19 24 12 5 2.</_></rects>
      <tilted>0</tilted></_>
    <_>
      <rects>
        <_>
          19 25 10 9 -1.</_>
        <_>
          19 28 10 3 3.</_></rects>
      <tilted>0</tilted></_>
    <_>
      <rects>
        <_>
          19 29 4 1 -1.</_>
        <_>
          21 29 2 1 2.</_></rects>
      <tilted>0</tilted></_>
    <_>
      <rects>
        <_>
          19 36 11 12 -1.</_>
        <_>
          19 42 11 6 2.</_></rects>
      <tilted>0</tilted></_>
    <_>
      <rects>
        <_>
          19 37 7 2 -1.</_>
        <_>
          19 38 7 1 2.</_></rects>
      <tilted>0</tilted></_>
    <_>
      <rects>
        <_>
          20 0 9 15 -1.</_>
        <_>
          20 5 9 5 3.</_></rects>
      <tilted>0</tilted></_>
    <_>
      <rects>
        <_>
          20 13 10 18 -1.</_>
        <_>
          20 19 10 6 3.</_></rects>
      <tilted>0</tilted></_>
    <_>
      <rects>
        <_>
          20 15 15 10 -1.</_>
        <_>
          20 20 15 5 2.</_></rects>
      <tilted>0</tilted></_>
    <_>
      <rects>
        <_>
          20 17 7 10 -1.</_>
        <_>
          20 22 7 5 2.</_></rects>
      <tilted>0</tilted></_>
    <_>
      <rects>
        <_>
          20 22 13 8 -1.</_>
        <_>
          20 26 13 4 2.</_></rects>
      <tilted>0</tilted></_>
    <_>
      <rects>
        <_>
          20 27 2 4 -1.</_>
        <_>
          21 27 1 4 2.</_></rects>
      <tilted>0</tilted></_>
    <_>
      <rects>
        <_>
          20 34 3 4 -1.</_>
        <_>
          21 34 1 4 3.</_></rects>
      <tilted>0</tilted></_>
    <_>
      <rects>
        <_>
          20 34 14 14 -1.</_>
        <_>
          20 34 7 7 2.</_>
        <_>
          27 41 7 7 2.</_></rects>
      <tilted>0</tilted></_>
    <_>
      <rects>
        <_>
          21 1 6 12 -1.</_>
        <_>
          21 5 6 4 3.</_></rects>
      <tilted>0</tilted></_>
    <_>
      <rects>
        <_>
          21 8 11 4 -1.</_>
        <_>
          21 10 11 2 2.</_></rects>
      <tilted>0</tilted></_>
    <_>
      <rects>
        <_>
          21 13 10 18 -1.</_>
        <_>
          21 19 10 6 3.</_></rects>
      <tilted>0</tilted></_>
    <_>
      <rects>
        <_>
          21 15 12 15 -1.</_>
        <_>
          21 20 12 5 3.</_></rects>
      <tilted>0</tilted></_>
    <_>
      <rects>
        <_>
          21 16 7 10 -1.</_>
        <_>
          21 21 7 5 2.</_></rects>
      <tilted>0</tilted></_>
    <_>
      <rects>
        <_>
          21 27 5 3 -1.</_>
        <_>
          21 28 5 1 3.</_></rects>
      <tilted>0</tilted></_>
    <_>
      <rects>
        <_>
          21 29 7 12 -1.</_>
        <_>
          21 33 7 4 3.</_></rects>
      <tilted>0</tilted></_>
    <_>
      <rects>
        <_>
          21 30 7 12 -1.</_>
        <_>
          21 34 7 4 3.</_></rects>
      <tilted>0</tilted></_>
    <_>
      <rects>
        <_>
          21 33 11 15 -1.</_>
        <_>
          21 38 11 5 3.</_></rects>
      <tilted>0</tilted></_>
    <_>
      <rects>
        <_>
          21 36 8 12 -1.</_>
        <_>
          21 40 8 4 3.</_></rects>
      <tilted>0</tilted></_>
    <_>
      <rects>
        <_>
          21 37 4 4 -1.</_>
        <_>
          21 39 4 2 2.</_></rects>
      <tilted>0</tilted></_>
    <_>
      <rects>
        <_>
          21 39 4 2 -1.</_>
        <_>
          21 40 4 1 2.</_></rects>
      <tilted>0</tilted></_>
    <_>
      <rects>
        <_>
          22 7 5 6 -1.</_>
        <_>
          22 10 5 3 2.</_></rects>
      <tilted>0</tilted></_>
    <_>
      <rects>
        <_>
          22 10 18 14 -1.</_>
        <_>
          22 10 9 7 2.</_>
        <_>
          31 17 9 7 2.</_></rects>
      <tilted>0</tilted></_>
    <_>
      <rects>
        <_>
          22 14 9 18 -1.</_>
        <_>
          22 20 9 6 3.</_></rects>
      <tilted>0</tilted></_>
    <_>
      <rects>
        <_>
          22 17 1 2 -1.</_>
        <_>
          22 18 1 1 2.</_></rects>
      <tilted>0</tilted></_>
    <_>
      <rects>
        <_>
          22 22 10 8 -1.</_>
        <_>
          22 26 10 4 2.</_></rects>
      <tilted>0</tilted></_>
    <_>
      <rects>
        <_>
          22 23 8 15 -1.</_>
        <_>
          22 28 8 5 3.</_></rects>
      <tilted>0</tilted></_>
    <_>
      <rects>
        <_>
          22 31 3 2 -1.</_>
        <_>
          22 32 3 1 2.</_></rects>
      <tilted>0</tilted></_>
    <_>
      <rects>
        <_>
          23 0 4 18 -1.</_>
        <_>
          23 6 4 6 3.</_></rects>
      <tilted>0</tilted></_>
    <_>
      <rects>
        <_>
          23 1 8 15 -1.</_>
        <_>
          23 6 8 5 3.</_></rects>
      <tilted>0</tilted></_>
    <_>
      <rects>
        <_>
          23 13 11 18 -1.</_>
        <_>
          23 19 11 6 3.</_></rects>
      <tilted>0</tilted></_>
    <_>
      <rects>
        <_>
          23 14 1 2 -1.</_>
        <_>
          23 15 1 1 2.</_></rects>
      <tilted>0</tilted></_>
    <_>
      <rects>
        <_>
          23 16 3 18 -1.</_>
        <_>
          23 22 3 6 3.</_></rects>
      <tilted>0</tilted></_>
    <_>
      <rects>
        <_>
          23 16 6 12 -1.</_>
        <_>
          23 22 6 6 2.</_></rects>
      <tilted>0</tilted></_>
    <_>
      <rects>
        <_>
          23 17 4 14 -1.</_>
        <_>
          23 24 4 7 2.</_></rects>
      <tilted>0</tilted></_>
    <_>
      <rects>
        <_>
          23 19 7 3 -1.</_>
        <_>
          23 20 7 1 3.</_></rects>
      <tilted>0</tilted></_>
    <_>
      <rects>
        <_>
          23 19 8 15 -1.</_>
        <_>
          23 24 8 5 3.</_></rects>
      <tilted>0</tilted></_>
    <_>
      <rects>
        <_>
          23 24 3 8 -1.</_>
        <_>
          23 28 3 4 2.</_></rects>
      <tilted>0</tilted></_>
    <_>
      <rects>
        <_>
          23 27 5 6 -1.</_>
        <_>
          23 30 5 3 2.</_></rects>
      <tilted>0</tilted></_>
    <_>
      <rects>
        <_>
          23 27 12 5 -1.</_>
        <_>
          29 27 6 5 2.</_></rects>
      <tilted>0</tilted></_>
    <_>
      <rects>
        <_>
          23 29 20 4 -1.</_>
        <_>
          33 29 10 4 2.</_></rects>
      <tilted>0</tilted></_>
    <_>
      <rects>
        <_>
          23 33 3 15 -1.</_>
        <_>
          23 38 3 5 3.</_></rects>
      <tilted>0</tilted></_>
    <_>
      <rects>
        <_>
          24 1 3 12 -1.</_>
        <_>
          24 5 3 4 3.</_></rects>
      <tilted>0</tilted></_>
    <_>
      <rects>
        <_>
          24 14 10 18 -1.</_>
        <_>
          24 20 10 6 3.</_></rects>
      <tilted>0</tilted></_>
    <_>
      <rects>
        <_>
          24 15 7 15 -1.</_>
        <_>
          24 20 7 5 3.</_></rects>
      <tilted>0</tilted></_>
    <_>
      <rects>
        <_>
          24 16 14 14 -1.</_>
        <_>
          24 16 7 7 2.</_>
        <_>
          31 23 7 7 2.</_></rects>
      <tilted>0</tilted></_>
    <_>
      <rects>
        <_>
          24 17 4 15 -1.</_>
        <_>
          24 22 4 5 3.</_></rects>
      <tilted>0</tilted></_>
    <_>
      <rects>
        <_>
          24 19 1 2 -1.</_>
        <_>
          24 20 1 1 2.</_></rects>
      <tilted>0</tilted></_>
    <_>
      <rects>
        <_>
          24 19 12 8 -1.</_>
        <_>
          28 19 4 8 3.</_></rects>
      <tilted>0</tilted></_>
    <_>
      <rects>
        <_>
          24 19 12 12 -1.</_>
        <_>
          24 19 6 6 2.</_>
        <_>
          30 25 6 6 2.</_></rects>
      <tilted>0</tilted></_>
    <_>
      <rects>
        <_>
          24 26 12 5 -1.</_>
        <_>
          30 26 6 5 2.</_></rects>
      <tilted>0</tilted></_>
    <_>
      <rects>
        <_>
          24 28 12 4 -1.</_>
        <_>
          30 28 6 4 2.</_></rects>
      <tilted>0</tilted></_>
    <_>
      <rects>
        <_>
          24 33 1 15 -1.</_>
        <_>
          24 38 1 5 3.</_></rects>
      <tilted>0</tilted></_>
    <_>
      <rects>
        <_>
          25 0 5 8 -1.</_>
        <_>
          25 4 5 4 2.</_></rects>
      <tilted>0</tilted></_>
    <_>
      <rects>
        <_>
          25 19 8 15 -1.</_>
        <_>
          29 19 4 15 2.</_></rects>
      <tilted>0</tilted></_>
    <_>
      <rects>
        <_>
          25 22 4 15 -1.</_>
        <_>
          25 27 4 5 3.</_></rects>
      <tilted>0</tilted></_>
    <_>
      <rects>
        <_>
          25 22 10 6 -1.</_>
        <_>
          30 22 5 6 2.</_></rects>
      <tilted>0</tilted></_>
    <_>
      <rects>
        <_>
          25 23 15 6 -1.</_>
        <_>
          30 23 5 6 3.</_></rects>
      <tilted>0</tilted></_>
    <_>
      <rects>
        <_>
          26 12 7 21 -1.</_>
        <_>
          26 19 7 7 3.</_></rects>
      <tilted>0</tilted></_>
    <_>
      <rects>
        <_>
          26 17 6 12 -1.</_>
        <_>
          26 23 6 6 2.</_></rects>
      <tilted>0</tilted></_>
    <_>
      <rects>
        <_>
          26 21 3 18 -1.</_>
        <_>
          26 27 3 6 3.</_></rects>
      <tilted>0</tilted></_>
    <_>
      <rects>
        <_>
          26 21 5 6 -1.</_>
        <_>
          26 23 5 2 3.</_></rects>
      <tilted>0</tilted></_>
    <_>
      <rects>
        <_>
          26 22 8 5 -1.</_>
        <_>
          30 22 4 5 2.</_></rects>
      <tilted>0</tilted></_>
    <_>
      <rects>
        <_>
          26 27 12 5 -1.</_>
        <_>
          32 27 6 5 2.</_></rects>
      <tilted>0</tilted></_>
    <_>
      <rects>
        <_>
          26 32 12 6 -1.</_>
        <_>
          26 34 12 2 3.</_></rects>
      <tilted>0</tilted></_>
    <_>
      <rects>
        <_>
          27 14 6 1 -1.</_>
        <_>
          30 14 3 1 2.</_></rects>
      <tilted>0</tilted></_>
    <_>
      <rects>
        <_>
          27 16 21 12 -1.</_>
        <_>
          34 16 7 12 3.</_></rects>
      <tilted>0</tilted></_>
    <_>
      <rects>
        <_>
          27 20 8 6 -1.</_>
        <_>
          31 20 4 6 2.</_></rects>
      <tilted>0</tilted></_>
    <_>
      <rects>
        <_>
          27 20 10 15 -1.</_>
        <_>
          27 25 10 5 3.</_></rects>
      <tilted>0</tilted></_>
    <_>
      <rects>
        <_>
          27 21 10 4 -1.</_>
        <_>
          32 21 5 4 2.</_></rects>
      <tilted>0</tilted></_>
    <_>
      <rects>
        <_>
          28 11 6 3 -1.</_>
        <_>
          31 11 3 3 2.</_></rects>
      <tilted>0</tilted></_>
    <_>
      <rects>
        <_>
          28 18 4 6 -1.</_>
        <_>
          28 20 4 2 3.</_></rects>
      <tilted>0</tilted></_>
    <_>
      <rects>
        <_>
          28 21 3 6 -1.</_>
        <_>
          28 23 3 2 3.</_></rects>
      <tilted>0</tilted></_>
    <_>
      <rects>
        <_>
          29 15 8 12 -1.</_>
        <_>
          29 21 8 6 2.</_></rects>
      <tilted>0</tilted></_>
    <_>
      <rects>
        <_>
          29 17 2 6 -1.</_>
        <_>
          29 17 1 3 2.</_>
        <_>
          30 20 1 3 2.</_></rects>
      <tilted>0</tilted></_>
    <_>
      <rects>
        <_>
          29 18 1 16 -1.</_>
        <_>
          29 26 1 8 2.</_></rects>
      <tilted>0</tilted></_>
    <_>
      <rects>
        <_>
          29 18 12 10 -1.</_>
        <_>
          35 18 6 10 2.</_></rects>
      <tilted>0</tilted></_>
    <_>
      <rects>
        <_>
          29 20 12 4 -1.</_>
        <_>
          35 20 6 4 2.</_></rects>
      <tilted>0</tilted></_>
    <_>
      <rects>
        <_>
          29 27 9 2 -1.</_>
        <_>
          32 27 3 2 3.</_></rects>
      <tilted>0</tilted></_>
    <_>
      <rects>
        <_>
          30 0 4 18 -1.</_>
        <_>
          30 6 4 6 3.</_></rects>
      <tilted>0</tilted></_>
    <_>
      <rects>
        <_>
          30 11 6 9 -1.</_>
        <_>
          33 11 3 9 2.</_></rects>
      <tilted>0</tilted></_>
    <_>
      <rects>
        <_>
          30 12 8 21 -1.</_>
        <_>
          30 19 8 7 3.</_></rects>
      <tilted>0</tilted></_>
    <_>
      <rects>
        <_>
          30 15 8 5 -1.</_>
        <_>
          34 15 4 5 2.</_></rects>
      <tilted>0</tilted></_>
    <_>
      <rects>
        <_>
          30 16 10 8 -1.</_>
        <_>
          35 16 5 8 2.</_></rects>
      <tilted>0</tilted></_>
    <_>
      <rects>
        <_>
          30 18 3 6 -1.</_>
        <_>
          30 20 3 2 3.</_></rects>
      <tilted>0</tilted></_>
    <_>
      <rects>
        <_>
          30 21 12 7 -1.</_>
        <_>
          36 21 6 7 2.</_></rects>
      <tilted>0</tilted></_>
    <_>
      <rects>
        <_>
          31 12 4 1 -1.</_>
        <_>
          33 12 2 1 2.</_></rects>
      <tilted>0</tilted></_>
    <_>
      <rects>
        <_>
          31 22 12 9 -1.</_>
        <_>
          37 22 6 9 2.</_></rects>
      <tilted>0</tilted></_>
    <_>
      <rects>
        <_>
          33 24 3 3 -1.</_>
        <_>
          33 25 3 1 3.</_></rects>
      <tilted>0</tilted></_>
    <_>
      <rects>
        <_>
          34 27 2 1 -1.</_>
        <_>
          35 27 1 1 2.</_></rects>
      <tilted>0</tilted></_>
    <_>
      <rects>
        <_>
          35 26 2 15 -1.</_>
        <_>
          35 31 2 5 3.</_></rects>
      <tilted>0</tilted></_>
    <_>
      <rects>
        <_>
          36 17 6 4 -1.</_>
        <_>
          36 17 3 2 2.</_>
        <_>
          39 19 3 2 2.</_></rects>
      <tilted>0</tilted></_>
    <_>
      <rects>
        <_>
          36 17 12 18 -1.</_>
        <_>
          42 17 6 18 2.</_></rects>
      <tilted>0</tilted></_>
    <_>
      <rects>
        <_>
          36 20 12 8 -1.</_>
        <_>
          40 20 4 8 3.</_></rects>
      <tilted>0</tilted></_>
    <_>
      <rects>
        <_>
          36 23 12 2 -1.</_>
        <_>
          40 23 4 2 3.</_></rects>
      <tilted>0</tilted></_>
    <_>
      <rects>
        <_>
          37 19 2 3 -1.</_>
        <_>
          38 19 1 3 2.</_></rects>
      <tilted>0</tilted></_>
    <_>
      <rects>
        <_>
          37 21 4 2 -1.</_>
        <_>
          39 21 2 2 2.</_></rects>
      <tilted>0</tilted></_>
    <_>
      <rects>
        <_>
          39 19 8 8 -1.</_>
        <_>
          39 19 4 4 2.</_>
        <_>
          43 23 4 4 2.</_></rects>
      <tilted>0</tilted></_>
    <_>
      <rects>
        <_>
          39 21 9 5 -1.</_>
        <_>
          42 21 3 5 3.</_></rects>
      <tilted>0</tilted></_>
    <_>
      <rects>
        <_>
          40 7 8 22 -1.</_>
        <_>
          40 7 4 11 2.</_>
        <_>
          44 18 4 11 2.</_></rects>
      <tilted>0</tilted></_>
    <_>
      <rects>
        <_>
          40 15 6 10 -1.</_>
        <_>
          40 15 3 5 2.</_>
        <_>
          43 20 3 5 2.</_></rects>
      <tilted>0</tilted></_>
    <_>
      <rects>
        <_>
          40 25 8 12 -1.</_>
        <_>
          40 25 4 6 2.</_>
        <_>
          44 31 4 6 2.</_></rects>
      <tilted>0</tilted></_>
    <_>
      <rects>
        <_>
          41 15 6 12 -1.</_>
        <_>
          41 15 3 6 2.</_>
        <_>
          44 21 3 6 2.</_></rects>
      <tilted>0</tilted></_>
    <_>
      <rects>
        <_>
          41 26 4 10 -1.</_>
        <_>
          41 26 2 5 2.</_>
        <_>
          43 31 2 5 2.</_></rects>
      <tilted>0</tilted></_>
    <_>
      <rects>
        <_>
          42 19 6 24 -1.</_>
        <_>
          42 19 3 12 2.</_>
        <_>
          45 31 3 12 2.</_></rects>
      <tilted>0</tilted></_>
    <_>
      <rects>
        <_>
          42 19 6 13 -1.</_>
        <_>
          45 19 3 13 2.</_></rects>
      <tilted>0</tilted></_>
    <_>
      <rects>
        <_>
          42 22 6 12 -1.</_>
        <_>
          42 22 3 6 2.</_>
        <_>
          45 28 3 6 2.</_></rects>
      <tilted>0</tilted></_>
    <_>
      <rects>
        <_>
          44 11 2 16 -1.</_>
        <_>
          44 19 2 8 2.</_></rects>
      <tilted>0</tilted></_>
    <_>
      <rects>
        <_>
          46 15 2 14 -1.</_>
        <_>
          46 15 1 7 2.</_>
        <_>
          47 22 1 7 2.</_></rects>
      <tilted>0</tilted></_></features></cascade>
</opencv_storage>
