<?xml version="1.0"?>
<opencv_storage>
<cascade>
  <stageType>BOOST</stageType>
  <featureType>HAAR</featureType>
  <height>40</height>
  <width>40</width>
  <stageParams>
    <boostType>GAB</boostType>
    <minHitRate>9.9900001287460327e-01</minHitRate>
    <maxFalseAlarm>5.0000000000000000e-01</maxFalseAlarm>
    <weightTrimRate>9.4999999999999996e-01</weightTrimRate>
    <maxDepth>1</maxDepth>
    <maxWeakCount>100</maxWeakCount></stageParams>
  <featureParams>
    <maxCatCount>0</maxCatCount>
    <featSize>1</featSize>
    <mode>BASIC</mode></featureParams>
  <stageNum>25</stageNum>
  <stages>
    <!-- stage 0 -->
    <_>
      <maxWeakCount>5</maxWeakCount>
      <stageThreshold>-8.5951721668243408e-01</stageThreshold>
      <weakClassifiers>
        <_>
          <internalNodes>
            0 -1 250 1.9434759451542050e-04</internalNodes>
          <leafValues>
            -9.3527507781982422e-01 5.3369480371475220e-01</leafValues></_>
        <_>
          <internalNodes>
            0 -1 178 4.1116345673799515e-03</internalNodes>
          <leafValues>
            4.3539279699325562e-01 -8.5004180669784546e-01</leafValues></_>
        <_>
          <internalNodes>
            0 -1 248 3.2084385748021305e-04</internalNodes>
          <leafValues>
            3.0730816721916199e-01 -8.4843838214874268e-01</leafValues></_>
        <_>
          <internalNodes>
            0 -1 100 -1.6312120715156198e-03</internalNodes>
          <leafValues>
            -9.3753242492675781e-01 2.2985395789146423e-01</leafValues></_>
        <_>
          <internalNodes>
            0 -1 164 2.2508548572659492e-03</internalNodes>
          <leafValues>
            2.5894948840141296e-01 -9.1352003812789917e-01</leafValues></_></weakClassifiers></_>
    <!-- stage 1 -->
    <_>
      <maxWeakCount>6</maxWeakCount>
      <stageThreshold>-1.1599149703979492e+00</stageThreshold>
      <weakClassifiers>
        <_>
          <internalNodes>
            0 -1 230 1.1125253877253272e-05</internalNodes>
          <leafValues>
            -7.2315037250518799e-01 5.9525823593139648e-01</leafValues></_>
        <_>
          <internalNodes>
            0 -1 378 -7.5475411722436547e-04</internalNodes>
          <leafValues>
            -8.9600580930709839e-01 3.5365346074104309e-01</leafValues></_>
        <_>
          <internalNodes>
            0 -1 355 -6.5322724367433693e-06</internalNodes>
          <leafValues>
            4.1997671127319336e-01 -7.3995018005371094e-01</leafValues></_>
        <_>
          <internalNodes>
            0 -1 429 3.1113123986870050e-04</internalNodes>
          <leafValues>
            -6.4157032966613770e-01 3.4258282184600830e-01</leafValues></_>
        <_>
          <internalNodes>
            0 -1 117 -1.0645735310390592e-03</internalNodes>
          <leafValues>
            -8.0469971895217896e-01 3.1551048159599304e-01</leafValues></_>
        <_>
          <internalNodes>
            0 -1 122 -1.0210367327090353e-04</internalNodes>
          <leafValues>
            2.7559193968772888e-01 -6.4174032211303711e-01</leafValues></_></weakClassifiers></_>
    <!-- stage 2 -->
    <_>
      <maxWeakCount>9</maxWeakCount>
      <stageThreshold>-1.5811179876327515e+00</stageThreshold>
      <weakClassifiers>
        <_>
          <internalNodes>
            0 -1 356 1.0917496401816607e-03</internalNodes>
          <leafValues>
            5.9322035312652588e-01 -7.1428573131561279e-01</leafValues></_>
        <_>
          <internalNodes>
            0 -1 349 -5.0332061946392059e-03</internalNodes>
          <leafValues>
            -8.5716605186462402e-01 3.1454652547836304e-01</leafValues></_>
        <_>
          <internalNodes>
            0 -1 207 1.6902030911296606e-03</internalNodes>
          <leafValues>
            2.2748099267482758e-01 -9.0347808599472046e-01</leafValues></_>
        <_>
          <internalNodes>
            0 -1 390 -5.0502805970609188e-04</internalNodes>
          <leafValues>
            3.7102803587913513e-01 -5.5639374256134033e-01</leafValues></_>
        <_>
          <internalNodes>
            0 -1 66 -8.2345660775899887e-03</internalNodes>
          <leafValues>
            -8.3410012722015381e-01 2.5442653894424438e-01</leafValues></_>
        <_>
          <internalNodes>
            0 -1 208 5.8001791330752894e-05</internalNodes>
          <leafValues>
            -9.2399173974990845e-01 1.6990685462951660e-01</leafValues></_>
        <_>
          <internalNodes>
            0 -1 209 1.0784582700580359e-03</internalNodes>
          <leafValues>
            2.0369188487529755e-01 -7.5933212041854858e-01</leafValues></_>
        <_>
          <internalNodes>
            0 -1 260 4.8991153016686440e-04</internalNodes>
          <leafValues>
            -5.0825673341751099e-01 3.7098932266235352e-01</leafValues></_>
        <_>
          <internalNodes>
            0 -1 205 1.8508725333958864e-03</internalNodes>
          <leafValues>
            2.0007003843784332e-01 -8.1617814302444458e-01</leafValues></_></weakClassifiers></_>
    <!-- stage 3 -->
    <_>
      <maxWeakCount>5</maxWeakCount>
      <stageThreshold>-4.6135267615318298e-01</stageThreshold>
      <weakClassifiers>
        <_>
          <internalNodes>
            0 -1 307 1.3379212759900838e-05</internalNodes>
          <leafValues>
            -5.8004158735275269e-01 6.0679179430007935e-01</leafValues></_>
        <_>
          <internalNodes>
            0 -1 194 -7.1029178798198700e-03</internalNodes>
          <leafValues>
            -8.3867704868316650e-01 3.3066174387931824e-01</leafValues></_>
        <_>
          <internalNodes>
            0 -1 272 1.4845023542875424e-05</internalNodes>
          <leafValues>
            -6.5993279218673706e-01 3.4827789664268494e-01</leafValues></_>
        <_>
          <internalNodes>
            0 -1 348 -9.1686351879616268e-06</internalNodes>
          <leafValues>
            3.1817013025283813e-01 -7.3987108469009399e-01</leafValues></_>
        <_>
          <internalNodes>
            0 -1 187 -1.3413812965154648e-02</internalNodes>
          <leafValues>
            -8.7842088937759399e-01 2.6377490162849426e-01</leafValues></_></weakClassifiers></_>
    <!-- stage 4 -->
    <_>
      <maxWeakCount>8</maxWeakCount>
      <stageThreshold>-1.1589521169662476e+00</stageThreshold>
      <weakClassifiers>
        <_>
          <internalNodes>
            0 -1 48 2.7028782642446458e-04</internalNodes>
          <leafValues>
            -4.2810985445976257e-01 6.7787969112396240e-01</leafValues></_>
        <_>
          <internalNodes>
            0 -1 37 1.6510473506059498e-04</internalNodes>
          <leafValues>
            -3.7298265099525452e-01 6.3667452335357666e-01</leafValues></_>
        <_>
          <internalNodes>
            0 -1 274 8.0886675277724862e-05</internalNodes>
          <leafValues>
            -5.1035320758819580e-01 4.9633371829986572e-01</leafValues></_>
        <_>
          <internalNodes>
            0 -1 385 -2.0088267046958208e-04</internalNodes>
          <leafValues>
            3.7672176957130432e-01 -6.3154643774032593e-01</leafValues></_>
        <_>
          <internalNodes>
            0 -1 322 1.1869042282341979e-05</internalNodes>
          <leafValues>
            -5.0176179409027100e-01 4.5412898063659668e-01</leafValues></_>
        <_>
          <internalNodes>
            0 -1 138 -1.5657637050026096e-05</internalNodes>
          <leafValues>
            6.4378315210342407e-01 -3.5948362946510315e-01</leafValues></_>
        <_>
          <internalNodes>
            0 -1 409 -3.4988073166459799e-03</internalNodes>
          <leafValues>
            -8.3694100379943848e-01 2.6305112242698669e-01</leafValues></_>
        <_>
          <internalNodes>
            0 -1 295 2.2295658709481359e-04</internalNodes>
          <leafValues>
            -4.8519933223724365e-01 4.8889061808586121e-01</leafValues></_></weakClassifiers></_>
    <!-- stage 5 -->
    <_>
      <maxWeakCount>13</maxWeakCount>
      <stageThreshold>-9.9295091629028320e-01</stageThreshold>
      <weakClassifiers>
        <_>
          <internalNodes>
            0 -1 50 4.2727607069537044e-04</internalNodes>
          <leafValues>
            -3.4660032391548157e-01 6.1083251237869263e-01</leafValues></_>
        <_>
          <internalNodes>
            0 -1 227 1.2344622984528542e-02</internalNodes>
          <leafValues>
            3.0268016457557678e-01 -7.2090816497802734e-01</leafValues></_>
        <_>
          <internalNodes>
            0 -1 128 3.5384384682402015e-04</internalNodes>
          <leafValues>
            -7.8855448961257935e-01 2.8880771994590759e-01</leafValues></_>
        <_>
          <internalNodes>
            0 -1 460 -4.5887050218880177e-03</internalNodes>
          <leafValues>
            7.5880575180053711e-01 -2.6811459660530090e-01</leafValues></_>
        <_>
          <internalNodes>
            0 -1 450 -2.3557974491268396e-03</internalNodes>
          <leafValues>
            5.6055951118469238e-01 -2.8186157345771790e-01</leafValues></_>
        <_>
          <internalNodes>
            0 -1 333 -4.2657861486077309e-03</internalNodes>
          <leafValues>
            -9.0366333723068237e-01 1.7962747812271118e-01</leafValues></_>
        <_>
          <internalNodes>
            0 -1 264 5.8380531845614314e-04</internalNodes>
          <leafValues>
            -4.5341327786445618e-01 3.5813871026039124e-01</leafValues></_>
        <_>
          <internalNodes>
            0 -1 43 3.5521091194823384e-04</internalNodes>
          <leafValues>
            -4.3185892701148987e-01 3.8048854470252991e-01</leafValues></_>
        <_>
          <internalNodes>
            0 -1 72 -7.5895368354395032e-05</internalNodes>
          <leafValues>
            5.9271579980850220e-01 -2.6906502246856689e-01</leafValues></_>
        <_>
          <internalNodes>
            0 -1 85 1.2582589406520128e-03</internalNodes>
          <leafValues>
            2.5812566280364990e-01 -7.8682631254196167e-01</leafValues></_>
        <_>
          <internalNodes>
            0 -1 136 1.3475582818500698e-04</internalNodes>
          <leafValues>
            -2.7916225790977478e-01 6.6952133178710938e-01</leafValues></_>
        <_>
          <internalNodes>
            0 -1 127 -4.5943940058350563e-03</internalNodes>
          <leafValues>
            -7.8896713256835938e-01 2.5612458586692810e-01</leafValues></_>
        <_>
          <internalNodes>
            0 -1 325 -5.7476339861750603e-05</internalNodes>
          <leafValues>
            5.5928176641464233e-01 -3.4247571229934692e-01</leafValues></_></weakClassifiers></_>
    <!-- stage 6 -->
    <_>
      <maxWeakCount>14</maxWeakCount>
      <stageThreshold>-1.3439657688140869e+00</stageThreshold>
      <weakClassifiers>
        <_>
          <internalNodes>
            0 -1 99 1.6301578143611550e-03</internalNodes>
          <leafValues>
            4.7641509771347046e-01 -6.2804877758026123e-01</leafValues></_>
        <_>
          <internalNodes>
            0 -1 11 8.3163343369960785e-03</internalNodes>
          <leafValues>
            -2.8897553682327271e-01 6.0611796379089355e-01</leafValues></_>
        <_>
          <internalNodes>
            0 -1 339 -1.2786567676812410e-03</internalNodes>
          <leafValues>
            -8.4094440937042236e-01 2.3363211750984192e-01</leafValues></_>
        <_>
          <internalNodes>
            0 -1 82 1.0681292769731954e-04</internalNodes>
          <leafValues>
            -8.0180811882019043e-01 1.8394725024700165e-01</leafValues></_>
        <_>
          <internalNodes>
            0 -1 235 3.3518084092065692e-04</internalNodes>
          <leafValues>
            -4.6331202983856201e-01 2.9478177428245544e-01</leafValues></_>
        <_>
          <internalNodes>
            0 -1 304 2.5831249076873064e-03</internalNodes>
          <leafValues>
            1.9903430342674255e-01 -7.4515551328659058e-01</leafValues></_>
        <_>
          <internalNodes>
            0 -1 340 1.2935497215948999e-04</internalNodes>
          <leafValues>
            -4.8488000035285950e-01 2.9231306910514832e-01</leafValues></_>
        <_>
          <internalNodes>
            0 -1 288 -4.7938810894265771e-04</internalNodes>
          <leafValues>
            -7.9682123661041260e-01 1.8233269453048706e-01</leafValues></_>
        <_>
          <internalNodes>
            0 -1 155 -1.7252400517463684e-02</internalNodes>
          <leafValues>
            5.0771385431289673e-01 -2.9286736249923706e-01</leafValues></_>
        <_>
          <internalNodes>
            0 -1 12 -2.3196265101432800e-03</internalNodes>
          <leafValues>
            6.2612396478652954e-01 -2.4186953902244568e-01</leafValues></_>
        <_>
          <internalNodes>
            0 -1 353 -4.1659791022539139e-03</internalNodes>
          <leafValues>
            -8.4579700231552124e-01 1.8645772337913513e-01</leafValues></_>
        <_>
          <internalNodes>
            0 -1 344 -5.5886292830109596e-04</internalNodes>
          <leafValues>
            2.5643390417098999e-01 -4.9596250057220459e-01</leafValues></_>
        <_>
          <internalNodes>
            0 -1 125 -2.9201779398135841e-04</internalNodes>
          <leafValues>
            3.2288992404937744e-01 -4.4024616479873657e-01</leafValues></_>
        <_>
          <internalNodes>
            0 -1 31 8.4069720469415188e-04</internalNodes>
          <leafValues>
            -3.2066008448600769e-01 4.4049176573753357e-01</leafValues></_></weakClassifiers></_>
    <!-- stage 7 -->
    <_>
      <maxWeakCount>12</maxWeakCount>
      <stageThreshold>-1.2887698411941528e+00</stageThreshold>
      <weakClassifiers>
        <_>
          <internalNodes>
            0 -1 226 7.5990506447851658e-03</internalNodes>
          <leafValues>
            4.9609982967376709e-01 -7.4213838577270508e-01</leafValues></_>
        <_>
          <internalNodes>
            0 -1 101 3.9611733518540859e-04</internalNodes>
          <leafValues>
            2.4202938377857208e-01 -7.9716610908508301e-01</leafValues></_>
        <_>
          <internalNodes>
            0 -1 120 -8.5825473070144653e-04</internalNodes>
          <leafValues>
            -7.8361040353775024e-01 2.2703757882118225e-01</leafValues></_>
        <_>
          <internalNodes>
            0 -1 315 9.3720249424222857e-05</internalNodes>
          <leafValues>
            -7.2796720266342163e-01 2.3881384730339050e-01</leafValues></_>
        <_>
          <internalNodes>
            0 -1 433 -2.7647456154227257e-02</internalNodes>
          <leafValues>
            6.5813028812408447e-01 -3.1366175413131714e-01</leafValues></_>
        <_>
          <internalNodes>
            0 -1 255 2.3826467804610729e-04</internalNodes>
          <leafValues>
            -6.6919690370559692e-01 2.2575747966766357e-01</leafValues></_>
        <_>
          <internalNodes>
            0 -1 362 -1.2507417704910040e-03</internalNodes>
          <leafValues>
            -8.7212586402893066e-01 1.4420703053474426e-01</leafValues></_>
        <_>
          <internalNodes>
            0 -1 392 -3.0115665867924690e-04</internalNodes>
          <leafValues>
            2.4935461580753326e-01 -4.9997758865356445e-01</leafValues></_>
        <_>
          <internalNodes>
            0 -1 342 9.7753247246146202e-04</internalNodes>
          <leafValues>
            1.5254166722297668e-01 -8.0909734964370728e-01</leafValues></_>
        <_>
          <internalNodes>
            0 -1 161 -3.4669419983401895e-04</internalNodes>
          <leafValues>
            2.0656527578830719e-01 -6.1790972948074341e-01</leafValues></_>
        <_>
          <internalNodes>
            0 -1 371 -6.2838718295097351e-03</internalNodes>
          <leafValues>
            4.4246971607208252e-01 -2.9058852791786194e-01</leafValues></_>
        <_>
          <internalNodes>
            0 -1 245 -1.4675573911517859e-03</internalNodes>
          <leafValues>
            -8.6760550737380981e-01 1.3129213452339172e-01</leafValues></_></weakClassifiers></_>
    <!-- stage 8 -->
    <_>
      <maxWeakCount>14</maxWeakCount>
      <stageThreshold>-1.1108194589614868e+00</stageThreshold>
      <weakClassifiers>
        <_>
          <internalNodes>
            0 -1 231 6.5591135353315622e-05</internalNodes>
          <leafValues>
            -5.8918917179107666e-01 5.0243902206420898e-01</leafValues></_>
        <_>
          <internalNodes>
            0 -1 246 1.2501322198659182e-03</internalNodes>
          <leafValues>
            2.2793671488761902e-01 -7.5730162858963013e-01</leafValues></_>
        <_>
          <internalNodes>
            0 -1 428 3.0422559939324856e-04</internalNodes>
          <leafValues>
            -5.3568398952484131e-01 3.1041282415390015e-01</leafValues></_>
        <_>
          <internalNodes>
            0 -1 420 -1.9831333309412003e-02</internalNodes>
          <leafValues>
            6.1544615030288696e-01 -3.0871441960334778e-01</leafValues></_>
        <_>
          <internalNodes>
            0 -1 188 1.0705240129027516e-04</internalNodes>
          <leafValues>
            -7.3377305269241333e-01 2.1466538310050964e-01</leafValues></_>
        <_>
          <internalNodes>
            0 -1 279 1.1105132289230824e-03</internalNodes>
          <leafValues>
            1.7461013793945312e-01 -7.9736232757568359e-01</leafValues></_>
        <_>
          <internalNodes>
            0 -1 448 3.2318518497049809e-03</internalNodes>
          <leafValues>
            -3.4456551074981689e-01 4.6800932288169861e-01</leafValues></_>
        <_>
          <internalNodes>
            0 -1 457 -2.9515512287616730e-03</internalNodes>
          <leafValues>
            5.2957928180694580e-01 -1.9746464490890503e-01</leafValues></_>
        <_>
          <internalNodes>
            0 -1 81 -9.7164267208427191e-04</internalNodes>
          <leafValues>
            -7.2962969541549683e-01 1.5787389874458313e-01</leafValues></_>
        <_>
          <internalNodes>
            0 -1 459 5.9740885626524687e-04</internalNodes>
          <leafValues>
            -2.2790436446666718e-01 6.3346010446548462e-01</leafValues></_>
        <_>
          <internalNodes>
            0 -1 110 2.1772910840809345e-03</internalNodes>
          <leafValues>
            2.3545539379119873e-01 -6.2886232137680054e-01</leafValues></_>
        <_>
          <internalNodes>
            0 -1 220 -6.8197310902178288e-03</internalNodes>
          <leafValues>
            5.9189224243164062e-01 -2.3757958412170410e-01</leafValues></_>
        <_>
          <internalNodes>
            0 -1 169 -7.0489256177097559e-04</internalNodes>
          <leafValues>
            -9.0833210945129395e-01 1.7641447484493256e-01</leafValues></_>
        <_>
          <internalNodes>
            0 -1 223 -3.1094631412997842e-04</internalNodes>
          <leafValues>
            2.3924991488456726e-01 -4.8567906022071838e-01</leafValues></_></weakClassifiers></_>
    <!-- stage 9 -->
    <_>
      <maxWeakCount>15</maxWeakCount>
      <stageThreshold>-1.2530782222747803e+00</stageThreshold>
      <weakClassifiers>
        <_>
          <internalNodes>
            0 -1 154 -3.9458606624975801e-04</internalNodes>
          <leafValues>
            -6.6265058517456055e-01 4.1820874810218811e-01</leafValues></_>
        <_>
          <internalNodes>
            0 -1 2 1.2181276455521584e-02</internalNodes>
          <leafValues>
            -2.1976009011268616e-01 6.5916150808334351e-01</leafValues></_>
        <_>
          <internalNodes>
            0 -1 173 -1.7596931138541549e-04</internalNodes>
          <leafValues>
            3.8506177067756653e-01 -4.4407811760902405e-01</leafValues></_>
        <_>
          <internalNodes>
            0 -1 351 -2.0502097904682159e-03</internalNodes>
          <leafValues>
            -7.8951603174209595e-01 1.8873925507068634e-01</leafValues></_>
        <_>
          <internalNodes>
            0 -1 361 -3.6158344300929457e-05</internalNodes>
          <leafValues>
            1.9938834011554718e-01 -6.4366239309310913e-01</leafValues></_>
        <_>
          <internalNodes>
            0 -1 84 -4.5349163701757789e-04</internalNodes>
          <leafValues>
            2.2025494277477264e-01 -5.7665270566940308e-01</leafValues></_>
        <_>
          <internalNodes>
            0 -1 166 8.8552273809909821e-03</internalNodes>
          <leafValues>
            1.9378912448883057e-01 -5.8172017335891724e-01</leafValues></_>
        <_>
          <internalNodes>
            0 -1 416 -2.1433268557302654e-04</internalNodes>
          <leafValues>
            3.9823216199874878e-01 -3.0059567093849182e-01</leafValues></_>
        <_>
          <internalNodes>
            0 -1 444 -6.8906722590327263e-03</internalNodes>
          <leafValues>
            4.9362733960151672e-01 -2.5033429265022278e-01</leafValues></_>
        <_>
          <internalNodes>
            0 -1 306 7.2866200935095549e-04</internalNodes>
          <leafValues>
            1.6741199791431427e-01 -8.8556391000747681e-01</leafValues></_>
        <_>
          <internalNodes>
            0 -1 4 -2.5805854238569736e-03</internalNodes>
          <leafValues>
            5.2184373140335083e-01 -3.0105185508728027e-01</leafValues></_>
        <_>
          <internalNodes>
            0 -1 330 5.5192494983202778e-06</internalNodes>
          <leafValues>
            -5.9731942415237427e-01 1.8398505449295044e-01</leafValues></_>
        <_>
          <internalNodes>
            0 -1 28 8.6683256085962057e-04</internalNodes>
          <leafValues>
            -2.0627076923847198e-01 5.4274952411651611e-01</leafValues></_>
        <_>
          <internalNodes>
            0 -1 104 -2.0448453724384308e-02</internalNodes>
          <leafValues>
            -8.8914263248443604e-01 1.3819764554500580e-01</leafValues></_>
        <_>
          <internalNodes>
            0 -1 462 6.1795482179149985e-04</internalNodes>
          <leafValues>
            -2.3042303323745728e-01 5.2274167537689209e-01</leafValues></_></weakClassifiers></_>
    <!-- stage 10 -->
    <_>
      <maxWeakCount>19</maxWeakCount>
      <stageThreshold>-1.4357417821884155e+00</stageThreshold>
      <weakClassifiers>
        <_>
          <internalNodes>
            0 -1 129 9.5042248722165823e-04</internalNodes>
          <leafValues>
            4.1916167736053467e-01 -6.0606062412261963e-01</leafValues></_>
        <_>
          <internalNodes>
            0 -1 65 -2.8868840308859944e-04</internalNodes>
          <leafValues>
            -7.3633259534835815e-01 1.7184367775917053e-01</leafValues></_>
        <_>
          <internalNodes>
            0 -1 17 1.6299597918987274e-03</internalNodes>
          <leafValues>
            -2.7527675032615662e-01 4.8785239458084106e-01</leafValues></_>
        <_>
          <internalNodes>
            0 -1 175 -7.4421550380066037e-04</internalNodes>
          <leafValues>
            3.1582948565483093e-01 -3.7480357289314270e-01</leafValues></_>
        <_>
          <internalNodes>
            0 -1 286 -8.1060845404863358e-03</internalNodes>
          <leafValues>
            5.3575384616851807e-01 -2.8046476840972900e-01</leafValues></_>
        <_>
          <internalNodes>
            0 -1 19 -1.1436410713940859e-03</internalNodes>
          <leafValues>
            6.4359837770462036e-01 -2.1552838385105133e-01</leafValues></_>
        <_>
          <internalNodes>
            0 -1 94 -3.4652810427360237e-04</internalNodes>
          <leafValues>
            -6.5749955177307129e-01 1.7934012413024902e-01</leafValues></_>
        <_>
          <internalNodes>
            0 -1 238 5.2971839904785156e-03</internalNodes>
          <leafValues>
            -2.5420463085174561e-01 4.4155818223953247e-01</leafValues></_>
        <_>
          <internalNodes>
            0 -1 369 -4.4757882133126259e-03</internalNodes>
          <leafValues>
            5.7445019483566284e-01 -2.4289956688880920e-01</leafValues></_>
        <_>
          <internalNodes>
            0 -1 144 1.2460267171263695e-03</internalNodes>
          <leafValues>
            2.4610307812690735e-01 -5.4581630229949951e-01</leafValues></_>
        <_>
          <internalNodes>
            0 -1 382 -1.7538107931613922e-03</internalNodes>
          <leafValues>
            4.1077199578285217e-01 -3.0269813537597656e-01</leafValues></_>
        <_>
          <internalNodes>
            0 -1 331 3.9631960680708289e-04</internalNodes>
          <leafValues>
            1.2968614697456360e-01 -8.4415429830551147e-01</leafValues></_>
        <_>
          <internalNodes>
            0 -1 27 1.2360441032797098e-03</internalNodes>
          <leafValues>
            -2.7292653918266296e-01 3.8781604170799255e-01</leafValues></_>
        <_>
          <internalNodes>
            0 -1 162 -6.4670629799365997e-03</internalNodes>
          <leafValues>
            -6.3170546293258667e-01 1.8458385765552521e-01</leafValues></_>
        <_>
          <internalNodes>
            0 -1 221 4.3599776108749211e-04</internalNodes>
          <leafValues>
            -3.5525780916213989e-01 3.0319234728813171e-01</leafValues></_>
        <_>
          <internalNodes>
            0 -1 305 -1.2032729500788264e-05</internalNodes>
          <leafValues>
            4.4816893339157104e-01 -2.8251051902770996e-01</leafValues></_>
        <_>
          <internalNodes>
            0 -1 359 4.2679363104980439e-05</internalNodes>
          <leafValues>
            -5.2004325389862061e-01 2.0683738589286804e-01</leafValues></_>
        <_>
          <internalNodes>
            0 -1 393 9.4784343673381954e-05</internalNodes>
          <leafValues>
            -3.5483810305595398e-01 2.7760970592498779e-01</leafValues></_>
        <_>
          <internalNodes>
            0 -1 34 6.8117380142211914e-03</internalNodes>
          <leafValues>
            -1.9673684239387512e-01 5.3507757186889648e-01</leafValues></_></weakClassifiers></_>
    <!-- stage 11 -->
    <_>
      <maxWeakCount>20</maxWeakCount>
      <stageThreshold>-1.3709297180175781e+00</stageThreshold>
      <weakClassifiers>
        <_>
          <internalNodes>
            0 -1 146 4.3285242281854153e-04</internalNodes>
          <leafValues>
            3.9558824896812439e-01 -5.7499998807907104e-01</leafValues></_>
        <_>
          <internalNodes>
            0 -1 96 -7.8886770643293858e-04</internalNodes>
          <leafValues>
            -7.4227613210678101e-01 1.8785892426967621e-01</leafValues></_>
        <_>
          <internalNodes>
            0 -1 405 -1.4684163033962250e-04</internalNodes>
          <leafValues>
            2.5109893083572388e-01 -4.3211194872856140e-01</leafValues></_>
        <_>
          <internalNodes>
            0 -1 368 -1.5240306034684181e-02</internalNodes>
          <leafValues>
            4.9731630086898804e-01 -2.7347338199615479e-01</leafValues></_>
        <_>
          <internalNodes>
            0 -1 181 1.0969252325594425e-03</internalNodes>
          <leafValues>
            -3.5454139113426208e-01 3.0999603867530823e-01</leafValues></_>
        <_>
          <internalNodes>
            0 -1 133 -2.3174751549959183e-03</internalNodes>
          <leafValues>
            -6.6781866550445557e-01 1.4321069419384003e-01</leafValues></_>
        <_>
          <internalNodes>
            0 -1 427 -5.4877990623936057e-04</internalNodes>
          <leafValues>
            3.4877130389213562e-01 -3.0886146426200867e-01</leafValues></_>
        <_>
          <internalNodes>
            0 -1 88 3.9281565696001053e-03</internalNodes>
          <leafValues>
            -1.8589591979980469e-01 5.4513543844223022e-01</leafValues></_>
        <_>
          <internalNodes>
            0 -1 157 -9.0962706599384546e-04</internalNodes>
          <leafValues>
            4.0316528081893921e-01 -2.6237064599990845e-01</leafValues></_>
        <_>
          <internalNodes>
            0 -1 302 1.1033954797312617e-04</internalNodes>
          <leafValues>
            -5.9805828332901001e-01 1.5517872571945190e-01</leafValues></_>
        <_>
          <internalNodes>
            0 -1 131 -1.7073977738618851e-02</internalNodes>
          <leafValues>
            4.8771524429321289e-01 -2.1259351074695587e-01</leafValues></_>
        <_>
          <internalNodes>
            0 -1 106 -3.5782798659056425e-03</internalNodes>
          <leafValues>
            3.5225266218185425e-01 -3.2746067643165588e-01</leafValues></_>
        <_>
          <internalNodes>
            0 -1 113 -1.8381701782345772e-02</internalNodes>
          <leafValues>
            5.4094547033309937e-01 -1.9081261754035950e-01</leafValues></_>
        <_>
          <internalNodes>
            0 -1 80 -7.6835794607177377e-04</internalNodes>
          <leafValues>
            2.4679759144783020e-01 -5.1687484979629517e-01</leafValues></_>
        <_>
          <internalNodes>
            0 -1 38 -1.9240792607888579e-03</internalNodes>
          <leafValues>
            5.1815968751907349e-01 -2.2395204007625580e-01</leafValues></_>
        <_>
          <internalNodes>
            0 -1 328 3.4438613802194595e-03</internalNodes>
          <leafValues>
            2.1676789224147797e-01 -5.0515019893646240e-01</leafValues></_>
        <_>
          <internalNodes>
            0 -1 346 -5.3313130047172308e-04</internalNodes>
          <leafValues>
            -5.5405914783477783e-01 1.7555175721645355e-01</leafValues></_>
        <_>
          <internalNodes>
            0 -1 464 6.4823054708540440e-04</internalNodes>
          <leafValues>
            -1.7114254832267761e-01 6.4960157871246338e-01</leafValues></_>
        <_>
          <internalNodes>
            0 -1 290 4.2142142774537206e-05</internalNodes>
          <leafValues>
            -3.4303247928619385e-01 2.8700670599937439e-01</leafValues></_>
        <_>
          <internalNodes>
            0 -1 137 2.4158424639608711e-04</internalNodes>
          <leafValues>
            -2.2477078437805176e-01 4.6611452102661133e-01</leafValues></_></weakClassifiers></_>
    <!-- stage 12 -->
    <_>
      <maxWeakCount>22</maxWeakCount>
      <stageThreshold>-1.1449332237243652e+00</stageThreshold>
      <weakClassifiers>
        <_>
          <internalNodes>
            0 -1 45 3.6913990043103695e-03</internalNodes>
          <leafValues>
            4.0073800086975098e-01 -5.8367347717285156e-01</leafValues></_>
        <_>
          <internalNodes>
            0 -1 391 -5.3541996749117970e-04</internalNodes>
          <leafValues>
            2.9293578863143921e-01 -4.2332211136817932e-01</leafValues></_>
        <_>
          <internalNodes>
            0 -1 439 -3.5161813721060753e-03</internalNodes>
          <leafValues>
            4.7023224830627441e-01 -2.5773063302040100e-01</leafValues></_>
        <_>
          <internalNodes>
            0 -1 270 1.2771657202392817e-03</internalNodes>
          <leafValues>
            1.6898590326309204e-01 -6.4283180236816406e-01</leafValues></_>
        <_>
          <internalNodes>
            0 -1 76 -3.2956764334812760e-04</internalNodes>
          <leafValues>
            1.7198675870895386e-01 -5.3354644775390625e-01</leafValues></_>
        <_>
          <internalNodes>
            0 -1 386 -3.7102804053574800e-03</internalNodes>
          <leafValues>
            -6.7322552204132080e-01 1.5886703133583069e-01</leafValues></_>
        <_>
          <internalNodes>
            0 -1 437 9.4183487817645073e-04</internalNodes>
          <leafValues>
            -4.0432879328727722e-01 2.4088056385517120e-01</leafValues></_>
        <_>
          <internalNodes>
            0 -1 243 -1.7009102157317102e-04</internalNodes>
          <leafValues>
            -6.4675223827362061e-01 1.9383870065212250e-01</leafValues></_>
        <_>
          <internalNodes>
            0 -1 40 1.5235273167490959e-03</internalNodes>
          <leafValues>
            -2.2264023125171661e-01 4.6623447537422180e-01</leafValues></_>
        <_>
          <internalNodes>
            0 -1 109 -3.0167666263878345e-03</internalNodes>
          <leafValues>
            -7.5742316246032715e-01 1.0000742226839066e-01</leafValues></_>
        <_>
          <internalNodes>
            0 -1 451 -1.2375277001410723e-03</internalNodes>
          <leafValues>
            4.3157666921615601e-01 -2.6386621594429016e-01</leafValues></_>
        <_>
          <internalNodes>
            0 -1 234 1.4045588904991746e-03</internalNodes>
          <leafValues>
            2.3374363780021667e-01 -4.3845823407173157e-01</leafValues></_>
        <_>
          <internalNodes>
            0 -1 39 -2.1645654924213886e-03</internalNodes>
          <leafValues>
            5.1217621564865112e-01 -2.0114924013614655e-01</leafValues></_>
        <_>
          <internalNodes>
            0 -1 461 8.2360464148223400e-04</internalNodes>
          <leafValues>
            -1.4839443564414978e-01 5.4166877269744873e-01</leafValues></_>
        <_>
          <internalNodes>
            0 -1 202 -2.5717862881720066e-03</internalNodes>
          <leafValues>
            3.6202821135520935e-01 -2.5386157631874084e-01</leafValues></_>
        <_>
          <internalNodes>
            0 -1 240 1.9280668348073959e-02</internalNodes>
          <leafValues>
            -1.9160589575767517e-01 5.4766792058944702e-01</leafValues></_>
        <_>
          <internalNodes>
            0 -1 92 -3.8981818943284452e-04</internalNodes>
          <leafValues>
            2.5181326270103455e-01 -3.9430451393127441e-01</leafValues></_>
        <_>
          <internalNodes>
            0 -1 314 -2.1732514724135399e-03</internalNodes>
          <leafValues>
            -7.0399028062820435e-01 1.3008670508861542e-01</leafValues></_>
        <_>
          <internalNodes>
            0 -1 180 -3.6166291101835668e-04</internalNodes>
          <leafValues>
            4.3113833665847778e-01 -2.7106574177742004e-01</leafValues></_>
        <_>
          <internalNodes>
            0 -1 424 -2.9302067123353481e-03</internalNodes>
          <leafValues>
            4.2126178741455078e-01 -2.1689847111701965e-01</leafValues></_>
        <_>
          <internalNodes>
            0 -1 135 3.1452812254428864e-04</internalNodes>
          <leafValues>
            -1.7335170507431030e-01 6.0780239105224609e-01</leafValues></_>
        <_>
          <internalNodes>
            0 -1 363 6.2056654132902622e-04</internalNodes>
          <leafValues>
            1.6197924315929413e-01 -7.4529606103897095e-01</leafValues></_></weakClassifiers></_>
    <!-- stage 13 -->
    <_>
      <maxWeakCount>26</maxWeakCount>
      <stageThreshold>-1.3922277688980103e+00</stageThreshold>
      <weakClassifiers>
        <_>
          <internalNodes>
            0 -1 126 3.4736129455268383e-03</internalNodes>
          <leafValues>
            3.9955189824104309e-01 -5.1724135875701904e-01</leafValues></_>
        <_>
          <internalNodes>
            0 -1 143 -1.1512204073369503e-03</internalNodes>
          <leafValues>
            -5.4525691270828247e-01 2.0814014971256256e-01</leafValues></_>
        <_>
          <internalNodes>
            0 -1 23 5.4117795079946518e-03</internalNodes>
          <leafValues>
            -2.2900408506393433e-01 4.6858263015747070e-01</leafValues></_>
        <_>
          <internalNodes>
            0 -1 320 -5.4517376702278852e-04</internalNodes>
          <leafValues>
            -6.6127490997314453e-01 1.6283999383449554e-01</leafValues></_>
        <_>
          <internalNodes>
            0 -1 350 -7.7631615567952394e-05</internalNodes>
          <leafValues>
            1.4911034703254700e-01 -5.6321811676025391e-01</leafValues></_>
        <_>
          <internalNodes>
            0 -1 407 -1.1919548269361258e-03</internalNodes>
          <leafValues>
            3.4691232442855835e-01 -2.9606139659881592e-01</leafValues></_>
        <_>
          <internalNodes>
            0 -1 343 2.2820260375738144e-02</internalNodes>
          <leafValues>
            -2.9726499319076538e-01 3.9217862486839294e-01</leafValues></_>
        <_>
          <internalNodes>
            0 -1 421 1.0601817848510109e-05</internalNodes>
          <leafValues>
            -3.3621945977210999e-01 2.8537043929100037e-01</leafValues></_>
        <_>
          <internalNodes>
            0 -1 16 -8.9246761053800583e-03</internalNodes>
          <leafValues>
            4.5887136459350586e-01 -1.9317363202571869e-01</leafValues></_>
        <_>
          <internalNodes>
            0 -1 20 2.8397282585501671e-03</internalNodes>
          <leafValues>
            -2.2376972436904907e-01 4.0935027599334717e-01</leafValues></_>
        <_>
          <internalNodes>
            0 -1 336 1.1194626131327823e-04</internalNodes>
          <leafValues>
            -5.2264177799224854e-01 1.8178097903728485e-01</leafValues></_>
        <_>
          <internalNodes>
            0 -1 435 -1.8749776063486934e-03</internalNodes>
          <leafValues>
            3.7540194392204285e-01 -2.4582625925540924e-01</leafValues></_>
        <_>
          <internalNodes>
            0 -1 245 -5.3724448662251234e-04</internalNodes>
          <leafValues>
            -5.8792573213577271e-01 1.5204741060733795e-01</leafValues></_>
        <_>
          <internalNodes>
            0 -1 358 -1.5208697877824306e-03</internalNodes>
          <leafValues>
            -6.9327282905578613e-01 1.2826080620288849e-01</leafValues></_>
        <_>
          <internalNodes>
            0 -1 212 -4.2333264718763530e-04</internalNodes>
          <leafValues>
            3.9792951941490173e-01 -2.5573778152465820e-01</leafValues></_>
        <_>
          <internalNodes>
            0 -1 345 9.1341987717896700e-04</internalNodes>
          <leafValues>
            -1.2493275105953217e-01 6.1155980825424194e-01</leafValues></_>
        <_>
          <internalNodes>
            0 -1 107 -5.5321687832474709e-03</internalNodes>
          <leafValues>
            -8.3757615089416504e-01 1.1997980624437332e-01</leafValues></_>
        <_>
          <internalNodes>
            0 -1 225 -5.4280884796753526e-04</internalNodes>
          <leafValues>
            4.4265377521514893e-01 -2.2677968442440033e-01</leafValues></_>
        <_>
          <internalNodes>
            0 -1 26 3.9247504901140928e-04</internalNodes>
          <leafValues>
            -2.4377709627151489e-01 3.8107782602310181e-01</leafValues></_>
        <_>
          <internalNodes>
            0 -1 172 -1.6119647771120071e-03</internalNodes>
          <leafValues>
            -6.2802797555923462e-01 1.5371754765510559e-01</leafValues></_>
        <_>
          <internalNodes>
            0 -1 64 3.9476898382417858e-04</internalNodes>
          <leafValues>
            1.9413620233535767e-01 -4.6102204918861389e-01</leafValues></_>
        <_>
          <internalNodes>
            0 -1 430 7.3350564343854785e-04</internalNodes>
          <leafValues>
            -1.9773644208908081e-01 4.8576995730400085e-01</leafValues></_>
        <_>
          <internalNodes>
            0 -1 130 -7.6710231951437891e-05</internalNodes>
          <leafValues>
            3.7381252646446228e-01 -2.1980524063110352e-01</leafValues></_>
        <_>
          <internalNodes>
            0 -1 316 2.4846233427524567e-03</internalNodes>
          <leafValues>
            2.1675670146942139e-01 -4.0751603245735168e-01</leafValues></_>
        <_>
          <internalNodes>
            0 -1 401 -5.7330832350999117e-04</internalNodes>
          <leafValues>
            4.1521978378295898e-01 -2.1701669692993164e-01</leafValues></_>
        <_>
          <internalNodes>
            0 -1 159 9.9355544080026448e-05</internalNodes>
          <leafValues>
            -4.4206061959266663e-01 2.0327720046043396e-01</leafValues></_></weakClassifiers></_>
    <!-- stage 14 -->
    <_>
      <maxWeakCount>19</maxWeakCount>
      <stageThreshold>-1.0892100334167480e+00</stageThreshold>
      <weakClassifiers>
        <_>
          <internalNodes>
            0 -1 321 1.7803443188313395e-04</internalNodes>
          <leafValues>
            -2.0333333313465118e-01 5.2200001478195190e-01</leafValues></_>
        <_>
          <internalNodes>
            0 -1 59 1.0291402577422559e-04</internalNodes>
          <leafValues>
            -4.2151224613189697e-01 2.5417268276214600e-01</leafValues></_>
        <_>
          <internalNodes>
            0 -1 273 1.7761791241355240e-04</internalNodes>
          <leafValues>
            -4.8851874470710754e-01 1.7976075410842896e-01</leafValues></_>
        <_>
          <internalNodes>
            0 -1 278 -1.1529136681929231e-03</internalNodes>
          <leafValues>
            -6.5715801715850830e-01 1.4589928090572357e-01</leafValues></_>
        <_>
          <internalNodes>
            0 -1 196 2.0441427477635443e-04</internalNodes>
          <leafValues>
            -2.6087731122970581e-01 3.8652440905570984e-01</leafValues></_>
        <_>
          <internalNodes>
            0 -1 148 -1.1195173719897866e-03</internalNodes>
          <leafValues>
            -6.7254215478897095e-01 1.3326820731163025e-01</leafValues></_>
        <_>
          <internalNodes>
            0 -1 251 4.3022871250286698e-04</internalNodes>
          <leafValues>
            -2.5619059801101685e-01 4.0261027216911316e-01</leafValues></_>
        <_>
          <internalNodes>
            0 -1 32 -2.1430784836411476e-03</internalNodes>
          <leafValues>
            4.4062873721122742e-01 -2.0822082459926605e-01</leafValues></_>
        <_>
          <internalNodes>
            0 -1 253 -9.8815853561973199e-06</internalNodes>
          <leafValues>
            3.8245037198066711e-01 -2.5916475057601929e-01</leafValues></_>
        <_>
          <internalNodes>
            0 -1 150 6.7452416988089681e-04</internalNodes>
          <leafValues>
            -2.4188160896301270e-01 4.1040012240409851e-01</leafValues></_>
        <_>
          <internalNodes>
            0 -1 118 2.4083990138024092e-03</internalNodes>
          <leafValues>
            2.0563413202762604e-01 -6.3449096679687500e-01</leafValues></_>
        <_>
          <internalNodes>
            0 -1 35 -1.0769220534712076e-03</internalNodes>
          <leafValues>
            4.3809062242507935e-01 -2.3539167642593384e-01</leafValues></_>
        <_>
          <internalNodes>
            0 -1 454 3.7678645458072424e-04</internalNodes>
          <leafValues>
            -1.6401761770248413e-01 5.7835090160369873e-01</leafValues></_>
        <_>
          <internalNodes>
            0 -1 292 3.9033172652125359e-03</internalNodes>
          <leafValues>
            -1.8320682644844055e-01 4.7995507717132568e-01</leafValues></_>
        <_>
          <internalNodes>
            0 -1 262 8.3679211093112826e-04</internalNodes>
          <leafValues>
            -3.3443272113800049e-01 3.1784170866012573e-01</leafValues></_>
        <_>
          <internalNodes>
            0 -1 218 7.6347996946424246e-04</internalNodes>
          <leafValues>
            1.6114887595176697e-01 -6.2031465768814087e-01</leafValues></_>
        <_>
          <internalNodes>
            0 -1 269 -1.4850802836008370e-04</internalNodes>
          <leafValues>
            2.7040794491767883e-01 -3.9975982904434204e-01</leafValues></_>
        <_>
          <internalNodes>
            0 -1 216 -6.4356699585914612e-03</internalNodes>
          <leafValues>
            4.9462306499481201e-01 -2.0301163196563721e-01</leafValues></_>
        <_>
          <internalNodes>
            0 -1 204 1.1075932998210192e-03</internalNodes>
          <leafValues>
            2.0760656893253326e-01 -5.2725565433502197e-01</leafValues></_></weakClassifiers></_>
    <!-- stage 15 -->
    <_>
      <maxWeakCount>22</maxWeakCount>
      <stageThreshold>-1.2790067195892334e+00</stageThreshold>
      <weakClassifiers>
        <_>
          <internalNodes>
            0 -1 387 1.8146361981052905e-04</internalNodes>
          <leafValues>
            4.3322476744651794e-01 -3.5483869910240173e-01</leafValues></_>
        <_>
          <internalNodes>
            0 -1 83 -5.1793537568300962e-04</internalNodes>
          <leafValues>
            2.2994469106197357e-01 -4.5848304033279419e-01</leafValues></_>
        <_>
          <internalNodes>
            0 -1 78 -1.0074209421873093e-03</internalNodes>
          <leafValues>
            -6.8046104907989502e-01 1.8010792136192322e-01</leafValues></_>
        <_>
          <internalNodes>
            0 -1 275 5.3614500211551785e-04</internalNodes>
          <leafValues>
            -4.1003608703613281e-01 1.8190233409404755e-01</leafValues></_>
        <_>
          <internalNodes>
            0 -1 259 3.5723703913390636e-03</internalNodes>
          <leafValues>
            -1.9232907891273499e-01 5.2734357118606567e-01</leafValues></_>
        <_>
          <internalNodes>
            0 -1 374 -6.3414592295885086e-04</internalNodes>
          <leafValues>
            -7.6989442110061646e-01 1.1468760669231415e-01</leafValues></_>
        <_>
          <internalNodes>
            0 -1 438 3.6384694976732135e-04</internalNodes>
          <leafValues>
            -4.6317788958549500e-01 2.4850048124790192e-01</leafValues></_>
        <_>
          <internalNodes>
            0 -1 445 9.2923198826611042e-04</internalNodes>
          <leafValues>
            -2.4891354143619537e-01 4.1740852594375610e-01</leafValues></_>
        <_>
          <internalNodes>
            0 -1 383 -1.3992981985211372e-04</internalNodes>
          <leafValues>
            2.0877747237682343e-01 -4.4424149394035339e-01</leafValues></_>
        <_>
          <internalNodes>
            0 -1 213 -1.3018700992688537e-03</internalNodes>
          <leafValues>
            -5.9153330326080322e-01 1.4932341873645782e-01</leafValues></_>
        <_>
          <internalNodes>
            0 -1 71 -1.1757481843233109e-03</internalNodes>
          <leafValues>
            4.2800390720367432e-01 -2.4009320139884949e-01</leafValues></_>
        <_>
          <internalNodes>
            0 -1 384 1.4377437764778733e-05</internalNodes>
          <leafValues>
            -2.8622299432754517e-01 2.7942043542861938e-01</leafValues></_>
        <_>
          <internalNodes>
            0 -1 357 -4.2469368781894445e-04</internalNodes>
          <leafValues>
            -8.7190037965774536e-01 7.9090699553489685e-02</leafValues></_>
        <_>
          <internalNodes>
            0 -1 423 3.3098901621997356e-03</internalNodes>
          <leafValues>
            -1.7881970107555389e-01 4.8314917087554932e-01</leafValues></_>
        <_>
          <internalNodes>
            0 -1 334 -4.1682051960378885e-04</internalNodes>
          <leafValues>
            -6.2211024761199951e-01 1.4209641516208649e-01</leafValues></_>
        <_>
          <internalNodes>
            0 -1 442 -3.6024372093379498e-04</internalNodes>
          <leafValues>
            3.9489093422889709e-01 -2.1095286309719086e-01</leafValues></_>
        <_>
          <internalNodes>
            0 -1 182 2.6299352757632732e-03</internalNodes>
          <leafValues>
            -2.0040638744831085e-01 3.7574908137321472e-01</leafValues></_>
        <_>
          <internalNodes>
            0 -1 116 -1.0667961323633790e-03</internalNodes>
          <leafValues>
            -5.3433722257614136e-01 1.6356869041919708e-01</leafValues></_>
        <_>
          <internalNodes>
            0 -1 75 -1.7054364434443414e-04</internalNodes>
          <leafValues>
            2.5767174363136292e-01 -4.7827011346817017e-01</leafValues></_>
        <_>
          <internalNodes>
            0 -1 33 3.8350983522832394e-03</internalNodes>
          <leafValues>
            -1.6012209653854370e-01 5.7120954990386963e-01</leafValues></_>
        <_>
          <internalNodes>
            0 -1 200 4.5655315261683427e-06</internalNodes>
          <leafValues>
            -3.4760639071464539e-01 2.5566771626472473e-01</leafValues></_>
        <_>
          <internalNodes>
            0 -1 55 -7.9275090247392654e-03</internalNodes>
          <leafValues>
            6.5626764297485352e-01 -1.3448584079742432e-01</leafValues></_></weakClassifiers></_>
    <!-- stage 16 -->
    <_>
      <maxWeakCount>25</maxWeakCount>
      <stageThreshold>-1.2019160985946655e+00</stageThreshold>
      <weakClassifiers>
        <_>
          <internalNodes>
            0 -1 267 -7.1474275318905711e-04</internalNodes>
          <leafValues>
            4.5618790388107300e-01 -2.1298174560070038e-01</leafValues></_>
        <_>
          <internalNodes>
            0 -1 184 7.1589365688851103e-06</internalNodes>
          <leafValues>
            -3.4543296694755554e-01 2.6443579792976379e-01</leafValues></_>
        <_>
          <internalNodes>
            0 -1 210 -6.1314716003835201e-04</internalNodes>
          <leafValues>
            2.1939195692539215e-01 -4.1916215419769287e-01</leafValues></_>
        <_>
          <internalNodes>
            0 -1 271 -2.3225808516144753e-02</internalNodes>
          <leafValues>
            4.2495000362396240e-01 -2.4810050427913666e-01</leafValues></_>
        <_>
          <internalNodes>
            0 -1 29 1.0386162903159857e-03</internalNodes>
          <leafValues>
            -2.1913568675518036e-01 4.7703903913497925e-01</leafValues></_>
        <_>
          <internalNodes>
            0 -1 383 -5.4811593145132065e-05</internalNodes>
          <leafValues>
            2.0589037239551544e-01 -4.8580375313758850e-01</leafValues></_>
        <_>
          <internalNodes>
            0 -1 30 -5.1949516637250781e-04</internalNodes>
          <leafValues>
            3.4480187296867371e-01 -2.6413062214851379e-01</leafValues></_>
        <_>
          <internalNodes>
            0 -1 293 -1.6624934971332550e-02</internalNodes>
          <leafValues>
            4.9057874083518982e-01 -1.6941091418266296e-01</leafValues></_>
        <_>
          <internalNodes>
            0 -1 174 3.6203132476657629e-03</internalNodes>
          <leafValues>
            1.3325069844722748e-01 -6.8154937028884888e-01</leafValues></_>
        <_>
          <internalNodes>
            0 -1 24 1.7200587317347527e-03</internalNodes>
          <leafValues>
            -2.3198026418685913e-01 3.4084182977676392e-01</leafValues></_>
        <_>
          <internalNodes>
            0 -1 203 1.6769985668361187e-03</internalNodes>
          <leafValues>
            -2.6620933413505554e-01 3.0545055866241455e-01</leafValues></_>
        <_>
          <internalNodes>
            0 -1 403 -9.2903507174924016e-04</internalNodes>
          <leafValues>
            -6.4744150638580322e-01 1.2009675055742264e-01</leafValues></_>
        <_>
          <internalNodes>
            0 -1 228 3.3259435440413654e-05</internalNodes>
          <leafValues>
            -2.0771756768226624e-01 3.8703960180282593e-01</leafValues></_>
        <_>
          <internalNodes>
            0 -1 329 9.1712770517915487e-04</internalNodes>
          <leafValues>
            -3.4967681765556335e-01 2.2427761554718018e-01</leafValues></_>
        <_>
          <internalNodes>
            0 -1 114 -1.9212357699871063e-02</internalNodes>
          <leafValues>
            4.5324510335922241e-01 -1.9942793250083923e-01</leafValues></_>
        <_>
          <internalNodes>
            0 -1 432 2.3375803139060736e-03</internalNodes>
          <leafValues>
            -2.9327622056007385e-01 3.4612688422203064e-01</leafValues></_>
        <_>
          <internalNodes>
            0 -1 440 -2.8985631652176380e-03</internalNodes>
          <leafValues>
            3.8688272237777710e-01 -2.0718990266323090e-01</leafValues></_>
        <_>
          <internalNodes>
            0 -1 134 -1.7091466579586267e-03</internalNodes>
          <leafValues>
            -5.9777057170867920e-01 1.5257185697555542e-01</leafValues></_>
        <_>
          <internalNodes>
            0 -1 297 -3.0906207393854856e-04</internalNodes>
          <leafValues>
            -5.0013041496276855e-01 1.3636919856071472e-01</leafValues></_>
        <_>
          <internalNodes>
            0 -1 398 1.2931579258292913e-03</internalNodes>
          <leafValues>
            -2.1877855062484741e-01 3.6183777451515198e-01</leafValues></_>
        <_>
          <internalNodes>
            0 -1 103 -2.3383335210382938e-03</internalNodes>
          <leafValues>
            -8.7530386447906494e-01 1.0859902948141098e-01</leafValues></_>
        <_>
          <internalNodes>
            0 -1 132 -7.8995086369104683e-05</internalNodes>
          <leafValues>
            3.3452704548835754e-01 -2.5397279858589172e-01</leafValues></_>
        <_>
          <internalNodes>
            0 -1 455 -3.6355256452225149e-04</internalNodes>
          <leafValues>
            3.9670073986053467e-01 -2.0274731516838074e-01</leafValues></_>
        <_>
          <internalNodes>
            0 -1 233 -4.1293566027889028e-05</internalNodes>
          <leafValues>
            3.1242814660072327e-01 -2.5359222292900085e-01</leafValues></_>
        <_>
          <internalNodes>
            0 -1 167 1.3567305868491530e-03</internalNodes>
          <leafValues>
            1.0520760715007782e-01 -7.5121790170669556e-01</leafValues></_></weakClassifiers></_>
    <!-- stage 17 -->
    <_>
      <maxWeakCount>22</maxWeakCount>
      <stageThreshold>-1.0603332519531250e+00</stageThreshold>
      <weakClassifiers>
        <_>
          <internalNodes>
            0 -1 215 -1.4820949581917375e-04</internalNodes>
          <leafValues>
            -5.6310677528381348e-01 3.7015780806541443e-01</leafValues></_>
        <_>
          <internalNodes>
            0 -1 456 -8.5295811295509338e-03</internalNodes>
          <leafValues>
            5.1853162050247192e-01 -2.0568482577800751e-01</leafValues></_>
        <_>
          <internalNodes>
            0 -1 256 -4.1826591768767685e-05</internalNodes>
          <leafValues>
            3.1987076997756958e-01 -3.4111538529396057e-01</leafValues></_>
        <_>
          <internalNodes>
            0 -1 281 -2.3436560295522213e-03</internalNodes>
          <leafValues>
            3.7982770800590515e-01 -2.3300662636756897e-01</leafValues></_>
        <_>
          <internalNodes>
            0 -1 414 1.2744722189381719e-03</internalNodes>
          <leafValues>
            -2.5967913866043091e-01 3.2024788856506348e-01</leafValues></_>
        <_>
          <internalNodes>
            0 -1 95 -3.1763923470862210e-04</internalNodes>
          <leafValues>
            -7.4646496772766113e-01 1.0273882746696472e-01</leafValues></_>
        <_>
          <internalNodes>
            0 -1 370 2.4382411502301693e-03</internalNodes>
          <leafValues>
            -1.9594921171665192e-01 4.4034972786903381e-01</leafValues></_>
        <_>
          <internalNodes>
            0 -1 241 1.7145523452199996e-04</internalNodes>
          <leafValues>
            -3.6740666627883911e-01 2.3645569384098053e-01</leafValues></_>
        <_>
          <internalNodes>
            0 -1 287 3.3909678459167480e-03</internalNodes>
          <leafValues>
            1.1893767118453979e-01 -7.0054996013641357e-01</leafValues></_>
        <_>
          <internalNodes>
            0 -1 0 -1.2851394712924957e-02</internalNodes>
          <leafValues>
            4.6018484234809875e-01 -2.2322915494441986e-01</leafValues></_>
        <_>
          <internalNodes>
            0 -1 308 2.7663109358400106e-04</internalNodes>
          <leafValues>
            -3.1395220756530762e-01 3.1849879026412964e-01</leafValues></_>
        <_>
          <internalNodes>
            0 -1 7 2.5111958384513855e-03</internalNodes>
          <leafValues>
            -2.5292736291885376e-01 3.1600564718246460e-01</leafValues></_>
        <_>
          <internalNodes>
            0 -1 425 -2.2138212807476521e-03</internalNodes>
          <leafValues>
            4.2063751816749573e-01 -2.4938714504241943e-01</leafValues></_>
        <_>
          <internalNodes>
            0 -1 189 -2.8823141474276781e-04</internalNodes>
          <leafValues>
            -6.2764704227447510e-01 1.3602182269096375e-01</leafValues></_>
        <_>
          <internalNodes>
            0 -1 263 1.1097955284640193e-03</internalNodes>
          <leafValues>
            -2.8663343191146851e-01 3.0650630593299866e-01</leafValues></_>
        <_>
          <internalNodes>
            0 -1 25 -1.0650672484189272e-03</internalNodes>
          <leafValues>
            5.5087578296661377e-01 -1.3068842887878418e-01</leafValues></_>
        <_>
          <internalNodes>
            0 -1 318 -4.7634250950068235e-04</internalNodes>
          <leafValues>
            -6.4228254556655884e-01 1.1497405916452408e-01</leafValues></_>
        <_>
          <internalNodes>
            0 -1 453 -3.8858500192873180e-04</internalNodes>
          <leafValues>
            4.8640924692153931e-01 -1.7275609076023102e-01</leafValues></_>
        <_>
          <internalNodes>
            0 -1 406 -1.9827010110020638e-03</internalNodes>
          <leafValues>
            4.5428326725959778e-01 -1.6478581726551056e-01</leafValues></_>
        <_>
          <internalNodes>
            0 -1 44 3.9341012598015368e-04</internalNodes>
          <leafValues>
            -3.0724447965621948e-01 2.8765782713890076e-01</leafValues></_>
        <_>
          <internalNodes>
            0 -1 36 -1.3822315260767937e-02</internalNodes>
          <leafValues>
            6.0890102386474609e-01 -1.5609520673751831e-01</leafValues></_>
        <_>
          <internalNodes>
            0 -1 397 -7.9349905718117952e-04</internalNodes>
          <leafValues>
            3.7576028704643250e-01 -2.4240848422050476e-01</leafValues></_></weakClassifiers></_>
    <!-- stage 18 -->
    <_>
      <maxWeakCount>25</maxWeakCount>
      <stageThreshold>-1.1277765035629272e+00</stageThreshold>
      <weakClassifiers>
        <_>
          <internalNodes>
            0 -1 121 1.2328911107033491e-03</internalNodes>
          <leafValues>
            4.1985926032066345e-01 -4.2679128050804138e-01</leafValues></_>
        <_>
          <internalNodes>
            0 -1 61 -7.7431008685380220e-04</internalNodes>
          <leafValues>
            -5.7003909349441528e-01 1.7597141861915588e-01</leafValues></_>
        <_>
          <internalNodes>
            0 -1 6 8.6584864184260368e-03</internalNodes>
          <leafValues>
            -2.1241061389446259e-01 4.0667679905891418e-01</leafValues></_>
        <_>
          <internalNodes>
            0 -1 176 -9.1385969426482916e-04</internalNodes>
          <leafValues>
            2.7191144227981567e-01 -3.2594308257102966e-01</leafValues></_>
        <_>
          <internalNodes>
            0 -1 372 -3.2213279046118259e-03</internalNodes>
          <leafValues>
            -6.3006514310836792e-01 1.2639580667018890e-01</leafValues></_>
        <_>
          <internalNodes>
            0 -1 300 3.3785589039325714e-04</internalNodes>
          <leafValues>
            -4.7625181078910828e-01 1.6840901970863342e-01</leafValues></_>
        <_>
          <internalNodes>
            0 -1 158 1.2887613847851753e-02</internalNodes>
          <leafValues>
            -2.0809787511825562e-01 4.1881680488586426e-01</leafValues></_>
        <_>
          <internalNodes>
            0 -1 338 5.4303745855577290e-05</internalNodes>
          <leafValues>
            -4.9826636910438538e-01 1.5912769734859467e-01</leafValues></_>
        <_>
          <internalNodes>
            0 -1 399 -9.1168563812971115e-03</internalNodes>
          <leafValues>
            3.3508592844009399e-01 -2.3590771853923798e-01</leafValues></_>
        <_>
          <internalNodes>
            0 -1 441 -1.0518233757466078e-03</internalNodes>
          <leafValues>
            4.1002613306045532e-01 -2.2300268709659576e-01</leafValues></_>
        <_>
          <internalNodes>
            0 -1 177 3.3654731232672930e-03</internalNodes>
          <leafValues>
            1.3811065256595612e-01 -5.6417983770370483e-01</leafValues></_>
        <_>
          <internalNodes>
            0 -1 9 -8.4238369017839432e-03</internalNodes>
          <leafValues>
            4.4809004664421082e-01 -2.0081332325935364e-01</leafValues></_>
        <_>
          <internalNodes>
            0 -1 324 -1.3853707350790501e-03</internalNodes>
          <leafValues>
            3.8702660799026489e-01 -2.3466370999813080e-01</leafValues></_>
        <_>
          <internalNodes>
            0 -1 197 -1.4993731747381389e-04</internalNodes>
          <leafValues>
            -4.3386992812156677e-01 2.0063914358615875e-01</leafValues></_>
        <_>
          <internalNodes>
            0 -1 465 1.8772586481645703e-03</internalNodes>
          <leafValues>
            -1.3189870119094849e-01 6.4157694578170776e-01</leafValues></_>
        <_>
          <internalNodes>
            0 -1 413 -9.0345472563058138e-04</internalNodes>
          <leafValues>
            3.3546829223632812e-01 -2.0669110119342804e-01</leafValues></_>
        <_>
          <internalNodes>
            0 -1 280 9.5492426771670580e-04</internalNodes>
          <leafValues>
            9.5204979181289673e-02 -7.4526834487915039e-01</leafValues></_>
        <_>
          <internalNodes>
            0 -1 105 4.5809032599208876e-05</internalNodes>
          <leafValues>
            -2.3073172569274902e-01 3.4220224618911743e-01</leafValues></_>
        <_>
          <internalNodes>
            0 -1 123 1.0578682122286409e-04</internalNodes>
          <leafValues>
            -2.1571409702301025e-01 3.6660528182983398e-01</leafValues></_>
        <_>
          <internalNodes>
            0 -1 115 -1.0573195322649553e-04</internalNodes>
          <leafValues>
            4.0518042445182800e-01 -1.9197945296764374e-01</leafValues></_>
        <_>
          <internalNodes>
            0 -1 97 4.4178846292197704e-04</internalNodes>
          <leafValues>
            2.4484279751777649e-01 -3.5589519143104553e-01</leafValues></_>
        <_>
          <internalNodes>
            0 -1 53 5.3471582941710949e-04</internalNodes>
          <leafValues>
            1.9439868628978729e-01 -3.8069143891334534e-01</leafValues></_>
        <_>
          <internalNodes>
            0 -1 277 -4.1629784391261637e-04</internalNodes>
          <leafValues>
            3.1937742233276367e-01 -2.6343381404876709e-01</leafValues></_>
        <_>
          <internalNodes>
            0 -1 335 6.9585989695042372e-04</internalNodes>
          <leafValues>
            1.2818348407745361e-01 -7.2614777088165283e-01</leafValues></_>
        <_>
          <internalNodes>
            0 -1 160 -2.2895286383572966e-04</internalNodes>
          <leafValues>
            -3.6783733963966370e-01 2.0494529604911804e-01</leafValues></_></weakClassifiers></_>
    <!-- stage 19 -->
    <_>
      <maxWeakCount>27</maxWeakCount>
      <stageThreshold>-1.1162500381469727e+00</stageThreshold>
      <weakClassifiers>
        <_>
          <internalNodes>
            0 -1 145 8.4065781265962869e-05</internalNodes>
          <leafValues>
            -5.9090906381607056e-01 3.5393258929252625e-01</leafValues></_>
        <_>
          <internalNodes>
            0 -1 319 2.7567846700549126e-04</internalNodes>
          <leafValues>
            -3.3977082371711731e-01 2.4739773571491241e-01</leafValues></_>
        <_>
          <internalNodes>
            0 -1 266 8.3765696035698056e-04</internalNodes>
          <leafValues>
            1.4921170473098755e-01 -6.7550700902938843e-01</leafValues></_>
        <_>
          <internalNodes>
            0 -1 364 -1.9417330622673035e-03</internalNodes>
          <leafValues>
            -7.4408990144729614e-01 8.9092291891574860e-02</leafValues></_>
        <_>
          <internalNodes>
            0 -1 168 3.9010623004287481e-04</internalNodes>
          <leafValues>
            -2.8347182273864746e-01 2.9475489258766174e-01</leafValues></_>
        <_>
          <internalNodes>
            0 -1 291 -1.5417975373566151e-03</internalNodes>
          <leafValues>
            5.4729717969894409e-01 -1.4308482408523560e-01</leafValues></_>
        <_>
          <internalNodes>
            0 -1 211 -3.6564015317708254e-05</internalNodes>
          <leafValues>
            3.7582963705062866e-01 -1.9363650679588318e-01</leafValues></_>
        <_>
          <internalNodes>
            0 -1 89 -4.4578558299690485e-04</internalNodes>
          <leafValues>
            3.2918345928192139e-01 -2.0846170186996460e-01</leafValues></_>
        <_>
          <internalNodes>
            0 -1 341 2.0447667338885367e-04</internalNodes>
          <leafValues>
            1.4026558399200439e-01 -5.1144927740097046e-01</leafValues></_>
        <_>
          <internalNodes>
            0 -1 91 -4.9768139433581382e-05</internalNodes>
          <leafValues>
            4.2430165410041809e-01 -1.9020618498325348e-01</leafValues></_>
        <_>
          <internalNodes>
            0 -1 86 4.9926846986636519e-04</internalNodes>
          <leafValues>
            -1.4740760624408722e-01 4.2837533354759216e-01</leafValues></_>
        <_>
          <internalNodes>
            0 -1 111 -4.2278735782019794e-04</internalNodes>
          <leafValues>
            4.7181835770606995e-01 -1.5736754238605499e-01</leafValues></_>
        <_>
          <internalNodes>
            0 -1 60 5.6693865917623043e-04</internalNodes>
          <leafValues>
            1.5083299577236176e-01 -5.2542281150817871e-01</leafValues></_>
        <_>
          <internalNodes>
            0 -1 452 -1.9042372703552246e-02</internalNodes>
          <leafValues>
            3.8221338391304016e-01 -1.8887031078338623e-01</leafValues></_>
        <_>
          <internalNodes>
            0 -1 217 1.1270777758909389e-04</internalNodes>
          <leafValues>
            -5.1230913400650024e-01 1.3617867231369019e-01</leafValues></_>
        <_>
          <internalNodes>
            0 -1 289 -9.7905271104536951e-05</internalNodes>
          <leafValues>
            2.5219222903251648e-01 -2.9048365354537964e-01</leafValues></_>
        <_>
          <internalNodes>
            0 -1 417 -6.3651025295257568e-02</internalNodes>
          <leafValues>
            5.3410941362380981e-01 -1.7245739698410034e-01</leafValues></_>
        <_>
          <internalNodes>
            0 -1 156 1.3241253327578306e-04</internalNodes>
          <leafValues>
            -1.1537458002567291e-01 5.8724111318588257e-01</leafValues></_>
        <_>
          <internalNodes>
            0 -1 5 -1.5936954878270626e-03</internalNodes>
          <leafValues>
            3.6334785819053650e-01 -1.9351977109909058e-01</leafValues></_>
        <_>
          <internalNodes>
            0 -1 282 2.8964853845536709e-04</internalNodes>
          <leafValues>
            1.6211013495922089e-01 -4.2210254073143005e-01</leafValues></_>
        <_>
          <internalNodes>
            0 -1 249 -7.2122656274586916e-04</internalNodes>
          <leafValues>
            -4.6437066793441772e-01 1.9088986515998840e-01</leafValues></_>
        <_>
          <internalNodes>
            0 -1 412 -4.8383191460743546e-04</internalNodes>
          <leafValues>
            7.3190522193908691e-01 -1.2080476433038712e-01</leafValues></_>
        <_>
          <internalNodes>
            0 -1 428 4.6801471034996212e-04</internalNodes>
          <leafValues>
            -3.3648085594177246e-01 2.2555631399154663e-01</leafValues></_>
        <_>
          <internalNodes>
            0 -1 366 1.6687553143128753e-03</internalNodes>
          <leafValues>
            1.8010075390338898e-01 -5.0657671689987183e-01</leafValues></_>
        <_>
          <internalNodes>
            0 -1 309 -2.0996407329221256e-05</internalNodes>
          <leafValues>
            3.8242548704147339e-01 -1.9500085711479187e-01</leafValues></_>
        <_>
          <internalNodes>
            0 -1 165 -1.9153038738295436e-04</internalNodes>
          <leafValues>
            -8.5447764396667480e-01 8.9132845401763916e-02</leafValues></_>
        <_>
          <internalNodes>
            0 -1 139 -7.9987046774476767e-05</internalNodes>
          <leafValues>
            4.5261257886886597e-01 -1.7409175634384155e-01</leafValues></_></weakClassifiers></_>
    <!-- stage 20 -->
    <_>
      <maxWeakCount>27</maxWeakCount>
      <stageThreshold>-9.7428864240646362e-01</stageThreshold>
      <weakClassifiers>
        <_>
          <internalNodes>
            0 -1 49 -1.4003209071233869e-04</internalNodes>
          <leafValues>
            -2.9639887809753418e-01 4.0920096635818481e-01</leafValues></_>
        <_>
          <internalNodes>
            0 -1 52 7.0622953353449702e-04</internalNodes>
          <leafValues>
            2.5461161136627197e-01 -4.7064051032066345e-01</leafValues></_>
        <_>
          <internalNodes>
            0 -1 411 3.1705567380413413e-05</internalNodes>
          <leafValues>
            -3.3179676532745361e-01 2.2792996466159821e-01</leafValues></_>
        <_>
          <internalNodes>
            0 -1 10 1.1436452157795429e-02</internalNodes>
          <leafValues>
            -2.0793277025222778e-01 3.7941512465476990e-01</leafValues></_>
        <_>
          <internalNodes>
            0 -1 3 -7.3853381909430027e-03</internalNodes>
          <leafValues>
            3.4528833627700806e-01 -2.0291417837142944e-01</leafValues></_>
        <_>
          <internalNodes>
            0 -1 42 2.3158706724643707e-02</internalNodes>
          <leafValues>
            1.2415352463722229e-01 -5.7601857185363770e-01</leafValues></_>
        <_>
          <internalNodes>
            0 -1 201 -6.6303985659033060e-04</internalNodes>
          <leafValues>
            2.5674125552177429e-01 -2.5960332155227661e-01</leafValues></_>
        <_>
          <internalNodes>
            0 -1 232 -3.9979669963940978e-05</internalNodes>
          <leafValues>
            3.6820834875106812e-01 -2.0981769263744354e-01</leafValues></_>
        <_>
          <internalNodes>
            0 -1 242 -3.9770311559550464e-04</internalNodes>
          <leafValues>
            2.1075960993766785e-01 -3.4507665038108826e-01</leafValues></_>
        <_>
          <internalNodes>
            0 -1 108 -5.6738220155239105e-03</internalNodes>
          <leafValues>
            -4.7236868739128113e-01 1.4247767627239227e-01</leafValues></_>
        <_>
          <internalNodes>
            0 -1 69 1.3053404109086841e-04</internalNodes>
          <leafValues>
            -2.3455105721950531e-01 3.6409050226211548e-01</leafValues></_>
        <_>
          <internalNodes>
            0 -1 436 1.0830637766048312e-03</internalNodes>
          <leafValues>
            -2.6008671522140503e-01 3.1750336289405823e-01</leafValues></_>
        <_>
          <internalNodes>
            0 -1 434 -4.3359827250242233e-03</internalNodes>
          <leafValues>
            3.5315829515457153e-01 -2.2425015270709991e-01</leafValues></_>
        <_>
          <internalNodes>
            0 -1 112 3.4742400748655200e-04</internalNodes>
          <leafValues>
            -1.7782790958881378e-01 3.8759183883666992e-01</leafValues></_>
        <_>
          <internalNodes>
            0 -1 46 8.7430438725277781e-04</internalNodes>
          <leafValues>
            -2.4297672510147095e-01 2.8347402811050415e-01</leafValues></_>
        <_>
          <internalNodes>
            0 -1 193 8.6820246651768684e-03</internalNodes>
          <leafValues>
            1.7561921477317810e-01 -4.9791285395622253e-01</leafValues></_>
        <_>
          <internalNodes>
            0 -1 381 2.4809647584334016e-04</internalNodes>
          <leafValues>
            -3.1749176979064941e-01 2.2128280997276306e-01</leafValues></_>
        <_>
          <internalNodes>
            0 -1 380 8.4787141531705856e-05</internalNodes>
          <leafValues>
            2.2384789586067200e-01 -3.2237482070922852e-01</leafValues></_>
        <_>
          <internalNodes>
            0 -1 185 5.0375097089272458e-06</internalNodes>
          <leafValues>
            -3.0548220872879028e-01 2.6428210735321045e-01</leafValues></_>
        <_>
          <internalNodes>
            0 -1 171 -4.6995803131721914e-05</internalNodes>
          <leafValues>
            2.9790008068084717e-01 -2.5689372420310974e-01</leafValues></_>
        <_>
          <internalNodes>
            0 -1 67 -8.3469523815438151e-04</internalNodes>
          <leafValues>
            -4.6732151508331299e-01 1.4781427383422852e-01</leafValues></_>
        <_>
          <internalNodes>
            0 -1 183 5.0430864095687866e-02</internalNodes>
          <leafValues>
            1.3488852977752686e-01 -5.3372043371200562e-01</leafValues></_>
        <_>
          <internalNodes>
            0 -1 87 5.7661323808133602e-04</internalNodes>
          <leafValues>
            -2.0280624926090240e-01 3.3973562717437744e-01</leafValues></_>
        <_>
          <internalNodes>
            0 -1 57 -4.3029058724641800e-04</internalNodes>
          <leafValues>
            4.8443546891212463e-01 -1.4601768553256989e-01</leafValues></_>
        <_>
          <internalNodes>
            0 -1 195 -9.8080936368205585e-06</internalNodes>
          <leafValues>
            3.5086834430694580e-01 -1.8762084841728210e-01</leafValues></_>
        <_>
          <internalNodes>
            0 -1 303 -4.5810960000380874e-04</internalNodes>
          <leafValues>
            -7.1114212274551392e-01 1.0863308608531952e-01</leafValues></_>
        <_>
          <internalNodes>
            0 -1 70 -9.6621987177059054e-04</internalNodes>
          <leafValues>
            4.5570179820060730e-01 -1.6797427833080292e-01</leafValues></_></weakClassifiers></_>
    <!-- stage 21 -->
    <_>
      <maxWeakCount>28</maxWeakCount>
      <stageThreshold>-1.0079181194305420e+00</stageThreshold>
      <weakClassifiers>
        <_>
          <internalNodes>
            0 -1 119 5.3842063061892986e-04</internalNodes>
          <leafValues>
            3.8612368702888489e-01 -4.0875911712646484e-01</leafValues></_>
        <_>
          <internalNodes>
            0 -1 93 -6.3360645435750484e-04</internalNodes>
          <leafValues>
            -6.2740153074264526e-01 1.7445401847362518e-01</leafValues></_>
        <_>
          <internalNodes>
            0 -1 163 2.7135055279359221e-04</internalNodes>
          <leafValues>
            -2.9981371760368347e-01 2.7769041061401367e-01</leafValues></_>
        <_>
          <internalNodes>
            0 -1 337 5.4758922487962991e-05</internalNodes>
          <leafValues>
            -5.4169523715972900e-01 1.4188794791698456e-01</leafValues></_>
        <_>
          <internalNodes>
            0 -1 236 -6.3590356148779392e-04</internalNodes>
          <leafValues>
            5.9845763444900513e-01 -1.2628576159477234e-01</leafValues></_>
        <_>
          <internalNodes>
            0 -1 265 -1.8019850831478834e-03</internalNodes>
          <leafValues>
            -5.7708722352981567e-01 1.1691416800022125e-01</leafValues></_>
        <_>
          <internalNodes>
            0 -1 198 3.6736432230100036e-04</internalNodes>
          <leafValues>
            -4.0567722916603088e-01 1.6214585304260254e-01</leafValues></_>
        <_>
          <internalNodes>
            0 -1 415 -7.1750115603208542e-04</internalNodes>
          <leafValues>
            2.0257645845413208e-01 -3.5908880829811096e-01</leafValues></_>
        <_>
          <internalNodes>
            0 -1 301 6.8651867331936955e-04</internalNodes>
          <leafValues>
            1.1374086886644363e-01 -6.3464158773422241e-01</leafValues></_>
        <_>
          <internalNodes>
            0 -1 147 -3.7917467125225812e-05</internalNodes>
          <leafValues>
            2.9349225759506226e-01 -2.6804184913635254e-01</leafValues></_>
        <_>
          <internalNodes>
            0 -1 21 6.0845380648970604e-03</internalNodes>
          <leafValues>
            -2.1865099668502808e-01 3.2894968986511230e-01</leafValues></_>
        <_>
          <internalNodes>
            0 -1 153 -1.0606784780975431e-04</internalNodes>
          <leafValues>
            2.1210888028144836e-01 -3.6803206801414490e-01</leafValues></_>
        <_>
          <internalNodes>
            0 -1 313 2.8799236752092838e-03</internalNodes>
          <leafValues>
            -1.7845220863819122e-01 4.4513288140296936e-01</leafValues></_>
        <_>
          <internalNodes>
            0 -1 326 -8.8435207726433873e-04</internalNodes>
          <leafValues>
            3.2742878794670105e-01 -1.9094692170619965e-01</leafValues></_>
        <_>
          <internalNodes>
            0 -1 447 -9.6023967489600182e-04</internalNodes>
          <leafValues>
            4.5281904935836792e-01 -1.3666833937168121e-01</leafValues></_>
        <_>
          <internalNodes>
            0 -1 299 -1.4444075059145689e-03</internalNodes>
          <leafValues>
            3.4580528736114502e-01 -2.2152864933013916e-01</leafValues></_>
        <_>
          <internalNodes>
            0 -1 237 4.4889384880661964e-03</internalNodes>
          <leafValues>
            -2.0233680307865143e-01 3.4633556008338928e-01</leafValues></_>
        <_>
          <internalNodes>
            0 -1 186 -2.4129913072101772e-04</internalNodes>
          <leafValues>
            -3.7821575999259949e-01 1.7653797566890717e-01</leafValues></_>
        <_>
          <internalNodes>
            0 -1 408 -1.0544764809310436e-03</internalNodes>
          <leafValues>
            2.8174689412117004e-01 -2.7836659550666809e-01</leafValues></_>
        <_>
          <internalNodes>
            0 -1 257 8.2077218394260854e-05</internalNodes>
          <leafValues>
            -4.9118414521217346e-01 1.3469016551971436e-01</leafValues></_>
        <_>
          <internalNodes>
            0 -1 222 8.8163260370492935e-03</internalNodes>
          <leafValues>
            1.6586892306804657e-01 -4.1078522801399231e-01</leafValues></_>
        <_>
          <internalNodes>
            0 -1 252 3.1402643071487546e-04</internalNodes>
          <leafValues>
            -2.1511948108673096e-01 3.5814285278320312e-01</leafValues></_>
        <_>
          <internalNodes>
            0 -1 190 -5.0534540787339211e-03</internalNodes>
          <leafValues>
            -7.1708971261978149e-01 9.5202706754207611e-02</leafValues></_>
        <_>
          <internalNodes>
            0 -1 268 -1.2311810860410333e-04</internalNodes>
          <leafValues>
            3.4776937961578369e-01 -2.2220228612422943e-01</leafValues></_>
        <_>
          <internalNodes>
            0 -1 310 1.0096999176312238e-05</internalNodes>
          <leafValues>
            -2.4677166342735291e-01 2.8100764751434326e-01</leafValues></_>
        <_>
          <internalNodes>
            0 -1 312 -1.7151405336335301e-04</internalNodes>
          <leafValues>
            -4.0331530570983887e-01 1.8017624318599701e-01</leafValues></_>
        <_>
          <internalNodes>
            0 -1 90 -6.4715757616795599e-05</internalNodes>
          <leafValues>
            3.7779116630554199e-01 -1.8021020293235779e-01</leafValues></_>
        <_>
          <internalNodes>
            0 -1 41 1.7419154755771160e-04</internalNodes>
          <leafValues>
            -1.4382636547088623e-01 3.8777694106101990e-01</leafValues></_></weakClassifiers></_>
    <!-- stage 22 -->
    <_>
      <maxWeakCount>31</maxWeakCount>
      <stageThreshold>-1.2587481737136841e+00</stageThreshold>
      <weakClassifiers>
        <_>
          <internalNodes>
            0 -1 77 2.2416010033339262e-03</internalNodes>
          <leafValues>
            3.8152012228965759e-01 -4.3410852551460266e-01</leafValues></_>
        <_>
          <internalNodes>
            0 -1 63 -5.1883934065699577e-03</internalNodes>
          <leafValues>
            -6.4852815866470337e-01 1.3645756244659424e-01</leafValues></_>
        <_>
          <internalNodes>
            0 -1 327 -2.2350451909005642e-03</internalNodes>
          <leafValues>
            -4.1030609607696533e-01 1.8921022117137909e-01</leafValues></_>
        <_>
          <internalNodes>
            0 -1 404 -9.0647306933533400e-05</internalNodes>
          <leafValues>
            2.3087866604328156e-01 -3.4921869635581970e-01</leafValues></_>
        <_>
          <internalNodes>
            0 -1 388 -1.6135103069245815e-03</internalNodes>
          <leafValues>
            -5.3960114717483521e-01 1.0700169205665588e-01</leafValues></_>
        <_>
          <internalNodes>
            0 -1 214 5.1252358389319852e-05</internalNodes>
          <leafValues>
            -1.7102144658565521e-01 4.2623338103294373e-01</leafValues></_>
        <_>
          <internalNodes>
            0 -1 276 -2.3395620519295335e-04</internalNodes>
          <leafValues>
            -5.5683612823486328e-01 1.2074086070060730e-01</leafValues></_>
        <_>
          <internalNodes>
            0 -1 446 3.0430990736931562e-03</internalNodes>
          <leafValues>
            -1.9260104000568390e-01 3.3714216947555542e-01</leafValues></_>
        <_>
          <internalNodes>
            0 -1 298 2.9417348559945822e-04</internalNodes>
          <leafValues>
            1.4291267096996307e-01 -4.2019224166870117e-01</leafValues></_>
        <_>
          <internalNodes>
            0 -1 191 7.0221011992543936e-04</internalNodes>
          <leafValues>
            -1.5691772103309631e-01 4.8123061656951904e-01</leafValues></_>
        <_>
          <internalNodes>
            0 -1 224 2.9995845397934318e-04</internalNodes>
          <leafValues>
            -2.8240066766738892e-01 3.5168218612670898e-01</leafValues></_>
        <_>
          <internalNodes>
            0 -1 376 7.4048286478500813e-05</internalNodes>
          <leafValues>
            -3.5316202044487000e-01 1.8942731618881226e-01</leafValues></_>
        <_>
          <internalNodes>
            0 -1 422 3.8320862222462893e-03</internalNodes>
          <leafValues>
            -1.2442068010568619e-01 5.5086946487426758e-01</leafValues></_>
        <_>
          <internalNodes>
            0 -1 199 1.0211006738245487e-03</internalNodes>
          <leafValues>
            1.2598653137683868e-01 -5.5858945846557617e-01</leafValues></_>
        <_>
          <internalNodes>
            0 -1 379 1.2317034997977316e-04</internalNodes>
          <leafValues>
            -2.6725953817367554e-01 2.5216671824455261e-01</leafValues></_>
        <_>
          <internalNodes>
            0 -1 418 -3.2955995993688703e-04</internalNodes>
          <leafValues>
            -6.6423839330673218e-01 1.0772418230772018e-01</leafValues></_>
        <_>
          <internalNodes>
            0 -1 377 -3.2226037001237273e-04</internalNodes>
          <leafValues>
            4.1688719391822815e-01 -2.0036977529525757e-01</leafValues></_>
        <_>
          <internalNodes>
            0 -1 449 -1.1976136011071503e-04</internalNodes>
          <leafValues>
            4.7160580754280090e-01 -1.4104889333248138e-01</leafValues></_>
        <_>
          <internalNodes>
            0 -1 56 1.5250516589730978e-03</internalNodes>
          <leafValues>
            -1.6795355081558228e-01 3.8042262196540833e-01</leafValues></_>
        <_>
          <internalNodes>
            0 -1 152 3.9887957973405719e-04</internalNodes>
          <leafValues>
            1.9250053167343140e-01 -3.6365979909896851e-01</leafValues></_>
        <_>
          <internalNodes>
            0 -1 254 1.7260381719097495e-04</internalNodes>
          <leafValues>
            -2.0402432978153229e-01 3.2184284925460815e-01</leafValues></_>
        <_>
          <internalNodes>
            0 -1 219 2.8533057775348425e-04</internalNodes>
          <leafValues>
            -2.5809407234191895e-01 2.7121299505233765e-01</leafValues></_>
        <_>
          <internalNodes>
            0 -1 15 5.8684162795543671e-03</internalNodes>
          <leafValues>
            -1.3012041151523590e-01 6.0713386535644531e-01</leafValues></_>
        <_>
          <internalNodes>
            0 -1 375 1.8129045201931149e-04</internalNodes>
          <leafValues>
            1.3897624611854553e-01 -5.4179525375366211e-01</leafValues></_>
        <_>
          <internalNodes>
            0 -1 311 3.9969095960259438e-03</internalNodes>
          <leafValues>
            -2.1749912202358246e-01 3.1640484929084778e-01</leafValues></_>
        <_>
          <internalNodes>
            0 -1 431 -2.3020654916763306e-03</internalNodes>
          <leafValues>
            3.4356632828712463e-01 -1.8877992033958435e-01</leafValues></_>
        <_>
          <internalNodes>
            0 -1 389 -4.1131407488137484e-04</internalNodes>
          <leafValues>
            2.1917529404163361e-01 -3.0919364094734192e-01</leafValues></_>
        <_>
          <internalNodes>
            0 -1 367 -1.9009768730029464e-03</internalNodes>
          <leafValues>
            -5.3143066167831421e-01 1.3799229264259338e-01</leafValues></_>
        <_>
          <internalNodes>
            0 -1 239 1.2209070846438408e-02</internalNodes>
          <leafValues>
            1.5163511037826538e-01 -4.5292592048645020e-01</leafValues></_>
        <_>
          <internalNodes>
            0 -1 8 4.4209935003891587e-04</internalNodes>
          <leafValues>
            -2.3107643425464630e-01 3.2461518049240112e-01</leafValues></_>
        <_>
          <internalNodes>
            0 -1 79 7.9883454600349069e-04</internalNodes>
          <leafValues>
            1.2621240317821503e-01 -5.7025235891342163e-01</leafValues></_></weakClassifiers></_>
    <!-- stage 23 -->
    <_>
      <maxWeakCount>31</maxWeakCount>
      <stageThreshold>-1.1515668630599976e+00</stageThreshold>
      <weakClassifiers>
        <_>
          <internalNodes>
            0 -1 354 -4.3933419510722160e-04</internalNodes>
          <leafValues>
            4.3313708901405334e-01 -2.7980536222457886e-01</leafValues></_>
        <_>
          <internalNodes>
            0 -1 58 -8.2534155808389187e-04</internalNodes>
          <leafValues>
            -4.1109350323677063e-01 2.0971415936946869e-01</leafValues></_>
        <_>
          <internalNodes>
            0 -1 1 1.2393940705806017e-03</internalNodes>
          <leafValues>
            -1.7011040449142456e-01 4.1398417949676514e-01</leafValues></_>
        <_>
          <internalNodes>
            0 -1 323 7.4644805863499641e-05</internalNodes>
          <leafValues>
            -3.1309169530868530e-01 2.0156545937061310e-01</leafValues></_>
        <_>
          <internalNodes>
            0 -1 140 6.8666634615510702e-04</internalNodes>
          <leafValues>
            1.4027747511863708e-01 -4.0250486135482788e-01</leafValues></_>
        <_>
          <internalNodes>
            0 -1 261 2.4468926130793989e-04</internalNodes>
          <leafValues>
            -2.5133547186851501e-01 2.5785177946090698e-01</leafValues></_>
        <_>
          <internalNodes>
            0 -1 463 -5.0322501920163631e-04</internalNodes>
          <leafValues>
            3.2853794097900391e-01 -2.1801960468292236e-01</leafValues></_>
        <_>
          <internalNodes>
            0 -1 247 1.6928098921198398e-04</internalNodes>
          <leafValues>
            -1.8983009457588196e-01 3.2550457119941711e-01</leafValues></_>
        <_>
          <internalNodes>
            0 -1 51 -4.0486425859853625e-04</internalNodes>
          <leafValues>
            -5.3274053335189819e-01 1.3540020585060120e-01</leafValues></_>
        <_>
          <internalNodes>
            0 -1 22 -1.1212021112442017e-02</internalNodes>
          <leafValues>
            4.4157409667968750e-01 -1.7348198592662811e-01</leafValues></_>
        <_>
          <internalNodes>
            0 -1 124 -4.4403248466551304e-04</internalNodes>
          <leafValues>
            -7.0914137363433838e-01 1.0821734368801117e-01</leafValues></_>
        <_>
          <internalNodes>
            0 -1 18 1.0249843820929527e-02</internalNodes>
          <leafValues>
            -2.4645733833312988e-01 2.7082717418670654e-01</leafValues></_>
        <_>
          <internalNodes>
            0 -1 54 5.0200417172163725e-04</internalNodes>
          <leafValues>
            1.5944378077983856e-01 -4.7202315926551819e-01</leafValues></_>
        <_>
          <internalNodes>
            0 -1 402 -1.8019045819528401e-04</internalNodes>
          <leafValues>
            3.4000006318092346e-01 -2.1608470380306244e-01</leafValues></_>
        <_>
          <internalNodes>
            0 -1 141 7.0277979830279946e-05</internalNodes>
          <leafValues>
            -1.7496643960475922e-01 3.7363958358764648e-01</leafValues></_>
        <_>
          <internalNodes>
            0 -1 206 5.1148878410458565e-03</internalNodes>
          <leafValues>
            1.6827988624572754e-01 -4.5606517791748047e-01</leafValues></_>
        <_>
          <internalNodes>
            0 -1 170 -3.6479257687460631e-05</internalNodes>
          <leafValues>
            4.6698537468910217e-01 -1.5424858033657074e-01</leafValues></_>
        <_>
          <internalNodes>
            0 -1 142 1.6492744907736778e-04</internalNodes>
          <leafValues>
            -4.3280553817749023e-01 1.5310968458652496e-01</leafValues></_>
        <_>
          <internalNodes>
            0 -1 419 -3.7003986653871834e-04</internalNodes>
          <leafValues>
            2.7299082279205322e-01 -2.2799961268901825e-01</leafValues></_>
        <_>
          <internalNodes>
            0 -1 443 -6.8485746160149574e-03</internalNodes>
          <leafValues>
            2.9959750175476074e-01 -2.1025940775871277e-01</leafValues></_>
        <_>
          <internalNodes>
            0 -1 47 3.9539374411106110e-03</internalNodes>
          <leafValues>
            -7.9386085271835327e-02 7.1026283502578735e-01</leafValues></_>
        <_>
          <internalNodes>
            0 -1 284 6.8199192173779011e-04</internalNodes>
          <leafValues>
            1.1130686849355698e-01 -7.4750590324401855e-01</leafValues></_>
        <_>
          <internalNodes>
            0 -1 410 -5.7392287999391556e-04</internalNodes>
          <leafValues>
            3.2916986942291260e-01 -2.1607713401317596e-01</leafValues></_>
        <_>
          <internalNodes>
            0 -1 229 7.1256922092288733e-04</internalNodes>
          <leafValues>
            -3.8698080182075500e-01 1.5606428682804108e-01</leafValues></_>
        <_>
          <internalNodes>
            0 -1 426 1.9591558724641800e-02</internalNodes>
          <leafValues>
            -1.5380023419857025e-01 4.9961322546005249e-01</leafValues></_>
        <_>
          <internalNodes>
            0 -1 400 5.5978544987738132e-03</internalNodes>
          <leafValues>
            -1.9328300654888153e-01 3.5601404309272766e-01</leafValues></_>
        <_>
          <internalNodes>
            0 -1 373 -2.3473116016248241e-05</internalNodes>
          <leafValues>
            -3.9945006370544434e-01 1.6291594505310059e-01</leafValues></_>
        <_>
          <internalNodes>
            0 -1 73 1.0259363334625959e-03</internalNodes>
          <leafValues>
            -2.1478782594203949e-01 3.0662873387336731e-01</leafValues></_>
        <_>
          <internalNodes>
            0 -1 394 2.7723307721316814e-04</internalNodes>
          <leafValues>
            -1.7668849229812622e-01 3.6133286356925964e-01</leafValues></_>
        <_>
          <internalNodes>
            0 -1 360 -2.7842852432513610e-05</internalNodes>
          <leafValues>
            1.6196644306182861e-01 -4.3217301368713379e-01</leafValues></_>
        <_>
          <internalNodes>
            0 -1 151 4.1074585169553757e-04</internalNodes>
          <leafValues>
            1.9582663476467133e-01 -3.5565581917762756e-01</leafValues></_></weakClassifiers></_>
    <!-- stage 24 -->
    <_>
      <maxWeakCount>26</maxWeakCount>
      <stageThreshold>-1.0527619123458862e+00</stageThreshold>
      <weakClassifiers>
        <_>
          <internalNodes>
            0 -1 332 -8.8990382209885865e-05</internalNodes>
          <leafValues>
            -4.6835443377494812e-01 3.7490829825401306e-01</leafValues></_>
        <_>
          <internalNodes>
            0 -1 244 -7.9039705451577902e-04</internalNodes>
          <leafValues>
            -4.2022764682769775e-01 2.0356203615665436e-01</leafValues></_>
        <_>
          <internalNodes>
            0 -1 258 4.3111213017255068e-05</internalNodes>
          <leafValues>
            -3.2520759105682373e-01 1.9409403204917908e-01</leafValues></_>
        <_>
          <internalNodes>
            0 -1 352 -3.9143627509474754e-04</internalNodes>
          <leafValues>
            1.7154099047183990e-01 -3.7925526499748230e-01</leafValues></_>
        <_>
          <internalNodes>
            0 -1 347 1.2895335385110229e-04</internalNodes>
          <leafValues>
            2.0943126082420349e-01 -3.4378543496131897e-01</leafValues></_>
        <_>
          <internalNodes>
            0 -1 283 9.3309090516413562e-06</internalNodes>
          <leafValues>
            -2.1057455241680145e-01 3.1617957353591919e-01</leafValues></_>
        <_>
          <internalNodes>
            0 -1 439 -2.7126856148242950e-03</internalNodes>
          <leafValues>
            3.1353145837783813e-01 -2.2032697498798370e-01</leafValues></_>
        <_>
          <internalNodes>
            0 -1 458 2.7988440706394613e-04</internalNodes>
          <leafValues>
            -2.5515374541282654e-01 3.4275361895561218e-01</leafValues></_>
        <_>
          <internalNodes>
            0 -1 317 -1.5277716738637537e-04</internalNodes>
          <leafValues>
            -5.2510094642639160e-01 1.3836403191089630e-01</leafValues></_>
        <_>
          <internalNodes>
            0 -1 179 -1.2850757921114564e-03</internalNodes>
          <leafValues>
            -4.8849794268608093e-01 1.2942753732204437e-01</leafValues></_>
        <_>
          <internalNodes>
            0 -1 396 4.8152264207601547e-03</internalNodes>
          <leafValues>
            -1.7127251625061035e-01 4.7397962212562561e-01</leafValues></_>
        <_>
          <internalNodes>
            0 -1 285 2.9536986257880926e-03</internalNodes>
          <leafValues>
            -1.3531762361526489e-01 4.6490713953971863e-01</leafValues></_>
        <_>
          <internalNodes>
            0 -1 365 -1.8595519941300154e-03</internalNodes>
          <leafValues>
            3.3944535255432129e-01 -1.8978534638881683e-01</leafValues></_>
        <_>
          <internalNodes>
            0 -1 192 -1.5060416189953685e-03</internalNodes>
          <leafValues>
            -7.0744276046752930e-01 9.9798306822776794e-02</leafValues></_>
        <_>
          <internalNodes>
            0 -1 395 4.4556934881256893e-05</internalNodes>
          <leafValues>
            -2.8115981817245483e-01 2.3165874183177948e-01</leafValues></_>
        <_>
          <internalNodes>
            0 -1 98 9.3516032211482525e-04</internalNodes>
          <leafValues>
            1.4320321381092072e-01 -4.2411637306213379e-01</leafValues></_>
        <_>
          <internalNodes>
            0 -1 149 7.6456106035038829e-04</internalNodes>
          <leafValues>
            -1.8029986321926117e-01 4.2449849843978882e-01</leafValues></_>
        <_>
          <internalNodes>
            0 -1 102 3.7919025635346770e-04</internalNodes>
          <leafValues>
            -3.4193569421768188e-01 2.5150817632675171e-01</leafValues></_>
        <_>
          <internalNodes>
            0 -1 14 -2.8218852356076241e-02</internalNodes>
          <leafValues>
            4.3257835507392883e-01 -1.5368334949016571e-01</leafValues></_>
        <_>
          <internalNodes>
            0 -1 62 -4.2818011716008186e-03</internalNodes>
          <leafValues>
            3.3361965417861938e-01 -2.4344593286514282e-01</leafValues></_>
        <_>
          <internalNodes>
            0 -1 74 -7.4757030233740807e-04</internalNodes>
          <leafValues>
            -4.8864546418190002e-01 1.6713434457778931e-01</leafValues></_>
        <_>
          <internalNodes>
            0 -1 305 -1.2053182217641734e-05</internalNodes>
          <leafValues>
            2.9085502028465271e-01 -2.2001239657402039e-01</leafValues></_>
        <_>
          <internalNodes>
            0 -1 294 -4.4221603311598301e-03</internalNodes>
          <leafValues>
            3.6865633726119995e-01 -1.7920956015586853e-01</leafValues></_>
        <_>
          <internalNodes>
            0 -1 296 8.3178521890658885e-05</internalNodes>
          <leafValues>
            2.4018992483615875e-01 -3.7520304322242737e-01</leafValues></_>
        <_>
          <internalNodes>
            0 -1 13 2.8990104328840971e-03</internalNodes>
          <leafValues>
            -2.1328788995742798e-01 3.4138536453247070e-01</leafValues></_>
        <_>
          <internalNodes>
            0 -1 68 -3.4042316838167608e-04</internalNodes>
          <leafValues>
            3.6030262708663940e-01 -2.0212413370609283e-01</leafValues></_></weakClassifiers></_></stages>
  <features>
    <_>
      <rects>
        <_>
          0 9 24 7 -1.</_>
        <_>
          12 9 12 7 2.</_></rects>
      <tilted>0</tilted></_>
    <_>
      <rects>
        <_>
          0 11 15 2 -1.</_>
        <_>
          5 11 5 2 3.</_></rects>
      <tilted>0</tilted></_>
    <_>
      <rects>
        <_>
          0 12 6 17 -1.</_>
        <_>
          3 12 3 17 2.</_></rects>
      <tilted>0</tilted></_>
    <_>
      <rects>
        <_>
          0 12 15 16 -1.</_>
        <_>
          5 12 5 16 3.</_></rects>
      <tilted>0</tilted></_>
    <_>
      <rects>
        <_>
          0 14 4 10 -1.</_>
        <_>
          2 14 2 10 2.</_></rects>
      <tilted>0</tilted></_>
    <_>
      <rects>
        <_>
          0 14 12 3 -1.</_>
        <_>
          4 14 4 3 3.</_></rects>
      <tilted>0</tilted></_>
    <_>
      <rects>
        <_>
          0 14 12 10 -1.</_>
        <_>
          4 14 4 10 3.</_></rects>
      <tilted>0</tilted></_>
    <_>
      <rects>
        <_>
          0 14 10 6 -1.</_>
        <_>
          5 14 5 6 2.</_></rects>
      <tilted>0</tilted></_>
    <_>
      <rects>
        <_>
          0 15 18 4 -1.</_>
        <_>
          0 15 9 2 2.</_>
        <_>
          9 17 9 2 2.</_></rects>
      <tilted>0</tilted></_>
    <_>
      <rects>
        <_>
          0 16 8 16 -1.</_>
        <_>
          4 16 4 16 2.</_></rects>
      <tilted>0</tilted></_>
    <_>
      <rects>
        <_>
          0 17 8 14 -1.</_>
        <_>
          4 17 4 14 2.</_></rects>
      <tilted>0</tilted></_>
    <_>
      <rects>
        <_>
          0 17 10 10 -1.</_>
        <_>
          5 17 5 10 2.</_></rects>
      <tilted>0</tilted></_>
    <_>
      <rects>
        <_>
          0 18 6 3 -1.</_>
        <_>
          3 18 3 3 2.</_></rects>
      <tilted>0</tilted></_>
    <_>
      <rects>
        <_>
          0 18 12 3 -1.</_>
        <_>
          6 18 6 3 2.</_></rects>
      <tilted>0</tilted></_>
    <_>
      <rects>
        <_>
          0 18 10 20 -1.</_>
        <_>
